-0.04067491
0.09066280
0.50639386
0.26402284
-0.45330788
0.42732584
0.27410658
-0.44000834
-0.39702078
-0.52396088
0.33484594
-0.32036845
0.40903729
0.40005443
-0.34367938
-0.57256494
0.32067806
0.35473327
-0.22049686
-0.02990054
0.40530849
0.16429725
-0.10661964
-0.15474660
-0.47402501
0.44312879
-0.24553807
0.30879067
0.78549751
0.32770740
-0.28361292
0.26106051
0.44839933
-0.55993640
-0.11709621
-0.47133897
-0.44976218
-0.27550675
0.16024764
0.33495200
0.29208918
0.03663280
0.05600365
-0.50696965
-0.28956864
0.29850108
0.08085512
0.25748299
0.06899963
-0.11887981
-0.18391597
0.37357193
0.33094287
-0.25445934
-0.36977392
-0.19093357
-0.45382253
-0.40787416
0.18053564
0.37423388
0.39309489
-0.05375412
0.15807879
-0.11547126
-0.31465983
-0.19476788
-0.04976987
0.29520886
0.52623259
-0.28899007
0.05669028
-0.27828251
-0.26557756
-0.03693270
-0.28850368
-0.23284429
0.02636714
-0.03053055
-0.37576139
-0.30338409
-0.01977179
0.23849781
0.18868907
-0.21009140
-0.42897124
0.07110112
0.47821081
-0.30689698
-0.23762876
0.19610331
0.07086252
0.19025405
0.24162119
-0.32303402
-0.18295258
0.23407471
0.10038717
0.33422846
0.20698777
0.39184657
-0.39658392
0.06647211
-0.24324387
0.03695836
-0.48975714
0.17802560
0.48768257
-0.04577171
0.18666569
0.37736780
0.36920663
0.25815038
-0.13429655
0.45686054
-0.18935677
-0.18821366
-0.24204524
0.36109804
0.51253177
-0.49572190
0.05133611
-0.09089057
-0.20409686
-0.10643658
0.28892942
-0.31090228
0.08111387
-0.25389998
-0.11243371
-0.37288647
-0.35264615
0.44136157
-0.17746418
-0.14925044
0.07520925
0.33669689
0.09072655
-0.07027016
0.11693187
-0.32569957
-0.40938438
-0.37174290
0.24421313
0.42352778
-0.49896116
0.07961024
0.11610894
-0.37821370
0.36298799
0.42622792
-0.02499015
-0.30292976
0.40493356
-0.16361439
0.18584940
0.30616590
-0.00117704
0.06734062
-0.37564312
-0.07760197
0.52688294
-0.42251031
-0.23253425
-0.03467794
0.50453175
-0.25795203
-0.09726175
-0.44910373
-0.24998456
0.22159474
0.27246346
-0.20513105
0.19950276
-0.11309952
0.10283450
-0.40244773
0.14505762
-0.39113746
-0.34234658
-0.47210053
0.39161933
0.35317535
0.35592764
-0.15792822
0.09682979
-0.21383895
0.48128616
-0.01715184
-0.14547224
-0.35692508
-0.37098546
-0.25943293
0.46284613
-0.44918909
-0.25771106
0.24028218
0.29571717
0.49232112
-0.32659854
-0.23438296
-0.38314266
0.56901365
-0.39933541
-0.26448945
-0.51384330
0.13139793
-0.43517976
0.11584713
-0.34780569
0.34665687
-0.26064577
0.07201209
-0.41136743
0.15622759
0.38609963
0.16889147
0.33351407
-0.21516332
0.24813430
0.40635035
-0.21103211
0.03908532
0.51996054
0.38371312
-0.30648445
-0.40427908
-0.26412478
-0.34860379
0.00796741
-0.21751454
-0.06919503
0.23607684
0.36450685
-0.36363890
0.00859585
0.03321792
0.62529594
0.18465607
-0.57616403
0.28609119
-0.26385498
-0.29499154
-0.29739456
0.01521652
0.38111570
-0.01849114
0.27751530
-0.34344880
-0.24407201
-0.28119954
-0.43307788
-0.22859221
-0.39669808
0.27658047
-0.23041259
0.12669100
-0.06934504
0.25418727
-0.48232402
0.20329046
-0.37253007
0.18176248
0.46467039
0.32299711
0.22196627
0.25609228
-0.24324537
-0.36744257
-0.50873282
-0.59436203
0.26032535
-0.43827052
0.46382469
-0.42639422
-0.27733634
-0.16389408
-0.11249681
-0.14075785
-0.12747143
-0.09194682
-0.04421333
-0.22964361
-0.18727155
-0.01765549
-0.47412095
-0.43231161
0.12605167
-0.35647418
0.37181608
0.38600195
0.27153999
-0.39549003
0.26615227
0.03876120
0.03722202
0.17308795
0.39000863
0.41718712
-0.06922564
0.51698188
-0.47879129
-0.25452955
-0.46980404
-0.01851563
-0.19487129
0.09544872
0.08292191
-0.37383376
-0.26102797
0.11091227
0.04800622
-0.15028764
-0.24811757
-0.21397281
-0.14317356
-0.13651708
-0.34553238
0.29826297
-0.08638536
-0.49722500
0.21364067
-0.14759979
-0.44973383
-0.38665880
0.30114542
0.06011389
0.52036030
0.46006492
0.41149938
-0.39624655
0.27319025
0.03604430
-0.16886789
0.15048042
0.43801234
0.41332451
0.41166254
0.04468324
0.49862072
0.37226127
0.14838069
-0.29098473
0.35210333
0.43516054
0.10488641
0.20023140
-0.12212238
-0.07615049
-0.51293959
-0.31908405
0.42661454
0.36918396
-0.20235940
0.44505289
0.29368949
0.42767856
-0.05273147
-0.23207835
-0.28554582
-0.08253016
0.41645048
0.06396345
-0.33647168
-0.12345004
0.43963212
0.13493870
0.50201061
-0.41268201
0.13966912
-0.05583138
0.14819390
-0.49389082
0.29114153
-0.24438528
-0.45861525
-0.00272211
0.17045807
-0.30606981
-0.37439328
0.46369780
0.46939169
0.11704116
-0.01445503
0.09227716
-0.25574817
-0.02428563
-0.08751340
0.14590415
0.02858207
-0.02312679
-0.15877639
0.42221363
-0.46931030
0.22030719
0.39639752
0.11698140
-0.31567185
-0.19322390
0.48652696
-0.02461287
-0.34847335
-0.45294236
-0.41060665
0.16451127
-0.28928728
-0.08453842
0.24123408
0.52528749
0.23715812
-0.25801152
0.08040653
-0.36888648
0.53108736
0.00670421
-0.35877176
0.42715951
-0.26325212
-0.47118866
0.10357962
-0.20057511
0.07429966
0.46126862
-0.18492015
0.31101856
0.31284463
0.38007919
0.30719215
-0.21782349
0.20979096
-0.22173697
0.12590584
-0.40407119
-0.44654143
0.51607850
-0.15032390
0.19918288
0.32322134
0.24355014
-0.04463993
0.53880658
-0.20692876
0.36677654
-0.32112858
0.34360781
0.05678510
-0.43027349
0.46243404
-0.41410671
-0.52312732
-0.17068389
0.24192581
0.07177318
0.26672594
-0.04169821
-0.36310327
0.19800867
0.07688045
0.20617538
-0.50440253
-0.33724521
-0.17977237
0.39042426
-0.47777258
0.02295331
-0.26960369
0.30513875
0.30422875
-0.02030184
0.21759092
-0.22747911
-0.62918627
0.32725837
0.34564183
-0.12527982
0.20227593
-0.03685920
-0.19420919
0.52074810
0.44149004
-0.10703251
0.21137428
0.00811888
-0.26277098
0.29028221
0.34201629
0.29719485
-0.00020546
-0.06921808
-0.30719022
-0.11697149
-0.43122315
0.25328561
0.11539242
0.06738684
0.37082049
0.46753288
-0.48392305
-0.10990925
-0.27301247
0.14446548
0.43812962
0.31391803
-0.24969245
-0.33252919
-0.43112253
0.41605706
0.22544131
0.19185633
0.11802237
0.03290720
0.21189425
0.06689646
-0.04106131
-0.11665607
-0.46549639
-0.03826997
-0.21272174
0.34953560
-0.35173089
-0.32797951
-0.16485606
0.12160517
0.46592638
-0.09416492
0.50019469
0.32254116
0.16532771
-0.08828954
-0.18508324
0.15756259
0.40884247
0.45941882
0.35277873
-0.06049312
0.50139655
0.06884509
-0.44009653
0.35487905
0.14421702
0.24486147
0.21210604
-0.19695106
-0.17635268
0.16619680
0.08556303
-0.26526314
0.28792343
-0.26497942
-0.10229573
0.00149641
0.25307414
-0.28059231
-0.35373083
-0.52956921
-0.38579954
-0.21646531
0.47429766
-0.30201289
-0.34482332
0.27269294
-0.00576755
-0.49450830
-0.49234859
0.46732740
-0.26978558
-0.00084965
-0.03621013
-0.11711628
0.32039697
0.03313045
0.14148380
0.13735573
-0.16061611
0.33077751
-0.20272100
0.38198952
0.05644081
0.40054404
-0.45511951
0.15973047
0.04865760
0.14533182
0.14312000
0.03179717
0.02394645
-0.34837740
-0.36113900
-0.21233743
-0.00549119
-0.30620828
0.42376200
0.36748941
0.25922960
0.22913628
-0.07171110
-0.08652008
0.42930689
0.12274766
0.02519558
0.13884867
-0.09013279
-0.29427735
-0.72158865
-0.43210810
0.04176372
-0.01451502
-0.45442997
0.10411645
-0.68891322
0.12231163
-0.38038838
0.19627896
0.09387953
-0.29312769
-0.05688044
0.34064180
0.48082105
-0.17623329
0.08815368
-0.45712503
0.24585199
-0.07829459
0.02368971
0.49466148
-0.16967760
-0.33022514
0.33968965
0.30516070
-0.44490556
-0.38911256
0.48402745
0.45752623
-0.02891391
0.48307758
-0.33579528
0.15964287
0.42938305
-0.17410140
-0.12625610
-0.44666734
0.18761748
0.05830429
0.22091540
0.32976486
-0.11766452
-0.25706446
-0.12295511
0.08261072
0.39588453
0.02126887
0.32417598
-0.51705145
-0.16962450
-0.05404450
-0.07440580
-0.21997171
0.41346784
0.36067114
-0.20067514
0.30746574
-0.04177489
0.04665832
0.32445638
-0.06587106
-0.25711737
0.24054332
0.31019112
0.29117266
0.12707433
0.07318672
0.23383611
-0.43177363
0.23537015
0.29267806
0.32685293
-0.10725900
0.25036430
-0.07220916
0.22577968
-0.43753583
0.36639184
-0.41207347
0.16970651
-0.13598048
-0.18494860
0.42074680
0.31746416
0.37284477
0.47835716
-0.28494498
0.54238496
0.25631109
0.35232472
-0.15073338
0.11140555
-0.26077325
0.31862796
0.08849172
-0.45473623
-0.09901176
0.05685950
0.43787937
0.44169512
0.19371058
0.83064246
-0.18136449
0.09223240
-0.37062409
-0.29555304
-0.20829960
-0.09073947
-0.25911007
0.05417065
-0.49255324
0.23980441
-0.22848287
-0.10388709
0.03809875
-0.39280678
-0.08083696
-0.26419231
-0.16484308
0.12401548
-0.17449369
-0.12953284
-0.27779927
0.44922310
0.29758082
0.18263041
-0.28301668
0.27955092
0.10633123
-0.27189895
-0.34949649
-0.00536331
-0.05192687
0.35519538
0.25186301
0.01253466
-0.40158210
0.01350034
0.42345805
0.51369347
0.03357256
-0.13325778
0.42156737
0.47476495
-0.06072267
0.13204605
0.49608951
-0.10217626
0.12122508
0.02539126
-0.31291669
-0.32513884
-0.15444449
0.42681646
0.15058827
-0.04624551
0.35285880
0.48977466
0.45249582
0.14530222
-0.41174736
0.34219571
0.44907749
-0.05530005
0.03591738
0.14798563
0.38028234
-0.26989822
0.21841201
0.13725740
0.36923224
0.50167126
0.54688658
0.38856511
0.18832160
-0.07098767
-0.00947541
-0.01767828
0.51840156
0.15813789
0.11764349
0.28936156
0.41492132
-0.34657263
0.41516289
-0.33785488
-0.30555029
-0.22893107
-0.08624858
0.35389544
-0.15270159
-0.24767709
-0.23721063
-0.44647853
-0.49229870
0.24203285
-0.01095788
-0.38320624
0.12193220
0.08609536
0.24621518
0.41142588
0.15623002
-0.22674745
-0.35804417
-0.15771718
0.09296507
0.19768379
0.17028165
-0.40951880
-0.22556553
0.49708064
0.21744648
-0.21751575
-0.16018546
-0.10070098
0.04552470
-0.34181934
0.07295698
0.43958910
0.45280313
0.14448517
0.46432529
0.22942740
-0.22065874
0.24421654
-0.23354042
-0.03017774
0.16020247
0.41756159
0.26409977
0.15339175
0.45635258
-0.18340785
-0.17799590
0.25669376
-0.09862086
-0.14935770
-0.36520888
0.38617769
-0.23237504
-0.19458721
0.24047227
-0.34712832
0.09800118
-0.27471438
0.30064765
-0.34950855
0.37123813
0.36499020
0.01498455
0.15856930
0.17036084
0.23814625
-0.00545986
0.48117224
-0.41663734
0.09335207
-0.35532659
-0.24718228
0.44765882
0.37242839
0.13226560
0.50456913
0.35000475
0.08378190
-0.40943331
-0.35786749
0.11479974
-0.11081827
0.14733309
0.03267963
-0.48037324
0.13041555
-0.42262152
0.40347291
-0.28977620
-0.42733524
-0.38982058
-0.43922536
-0.48714059
0.23126826
-0.06183809
0.13723418
0.30026954
0.26560775
-0.26035160
-0.02378865
-0.56651746
0.20099212
-0.56003422
0.30498213
-0.16604150
-0.50279625
0.42691734
-0.10619917
-0.30425156
-0.26202857
-0.89633753
0.32078543
-0.12371143
-0.51461701
-0.28858372
-0.48922014
-0.77756956
-0.47511799
-0.36202695
-0.47229753
0.16765900
0.17735640
0.31345247
-0.32471151
-0.48970340
0.47407602
0.12199170
-0.08613389
-0.14681643
0.14367917
-0.13436398
0.20973768
-0.22154894
-0.07398186
0.03963001
-0.48976543
-0.17827127
0.09796686
0.40311378
0.36208347
-0.21222586
0.10702204
0.34355882
-0.00707816
0.11290451
0.09355745
-0.38845792
-0.05262077
-0.15176612
0.17412991
-0.42327062
-0.40017644
0.29774942
-0.17468555
0.14778063
-0.29215786
0.28164175
-0.20241812
-0.00919221
0.14089086
0.60208212
-0.08343520
-0.55604555
0.29207321
-0.15247701
-0.48512317
-0.13704627
-0.32369977
-0.12732373
0.48607870
0.38443875
0.02788723
-0.35873972
-0.32950912
-0.16685749
-0.07333255
-0.26271895
0.13690323
0.24817583
0.31251980
-0.08806416
0.11614092
0.00621026
0.02912328
0.46326761
-0.19704046
-0.29349231
0.25381453
0.23289502
-0.18235267
0.35507075
0.02388350
-0.44204500
0.16144210
-0.11853175
0.34972807
-0.32771939
-0.29809758
0.23400618
0.48487110
0.18118533
0.09073543
0.05282522
-0.20019704
0.02866920
0.13386305
-0.37960161
0.38235503
0.28913001
-0.13309951
-0.19731275
-0.25017230
-0.13017961
-0.38216173
0.02698535
0.23395570
-0.09286340
0.25333205
-0.18226491
-0.25379937
-0.05423769
-0.34387168
0.03309520
-0.15359885
0.38949068
-0.42663896
0.35048428
0.34543731
0.48169667
-0.26232183
0.09282026
-0.03946995
-0.39552393
-0.20131110
-0.24715923
0.13456414
-0.03603781
0.02869208
-0.09706743
-0.25812230
0.31821967
-0.20402308
0.31218491
0.06077708
0.36248496
0.46593963
-0.43285455
-0.42601252
-0.10702142
0.26251539
0.07264596
-0.14738067
0.39605134
0.07793129
-0.07814096
-0.15712112
-0.03905441
-0.44096399
-0.13506149
0.40248618
-0.18518929
-0.14904149
0.35171771
-0.59724710
-0.36055992
0.15367854
0.22368484
-0.05516574
0.17780174
0.27167842
0.16963956
-0.08549581
-0.29808164
0.30150443
-0.26382904
-0.22675017
0.18936247
0.11487030
-0.28368981
0.09612984
0.08039179
0.32842768
-0.43912260
-0.38425974
-0.50177465
-0.55989610
-0.07673468
-0.18748976
0.16348767
-0.49395405
-0.05904593
0.08037950
0.28020514
-0.23168425
-0.08941427
0.44140858
0.40938689
0.40642003
-0.35541900
-0.38183450
0.00925529
-0.30338730
-0.38057842
0.04784659
-0.37096002
0.06456611
0.21081963
0.30521040
-0.47524657
0.26486892
0.28373053
0.25857221
0.37919811
-0.17332405
-0.02929993
-0.21708525
0.24951613
0.16153648
0.04276799
0.19651225
0.47140276
0.22161432
0.07937270
0.36512382
0.11599555
-0.17548056
0.09130665
-0.37302398
-0.44409744
0.44871319
0.01606402
-0.23330755
-0.46262338
0.15845967
-0.04646573
-0.10127587
-0.29546919
-0.15391993
-0.22303972
0.34850232
-0.28672221
0.00110832
-0.51046255
-0.34220928
0.11236854
-0.34341469
0.12229681
0.07062918
-0.08672327
-0.24563096
0.19732663
0.32850984
0.29703873
-0.52499735
0.46683865
-0.26699954
0.40037928
0.11906576
-0.19942068
0.15442303
-0.40259647
-0.32931323
-0.34571237
-0.42927592
-0.31464703
0.08513917
0.51483850
0.47136337
-0.41840647
-0.35645525
-0.28282702
0.02976640
-0.28021609
-0.24950902
-0.25059932
-0.32197058
0.26198103
-0.37208815
-0.03551948
-0.17807716
-0.34204757
-0.97961651
0.17020390
0.63727127
-0.03670653
-0.63451111
0.56603487
-0.17457376
0.13503672
0.59257706
0.34194948
-0.14588256
0.10379331
-0.45935579
-0.54611832
-0.42771186
0.14956412
-0.14944384
-0.22087477
0.45750096
0.40827804
-0.41156611
-0.01752337
-0.16801975
0.22835563
0.31815540
-0.44308036
-0.18362929
-0.02841835
-0.20599671
0.40459987
-0.37825739
-0.24686624
-0.18970642
0.24533642
-0.13179716
0.14325491
0.36712724
0.56911969
0.01362593
0.62677054
0.14181286
-0.59355164
-0.52306783
-0.05098153
-0.48193221
-0.12172791
-0.53733402
0.11626153
0.19547879
0.33856337
0.44020787
0.37896581
-0.12384086
-0.03293884
-0.36735889
-0.28290389
-0.40335400
-0.12371423
-0.12903850
0.32370720
0.24338864
0.34594001
-0.11938353
-0.02461934
0.15049261
0.45298089
-0.44141980
-0.22288478
0.44086492
0.08789001
-0.37476728
0.22226150
-0.14975630
-0.05133847
-0.15828494
0.13587910
-0.20173495
0.31571788
0.12847721
0.49096339
-0.08434556
-0.20140868
0.01878451
0.27371082
-0.06100760
-0.28139569
-0.20917330
-0.43690429
-0.21735262
0.39645307
-0.26271153
0.38649793
0.69556840
-0.35427345
0.13063284
-0.02119858
0.06997581
-0.41867345
-0.48320667
0.10534786
0.14538388
-0.22224896
0.23170434
-0.55175461
-0.42848224
-0.36842848
0.47875029
0.41571996
-0.19060056
0.24788064
-0.08491818
0.55507491
0.11673888
-0.31670255
-0.30311880
-0.23503498
0.43864324
-0.29710643
0.02018921
-0.21166748
-0.04943740
0.16217019
0.41667461
-0.12050291
-0.25001488
-0.11477997
0.04074112
0.04810169
-0.32286958
0.15494430
-0.17553696
-0.12361775
0.22396498
-0.04830415
-0.42461249
0.33899502
0.05095831
-0.22885593
-0.15251827
0.22699878
-0.16093194
-0.43572937
-0.04403453
0.35087781
-0.41784111
-0.38401994
-0.30267189
0.21317287
0.05649698
-0.03617358
0.43435580
0.30676237
-0.23909273
-0.16077430
-0.08253574
-0.37169763
-0.09620538
-0.40386363
0.24038847
0.48975289
0.45466789
0.21136369
0.12492402
-0.35667129
-0.46582770
0.41155675
-0.00260334
0.40873469
-0.49678719
-0.45336928
0.32272379
0.02160313
0.04047921
-0.50086367
-0.00638510
-0.38442639
0.05985762
0.46035731
0.41214624
0.01226571
-0.36169639
-0.05740975
-0.43808330
-0.33258878
-0.43223512
-0.43006078
0.35925723
-0.23958754
-0.22755818
-0.12463367
0.43633682
0.19646480
-0.11349268
-0.24434572
0.07410909
-0.42770161
-0.11044672
0.43220849
-0.47966255
0.23215744
0.24709113
-0.20651186
-0.44197419
0.29684614
-0.10813731
0.33115432
-0.19585170
0.42783100
0.31081564
0.50351847
-0.12763310
-0.15257631
0.35468560
0.17301806
0.40469844
0.49892004
0.20193092
-0.27090949
0.12133821
-0.30278037
0.09720629
0.01178931
-0.31953013
-0.04361914
-0.02806577
0.11976131
-0.39765313
0.02949093
-0.35039818
-0.07095633
-0.08147533
0.17143421
0.05484751
0.11607146
0.65618196
0.34810162
-0.22380206
-0.52068105
-0.10299533
-0.03721971
-0.32725373
-0.34604449
0.21574278
-0.27881184
0.31816545
-0.19743395
0.24244274
-0.19570733
0.41766857
-0.40635535
0.28095834
0.20502628
0.29140035
-0.03531379
-0.34474190
0.23684938
0.36043592
0.47688291
-0.09034957
-0.32271928
-0.15092015
0.25355742
0.18545503
0.29153556
0.24026707
-0.33287874
0.18074939
-0.21774097
-0.26925771
0.33957407
-0.09918300
-0.47811939
0.35094096
-0.02613056
-0.36332924
0.05839736
-0.10088117
0.28670379
-0.15408336
-0.38527648
-0.46695230
-0.35181515
0.02910597
0.25055134
0.44521878
0.22112451
0.26858024
0.43801876
0.37971298
0.17898323
-0.37911112
0.48838676
0.10901017
0.39936802
-0.38906091
0.44715132
0.22161567
0.22201347
-0.21535996
-0.63866250
0.11805894
0.50156153
0.19295864
0.29834874
-0.13183640
-0.05924979
-0.14553826
0.48024877
-0.32456253
0.16536489
0.50615047
-0.19438578
0.37629401
0.27240577
0.23418070
0.08606561
-0.04530112
-0.52067881
0.02304761
-0.49190849
0.04634695
0.44593563
0.04149130
-0.39311055
-0.20734036
-0.22262067
0.21983153
0.46538873
0.33687388
0.34138530
0.36279741
-0.44122610
0.43234344
-0.04736314
0.27991834
0.21193527
0.35124667
0.10986617
0.66874662
0.48851679
0.03165220
-0.32278255
0.56598188
-0.43963897
-0.38216294
-0.28514478
-0.17320622
0.24242011
-0.46268765
-0.43116329
-0.48910808
-0.45027960
-0.00659723
-0.25756203
0.38592201
-0.31576226
0.12803201
0.45192379
0.41687954
0.45888719
-0.45557054
-0.31457754
-0.46957914
-0.03576372
0.45210545
-0.36196180
0.14869032
0.17960565
-0.08831324
0.15848286
0.42204470
-0.46948794
0.43239868
-0.23525541
0.00724870
-0.01929725
-0.40816100
-0.15005432
-0.15416344
-0.26017799
-0.09083622
0.33019426
0.33947676
-0.00330304
-0.41882682
0.25902098
-0.11936563
0.34760490
-0.39347500
-0.23434780
-0.40170013
-0.08253018
0.36403233
-0.39678283
0.24813468
0.01160687
-0.29544822
-0.09169461
0.18216910
0.38613648
0.35939014
0.24454055
0.30656809
-0.07870675
0.29391173
-0.50107643
0.39614205
0.34239954
0.09745268
0.04719046
-0.27638900
0.41635109
-0.11165923
0.27823118
-0.37615478
0.13193501
-0.53117094
0.43572247
0.51531223
-0.41996917
0.25908803
0.09151268
0.04387364
-0.20209696
0.13126979
-0.31467560
0.05660110
-0.06231847
-0.38668865
-0.53221161
0.23598128
-0.32973441
-0.45646150
0.42373825
-0.42261296
0.50035997
-0.08445743
-0.17938361
0.41155776
0.00887355
-0.29394819
-0.31693609
0.14873509
-0.16189314
-0.36282614
-0.45427996
-0.28636171
-0.19343634
-0.24828778
-0.14095222
0.24819533
0.06267958
-0.37104244
-0.29532103
0.16859717
-0.21113457
-0.44478835
0.49168519
-0.37512439
0.21409092
-0.11843560
-0.21388281
0.50141845
-0.46048034
-0.09615262
-0.26244161
-0.31232391
-0.06928613
-0.26809257
-0.04297081
0.15966262
-0.55266116
-0.31679861
0.39831711
-0.42233178
-0.42007532
0.17736274
-0.30613120
-0.21833646
0.39534927
0.24957794
-0.19560273
0.00555492
0.10303940
-0.19695740
-0.11912735
-0.14697427
-0.41987329
0.40873350
-0.40640874
0.35793463
-0.27252459
0.12424526
-0.66462587
-0.45047719
0.34831745
-0.30587503
0.10201262
-0.01459155
0.03528928
-0.06035943
0.06479662
-0.38078508
0.34931488
-0.12986101
-0.05886063
-0.39616022
-0.21794066
0.15152248
-0.00972555
-0.16030369
-0.11021030
0.12233176
-0.16781282
-0.42981368
-0.26346023
0.45223465
0.22645238
0.39523660
0.45654980
-0.20053910
-0.38584485
-0.35204065
-0.46314424
-0.41754054
0.39561785
-0.44814345
-0.38648425
0.16354163
-0.39180981
-0.32530440
-0.31428651
0.38312499
0.37283139
0.24518577
-0.29668856
-0.22462694
-0.12971540
0.47731594
-0.46457739
-0.08682410
-0.04575447
0.00214362
-0.14682351
-0.19960797
0.42611536
-0.38532414
0.12117007
0.22658363
-0.05317006
-0.43889376
-0.46704475
-0.43875290
0.18428521
-0.19855156
0.03959580
0.09224373
0.00809917
-0.33835693
-0.07813026
0.15493317
0.23071490
-0.11415020
0.32265082
-0.40943889
-0.41731384
-0.19095539
-0.31767654
-0.25172372
-0.23822066
0.39046497
0.43570098
0.23420502
-0.07779573
-0.03035775
-0.37971381
-0.34513253
0.22618473
-0.31181455
-0.30267453
-0.00329235
-0.25378623
0.39945318
-0.23802138
0.33798843
0.00152418
0.03167012
-0.12934676
0.03481397
0.09787461
0.21833397
0.08015780
-0.24727637
-0.02045752
-0.29014792
-0.36630540
-0.25339276
-0.31683737
-0.01154645
0.02883612
0.47820460
0.43252554
-0.43792178
0.22130682
-0.16907328
0.50263384
-0.19766489
0.29651327
-0.50213349
-0.28612265
0.13934049
0.32913205
-0.27988408
-0.16430605
0.43332710
-0.19900985
0.05537050
-0.14129707
0.32928864
0.03677788
-0.23883869
-0.47206496
-0.00665525
-0.31790805
0.46636126
0.04229627
0.06829077
0.17512750
-0.18185315
0.15923519
0.10558415
0.27781238
-0.45085708
-0.46313786
0.04892200
0.06724147
0.00155631
0.06829292
0.07447180
-0.55034100
-0.06774049
-0.41053612
-0.06780681
-0.26483634
-0.46493250
-0.10705687
-0.35501642
0.07188681
-0.13581924
0.52216625
-0.06769754
-0.18332683
-0.10644117
-0.14376383
-0.20197677
-0.04416727
-0.25492961
-0.48683382
-0.19520308
-0.42847537
0.04436771
-0.03020662
-0.36165552
-0.13668858
0.07957489
-0.09825591
-0.23441434
0.12428546
0.24268363
0.34052687
0.12743793
-0.22954849
0.03444676
0.41264615
0.08031128
-0.34333400
-0.07309865
-0.34720889
0.37059060
-0.02504456
0.09003656
0.44196963
0.47349768
0.46980242
0.19632997
0.12735850
-0.30736571
-0.07489049
-0.22512644
-0.45707953
-0.28873314
-0.24586973
-0.15886649
-0.03017021
-0.11871987
-0.07965810
-0.05965637
0.25817767
-0.39078882
0.25594976
-0.49595615
-0.30990678
-0.24528676
-0.28148251
-0.21425734
-0.08623703
0.48875463
-0.42835747
0.29684636
-0.49201029
0.30011326
0.40234739
-0.10552276
-0.19726250
-0.18492714
0.02567441
0.44122208
-0.06127855
0.12090595
-0.41054458
-0.20475819
0.39223581
0.44921506
0.07811146
-0.29559732
-0.08619413
0.07373765
0.54046101
-0.51804325
-0.47274148
0.38486331
0.39251249
-0.01385655
-0.02791029
0.44247014
-0.11844718
-0.34917169
-0.20179037
-0.39016826
0.16021631
0.14035363
-0.04416388
-0.44738212
0.25705955
0.05227087
0.32001715
0.07996397
0.41957796
-0.18996460
0.49625314
0.04746278
0.46448729
-0.30897188
0.24156680
-0.36472973
-0.01544070
0.34546885
-0.19253160
-0.02509244
-0.07417365
0.06777789
0.41992155
-0.33809810
-0.35755926
0.39267956
-0.41825366
0.40069461
0.29459836
-0.15153053
-0.26104723
0.39927974
-0.32146261
0.34669037
-0.12248822
-0.24607421
0.04623959
0.08322908
-0.15399354
0.43869483
-0.17603226
0.47429630
0.45543230
-0.47041523
0.00975660
0.12787933
0.17996528
-0.33495403
0.14317567
-0.30368491
0.33971282
0.04795063
0.16364238
0.25891376
-0.09572920
0.19949679
-0.45473071
0.46027642
0.42250164
-0.24908713
-0.28549978
0.11839761
-0.32066465
-0.23291632
-0.40070681
-0.19426833
-0.23301065
-0.16233877
0.31076283
0.00324613
0.31993832
-0.37795477
-0.43288124
-0.46741104
-0.28836940
-0.39855890
0.41905644
-0.23937094
-0.09004708
0.12934062
-0.00989501
-0.08332399
-0.44052487
-0.12195800
0.11758149
-0.41878138
-0.02836896
0.22770700
-0.21684684
0.05157256
-0.00165898
-0.30224964
-0.33643830
0.00537156
0.19674504
-0.41130513
-0.41565199
-0.37623826
-0.45355656
0.10498294
-0.02707892
-0.21920131
-0.35537652
-0.00399425
-0.03809101
-0.01521696
0.39558943
0.15554920
-0.31990765
0.07864771
0.32917404
-0.00287553
0.37397885
-0.32590810
-0.29990560
-0.48745923
-0.04673598
0.38055467
-0.38586364
-0.76413144
-0.32944630
0.59135246
0.33936761
-0.54165996
0.06113854
-0.25228962
0.53975725
-0.17593456
-0.21006985
0.14834069
-0.38358984
0.36455850
0.64839278
-0.28538057
-0.28607077
-0.04293554
0.40324922
-0.23879418
-0.53103934
-0.63752659
-0.58447822
-0.15458734
-0.04412477
-0.25655657
0.14190033
-0.00183040
-0.48755948
0.37624428
-0.49199599
-0.04254953
-0.55174598
0.04057865
0.21836242
-0.45132858
-0.34817576
-0.20702225
0.08264316
-0.23522357
-0.15664116
-0.48506710
0.15142556
-0.41410987
0.29045029
-0.13723334
-0.46556241
-0.24492723
-0.21457740
-0.15169102
-0.00847158
-0.44641088
-0.15448310
-0.12538159
-0.46784452
-0.07148065
0.16543790
0.35694096
-0.35400280
-0.47372023
-0.03393051
-0.45363811
-0.48944372
-0.12807398
-0.06721763
0.34054548
0.83716022
0.28414904
0.13621114
-0.45871391
0.54048810
-0.34311624
-0.64154367
-0.47562861
-0.69959252
-0.42514947
-0.22281009
0.26769895
-0.50331815
-0.39955455
-0.38379246
-0.23820809
0.04865540
-0.16280711
0.02679325
0.47583617
0.15396714
0.46220932
0.46469395
-0.02363214
-0.48238336
-0.44530005
0.36061159
0.09201600
0.20874003
0.35888801
-0.06831222
0.01106597
-0.28940840
-0.40469625
-0.08646906
-0.28343233
-0.44337418
0.29631767
-0.43771648
-0.09458683
-0.25613844
0.14666879
0.52268382
0.06320624
-0.34127546
0.36142274
0.42100508
-0.31051937
0.22427545
-0.15711648
-0.52140153
-0.23666928
0.14858475
0.28325130
0.12447968
0.32810192
0.49679154
-0.18846038
-0.44641400
-0.18195880
-0.14160726
0.05832109
0.45588701
-0.37718091
-0.36345831
-0.46272123
0.52910608
-0.18965060
-0.00298792
0.31022209
-0.29391801
-0.46024226
-0.15619150
-0.21836771
-0.21884902
0.26171990
-0.26229467
0.19314927
0.30910090
-0.23539497
-0.15948058
-0.21825045
-0.12599721
0.20051510
-0.37271786
0.07656851
-0.45361820
0.35996687
0.24928581
0.11710246
-0.25467337
-0.52755144
0.21249829
0.43350985
-0.39338319
-0.41096237
0.49726176
0.13200320
0.53095621
0.31009411
-0.00209338
-0.34473742
-0.00149215
-0.45718894
0.24378053
-0.37492163
-0.13159417
0.28188103
-0.25129170
0.30342395
0.02477287
-0.35362879
-0.02389265
0.22222571
-0.16626497
0.26215565
0.22786804
0.27439988
-0.44531533
-0.17076902
-0.11886901
-0.50843447
0.38097337
0.44959584
0.41246228
0.19497608
-0.30806675
0.32035210
-0.09577589
0.07703630
0.31202812
-0.25037816
-0.49508302
0.42744874
0.54220514
0.25069643
-0.40931411
-0.13259105
0.42028305
-0.49115970
0.25532130
-0.09851075
0.39550529
0.27929530
0.08479662
-0.31797185
0.07029563
-0.22659172
-0.36813528
-0.50072966
-0.43266640
0.35495988
-0.28143286
0.40241713
0.37644968
-0.37311935
-0.55510639
0.28308254
-0.17847734
0.18972936
0.12814714
-0.26527208
0.55689754
0.53318510
-0.20979659
0.25439532
0.21629982
-0.10475534
-0.18092622
0.06478123
-0.19619588
-0.54322953
-0.32226063
0.03074585
-0.23725262
0.49090756
0.21431814
-0.03245600
0.36438602
0.14681436
-0.35229601
0.52763548
-0.04466813
0.48015980
0.25919538
0.16787797
-0.12800819
0.11171632
0.19417040
0.20515923
-0.07736926
-0.10127073
0.42443529
0.31258689
0.47837411
-0.01769049
-0.08740788
-0.48555013
0.22671898
0.29808559
-0.46266585
0.28601058
-0.37862306
0.28963808
0.22902181
0.25413948
0.16399890
-0.41909249
0.13885151
0.03904588
0.34585459
0.00520554
-0.48229248
0.30448159
-0.43997416
-0.41848667
-0.34181005
0.40639955
0.49072516
0.16599611
0.38089009
-0.29955184
-0.37278193
0.05109591
0.35873134
0.44420481
-0.11950851
0.20332934
-0.40486164
0.35851063
-0.33077791
0.43575580
-0.14201126
-0.45096367
0.13713130
0.26961609
-0.11417088
0.10662531
0.38731303
0.32099892
0.45324615
-0.10933634
-0.03035286
-0.36300840
0.00531205
-0.06465214
-0.23717323
0.11029067
-0.19123712
-0.16229918
0.11313544
-0.00652408
-0.09212029
-0.39276585
-0.03083961
0.12778313
-0.26456255
-0.25555368
0.06457791
-0.42488875
-0.10779905
0.40120388
-0.27754208
0.14261510
-0.32405257
-0.43157510
0.24782511
0.34559174
0.37793635
0.48437495
-0.15680777
-0.04257988
-0.02011640
-0.29480725
-0.22656955
-0.39387978
-0.35333659
-0.07500079
-0.39469791
0.36617492
0.37740935
0.37963369
0.42340668
0.21582158
0.42275065
-0.07691400
0.37015036
0.45023999
-0.34343124
-0.00645038
-0.10566994
-0.36996676
-0.06588335
-0.00690939
0.41507316
0.07961995
0.21227216
0.26423425
0.09449462
-0.32903818
0.18110900
0.02960849
-0.19405955
-0.08287894
-0.52168952
0.05587719
0.02841824
-0.31195950
-0.12965667
0.42533249
0.43441502
0.41154675
-0.15101033
-0.00848564
0.44739137
-0.24213399
0.38395363
0.22448005
-0.07686949
0.22065148
-0.18781911
0.16611472
-0.44031489
-0.09343238
0.38966668
0.22848162
0.22851909
-0.09478473
-0.25276132
-0.20306892
-0.07592412
-0.11616246
-0.21966793
0.06448830
-0.35369556
0.32897326
0.13701365
0.32000343
0.19215218
0.47758079
-0.24199753
0.25655848
0.03869356
0.35690261
-0.49645589
-0.04597900
-0.12493878
-0.07796014
0.00548321
-0.41872035
0.12641765
-0.25593390
-0.45943185
0.40491213
0.07470913
-0.37554847
-0.35651083
-0.22581415
0.12558882
0.22963323
-0.06146833
0.49056069
-0.21384705
0.11795362
0.01021747
-0.44892716
-0.22832217
0.40327013
-0.17338888
0.26467851
0.48061261
-0.30370744
0.28734552
-0.05729261
0.26423626
0.22013624
0.47823467
-0.35539334
-0.15522432
-0.49232274
0.24862575
-0.47371888
-0.40714894
0.04436213
0.24289088
-0.10568158
-0.04678166
-0.03027345
0.19332352
-0.32879103
-0.69906489
0.24565777
-0.01204062
-0.29117681
-0.34636236
-0.10199886
0.23285761
0.20764254
0.55874350
0.18711416
-0.14231007
-0.34213336
-0.43897771
0.42312151
-0.00055564
-0.36230679
-0.14757104
-0.09168577
0.39528763
-0.44876861
0.05868464
-0.33457987
-0.09767519
-0.05447365
0.42659087
0.11708758
-0.14480858
0.15932083
-0.00459040
0.24315727
-0.01256292
0.49798090
-0.31315148
-0.31107926
0.42878387
0.15179031
0.18817722
-0.29052625
0.45984456
0.03243035
0.16551004
-0.49145688
0.42738518
-0.38438316
-0.37993876
0.34539454
-0.45871303
0.08836081
-0.38654259
0.15320136
0.12779145
0.34031244
-0.30352690
-0.03615394
0.47297081
0.42795097
0.17062113
-0.08323711
0.07751450
-0.22686370
-0.24316520
0.27044049
-0.00038555
0.35946101
-0.09643860
0.50800445
0.39515351
0.53260240
0.19887619
0.31502945
-0.36055982
0.11146276
0.51408503
0.37531810
0.42140192
0.25161570
0.53518276
0.49897957
0.08494915
-0.15452701
0.47175228
-0.26596168
-0.24144654
-0.14852347
-0.31853847
0.35995285
0.38485798
0.27763847
0.37744708
0.17262418
-0.28765218
0.45693145
0.23063029
0.25550057
-0.15713677
-0.24788017
-0.29675654
-0.10679494
-0.48279333
-0.37436016
0.28028620
0.08622886
-0.30137620
-0.13105711
-0.11127477
0.40381975
-0.36200334
-0.13284238
0.43617172
0.06061411
-0.23310945
-0.01092303
0.10720352
0.15856213
-0.24871303
-0.16765324
-0.84580874
0.45669647
-1.42992037
0.20823775
0.29501484
-0.83003300
-0.24898828
0.03143972
-0.16946978
-0.41008403
0.01757452
-0.75321519
0.40152967
-0.14613849
-0.51484383
-1.07903932
0.51891395
0.36468914
-0.69145190
-0.05456157
-0.73466828
0.37735001
-0.51165706
-0.30098508
-0.07713897
0.12980571
0.19234679
0.04000260
-0.80726268
-0.02279306
-0.25603097
0.30415471
-0.35989125
0.79238488
0.42768393
-0.25024063
0.50504073
-0.31098651
-0.14977425
-0.28649178
0.32314833
-0.02387184
-0.70242735
0.72761067
0.11191779
-0.45209112
-0.99892517
-0.22421359
0.17310604
0.03990211
-0.67732265
0.20791822
-0.22048916
0.02223527
-0.88475939
0.14414115
-0.04052054
-0.36085189
0.33958872
0.52039024
0.00916090
-0.27009044
-0.26662978
0.28592002
0.22358039
-0.24626860
-0.67960548
-0.47188319
-0.69578862
-1.52125561
-0.59525437
-0.18293867
-0.08911212
-0.85939425
-0.40905380
-0.20087639
-0.29724177
-0.12691420
-0.57318438
0.29116860
0.00532728
-0.67494349
-0.69204335
-0.64157607
0.29996440
0.10404704
0.37685728
0.53017714
0.45395114
-0.48294362
1.33148804
-0.44252984
-0.01452967
-1.11300537
0.20225743
-0.42014379
0.43935067
-0.97875248
-0.91261919
0.13482502
-0.01200719
-0.15734380
-0.23006445
0.47628526
0.18461869
0.14563504
-0.15487944
-0.12305628
-0.77462598
0.42067441
0.14889055
-0.16438167
-0.00410254
0.57151887
-0.59794585
0.26389180
-1.08172686
-0.25621346
0.29550371
-0.70702554
-0.33537859
-0.28331878
0.39999793
-0.28878328
-0.14801564
0.16524147
-0.12110867
0.13484252
0.06546136
0.09958114
0.17942731
0.77439730
0.22669881
0.04136699
0.18995680
0.15528626
0.09735320
-0.18431956
-0.18022359
-0.88586610
0.41929438
-0.22822356
-0.55803718
0.24698237
-0.06135506
-0.13711323
-0.60523896
0.24999880
-0.19009852
0.43007745
-0.79268636
-0.54363192
-0.42804091
-0.64616656
0.24438790
-0.32316635
0.97088187
-1.25663644
-0.39892470
0.14525045
0.29204260
-1.63974887
-1.00571968
0.40945865
-0.72909060
0.05358319
-0.67538049
-0.49267142
0.87188005
0.07179930
0.39671814
-0.48216809
0.22164460
0.32144439
-0.55589043
0.23050687
0.21115057
-0.29976012
-0.07898261
-0.22400014
0.15855318
-0.03710654
0.21815175
-0.62677590
-0.35614426
-0.21213867
0.14502659
0.05244210
0.31217940
0.19542029
0.14802093
0.67945272
-0.16130024
0.01072970
0.37264242
-0.16130180
0.30679061
-0.60902998
-0.12101825
-0.41984155
