-0.03348502
-0.05446801
0.49792264
0.07305640
-0.28229760
0.35079833
0.23776374
-0.39112201
-0.32759239
-0.47370890
0.42578541
-0.30849449
0.39518338
0.53986172
-0.47212180
-0.28763648
0.25635845
0.26710905
-0.39300740
0.00570744
0.26530145
0.35892187
-0.21826907
-0.17758516
-0.54964195
0.36808526
-0.45040598
0.40856297
0.32853356
0.30033834
0.03768125
0.46485587
0.38249795
-0.30670547
-0.40227921
-0.14410023
-0.42293603
-0.13900437
0.33518283
0.64350241
-0.08591844
0.44010356
-0.13037332
-0.41202548
-0.78617487
0.23839213
-0.10260329
0.62840368
-0.05226001
0.00108040
-0.22045525
0.21173912
0.97027872
-0.47382213
-0.11477565
-0.28651429
-0.30538560
-0.93774886
0.25100642
0.31055318
1.06916249
-0.21494438
0.39963606
-0.16487379
-0.52937704
-0.24692118
0.12806250
0.12506801
0.48214370
-0.16216051
0.16079913
-0.34475152
-0.12298449
-0.24016570
-0.14204162
-0.23865382
0.09548566
0.10724293
-0.38329073
-0.25847483
0.00598040
0.22060101
0.17656477
-0.18914813
-0.41711011
0.08335071
0.49281951
-0.32122355
-0.21727780
0.19710886
0.05053746
0.21890703
0.33913482
-0.22100653
-0.18081118
0.31362328
0.04624581
0.36258756
0.19646282
0.40473613
-0.40464470
0.06988713
-0.24026255
0.04974568
-0.73121999
0.33456281
0.32739053
0.08431207
0.02390683
0.73722688
0.47145132
0.36884903
-0.25157491
0.55900362
-0.20762054
-0.07735341
-0.11415963
0.39688078
0.43593493
-0.44226959
0.03592921
-0.06725350
-0.25191659
-0.09095257
0.27329035
-0.32695879
0.08015369
-0.26983158
-0.11890208
-0.36687298
-0.65707363
0.39999216
-0.24844388
-0.27527537
0.13664616
0.59175495
0.22372836
-0.04225602
-0.08099559
-0.25700725
-0.49388911
-0.35440601
0.37470268
0.60314496
-0.82013960
0.43791062
0.08374567
-0.61277233
0.49693860
0.92185683
0.14064739
-0.63269863
0.55935539
-0.20896176
0.30322018
0.51150363
0.55454385
-0.17072754
-0.10623644
0.06938397
0.28311139
-0.71555819
-0.30013094
-0.18238458
0.81364628
-0.38156871
-0.01409285
-0.49881915
-0.42846848
0.23957039
0.21800287
-0.14171536
0.17885668
-0.07812528
0.04983657
-0.38188559
0.12814269
-0.40185297
-0.33865951
-0.47957553
0.38927947
0.36667677
0.27561060
-0.44830705
0.18373443
-0.34693644
0.55811608
-0.14793743
-0.17597501
-0.41495353
-0.46190383
-0.27193490
0.42457219
-0.49547389
-0.22775635
0.15575626
0.47957190
0.06640413
-0.36534447
0.04846022
-0.25045390
0.50678165
-0.15357969
-0.38805169
-0.19779715
0.20283728
-0.33726146
0.25157485
-1.03428990
0.98396049
-0.43469051
0.17052905
-0.56565353
1.13102725
0.89405065
0.60131795
0.57263270
-0.21579384
0.51771158
0.62073815
-0.29537112
0.04316728
0.10829342
0.52213572
-0.50204739
-0.25255107
-0.43723059
-0.31102867
-0.07861056
-0.09130888
-0.11259076
0.29529957
0.33965541
-0.40527338
-0.02687506
0.18197855
0.45402457
0.15560447
-0.42307159
0.27979147
-0.37266791
-0.20458278
-0.47135822
0.09538183
0.35608473
0.01642137
0.34501469
-0.33383560
-0.16541932
-0.28394958
-0.41200615
-0.22774304
-0.39024922
0.27548431
-0.22252028
0.16313205
-0.06408207
0.27247615
-0.47477213
0.19984953
-0.73272672
0.44892563
0.22095214
0.42369015
0.39596257
0.50962592
-0.35939172
-0.28155226
-1.01177063
-0.34449985
0.09554987
-0.39555773
0.66377593
-0.33096293
-0.17801592
-0.06980064
-0.05590811
-0.07057223
-0.16503527
-0.03945301
-0.03531714
-0.01014088
-0.17011464
0.08875904
-0.42094377
-0.41207557
0.06195877
-0.23152852
0.71542715
0.74342947
0.41078391
-0.33542473
0.51607997
0.18412941
0.05923927
0.29709907
0.45176027
0.55155289
0.13841361
0.44873564
-0.67249633
-0.16485943
-0.59201822
-0.01410446
-0.29899646
0.11531484
0.04009580
-0.44381367
-0.27664446
0.06294874
0.01109442
-0.14313881
-0.21080725
-0.25646891
-0.00554352
-0.16663350
-0.31411992
0.18114880
-0.09369355
-0.52391063
0.43275702
-0.19365484
-0.35487996
-0.37235842
0.25119884
-0.20717890
0.89700483
0.78240627
0.62669743
-0.27378545
0.55666434
0.37635632
-0.00738498
0.54620538
0.55067786
0.69334680
0.60342587
0.08961843
0.47311146
0.31876090
0.13785650
-0.32785657
0.45468996
0.34939014
0.13866380
0.15856618
-0.20450094
0.01560684
-0.57212738
-0.32392919
0.51200843
0.83726218
-0.25629735
0.60975674
0.24763778
0.27952950
-0.45335321
-0.42752272
-0.45394732
0.16112564
0.30240405
0.10708730
-0.38888283
-0.28658485
0.51894435
-0.27644919
0.73780794
-0.49522681
0.41355411
-0.35133547
0.10706933
-0.51569717
0.40479549
-0.12352595
-0.32176284
0.06636682
0.31500600
-0.25949452
-0.41473105
0.55272340
0.52473034
0.14309319
-0.08308132
0.11291451
-0.28594960
-0.02255694
-0.06743353
0.14348268
0.03301666
0.00814964
-0.18397110
0.42784824
-0.44320165
0.20666504
0.48656160
0.04838240
-0.34480731
-0.20783750
0.44832891
-0.04736906
-0.37568612
-0.48184075
-0.44021382
0.07499261
0.07613013
-0.04199241
0.33739045
0.54413523
0.32909099
-0.16279147
0.07004543
-0.66809773
0.65358386
-0.18146780
-0.37358727
0.60588160
-0.26185180
-0.61216892
0.21176392
-0.25963423
0.08651424
0.42529236
-0.13595260
0.30545135
0.27591040
0.37231220
0.28864859
-0.21473865
0.23598102
-0.15581734
-0.05981007
-0.33878662
-0.39263360
0.34400052
-0.20092335
0.26776114
0.20063000
0.29224022
-0.10665426
0.47797971
-0.28195462
0.26752331
-0.13716931
0.16455676
0.23730060
-0.40752216
0.33694186
-0.41319953
-0.40162811
-0.20017553
0.31775045
0.00973603
0.31143500
-0.03687943
-0.45599289
0.53195843
0.00992853
0.42411396
-0.51446672
-0.37018213
-0.39246307
0.27433555
-0.52547761
0.34333189
-0.41193995
0.44914585
0.30710766
-0.22644507
0.06452462
-0.01540862
-0.46404598
0.39211068
0.34537549
-0.04176912
0.32103286
-0.06984708
-0.39997022
0.55434624
0.26852183
-0.12669966
0.32785335
0.03492931
-0.49740381
0.48787950
0.32704607
0.38852980
-0.15019355
-0.02653464
-0.36414884
-0.11511832
-0.40631591
0.24470123
0.10661122
0.11895739
0.33539831
0.50208959
-0.51339228
-0.12350026
-0.27910505
0.19685682
0.46404482
0.34201150
-0.25417965
-0.33452656
-0.42759029
0.41874209
0.21207214
0.14944848
0.12839706
0.11395677
0.17579734
0.19236742
-0.06594203
-0.06756147
-0.43362163
-0.12167542
-0.18406881
0.32903985
-0.34791528
-0.29702371
-0.31336145
0.27230063
0.52390392
0.11080590
0.36470761
0.51350383
0.28304827
-0.06938851
-0.22531206
0.21787447
0.36415811
0.54985831
0.48637614
-0.35487076
0.50047143
-0.08940101
-0.57130531
0.28750761
0.41513890
0.35772411
0.26771995
-0.49064667
-0.09447026
0.03644548
0.10021798
-0.14097677
0.12377730
0.00445928
-0.12441671
0.06629769
0.35942052
-0.07681291
-0.24879915
-0.31754669
-0.54782472
-0.04599777
0.45210868
-0.21721907
-0.22382646
0.31336265
0.56588546
-0.63183879
-0.23640007
0.24069545
-0.16972028
-0.09507628
-0.08189935
-0.12901276
0.22917716
-0.03458215
0.13543758
0.08647339
-0.58819141
0.62859350
-0.33246048
0.38804259
0.12187340
0.74306820
-0.38263194
0.28560686
0.12846187
0.13646660
0.24557334
0.07134525
-0.04216733
-0.78349312
0.08887702
-0.29070617
0.05002689
-0.16312001
0.81616377
0.60380052
0.43502613
-0.14926825
0.02231873
-0.19314838
0.48048491
0.29021219
-0.20263636
-0.37031554
-0.10961430
-0.61567332
-0.34430153
-0.44305456
0.08080885
0.15616420
-0.54316849
0.29499750
-0.61953818
0.18436603
-0.25291744
-0.25239887
0.13263002
-0.41936038
-0.06065395
0.49784405
0.84948787
-0.02757370
0.18431497
-0.96725357
0.42622990
-0.26745121
0.00157984
0.75329509
-0.06110638
-0.20688916
0.35654173
0.27452895
-0.55267493
-0.54188684
0.39226868
0.34159721
0.06806674
0.40997892
-0.32944577
0.12350386
0.36646373
-0.28041196
0.03269983
-0.43867413
0.22068775
0.06772933
0.30351952
0.41036989
-0.13119937
-0.41841686
-0.08850535
-0.02358047
0.39632717
0.12152536
0.75806602
-0.95692108
0.08799771
-0.05182450
-0.24528343
-0.62483817
0.50426369
0.31574812
-0.41668967
0.36045675
-0.20566237
0.05150625
0.44343133
-0.08955270
-0.20373758
0.28262473
0.40156517
0.24508726
0.16297471
0.14228774
0.22107424
-0.50212124
0.26504190
0.22165742
0.33550448
-0.03318337
0.19366875
0.20596764
0.15026587
-0.28037904
0.43585003
-0.27289177
0.18413599
-0.03930584
-0.27409812
0.53302849
0.31048491
0.44528097
0.60822948
-0.56242757
0.40136006
0.37186811
0.29048252
-0.11889327
0.12934437
-0.21933371
0.25610114
-0.19706235
-0.41530691
-0.21933382
0.06138432
0.52850431
0.35387729
0.43605802
0.40023607
-0.18037779
0.36014443
-0.15234574
-0.26516561
0.05020598
-0.38976816
0.03426745
0.06197703
-0.40365890
0.38727010
-0.18839569
-0.04519774
0.14216908
-0.37640929
-0.06995089
-0.31060501
-0.14037587
0.09100899
-0.07632631
-0.16729592
-0.22914206
0.45418197
0.26701014
0.65904496
-0.18577394
0.49165772
0.11121418
-0.21509293
-0.84837645
-0.17338131
-0.16780741
0.68368390
0.18255518
0.11039687
-0.44040564
-0.15503250
0.34353108
0.31523663
0.20595957
-0.24563780
0.52811075
0.41275546
0.00801924
0.11743511
0.43033297
-0.12924427
0.09452631
0.00127105
-0.32121843
-0.30633618
-0.13901348
0.42080893
0.05107240
-0.14477501
0.25367639
0.39357787
0.33439085
0.15576169
-0.50303893
0.30053074
0.40456486
-0.12632037
0.20556097
0.12667770
0.46188177
-0.38810658
-0.02533607
-0.01803810
0.27713638
0.28881236
0.53231453
0.20970191
0.07398707
-0.20521770
-0.17781024
-0.15538642
0.29765048
0.25625216
0.04002673
0.35259476
0.37337713
-0.30652681
0.34122701
-0.52511574
-0.24223727
-0.31304690
-0.07961879
0.45277860
-0.16461170
-0.04815894
-0.31925600
-0.38282964
-0.40687369
0.28643107
-0.03608385
-0.34486185
-0.01101013
0.13637769
0.22020499
0.41476328
0.18715721
-0.20973018
-0.31577995
-0.09297727
0.06201733
0.19882261
0.15903448
-0.38521078
-0.21299540
0.58300910
0.18443314
-0.16505769
-0.17207820
-0.14383118
0.06524077
-0.47654766
0.18832138
0.45253583
0.30036126
0.02968405
0.49290739
0.10553921
-0.22760689
0.17805675
-0.30996983
-0.06864001
0.16099662
0.61547443
-0.17768214
0.41708831
0.29243016
-0.09087936
-0.49903881
0.27493080
-0.21378030
0.10346913
-0.43481080
0.47612751
-0.26406291
-0.30945710
0.41110732
-0.59628708
0.25976686
-0.28129331
0.27455220
-0.56144016
0.37135844
0.30871121
0.02967314
0.16005603
0.14495696
0.25275194
0.05725822
0.44480647
-0.26348568
0.17152987
-0.30696004
-0.17521477
0.39338703
0.35988968
0.17274901
0.47302316
0.32412112
0.10012584
-0.42944836
-0.40052576
0.20612728
-0.18857138
0.27814705
-0.17651086
-0.32743832
-0.06489277
-0.44526453
0.38071499
-0.13928131
-0.45423386
-0.31661875
-0.47749264
-0.55519297
0.21324865
0.14234443
-0.03608358
0.31593465
0.41186525
-0.11184699
-0.01567135
-0.37588967
0.08611020
-0.40430027
0.32617735
-0.10645034
-0.43642457
0.15202150
-0.49637300
-0.23928405
-0.64672921
-0.17496896
0.40162652
0.02401174
-0.29983391
-0.18000303
-0.24258215
-0.53071966
-0.35893718
-0.19859675
-0.62659819
0.40473134
-0.02318440
0.35720126
-0.23461164
-0.33802045
0.46783800
0.22919699
-0.33794531
0.02952387
0.08076626
-0.07110254
0.33742360
-0.56605973
0.28426923
-0.21743127
-0.45714397
-0.17399378
0.50650818
0.53327122
0.50990142
-0.54184565
0.20721094
0.26054163
0.04548138
0.25654809
0.11273408
-0.36584650
-0.00257230
-0.15681719
0.19042315
-0.46822933
-0.39339889
0.27838217
-0.12891133
0.14979512
-0.27154084
0.28370090
-0.19996348
0.00580462
-0.05158269
0.51725631
-0.25082707
-0.32364220
0.19115731
-0.20601309
-0.41411389
-0.10136793
-0.26869707
-0.00346376
0.50047987
0.35305986
0.02004577
0.06783025
-0.46942142
0.02799352
-0.02902013
-0.13070895
0.12984193
0.33923400
0.09317049
0.02642624
0.03000358
0.01555437
0.12279964
0.31762883
0.13404448
-0.34294248
0.26401276
0.46419343
-0.07503978
0.43827965
0.13382491
-0.76808476
0.36822574
-0.24150876
0.35505838
-0.12055214
-0.47609296
0.32113641
0.46147423
0.19350875
0.27072609
0.15547942
-0.12137404
0.11550738
0.03873229
-0.27788623
0.39749403
0.33893085
-0.04510028
-0.26302137
-0.27639589
-0.24861837
-0.46030162
-0.03588206
0.30354444
-0.11898274
0.26227137
-0.37827927
-0.24410528
-0.14539244
-0.37427894
0.04952596
-0.77886090
0.13875767
-0.56281599
0.25505182
0.44656811
0.89679478
-0.03019883
0.17050997
-0.50934270
-0.29622053
-0.37216818
-0.24619313
0.33565280
0.04174969
-0.05500318
-0.05243789
-0.38082486
0.36769691
-0.24963121
0.38095999
0.01870784
0.54956928
0.46331528
-0.36308241
-0.48827308
-0.20422106
0.25977823
0.02920243
-0.07033987
0.35125152
0.12312541
-0.11556667
-0.11080542
-0.05145574
-0.47266889
-0.11631417
0.38269687
-0.17798418
-0.11423736
0.18875454
-0.68196062
-0.12577449
0.13068383
0.26028343
-0.09362164
0.26405233
0.30673342
0.06123669
-0.08169775
-0.36181429
0.28992617
-0.23842227
-0.30789527
0.12784017
-0.18193298
-0.40796298
0.13289408
0.18285306
0.24918327
-0.37486193
-0.47263701
-0.38744317
-0.55326825
-0.08270110
-0.13740759
0.54159212
-0.91238620
0.27058993
0.14451527
0.37476527
-0.84900069
-0.24641334
0.27144648
0.33329683
0.40098635
-0.50652466
-0.43973329
0.09338161
-0.14040404
-0.17998259
-0.10904855
-0.32060893
0.04032042
0.15978246
0.19112495
-0.47783469
0.43523357
0.22207959
0.32700992
0.33681163
-0.31393827
-0.03359967
-0.29055314
0.31627145
0.13539024
0.01775426
0.16616921
0.50046978
0.18745124
0.09157880
0.35609822
0.11328687
-0.17176633
0.10640539
-0.37016024
-0.31778155
0.45584863
0.04832927
-0.22464356
-0.46741739
0.14798000
-0.04356957
-0.06887672
-0.27704564
-0.13301232
-0.20622509
0.36639863
-0.22570548
-0.08674929
-0.21172352
-0.28627222
-0.03386484
-0.44832244
0.22431019
-0.05755429
0.09692686
-0.38671174
0.20422885
0.30083363
0.20904147
-0.51811064
0.74628489
-0.53599215
0.52129054
0.09529694
-0.09673736
0.03167738
-0.40148098
-0.25923506
-0.34370158
-0.40901800
-0.33584629
0.01528295
0.58072850
0.42361692
-0.35971202
-0.32209309
-0.28034422
-0.02437564
-0.26841947
-0.25709735
-0.26681133
-0.31825633
0.24039257
-0.37238528
-0.02411800
-0.31258168
-0.43668305
-0.38889841
0.10911336
0.46418420
-0.08780792
-0.43770234
0.32849942
-0.11738983
-0.07678188
0.44453076
0.27567360
-0.18669197
0.16561512
-0.32493587
-0.48205250
-0.38625581
0.12323196
-0.17460378
-0.20673910
0.46596788
0.49290927
-0.43391982
0.00977022
-0.19267265
0.18419092
0.30001083
-0.30627575
-0.12560035
0.03700260
-0.19642186
0.39643565
-0.35513253
-0.26279475
-0.22977874
0.25976107
-0.16539110
0.15639517
0.41808421
0.60015123
-0.12527995
0.57581225
-0.07481648
-0.26467702
-0.63319972
-0.17165290
-0.32183764
0.05984048
-0.38667855
0.32709187
0.26040277
0.29713860
0.35527060
0.53816897
-0.17174164
-0.03443734
-0.32759111
-0.25862641
-0.42915668
-0.10618214
-0.10012385
0.34393120
0.26974147
0.35856650
-0.13278550
0.19985878
0.07331802
0.52389481
-0.49685726
-0.20105159
0.26363970
0.00063272
-0.40828800
0.39666405
-0.22225799
0.06074028
-0.17351120
0.00732374
-0.12544123
-0.12104001
0.28051517
0.26908059
-0.09064485
-0.37726014
0.03417981
0.15614915
0.16275640
-0.33102837
-0.12769490
-0.43591742
-0.27660961
0.48078945
-0.84846886
0.77259622
0.42529765
0.07991116
-0.26778146
0.08100177
0.05308179
-0.45653798
-0.35391237
0.13478969
0.12508013
-0.10422246
0.31927577
-0.93499652
-0.25875371
-0.54397722
0.39360894
0.21101327
-0.24912578
0.17850342
-0.28100964
0.44489836
-0.03493777
-0.39907425
-0.29359194
-0.34297852
0.68997173
-0.47742215
0.04934443
-0.26627012
0.16319216
0.18012184
0.51475716
-0.08542580
-0.25508980
-0.07775951
0.06034721
-0.00936153
-0.59693155
0.22001547
-0.25358614
-0.12561995
0.34716072
0.12584991
-0.36390091
0.40068555
-0.19066274
-0.12952172
-0.24839560
0.25855008
-0.01430097
-0.44305467
-0.11602025
0.38973150
-0.44201289
-0.37892393
-0.32796281
0.22213485
0.04659582
-0.04289357
0.43669986
0.31022067
-0.23480562
-0.15123172
-0.03890015
-0.50572227
-0.06173380
-0.47093608
0.18111042
0.52076854
0.51667215
0.22842457
0.08906090
-0.36206219
-0.48614513
0.41923277
0.02387372
0.48586118
-0.61492510
-0.02484540
0.36965272
-0.08986783
-0.15193892
-0.42732057
-0.16466629
-0.35107453
-0.11290208
0.38702410
0.35099171
-0.07313266
-0.24299552
-0.06404950
-0.21196215
-0.31377498
-0.45767642
-0.56991668
0.37238601
-0.29536235
0.03623601
-0.24062230
0.52065498
0.20622977
-0.20166039
-0.36889753
0.26394648
-0.69496944
0.08715702
0.39945613
-0.29026462
0.27074668
0.32048278
-0.49633013
-0.29315952
0.13505003
-0.09497936
0.48202842
-0.43974337
0.20059661
0.59760658
0.44451672
0.01349045
-0.17492292
0.51182485
0.15622398
0.40609044
0.51884451
0.23438641
-0.22466051
0.20131891
-0.26554492
0.04792637
0.11386456
-0.34760191
-0.02963359
-0.11128985
0.12835105
-0.39951451
0.16474356
-0.38039866
-0.00803094
-0.06610898
0.11011110
-0.00894983
0.27451263
0.40891084
0.29951635
-0.09982421
-0.35354323
-0.15850854
0.10283732
-0.58866254
-0.18605579
0.18722422
-0.22343024
0.41971246
-0.82392547
0.74439060
-0.36168965
0.42832862
-0.46530841
1.08939273
0.66843971
0.65762608
0.15932083
-0.29909872
0.45751368
0.53111354
0.42336782
0.03982676
-0.38175943
-0.06973600
0.15296380
0.07539964
0.12051073
0.17503643
-0.44457793
0.45369594
-0.35940451
-0.18978878
0.30680979
-0.23284884
-0.59912803
0.55134779
-0.07256491
-0.33437519
0.00615428
0.11874927
0.36435110
-0.10879434
-0.59871545
-0.36915481
-0.44551592
0.08349887
0.38826307
0.39718138
0.27103298
0.44848450
0.50490633
0.52063713
0.17260857
-0.27490344
0.53534110
0.33306209
0.42874863
-0.27514292
0.52089618
0.25749425
0.22703218
-0.29970230
-0.30759095
0.04806703
0.37465798
0.04514007
0.38264090
-0.26955952
0.11009738
-0.27503587
0.42232505
-0.37686149
0.08611629
0.43099681
-0.52879474
0.71480245
0.18651872
0.45356633
-0.08527848
0.06763798
-0.53939263
0.06851178
-0.41323923
0.10195680
0.47294113
0.14462923
-1.04608944
0.10684872
-0.82616136
0.26905014
0.13538335
1.03818007
0.54459845
0.44827577
-0.99683654
0.45097692
-0.34315347
0.25084907
0.43553135
0.21978742
0.40002790
0.33671748
0.30254952
0.32179061
-0.14617345
0.49968580
-0.20858328
-0.87018526
-0.03324471
-0.26813859
0.32939922
-0.30968904
-0.41171946
-0.42488953
-0.39772061
-0.01231104
-0.21988995
0.35045856
-0.30202242
0.13141640
0.45126138
0.41080846
0.45510784
-0.46835261
-0.32247826
-0.28219040
-0.01181959
0.27955026
-0.31055274
-0.02595441
0.11628608
-0.20843559
0.10437776
0.50056406
-0.52391580
0.44087052
-0.25304995
-0.12464386
0.28127058
-0.79354513
-0.00446578
-0.27296726
-0.32721325
-0.28456032
0.43573907
0.33345275
-0.23275225
-0.41194228
0.11647627
-0.17206410
0.38225043
-0.40057555
-0.31173148
-0.34404813
-0.10133621
0.37013114
-0.43737523
0.24651052
0.00276061
-0.30993528
-0.08620277
0.16073668
0.39103149
0.38958009
0.28035269
0.27076412
-0.02630057
0.27252354
-0.47262008
0.34234789
0.34527314
0.08665346
0.01223791
-0.27676825
0.38889278
-0.12956678
0.27890138
-0.30023143
0.64027539
-0.57081541
0.68853781
0.43925548
-0.31911181
0.18879185
0.07429812
0.17137740
-0.26353552
0.10793860
-0.30890551
0.00934749
0.15179568
-0.37387104
-0.33252243
0.12219409
-0.33813807
-0.64313560
0.39883009
-0.45536303
0.93491003
-0.25264073
-0.00726870
0.36780657
-0.17318262
-0.15902416
-0.55989122
0.18736410
-0.27287021
-0.28915300
-0.72588005
-0.35974730
-0.29513452
-0.41360033
-0.12144140
0.12802536
-0.02436406
-0.35886490
-0.28865521
0.16634077
-0.24342202
-0.42235772
0.46446162
-0.39103579
0.17893867
-0.14617941
-0.25430235
0.49481923
-0.49944565
-0.10972006
-0.24864558
-0.65450163
0.02881103
-0.57793428
0.14069686
0.43701615
-0.38940010
-0.30651182
0.57697547
-0.69293246
-0.20600918
0.09106085
-0.23757153
-0.01916798
0.41267014
0.31659395
-0.22194010
-0.00016249
0.10364118
-0.21525896
-0.14490710
-0.16011430
-0.40112312
0.40980046
-0.40739841
0.35493410
-0.28340946
0.32041849
-0.66735030
-0.13613450
0.39023824
-0.40168460
-0.09557882
0.03911151
-0.07737668
0.07316382
-0.07496702
-0.37530741
0.31205424
-0.21169434
0.08333493
-0.38760502
-0.09287080
0.16309419
-0.04193862
-0.29189632
-0.11783994
0.05019837
0.04406389
-0.50480922
-0.17978029
0.45409677
0.17277429
0.28444598
0.38742392
-0.24427580
-0.53901418
-0.26061071
-0.50790232
-0.46493463
0.37983948
-0.42793810
-0.40141643
0.16873421
-0.43059357
-0.37191329
-0.28898415
0.68825276
0.04520226
0.35550086
-0.37833236
-0.02686577
-0.18506580
0.53349694
-0.37400073
-0.03460194
0.01111510
0.03135274
-0.19561990
-0.38543042
0.65000072
-0.58931377
0.15094150
0.26924319
0.01562928
-0.59266015
-0.47299181
-0.37035015
0.17155298
-0.16968236
0.02403891
0.02693386
0.15124474
-0.20715050
-0.00996879
0.18811521
0.20159344
-0.21318589
0.31482306
-0.43455582
-0.28649393
-0.20428490
-0.28834359
-0.24626102
-0.25790627
0.35135937
0.30507335
0.28806529
-0.17702790
0.06681535
-0.43315619
-0.29941254
0.19196835
-0.29763189
-0.29064376
0.00838237
-0.25564762
0.41965993
-0.27508406
0.21412367
0.08347218
-0.03486953
-0.05343144
-0.01648566
0.14607557
0.18364124
0.04955511
-0.23159466
-0.04145901
-0.29345675
-0.33167286
-0.27359714
-0.46939454
0.02412971
-0.02125383
0.49545993
0.39637163
-0.42573402
0.18351199
-0.13520618
0.50425732
-0.18888219
0.29168009
-0.49550309
-0.87545252
0.38388815
0.13289159
-0.35372542
-0.10072886
0.98404779
-0.02210803
0.22329679
-0.56540426
0.44619509
-0.05191891
-0.16180868
-0.29610006
-0.01129454
-0.51848483
0.61010578
0.00720044
0.10413750
0.07696563
-0.15391315
0.12107313
0.08446809
0.28193173
-0.46659009
-0.46618838
0.08659878
0.00776361
-0.63022805
0.16100873
-0.32249183
-0.03485319
-0.34150493
-0.43980009
-0.04660569
-0.36016208
-0.34403293
-0.06118416
-0.39562528
0.14251215
-0.11100182
0.57269219
-0.25668114
-0.32962957
-0.05365162
-0.19611028
-0.34958677
-0.12444697
-0.16696614
-0.52692853
-0.17504668
-0.49336676
-0.04209796
-0.00699507
-0.28285990
-0.08901593
0.04653819
-0.09185423
-0.28772327
0.09807130
0.21609687
0.41244952
0.09673126
-0.19916031
0.01041971
0.36948476
0.05037240
-0.54023602
0.15435962
-0.40493113
0.43938842
-0.14551311
0.15274867
0.43525143
0.45745066
0.44660161
0.18276330
0.14692996
-0.25507154
0.14481026
-0.31904874
-0.32764847
-0.26449142
-0.15748714
-0.28359257
0.01601180
-0.12763540
0.35681474
-0.09850900
0.43772420
-0.37653003
0.18948642
-0.48262770
-0.22906678
-0.27379822
-0.24375205
-0.23045408
-0.07901821
0.45772048
-0.42118457
0.32220512
-0.49946789
0.30947861
0.40306382
-0.12386842
-0.18485454
-0.03846940
-0.03689226
0.45842109
-0.04813600
0.18082912
-0.40177275
-0.17326753
0.28504130
0.49647528
0.03930345
-0.28341049
-0.02783420
-0.33925212
0.42507719
-0.47127669
-0.73214459
0.51201430
0.61282328
0.16665166
0.01556056
0.14912167
-0.05505249
-0.48284798
-0.23752824
-0.23258710
0.13363280
0.11330730
-0.01847059
-0.44494532
0.31280322
0.06510705
0.35819426
0.08089511
0.36404877
-0.18567389
0.48260207
0.05174627
0.47543303
-0.57771504
0.36716740
-0.62279421
0.10739336
0.44903166
-0.01498388
0.02996203
0.04614878
-0.28081951
0.68850198
-0.51766566
-0.38160354
0.64662297
-0.56661474
0.31008959
0.25052575
-0.18852196
-0.17458248
0.46821799
-0.24794029
0.32429993
-0.27229123
-0.18717366
0.00625209
0.11394613
-0.05838256
0.29471991
0.11328325
0.33025973
0.29362599
-0.23658447
-0.00443493
0.00465145
0.23081124
-0.58330892
0.21589699
-0.36615614
0.33588524
0.14985502
-0.33168320
-0.12421126
0.06251254
-0.02833907
-0.24186934
0.60016484
0.67470437
-0.21001402
-0.54516026
0.18687912
-0.43211737
-0.22235002
-0.23561017
-0.42834447
-0.22154973
-0.33229784
0.19289113
0.12602944
0.47848213
-0.31533012
-0.34726306
-0.68600861
-0.12074165
-0.48905703
0.43009317
-0.12156140
-0.19280015
0.23669010
-0.13881285
-0.10535012
-0.15514195
-0.00897851
0.12359834
-0.25532602
-0.16492206
0.40800496
-0.18416640
0.10651957
0.12317768
0.17427466
-0.18286078
0.23104469
0.24205320
-0.31349945
-0.74800618
-0.47277104
-0.51917243
0.51796747
-0.08501203
-0.05066722
-0.34570363
-0.12347274
0.07489890
-0.08776715
0.40418156
0.04443511
-0.32648882
-0.06697978
0.23977832
-0.04633464
0.54916606
-0.36918956
-0.20905785
-0.49209024
-0.14866693
0.46743977
-0.47570998
-0.44543652
-0.32354760
0.37491305
0.10453555
-0.51187801
-0.17844174
-0.21808251
0.33779784
-0.31832505
-0.33459014
0.06669419
-0.54724272
0.54296188
0.18373652
-0.26180184
-0.14613038
0.27234993
0.41273450
0.01006230
-0.80417322
-0.29389598
-0.54970552
0.00973738
0.17707791
-0.43544082
0.53763145
-0.35033924
-0.54966231
0.67919172
-0.44850689
-0.19489914
-0.48697910
-0.07665137
0.38248631
-0.50669031
-0.35549662
-0.02200653
0.11446057
-0.22805591
-0.13776957
-0.46959283
0.16499283
-0.44528988
0.30239804
-0.15131376
-0.41074889
-0.22834485
-0.19381050
-0.13555275
0.01949991
-0.41442432
-0.05439655
-0.05699216
-0.45162703
-0.07764414
0.17605240
0.39891266
-0.36510798
-0.39722687
-0.03391721
-0.43172358
-0.46815418
-0.10091171
-0.01078384
0.56471145
0.21692046
0.24936336
0.41571766
-0.15441833
0.44033249
0.02174529
-1.01674858
0.14965693
-0.72996120
-0.25732467
0.11514245
0.22190832
-0.78531050
0.04545222
-0.56891918
-0.12759861
-0.20367981
-0.04657992
-0.00179715
0.30845705
0.10961742
0.36458268
0.42931856
0.01543848
-0.49293851
-0.26066807
0.33916635
0.10539536
0.23141033
0.36769088
-0.09064135
0.02393167
-0.22236654
-0.39171091
-0.04355849
-0.25254925
-0.44058664
0.31836580
-0.76897133
0.21779831
-0.37939379
0.17982315
0.34820932
0.15512424
-0.38660400
0.23790596
0.38524164
-0.38238102
0.20093978
-0.10081079
-0.49550294
-0.19497820
0.18723475
0.30683427
0.05938516
0.32887895
0.51782998
-0.21965731
-0.44821963
-0.20283547
-0.15999576
0.05179539
0.46298968
-0.47355763
-0.62661140
-1.10727830
0.21997501
-0.49046350
0.08159641
0.24016100
-0.38266340
-1.21917738
-0.03563760
-0.59482475
-0.38879093
0.21374805
-0.41733211
0.50387700
0.16779038
-0.10140425
0.03096300
0.01117156
-0.11954665
0.34530549
-0.87344711
0.35314946
-0.56995086
0.44536230
0.52101729
0.07849157
-0.29281385
-0.12242486
0.18373495
0.35294507
-0.44053816
-0.26511455
0.34838803
0.17935502
0.39922567
0.22424121
-0.04910081
-0.36202583
0.07514464
-0.30647607
0.22090411
-0.31727678
-0.13309554
0.26058822
-0.29662630
0.29343217
0.11777665
-0.37667517
0.02539227
0.23447142
-0.20403833
0.40358939
0.19779234
0.66246377
-0.42882039
0.00050602
-0.35428942
-0.48036343
0.32494586
0.69549637
0.31814017
0.33188027
-0.26379017
0.27311949
-0.44007767
0.06779678
0.08034693
-0.36275899
-0.40386431
0.72350045
0.69471217
0.42897927
-0.66497991
-0.02760093
0.40159112
-0.44424646
0.36033252
-0.12229845
-0.03691980
0.48157274
-0.10379610
-0.24494009
-0.08381176
-0.19448863
-0.44305999
-0.30993587
-0.49790450
0.43832347
-0.25855139
0.34482248
0.35567887
-0.44453738
-0.23669502
0.24584629
-0.17251408
0.06393244
0.23102634
-0.36618615
0.54745110
0.44098314
-0.26378416
0.21878153
0.20057434
-0.10933102
-0.08869166
0.07247656
-0.23252838
-0.39245217
-0.36433414
-0.01885796
-0.19094705
0.50424843
0.18883406
0.05130479
0.35113653
0.07241707
-0.69219329
0.87025994
-0.02558614
0.67185552
0.28458666
0.49287183
-0.07368489
0.20705734
0.50199380
0.21109471
0.11921730
0.01685183
0.38984115
0.13141095
0.78953977
0.00510955
-0.11919286
-0.38959959
0.43643284
0.44662996
-0.37530948
0.36900393
-0.33920264
0.40064385
0.28594818
0.25536853
0.19715808
-0.74441642
0.24727397
-0.03868553
0.40836869
-0.18188315
-0.50626034
0.25793093
-0.50474875
-0.38179114
-0.41743024
0.37505283
0.55168809
0.08112615
0.28727744
-0.21911743
-0.46315650
0.14624247
0.32024808
0.50702413
-0.14420250
0.13749829
-0.38918686
0.32403188
-0.33842263
0.47135612
-0.12753080
-0.60728953
0.28333562
0.28365691
-0.08810213
0.05754494
0.49149156
0.32841270
0.39762109
-0.09638767
-0.05284283
-0.35906691
0.04241747
0.02080780
-0.15556419
0.23950714
-0.18909560
-0.11762397
0.01278940
0.00110744
-0.12202912
-0.23506615
-0.06134724
0.18605109
-0.24666454
-0.28000902
0.07463489
-0.60672864
0.10503812
0.27553358
-0.25304709
-0.05822851
-0.36935960
-0.54286695
0.60219749
0.11399998
0.56218520
0.46282295
-0.35032062
0.16224444
-0.10356372
0.03745875
-0.25255189
-0.41291335
-0.60844041
-0.06602287
-0.50028728
0.65433868
0.19535429
0.48149562
0.38692926
0.04474886
0.43700053
0.04274791
0.23900432
0.37351566
-0.27930462
0.01241739
-0.19498268
-0.29906541
-0.17222625
0.02601927
0.40436833
0.09068794
0.22674051
0.17706576
0.06634957
-0.23871050
0.15956053
0.10415943
-0.16372724
0.01394920
-0.47574488
-0.02428445
0.08061556
-0.32918804
-0.10784273
0.49847759
0.41117469
0.39279566
-0.11396599
-0.06924844
0.51172025
-0.24898280
0.46472563
0.22062667
-0.30708071
0.31347391
-0.30623637
0.12925584
-0.35471018
-0.17926273
0.25373571
0.32993837
0.14957145
0.00362967
-0.29258296
-0.15233648
-0.11802824
-0.16204989
-0.20741088
0.05077850
-0.35186499
0.37010271
0.15138997
0.42941360
0.16636267
0.50808796
-0.24772466
0.28785466
0.03992167
0.37529097
-0.48762680
-0.03862822
-0.12026039
-0.07728109
-0.00636398
-0.72558617
0.38031781
-0.47461372
-0.40954162
0.45149675
0.44987219
-0.37992061
-0.31194998
-0.52433720
0.22599031
0.10362541
-0.02606879
0.69428803
-0.07802884
-0.15046866
0.17246109
-0.47746479
-0.33026249
0.19360437
-0.22467885
0.09124943
0.73813248
-0.48844671
0.34118179
-0.10647669
0.08834560
-0.00830387
0.59409275
-0.42485172
-0.24587154
-0.43040403
0.37983312
-0.45645399
-0.36393377
0.02803142
0.25133465
-0.07680500
-0.04454230
-0.05802492
0.27752739
-0.43702345
-0.16191919
0.18625775
-0.07307956
-0.48911664
-0.25487370
-0.27036940
0.46173890
-0.03480410
0.56668747
0.10689038
-0.27949171
-0.03920434
-0.77240079
0.41095514
-0.00813343
-0.46431447
-0.34771739
-0.08779474
0.35328668
-0.66398781
0.11811774
-0.49123565
-0.16223179
-0.02470079
0.46858791
0.22376227
-0.14353684
0.18296880
0.01095306
0.24232945
-0.00602164
0.51088474
-0.30933970
-0.29912729
0.42633055
0.15331123
0.19018293
-0.79573969
0.92656919
-0.07617824
0.08527888
-0.31812194
0.90977862
-0.23039937
-0.23619873
0.36491842
-0.44329075
0.20212476
-0.37356909
0.07491580
0.01073909
0.19978984
-0.25706857
-0.10692424
0.52793638
0.43685749
0.23737044
-0.10523016
-0.07275113
-0.17992054
-0.32283433
0.25883763
0.07898245
0.20959590
-0.09878107
0.81449449
0.63157414
0.59112430
0.23374017
0.53956310
-0.36399440
0.11094508
0.56219010
0.40269263
0.52877125
0.43903905
0.34240960
0.44521635
0.12919434
-0.20098127
0.53949511
-0.15144531
-0.09228304
-0.09076087
-0.85899044
0.45573073
0.15615098
0.22436120
0.46684838
0.30514287
-0.18373547
0.48670442
0.24369869
0.21389951
-0.22775345
-0.30027307
-0.29973053
-0.03512839
-0.50611544
-0.33685207
0.29757337
0.03504173
-0.45657020
0.13176302
-0.25980648
0.41301364
-0.21953288
-0.05429649
0.44836918
0.13818389
-0.42748918
0.11513512
0.02781014
0.18414009
-0.10709270
-0.28660214
-0.09360467
0.60073103
-1.24219976
1.14251304
1.99945563
-0.98075715
0.10734731
0.06299379
-1.16724377
-0.13777614
-1.12820466
-2.02145834
1.27672555
-0.25198038
-0.68478130
-0.60627267
2.75294551
0.39658420
-0.82260621
-0.00353773
-1.74272225
0.27528647
-1.23097592
-0.56535306
0.26388782
1.64492766
-0.61405968
1.10388731
-1.22005398
-0.51620900
0.35522390
-1.22682195
-0.45274120
0.58438353
0.51995244
1.12040412
-0.84234662
-0.70123952
0.30820725
-0.15882879
-0.92819504
-1.02943946
-0.45028554
0.48096017
1.32337589
-1.47697642
-0.91185341
-1.89446926
-0.00345142
-0.86796944
-1.89191271
-0.46278992
-0.46316133
-0.92727395
-0.71621862
0.18029024
1.33408158
0.09986586
0.02751260
0.48195330
-0.79363430
-0.45862224
0.32693373
-0.36270731
0.89181486
-0.97010172
0.29121717
0.42548278
-0.13551307
-0.58709310
-0.99214144
-1.32068557
-0.07310714
0.03168243
-0.67213322
-1.21514756
-0.49061809
-0.58158416
-1.74392949
0.82117658
-0.29330542
-0.36139897
-0.59644488
-1.77797990
0.65080896
-0.27083666
-0.29060741
0.52617493
0.73020114
-0.22457220
0.14163474
0.35717733
-0.53593396
0.58099457
0.40645112
0.62902306
0.49268224
-1.42257167
-1.20430735
0.79597214
-0.90262501
-0.22192674
-0.59736241
0.38607791
0.54060056
-1.03272778
-0.61666917
0.36973814
-0.77528523
2.20585946
0.66364539
-1.10516552
0.47108586
0.46767191
-0.89985912
-2.41309018
-1.14824707
0.09347332
0.67311039
-1.42100813
-0.38723118
-0.03122630
0.68615440
1.04199301
-0.97303318
-0.11651735
-1.11640304
-0.03794552
0.33727539
0.36949093
0.50257095
0.74748262
0.89886990
0.13887426
-0.15463456
-0.18720649
-0.05368343
-1.57589363
-0.52210752
-1.02812113
0.54274347
0.15282072
-0.62000833
0.71471272
0.11926970
-0.48743744
-1.09348851
-0.01780100
-1.60207249
-0.74434794
-0.99027941
-1.14406484
-1.02246739
-0.78578676
1.00149811
0.58385450
0.13954360
-1.35313389
-1.05619202
-0.20081903
-0.22568722
-1.66974467
-0.99634796
0.20789851
-0.96916521
-0.33028056
-2.03204158
-1.68684760
0.26484566
0.29371383
0.77551559
-1.23534677
0.29360097
0.01806448
0.26333785
1.48240989
0.82935036
-0.90858513
-0.32165524
-0.53637817
0.27626210
1.00545730
0.88812855
-0.55215875
-0.54066222
-0.70880112
-0.32572041
0.15675107
-1.46517778
0.83446917
0.72561534
0.85716430
-1.28177145
0.01286590
1.56452127
-0.62601414
-1.20544572
-1.18001935
0.36575987
-0.92934557
