-0.05589847
-0.05456295
0.84602813
0.11033675
-0.61421366
0.07545214
0.08308565
-0.38157464
-0.20935607
-0.51064042
0.52552157
-0.39463714
0.41022377
0.30902180
-0.27202999
-0.46021125
0.37618924
0.17310206
-0.04783090
0.04267428
0.33453579
0.05073769
-0.22112592
-0.30697658
-0.50879116
0.37285897
-0.19339103
0.13739054
0.34789062
0.17760903
0.00180782
0.42547526
0.39530076
-0.34515247
-0.02038157
-0.27734043
-0.30605580
-0.21315588
0.13773758
0.31674698
-0.12816598
0.50724324
-0.27417453
-0.68847804
-0.75008021
0.22008732
0.04359814
0.41631615
0.04943954
0.08810187
-0.29706182
0.37973732
0.38956572
-0.43972051
-0.09662299
-0.25899174
-0.46303962
-0.63477740
0.23331675
0.32873588
0.47846332
-0.09504543
0.26338403
-0.14071041
-0.27406042
-0.34047219
-0.07413661
-0.11791215
0.36028391
-0.07298138
0.33205452
-0.29289414
-0.15217690
-0.09139945
-0.21278434
-0.25599775
0.03138374
-0.12419326
-0.45244517
-0.13228907
0.27202572
0.11547477
0.09703517
-0.68010159
-0.51929353
0.05885388
0.67398952
-0.28488406
-0.02866708
0.19486824
0.16845433
0.17615011
0.16194993
-0.51768004
-0.11857559
0.32075696
0.41371646
0.42773833
0.16255130
0.23233361
-0.43424823
-0.12322732
-0.24444494
-0.04790040
-0.72901340
0.49471615
0.18332814
0.12777374
0.59540299
0.99942694
0.60703482
0.35858223
-0.15705412
0.50476371
-0.29627681
-0.02533595
-0.18900115
0.26950882
0.29132756
-0.50697280
-0.06112570
-0.15218639
-0.12228276
-0.05846664
0.30306195
-0.33971052
0.05860251
-0.26219856
-0.16671907
-0.43211161
-0.43611582
0.41803501
-0.21476320
-0.03290488
0.11679822
0.55306541
0.07932128
-0.14495092
-0.01444996
-0.37481856
-0.59674432
-0.35922049
0.17722601
0.19116353
-0.73539955
0.21525727
0.04767874
-0.31381191
0.49085221
0.44802235
-0.01364102
-0.34778394
0.37853188
-0.22697622
0.13135917
0.20808808
0.02224302
0.15081031
-0.53752762
0.02355545
0.44789222
-0.16551636
-0.17080210
-0.08348934
0.32563846
-0.34488032
-0.26964345
-0.47890236
-0.33983009
0.16529396
0.20983157
-0.23223821
0.16465095
-0.17502259
0.11032396
-0.40563156
0.15343562
-0.41112699
-0.35421286
-0.46691535
0.36748524
0.32195019
0.41785854
-0.09313142
0.30031398
-0.23649941
0.21209259
-0.32472587
-0.32312152
-0.30348744
-0.26084053
-0.23040084
0.57958567
-0.49549204
-0.24082049
0.11302275
0.27754472
-0.15369967
-0.40415949
-0.00426277
0.04555237
0.55056184
-0.18835633
-0.27903516
-0.32078077
0.20012885
-0.36680719
0.05943018
-0.44345023
0.24019562
-0.39634819
0.31453091
-0.09872357
0.73348185
0.53751944
0.07566482
0.10618868
-0.26124018
0.03074109
0.53508315
-0.28605629
-0.03020932
0.28930937
0.26764968
-0.44962706
-0.44401463
-0.20271602
-0.31875248
-0.00083273
-0.25055836
-0.08670269
0.24852784
0.31914064
-0.41793736
-0.11744018
-0.10997880
0.89352546
-0.06635131
-0.66850225
-0.06930714
-0.41059696
-0.20906455
-0.09626232
0.04895302
0.62660599
-0.09180159
0.28361569
-0.33761627
-0.51303557
-0.24204809
-0.52000007
-0.22326796
-0.41261082
0.29604490
-0.27352493
0.10991294
-0.08255046
0.21374482
-0.51953901
0.15933829
-0.35861132
0.24406780
0.14875232
0.29676798
0.27031696
0.43618609
-0.32041875
-0.25424890
-0.51845671
-0.50907170
0.25785046
-0.42590014
0.40779765
-0.32959418
-0.01040904
0.05600226
-0.02099178
-0.27612712
-0.29848665
-0.19992489
-0.00325895
-0.13811313
-0.15424252
0.07754282
-0.48019276
-0.36199191
-0.01919314
-0.15733757
0.54199379
0.16431939
-0.05485977
-0.76518838
0.10660067
0.11305819
0.15165949
0.21061735
0.66609591
0.36649325
-0.05013776
0.53384671
-1.54442637
-0.18680894
-0.87304979
0.06472429
-0.22572983
0.31721846
0.05318120
-0.32356542
-0.27061528
0.04743624
-0.10339829
-0.29721404
-0.24558533
-0.41872054
-0.16972554
-0.09969734
-0.47034657
0.35464509
-0.12737716
-0.56891165
0.12171237
-0.20359809
-0.56624125
-0.41978976
0.20260619
-0.00341476
0.88099016
0.42121246
0.50692992
-0.37363022
0.31424216
0.02069528
-0.10170310
0.19418788
0.46589746
0.49998690
0.48388122
0.12345422
0.19323104
0.18546384
-0.24793695
-0.56500124
0.98613614
1.22841609
0.50291693
0.24731417
-0.21778427
-0.02430267
-0.67736064
-0.24214078
0.43066399
0.40918247
-0.17173023
0.62484940
0.21559902
0.08308203
-0.27362074
-0.35514285
-0.28364390
-0.03579443
0.35831294
0.12099032
-0.45831946
-0.17491181
0.18874185
-0.24681686
0.35742638
-0.73153458
0.39576985
0.14489592
0.27806125
-0.31722893
0.37599240
-0.11762865
-0.32039738
-0.00794810
0.15296834
-0.28320546
-0.06698699
0.66920549
0.50697400
-0.15164576
-0.27669913
-0.11131357
-0.25771405
0.03555914
-0.07804860
0.27952659
-0.01687358
-0.00132674
-0.32596886
1.37200888
-0.38802109
0.72190022
0.20152664
0.04366760
-0.60575108
-0.24184161
0.35324015
-0.04215636
-0.35229624
-0.35636567
-0.33565777
0.25241887
-0.03761746
0.06487315
0.44534771
0.23987523
0.18991253
-0.32027198
0.04249302
-0.41968848
0.46068834
-0.07371548
-0.39418983
0.40779935
-0.26123204
-0.57921967
0.20678677
-0.22665750
0.09263550
0.47463466
-0.16337037
0.31383611
0.32912482
0.38531843
0.28895614
-0.23343533
0.21015839
-0.25547636
-0.25466935
-0.25648155
-0.43859205
0.39429305
-0.11753851
0.32330856
0.21901609
0.19628650
-0.10689370
0.45407026
-0.24123382
0.35514120
-0.39623668
0.13474601
0.11038530
-0.50000331
0.46258445
-0.37485300
-0.44489877
-0.21012059
0.20899084
0.02407506
0.24396124
-0.07019838
-0.39465586
0.08626907
0.03778596
0.04426652
-0.59924719
-0.33151809
0.01253675
0.45086519
-0.45631384
-0.06115591
-0.28669857
0.25933499
0.27554525
-0.09367814
0.17019677
-0.38693870
-0.20089943
0.31310267
0.16079542
-0.29832416
0.22863096
-0.15396210
-0.17990449
0.40925582
0.39559489
-0.16674675
0.20112515
-0.04268070
-0.17059803
0.39707854
0.32711140
0.17426535
-0.13563885
-0.15791858
-0.29256326
-0.07099598
-0.41070697
0.32561532
0.10277868
0.07698869
0.20034731
0.95551411
-0.43118572
0.07399465
-0.22383765
0.10613415
0.34477267
0.29436089
-0.27070296
-0.31815160
-0.38532669
0.51037644
0.29893357
0.11019551
0.08414066
-0.13371276
0.17120471
0.11504049
0.19735718
-0.06916850
-0.43945441
-0.14447629
-0.21959802
0.25252620
-0.37591405
-0.41344467
-0.42924649
0.42376380
0.08560262
-0.14243358
0.76736426
0.98212899
0.52048596
0.08160893
-0.23727636
0.18089919
0.29450472
0.53359999
0.39224175
-0.16193011
0.41524730
0.12133367
-0.53922409
0.43100056
0.21482916
0.29750674
0.19165620
-0.21889341
-0.20574080
0.12257288
0.08263451
-0.28811831
0.15095822
-0.12156404
-0.29342450
-0.00922636
0.16834212
-0.06041479
-0.38020223
-0.43247438
-0.44703239
-0.17584139
0.43894467
-0.31177077
-0.42151222
0.35677617
0.11346696
-0.52303565
-0.25938385
0.20784953
-0.09003906
0.03429118
-0.11951356
-0.29049388
0.20074290
-0.15834570
0.07311021
0.04357403
-0.39901027
0.11756730
-0.37025467
0.46089153
0.15987751
0.82647194
-0.36843024
0.04193692
-0.17360060
0.04055027
-0.10105406
0.02693510
-0.10899591
-0.20952992
0.04495367
-0.40433998
0.37729539
-0.31326757
0.80667870
0.32369087
0.27129760
-0.00572690
-0.14647477
-0.31020531
0.44390995
-0.02291367
-0.06147079
0.04180269
-0.37836342
-0.28861203
-0.27361839
-0.01857538
0.19876481
0.23392981
-0.38326320
0.24438830
-0.60810641
0.20703749
-0.39106875
0.11703254
-0.08427425
-0.65431594
0.03180098
0.52744613
0.95166935
-0.03702825
0.01235106
-0.69756210
0.16996728
-0.38080670
0.03992214
0.35669092
-0.04971608
-0.24184686
0.76294320
0.38834616
-1.07022897
-0.90986517
0.17040432
0.40479072
0.04890075
0.42171307
-0.17403943
0.01918769
0.40132957
-0.17256051
-0.07426067
-0.47445736
0.31519280
-0.02534354
0.37688037
0.32416798
-0.19808652
-0.38903379
-0.20764157
-0.11622222
0.36816982
-0.06581074
0.14218660
-0.63677036
0.00467820
-0.06457785
-0.15183531
-0.19323535
0.42842802
0.35198102
-0.24946796
0.25682198
-0.09053559
-0.00073523
0.25258615
-0.08990751
-0.08147366
-0.11277826
0.45380790
0.26742997
0.54448344
0.13638255
0.20134220
-0.63692433
0.15230778
0.04616634
0.31993524
-0.22668008
0.33025483
-0.04343663
0.33129922
-0.44433035
0.17624601
-0.62767070
0.08810087
-0.10141223
-0.14513747
0.42702629
0.45221027
0.34601637
0.48122019
-0.60199166
0.35955447
0.15500604
0.23057829
-0.08934017
0.39658645
-0.18131807
0.30309554
-0.02066771
-0.49159129
-0.19982209
0.05343998
0.34892252
0.44432562
0.43610774
0.46971458
-0.23210629
0.22411763
-0.25477774
-0.35500633
0.04554928
0.03583772
-0.07142084
0.27179384
-0.43409697
0.27568909
-0.21014317
-0.59107722
-0.01968437
-0.66165543
-0.06888751
-0.13588770
-0.03856375
0.10756406
-0.22147275
-0.15627780
-0.33871525
0.38935649
0.20824273
0.19281211
-0.19145158
0.28547796
0.09151525
-0.40737930
-0.40280806
-0.04826859
-0.00718624
0.37152442
0.24862751
0.08047559
-0.45024215
-0.00583287
0.31873215
0.97762696
0.16984032
-0.13377297
0.52728757
0.48643510
-0.03932022
0.21034254
0.55706669
-0.05073889
0.24124242
0.08778170
-0.19752334
-0.32187808
-0.24604624
0.47657396
0.09781983
-0.01155434
0.56058619
0.60485392
0.40070953
0.07571736
-0.46624982
0.22626774
0.40761611
-0.08817195
-0.15986530
0.22536940
0.33214446
-0.42701320
0.39460473
0.60565382
0.62793016
0.48521516
0.44902611
0.35639954
0.03734397
-0.07971736
-0.02557641
-0.19118529
0.26015423
0.06279911
0.03315553
0.25258247
0.64531371
-0.31298690
0.36047198
-0.47337538
-0.35702717
-0.37417042
-0.11584634
0.24517524
-0.12595770
-0.08920506
-0.13860739
-0.38301305
-0.61920936
0.12453612
-0.13074272
-0.34779274
0.12634290
0.07390930
0.30766280
0.37591487
0.13917067
-0.23008930
-0.21632682
-0.02675456
0.13170449
0.09034164
0.02254728
-0.47983371
-0.22426337
0.52098325
0.20087982
-0.18744819
-0.18072188
-0.09258410
0.06458972
-0.50008859
0.10962471
0.55556310
0.30927675
0.30445850
0.48947580
0.12426049
-0.35145247
0.14532789
-0.45363321
-0.10036133
0.07929054
0.36468159
0.00530379
0.14024215
0.34385730
-0.20694931
-0.11071476
0.29689585
-0.11503634
-0.17018404
-0.37764311
0.36221311
-0.26428612
-0.23549565
0.30394967
-0.23951151
0.11211604
-0.20737332
0.18252497
-0.43459204
0.31831022
0.37675049
0.01514382
0.14769345
0.19483573
0.22344435
-0.01434561
0.52140154
0.10510567
-0.38075285
0.04445189
-0.50924799
1.02945803
0.38437757
0.33210667
0.19538132
0.25562225
-0.14592252
-0.48530133
-0.58810051
0.01762703
-0.20988818
0.36158982
-0.11302810
-0.50316157
-0.01057734
-0.48038057
0.42863454
-0.22547207
-0.42895150
-0.30381839
-0.47384743
-0.50657935
0.16936289
-0.10947609
0.34656707
0.14754157
0.01995595
-0.61607421
-0.23748257
-0.43272772
0.41122664
-0.43468602
0.58840093
-0.20832345
-0.45868913
0.45224502
0.05899033
-0.60614608
-0.13884474
-0.25341833
1.08081469
0.09737875
-0.06071875
-0.14354780
-0.25346641
-0.71033970
-0.38897139
-0.33691021
-0.39990388
0.27850563
0.24214227
0.25742976
-0.39266200
-0.65744696
0.35767913
0.21613666
-0.00033827
-0.09300088
0.32229371
-0.15620113
0.22183012
-0.23965883
-0.07800539
0.04213330
-0.48011001
-0.15358091
0.08589200
0.37576515
0.37784718
-0.21199228
0.11573984
0.36612291
-0.00771541
0.10170613
0.03574889
-0.49296966
-0.08250933
-0.18835499
0.09792142
-0.37508601
-0.41356839
0.29491409
-0.21190880
0.13114677
-0.33201501
0.25062105
-0.25385872
-0.04288002
0.06417783
0.27129234
-0.21677368
-0.43107780
0.43176019
-0.19741121
-0.35696059
-0.17313679
-0.24618769
-0.06961908
0.47765576
0.30728921
0.01585359
-0.26840749
-0.21908470
-0.14523209
-0.14974125
-0.38429125
0.08060038
0.29117036
0.35474840
-0.09219462
0.20054285
-0.01625878
0.02268947
0.38279257
-0.13801637
-0.55052259
0.28266235
0.33596153
0.13805788
0.39450869
0.02371696
-0.56880033
0.13560215
-0.26685646
0.35161326
-0.42386562
-0.30586179
0.10129816
0.77695036
0.04745572
-0.04183355
-0.33539247
-0.38501198
-0.00347349
0.24866665
-0.33514442
0.57720275
0.25757708
-0.09335155
-0.02793330
-0.21403633
-0.38840561
-0.19087487
0.04085773
0.46277335
-0.11612311
0.19757723
-0.33912305
-0.28818133
-0.24784529
-0.32082927
-0.05861814
-0.23663355
1.20476986
-0.34548655
0.78499519
0.20573864
0.41826405
-0.48717470
0.06256540
-0.12630711
-0.41918702
-0.19265581
-0.14741589
0.21083282
0.06686355
-0.03039338
0.07349544
-0.18670247
0.11055009
-0.45138877
0.22146628
0.01472379
0.40903660
0.43919745
-0.39224728
-0.46544216
-0.08464052
0.10794781
0.55979457
-0.18804471
0.64531479
-0.05306478
-0.17716923
-0.30988662
-0.03882666
-0.45202174
-0.15869588
0.41829190
-0.14577078
-0.11828834
0.15719792
-0.69329116
-0.25891715
0.20023052
0.08996771
0.12896790
0.17158766
0.26194895
0.03664678
-0.13540425
-0.42829900
0.24348496
-0.38386076
-0.20671640
0.25429606
-0.26444643
-0.23899290
0.19926741
0.32066065
0.31503978
-0.38012734
-0.44881400
-0.46590583
-0.63560126
-0.02752967
-0.26338288
0.26492305
-0.27410719
0.24279286
0.15047070
-0.03574253
-0.60654236
-0.23475062
0.48420755
0.49670788
0.39364028
-0.22921438
-0.48658031
0.02643966
-0.18975663
-0.52749739
0.02214396
-0.43360526
0.04010859
0.28803571
0.33491446
-0.46442717
0.26745960
0.30598127
0.23758441
0.35578159
-0.19359676
0.07137924
-0.10226514
0.43884048
0.19067730
-0.22383639
-0.06266775
0.30899933
0.19688856
0.11535899
0.34659458
0.17804120
-0.22595337
0.09769042
-0.20078087
-0.05639494
0.74506269
0.15147359
-0.82070166
-0.91540545
-0.17604694
0.02080997
0.02209644
-0.30613525
0.05758444
-0.31244414
0.35297488
-0.26803448
-0.07995736
-0.23321012
-0.25348881
-0.10217965
-0.44981413
0.17365024
-0.02740535
-0.10667472
-0.34523992
0.13388772
0.28740911
0.30495863
-0.85246050
0.24293005
-0.64932456
0.56299390
0.21310060
0.16465186
0.13800101
-0.54082786
-0.51513491
-0.41410014
-0.72969044
-0.32167716
-0.04549989
0.40835927
0.39104787
-0.42181721
-0.39855136
-0.34915838
0.05586719
-0.27264050
-0.24263794
-0.27425094
-0.34076015
0.26562384
-0.40783737
-0.07747887
-0.43207074
-0.17529228
-1.03929930
0.44984390
0.60489610
0.37601044
-0.46813392
0.28999867
-0.55426889
-0.10497404
0.09319495
0.33412809
-0.26367515
-0.00251090
-0.68169946
-0.41052587
-0.52384404
0.14031519
-0.16588895
-0.21497626
0.41195389
0.36396451
-0.43906123
-0.06826183
-0.22008388
0.17346096
0.18602215
-0.50485525
-0.24129503
-0.04935512
-0.25040445
0.55828156
-0.35094300
-0.27388108
-0.28501012
0.19770308
-0.24127285
0.10750748
0.28460606
0.52269881
-0.23005880
0.54692880
-0.21251083
-0.98060948
-0.86285165
-0.40355087
-0.27919229
0.04117606
-0.43075875
0.41905354
0.07554832
0.19813112
0.34505489
0.37895838
-0.18708847
-0.06317758
-0.41884787
-0.29880459
-0.43190314
-0.12864144
-0.14534227
0.31735174
0.26055110
0.34220987
-0.13761653
-0.03457734
0.14428274
0.41189576
-0.46122871
-0.26594678
0.40412658
0.03311818
-0.33693356
0.20840078
-0.14008485
-0.02027057
-0.18212951
0.10839577
-0.18392703
-0.07182700
0.47894579
0.35993165
-0.32207073
-0.51674827
-0.07513689
0.20639544
0.04258795
-0.31885657
-0.10519399
-0.50834440
-0.21256402
0.16415353
-0.54647775
0.40849829
0.34075376
-0.13856906
0.05697145
-0.05266621
0.13626496
-0.33243182
-0.43396958
0.18767481
0.12085791
-0.24801040
0.46632087
-1.34645756
-0.10878149
-0.62910169
0.51966865
0.36917123
0.01901032
0.26599943
-0.02386192
0.52913589
0.02894447
-0.45048203
-0.38502203
-0.32802374
0.13076736
-0.47467676
0.10759591
-0.03134046
0.31862410
0.28718646
0.33079349
-0.29151013
-0.31591202
-0.34814965
0.07530785
-0.04673032
-0.82335414
0.87016310
-0.53115340
-0.52185807
1.18596901
0.63174158
-0.84982109
1.08693674
-1.01804296
-1.75658754
-0.30663595
-1.06270263
-0.85958150
-0.70628033
-0.07974218
0.63239242
-0.62388989
-1.50617703
0.06643223
1.02904251
-0.55440362
-0.54538773
0.32560433
1.20316723
-2.20016311
-0.81040473
0.82231656
-2.19818745
0.51593609
-0.68630312
0.69513752
1.61542338
-0.19458564
-0.56693050
-0.32249081
-0.01374471
-0.31727108
0.17276268
0.24411811
0.73511981
-0.68932124
-1.69074063
-0.57573994
-0.39280875
-0.52984856
-1.43804870
-1.32428596
-0.92088282
-1.81747128
1.46851528
-0.95782362
-0.30663834
-1.18067045
0.78232331
-0.77865656
0.24894170
-0.88725565
0.39285970
0.93498521
-0.69192302
-1.06170072
-0.95328217
0.17243711
0.06862347
-0.94758723
-0.22920150
0.25944469
-1.63564070
0.19580479
1.01081910
-1.89521528
0.57465906
-0.05528605
-0.36884627
-0.39884692
0.35936087
-1.24979013
1.01636788
-0.98897789
1.37798183
0.39674258
0.76505981
-0.76821355
-1.15114373
0.82382531
-0.65375311
0.45742416
1.47225439
0.17995414
-1.72052324
-0.11429602
-1.72014085
-0.46915487
-0.72784298
1.44726914
0.22848889
-0.03808583
0.59128988
-0.30383916
-1.98020815
-1.27703330
