0.05352284
-0.06295476
0.50912503
0.10667431
-0.32380781
0.35351784
0.25597014
-0.41033163
-0.40606811
-0.49244240
0.40614965
-0.33839408
0.32621062
0.55933965
-0.61209989
-0.28571909
0.34759048
0.16876271
-0.32905513
0.12214565
0.25749640
-0.00123225
-0.22597202
-0.26167960
-0.52952044
0.28960728
-0.08209347
0.06162862
0.52006266
0.14292186
0.02509439
0.21407926
0.39090448
-0.39577258
-0.03565694
-0.29671294
-0.23910322
-0.22292183
0.11801690
0.36015895
0.18672481
0.03735276
0.00715667
-0.49888928
-0.30497900
0.26448209
0.04380257
0.28767904
0.03739405
-0.14421118
-0.19656372
0.41869012
0.60642221
-0.54292553
-0.25549199
-0.14836685
-0.37814494
-0.42326235
0.32962271
0.29692264
0.33343475
-0.01988335
0.15459818
-0.14151294
-0.42064437
-0.20975216
-0.14176678
0.21362249
0.37101898
-0.08752536
0.03191525
-0.38210297
-0.17907620
0.05846312
-0.22074895
-0.12400967
0.04692696
0.00751778
-0.39883703
-0.25402817
0.02109530
0.26030222
0.24457649
-0.22712370
-0.43518232
0.08492317
0.46863645
-0.30605355
-0.21417456
0.21175629
0.07288569
0.05572571
0.35053060
-0.32131492
-0.19488285
0.35595991
0.14278418
0.20293177
0.20600928
0.54860080
-0.44133460
0.08094358
-0.21729681
0.24977058
-0.46354367
0.02162223
0.48963969
-0.15153846
0.22306148
0.29002165
0.38482209
0.23297701
-0.17245881
0.45450335
-0.19196550
-0.21739632
-0.29309272
0.41517646
0.49459693
-0.49791637
0.06043799
-0.10188288
-0.21290790
-0.12864187
0.28266517
-0.31932501
0.07378416
-0.26632507
-0.12112036
-0.37553070
-0.23791520
0.82518310
-0.26583629
-0.04951124
0.13540294
0.34175464
0.03929049
0.02645209
0.08308967
-0.25577212
-0.39265753
-0.32807136
0.26683806
0.60730421
-0.58961230
0.19258603
0.07691066
-0.39194181
0.30402438
0.44911290
-0.04671127
-0.46194974
0.39389901
-0.16954214
0.10499397
0.09061148
-0.02298250
-0.18056980
-0.20135917
-0.09096135
0.48000048
-0.48768462
-0.17913894
-0.14431828
0.47145764
-0.34880929
-0.16281785
-0.48778000
-0.25951860
0.16099677
0.53195725
-0.23616912
0.25149887
-0.02175849
0.13176225
-0.40042188
0.21844202
-0.37822402
-0.27468481
-0.43174793
0.42957173
0.38527100
0.30058319
-0.11215068
0.13168855
-0.20606923
0.56247828
-0.02866946
-0.16372911
-0.31443563
-0.34692938
-0.23992880
0.50287054
-0.43575234
-0.24605111
0.27523904
0.14785425
0.32469442
-0.41925621
0.08739278
-0.46833106
0.58481334
-0.20338884
-0.19565451
-0.27375326
0.36172216
-0.35148817
0.06565001
-0.40647510
0.25241240
-0.31414488
0.02230796
-0.26439231
0.20739178
0.29915455
0.12783953
0.46904265
-0.22540878
0.26103705
0.40729272
-0.05660315
0.03870985
0.04982149
0.58674856
-0.45654448
-0.21028262
-0.40164694
-0.22237498
-0.07517881
-0.24094266
-0.06116934
0.27877507
0.34606300
-0.43855831
0.20594423
-0.21692073
0.65521732
-0.00252944
-0.53634700
0.18585723
-0.23485552
-0.30154117
-0.39526753
0.04481892
0.42224925
-0.06205473
0.09140249
-0.17490084
-0.56219161
-0.30936705
-0.49294976
-0.31542559
-0.43868379
0.19371377
-0.36329519
0.10369956
-0.16790225
0.18307796
-0.55777837
0.19065403
-0.46329832
0.57173085
0.27044031
0.38526966
0.34350791
0.27731064
-0.53789841
-0.26304324
-0.33645551
-0.64808300
0.35015565
-0.35782786
0.70299374
-0.30529169
-0.21648658
-0.09590830
-0.01673007
-0.10368448
-0.08376042
0.01761414
-0.02581895
-0.24106435
-0.14460540
0.02388006
-0.44272479
-0.46310207
0.08620838
-0.05371606
0.35544104
0.56066838
0.30565565
-0.20866544
0.24736270
0.15783699
0.16487015
0.23833836
0.43531161
0.47851200
0.04119702
0.51771110
-0.45152064
-0.19904129
-0.45402253
0.00505462
-0.20206384
0.09310649
0.07634528
-0.38915895
-0.26543271
0.10396090
0.03328592
-0.16861713
-0.22481742
-0.59358509
0.03756974
-0.24713917
-0.34218917
0.18675656
-0.10234962
-0.62093415
0.23153542
-0.26057707
-0.47754891
-0.44028137
0.33087716
0.05129761
0.25786072
0.59072670
0.38220985
-0.22241383
0.24963034
0.04658582
-0.21709940
0.22143520
0.42245877
0.45552422
0.41110830
0.10103954
0.43862402
0.30351528
0.15023229
-0.33186470
0.52650979
0.42438464
-0.05034776
0.16021341
0.02837493
-0.11591112
-0.49666504
-0.30922948
0.62414385
0.33476195
-0.43528563
0.57486333
0.22921427
0.40892468
-0.09519835
-0.21085796
-0.37399421
-0.07567848
0.34649018
0.01961579
-0.38090216
-0.13077158
0.34667227
0.11257479
0.39874454
-0.43628606
0.43637531
-0.13064855
0.12542269
-0.36413280
0.36063313
-0.10234521
-0.28592889
0.06070196
0.20221335
-0.29188569
-0.43221533
0.49347426
0.46341721
0.07144108
-0.00889431
0.10293185
-0.26997241
-0.02556299
-0.09763702
0.13690358
0.01937993
-0.02942763
-0.24404941
0.72631740
-0.50457726
0.26988028
0.51089108
0.03557762
-0.29942011
-0.07605486
0.44051005
0.05596235
-0.32249029
-0.40120433
-0.41411488
0.24537718
-0.00915906
-0.16861052
0.43378350
0.56448193
0.34349163
-0.55792145
0.00109217
-0.26720829
0.41120606
-0.05690962
-0.36395605
0.68584061
-0.14143039
-0.73988326
0.17235664
-0.24698773
-0.16311010
0.43772844
-0.17453102
0.24639465
0.27355689
0.28997616
0.24768636
-0.25517154
0.15749718
-0.26103232
-0.25275302
-0.30477215
-0.40151348
0.32169773
-0.15314338
0.28092069
0.18535237
0.21661486
-0.16181302
0.44280220
-0.23827152
0.37122204
-0.36573563
0.17725331
0.12326320
-0.44899321
0.42343451
-0.43572857
-0.51692169
-0.24962155
0.22682225
-0.00144710
0.21144320
-0.08372856
-0.37481923
0.18332732
0.08520471
0.24924086
-0.49900673
-0.22755595
-0.20124625
0.38866577
-0.48328139
0.03594456
-0.26400762
0.32606523
0.29293120
-0.02323477
0.23304281
-0.44588609
-0.27035527
0.27900461
0.30038260
-0.24260809
0.34311059
-0.16819640
-0.30799696
0.40777650
0.35914164
-0.16219006
0.10202730
0.07331650
-0.65380088
0.39875558
0.24554883
0.09300069
-0.01753589
-0.03113527
-0.40580228
-0.13338242
-0.51079315
0.18107130
0.03934463
0.00617853
0.42859251
0.53559937
-0.51370479
-0.07534402
-0.24449982
0.15606337
0.40573495
0.32956959
-0.24844207
-0.31678003
-0.42538483
0.42266818
0.24133407
0.15950333
-0.01368471
0.16414742
0.17555184
0.18446280
-0.08762745
-0.13974111
-0.48856320
-0.00178789
-0.24660039
0.37476155
-0.36122846
-0.29723584
-0.41453038
0.42139406
0.50069659
-0.03091271
0.38542830
0.50035001
0.17579248
0.01805919
-0.04767730
0.19144201
0.41218652
0.56167008
0.50951108
-0.45001673
0.77881218
0.05806164
-0.54742693
0.59186091
0.23082725
0.14335639
0.27869142
0.00086852
-0.17023838
0.23777619
0.14742983
-0.03224589
0.15870949
-0.22909362
-0.09278101
-0.01397415
0.36499773
-0.23403262
-0.41934570
-0.46684366
-0.30884931
-0.18302962
0.52798723
-0.28580242
-0.30056126
0.41086561
0.16439608
-0.41710101
-0.27995665
0.34042303
-0.23486313
-0.01550801
-0.14855799
-0.19596786
0.20643271
-0.07857351
0.10142017
0.14472233
-0.24745823
0.63588524
-0.21774502
0.43365525
0.17333848
0.41446666
-0.40543615
0.29734754
0.06816502
0.24464730
0.21046521
0.11348663
0.05750298
-0.36967660
0.01885112
-0.26990689
0.12590455
-0.22101081
0.50808001
0.25360352
0.32361981
0.28328295
-0.06578487
-0.06235439
0.44978017
0.22399112
-0.09050144
-0.17740734
0.17552843
-0.49807827
-0.21120725
-0.45970400
0.33675508
0.20631716
-0.30054536
0.36355930
-0.42207728
0.22298276
-0.42664641
0.24129526
0.33787787
-0.38567192
0.00688806
0.32536964
0.49331859
-0.18711390
0.16592144
-0.49596196
0.29641207
-0.06449387
0.05603309
0.47966094
-0.10383529
-0.28229428
0.32765815
0.23893851
-0.47860705
-0.48314600
0.53708269
0.41460528
-0.14347943
0.45822765
-0.39122030
0.11674509
0.32733483
-0.05909263
-0.04635123
-0.37051121
0.24728889
0.03008203
0.23948180
0.30757260
-0.16594559
-0.27795897
-0.17241488
0.04013711
0.37656452
0.03539712
0.31369351
-0.40978031
-0.03812205
-0.02055057
-0.07805359
-0.28205486
0.45762873
0.37469738
-0.29576284
0.29760239
-0.06625779
0.01420476
0.22435956
-0.09711039
-0.10618688
0.25386721
0.40331346
0.31896475
0.18146191
0.01489706
0.21450816
-0.37632912
0.19763305
0.27271144
0.33399985
-0.01214026
0.28353328
0.37203803
0.03275599
-0.29685258
0.41818617
-0.28216731
0.02430842
-0.05110798
-0.10511785
0.45555922
0.33538671
0.41238270
0.60950624
-0.39040842
0.36831660
0.38901617
0.26676413
-0.07930778
0.06557405
-0.30581561
0.26789244
0.14877753
-0.50777559
-0.09659383
0.04706471
0.50901822
0.42869751
0.20013021
0.56628995
-0.21824810
0.30946803
-0.32294593
-0.40393749
-0.04449228
0.04943678
-0.09209921
0.22730083
-0.41333881
0.32389866
-0.21729731
-0.39845590
0.12637153
-0.47198293
-0.08412299
-0.26968969
-0.16628971
0.01467844
-0.13746651
-0.20973228
-0.31216709
0.39655218
0.31604932
0.31188006
-0.76716163
0.40007561
0.03372792
-0.45354221
-0.34770683
-0.04375359
-0.25496201
0.36247443
0.11130272
-0.07222001
-0.51256791
-0.01471898
0.24304116
0.36949350
0.07723904
-0.25440912
0.52226918
0.43544803
-0.23668808
0.09491767
0.62890783
-0.18044036
0.11696694
0.02524554
-0.13411845
-0.31940338
-0.01432975
0.54578298
0.23760775
-0.11481531
0.55092432
0.50187968
0.49249826
0.28312108
-0.39605156
0.37118892
0.51028410
0.07721065
0.04462696
0.06616792
0.53144367
-0.34065284
0.04178459
0.09065982
0.39878824
0.37646044
0.44908762
0.27939014
0.05726119
-0.14474519
-0.07275517
0.02195624
0.57689682
0.15211637
0.13792086
0.33785641
0.42509470
-0.36581667
0.42649431
-0.33143658
-0.28869100
-0.22482498
-0.08739567
0.36508254
-0.12863876
-0.14238396
-0.28502152
-0.40816394
-0.39688850
0.25755848
-0.09327058
-0.37770972
0.13731819
0.08015887
0.26769708
0.40445749
0.19106968
-0.16757931
-0.02035100
-0.27895509
0.18750120
0.10708961
0.23715506
-0.53572238
-0.17846092
0.51380860
0.20342134
-0.24455463
-0.14961800
-0.02239704
0.09535566
-0.35954800
0.11822458
0.44651931
0.36750294
0.06943033
0.45490868
0.12707493
-0.30455474
0.15984120
-0.31682827
-0.08124076
0.12217636
0.39815782
-0.17613321
0.35109544
0.36826085
-0.03882152
-0.28082371
0.29307017
-0.19483850
-0.12362853
-0.42352468
0.40552419
-0.25920665
-0.19636793
0.21042118
-0.57980867
0.16540336
-0.33714451
0.27007182
-0.37114630
0.38258781
0.30145664
0.02465604
0.10135538
0.15014656
0.20341859
-0.02129095
0.83006093
-0.61160105
0.15664923
-0.37785666
-0.45310845
0.40802739
0.46310284
0.07803174
0.23072904
0.41305754
0.03024208
-0.51225186
-0.67662824
0.38029559
-0.42249355
0.41580712
-0.01983063
-0.33078902
0.03801125
-0.37804474
0.29307634
-0.37269610
-0.46357188
-0.37824712
-0.53171289
-0.65135863
0.22299025
0.32225864
-0.07751904
0.49443169
0.48889705
-0.12895286
-0.31049267
-0.44334325
0.39633297
-0.54956197
0.43377365
-0.07412404
-0.24658447
0.81477205
-0.45894434
-0.22358330
-0.41780660
-0.21902691
0.17375221
-0.12104997
-0.45514288
-0.20195408
-0.36659312
-0.54417541
-0.48084565
-0.43269063
-0.24583865
0.74686091
-0.12884186
0.46662286
-0.22132809
-0.35465512
0.32872165
0.31563462
-0.07647809
0.02630313
0.22977024
-0.06751040
0.23263377
-0.19785873
-0.11760668
0.04743798
-0.53094856
-0.10922407
0.03659436
0.44820480
0.36856499
-0.26315229
0.14557530
0.35009771
-0.03647151
0.03208341
0.37405038
-0.44584910
0.08583828
-0.07431419
0.16272760
-0.48758753
-0.25785543
0.29894994
-0.31124131
0.18409685
-0.27238688
0.29104954
-0.34747770
-0.05544952
-0.16234947
0.56324273
-0.25548677
-0.29991460
0.23426799
-0.20722355
-0.42954561
-0.01620482
-0.26379418
0.00722719
0.49380033
0.42801178
0.02710952
0.03452923
-0.45807333
-0.03820970
-0.03732341
-0.13623551
-0.01174395
0.31835586
0.38695954
-0.06815655
0.13086045
0.02543339
0.14345984
0.49899624
-0.12001257
-0.32196253
0.30806480
0.33588773
-0.15051805
0.24433530
0.03407849
-0.35566871
0.14485993
-0.08393834
0.35898838
-0.22607635
-0.48264348
0.57631904
0.37778545
0.18241456
0.13320248
0.13235903
-0.34996903
0.12474804
0.26665738
-0.37303467
0.43804694
0.35589531
0.03286564
-0.11678544
-0.30231331
-0.07123975
-0.38438610
-0.01103960
0.23642312
0.00477626
0.27030056
-0.24623991
-0.19002532
-0.04340031
-0.34626053
-0.07103002
-0.29746300
0.11966288
-0.37405854
0.34429614
0.30522506
0.56945923
-0.45545726
0.03374149
0.14169033
-0.50333189
-0.19897940
-0.23212019
0.35809498
0.06464795
-0.59289695
-0.00612455
-0.38828649
0.20420683
-0.29529398
0.29888323
-0.13998910
0.33526176
0.31471896
-0.53096954
-0.52638168
-0.15300843
0.25179183
-0.02680768
-0.06350704
0.40383745
0.15357615
-0.07496260
-0.23810324
-0.07505840
-0.35907074
-0.19106717
0.41910116
-0.17719679
-0.04315232
0.75106847
-0.80009440
-0.25404317
0.28411417
0.03394445
-0.16812147
0.27138075
0.18882229
-0.10892935
-0.15577241
-0.37684381
0.21239375
-0.56202177
-0.17035432
0.01172107
0.08484230
-0.34918070
0.17750558
0.07359396
0.38835078
-0.33605440
-0.35560133
-0.36226519
-0.43812235
-0.03190740
-0.26086760
0.35164548
-1.04158651
0.02746838
-0.02259562
-0.12500840
-0.31231217
-0.13456498
0.20581440
0.28455558
0.18926099
-0.53823671
-0.55232009
-0.13491840
-0.18471270
-0.49527464
0.00246011
-0.37558176
-0.01620879
0.22977448
0.28517965
-0.50950446
0.25978115
0.25894145
0.24399473
0.37091932
-0.17804111
-0.03401849
-0.45017485
0.35786250
0.13589497
0.02019239
0.21742320
0.47907058
0.15794173
0.12697920
0.30657888
0.10941844
-0.19161880
0.11882035
-0.35372400
-0.31876272
0.41858735
0.04146275
-0.26437689
-0.44167723
0.16173968
-0.02629486
-0.11244309
-0.27795996
-0.14857478
-0.20827999
0.34920485
-0.35293370
0.28153387
-0.43707405
-0.16608910
0.05550726
-0.23676534
0.07920459
0.03591000
0.00488440
-0.31482001
0.13329707
0.35432199
0.49013388
-0.67879251
0.35969332
-0.23566925
0.38333446
0.35811551
-0.20356492
0.06294965
-0.41838599
-0.14288428
-0.36846156
-0.39095251
-0.28699658
0.29889112
0.53644837
0.55309411
-0.42268809
-0.32091506
-0.24540810
0.02940362
-0.30169431
-0.23000637
-0.25206340
-0.30856836
0.26669629
-0.36466931
-0.02159722
-0.38361903
-0.05707920
-0.67502311
0.25409851
0.54386843
0.03289415
-0.65137166
0.43247969
-0.12084669
-0.05366535
0.40884571
0.33584445
0.02737154
0.20083782
-0.43777069
-0.45953998
-0.40801726
0.07760695
-0.16855543
-0.15153308
0.47342661
0.33673513
-0.38331997
-0.03361577
-0.17330688
0.14566746
0.49981469
-0.67178904
-0.05715247
-0.05190036
-0.22777720
0.34361506
-0.29863619
-0.30615535
-0.27648605
0.23664659
-0.16407855
0.11014726
0.24710592
0.41339495
-0.33007771
0.53301568
-0.12197120
-0.32413355
-0.50788724
-0.11103176
-0.36242517
0.05848832
-0.38086233
0.30945204
0.23846544
0.37571897
0.53033479
0.38685090
-0.15582218
-0.01471662
-0.37787976
-0.27715175
-0.43401397
-0.13295390
-0.13836773
0.31920266
0.23024765
0.33874819
-0.11805105
-0.01277167
0.07774683
0.44984059
-0.48484277
-0.13442333
0.38437568
0.07533368
-0.36651791
0.22110967
-0.13053076
-0.01505667
-0.16992542
0.11950535
-0.13308528
-0.16934975
0.30487751
0.36577880
-0.05308714
-0.33226288
0.14481446
0.18513981
-0.11633416
-0.31716587
-0.19266247
-0.44531399
-0.30844448
0.38419926
-0.41795823
0.42187301
0.48185413
-0.05779004
-0.01455748
-0.06006947
0.09813620
-0.40056318
-0.45752265
0.21103745
0.12855001
-0.28160030
0.25687055
-1.01366584
-0.22347647
-0.51743714
0.21519806
0.25509468
-0.18775146
0.07484044
-0.19443252
0.33997667
-0.03273605
-0.44166106
-0.41841480
-0.20789582
0.16166913
-0.23221823
-0.05537160
-0.20386362
-0.04824132
0.12307383
0.35932876
-0.04478812
-0.28775069
-0.12838092
0.02145420
0.11473073
-0.76972880
0.50479878
-0.27577915
-0.20348444
0.43507163
0.06892638
-0.52472987
0.48635029
0.32269861
-0.17219385
-0.05984000
0.34827657
0.16969963
-0.43613420
0.00897791
0.32547265
-0.41460153
-0.37353699
-0.31834365
0.23439518
0.07772892
-0.06108976
0.45596518
0.30975191
-0.23945367
-0.18766117
-0.07254138
-0.53168328
-0.03866157
-0.43824557
0.21047536
0.47073156
0.45701769
0.17498922
0.12867704
-0.39488175
-0.47071450
0.39875323
0.00013805
0.37092328
-0.39178975
-0.20809131
0.44989307
-0.13136764
0.07917341
-0.50090429
-0.11503227
-0.41569283
-0.07679937
0.33845725
0.37778748
0.05068299
-0.39040104
-0.12262000
-0.12511536
-0.35540340
-0.47787776
-0.49019571
0.74113536
-0.19178364
-0.32576991
-0.04046049
0.44546204
0.20174305
-0.30496695
-0.54860839
0.49520349
-0.64777209
-0.00449344
0.66285911
-0.36772714
0.11145801
0.35403546
-0.02424667
-0.42526277
0.34481408
-0.02233586
0.59596762
-0.80804721
0.49066843
0.63511583
0.54259948
0.06120078
0.19575618
0.45553574
0.43715391
0.86789843
0.68987628
0.42164203
-0.01855805
0.50282204
-0.24831868
0.02134780
0.13796490
-0.33224654
-0.07443190
-0.07782715
0.24797193
-0.37444495
-0.04068349
-0.30920112
-0.05357693
-0.07058843
0.06222552
0.09202246
0.42830167
0.40214749
0.43148992
0.00111758
-0.47900935
-0.40693159
0.08152097
-0.17564930
-0.34302774
0.34011507
-0.19779635
0.53072714
-0.08960377
0.45917601
-0.25417833
0.52885101
-0.29643825
0.35650936
0.19150958
0.36970893
0.00260966
-0.26280972
0.29157623
0.41863978
0.53405787
0.09190010
-0.81730312
0.00067242
0.17641131
-0.01501833
0.22615896
0.25419200
-0.53849129
0.14694544
-0.38079921
-0.38268091
0.24155401
-0.12365516
-0.49568096
0.44146369
-0.00399987
-0.38809812
0.13141868
-0.07408076
0.22782679
-0.14798825
-0.32834291
-0.47259738
-0.34366686
0.03007824
0.32208822
0.34667952
0.53879950
0.30750853
0.52187911
0.41059354
0.25193272
-0.26418979
0.63431174
0.13505523
0.50635929
-0.32182571
0.53396301
0.23122322
0.17525224
0.08601821
-0.47922683
0.34344505
0.43116412
0.27369210
0.17971512
-0.23838970
0.01451734
-0.30840989
0.36914749
-0.33867584
0.35831118
0.50039501
-0.66694272
0.54097912
0.14080645
0.03294145
0.11216213
0.03544330
-0.59255798
0.06804531
-0.54834453
0.02368885
0.38043726
-0.00101029
-0.65702272
0.11704034
-0.23016029
0.29875078
0.54446521
0.44459222
0.31718336
0.44245991
-0.29927182
0.43673882
-0.02504543
0.37578606
0.42926488
0.41466349
-0.01794777
0.59874563
0.38448988
0.32087126
-0.37296082
0.50404468
-0.34031503
-0.31281367
-0.19893650
-0.02159468
0.27368437
-0.47155883
-0.34819176
-0.14617587
-0.60566646
0.11304566
-0.35791816
0.55006047
-0.44368546
0.14375773
0.47539949
0.41872598
0.41542261
-0.47337934
-0.25168273
-0.42604950
-0.10912103
0.48409686
-0.38086110
0.07396022
0.19172755
-0.08415242
0.12815201
0.41551922
-0.50022694
0.40742806
-0.25047382
-0.00272088
0.19523032
-0.89922336
-0.06109837
-0.19533563
-0.48715310
-0.07853628
0.22667608
0.15005718
-0.03081335
-0.57658656
0.16132172
-0.24263280
0.30545706
-0.39935785
-0.17348076
-0.30223712
-0.06673268
0.41232621
-0.41895948
0.25368953
0.02946722
-0.29811250
-0.08751648
0.19639955
0.39376227
0.35562776
0.25413183
0.08063775
-0.06071913
0.20794757
-0.51599667
0.35332179
0.28798733
0.01795082
0.05285326
-0.34343673
0.36223725
-0.17271582
0.27599848
-0.27632787
0.72127481
-0.58888178
0.59155805
0.53539371
-0.34022404
0.28007554
0.17325858
-0.00052166
-0.14667517
0.07419072
-0.27248473
0.06533428
-0.03276575
-0.38895168
-0.46154035
0.24042244
-0.32825251
-0.46041488
0.44871783
-0.42923426
0.48034581
-0.08676639
-0.18564127
0.40144417
-0.02648082
-0.00351761
-0.82208294
0.11272301
-0.24411026
-0.52101368
-0.46466700
-0.43118775
-0.44664376
-0.27154487
-0.29207781
0.10858437
-0.10922381
-0.41275931
-0.37293696
0.38437384
-0.31342982
-0.36742883
0.61973876
-0.33221210
0.11210582
-0.11180140
-0.15744455
0.48863307
-0.45899801
-0.08784703
-0.16312937
-0.42991447
0.05017139
-0.40244161
0.00819268
0.38372834
-0.48923678
-0.42978724
0.47508325
-0.28155987
-0.36197826
0.24776560
-0.25425705
-0.07016766
0.47463840
0.20630158
-0.19393185
0.00267542
0.10538492
-0.20179801
-0.15215240
-0.17628237
-0.42220268
0.38960389
-0.42065471
0.34491478
-0.26657710
0.43403542
-0.90825215
-0.24763234
0.51528692
-0.37874217
0.04000686
0.07482974
-0.09727720
-0.18972895
-0.01796693
-0.45659968
0.28443193
-0.25421039
0.02142422
-0.88698535
-0.12643971
0.04974576
-0.09695501
-0.19444696
-0.08199935
-0.05134630
-0.15467158
-0.54251587
-0.33132040
0.36669600
0.22189963
0.47427170
0.45845762
-0.23731549
-0.37874036
-0.33501462
-0.46105842
-0.45090788
0.38967077
-0.44870898
-0.37646085
0.16054621
-0.39193364
-0.31613187
-0.08412563
0.20978991
0.20156868
0.25010730
-0.29727795
-0.18662780
-0.18741639
0.42850400
-0.45248022
-0.06801919
-0.03839109
0.00686373
-0.12232739
-0.34990280
0.13558660
-0.27900604
0.03191393
0.40122352
-0.06954061
-0.51152607
-0.49698507
-0.26517954
0.15573601
-0.17055722
0.05749194
0.26095499
0.17781670
-0.25604004
-0.00328863
0.28390074
0.25847848
-0.12329652
0.34742975
-0.43248344
-0.46854868
-0.21955338
-0.31487561
-0.25276351
-0.27737459
0.45727312
0.58800967
0.14529975
-0.05603838
-0.01702937
-0.34755143
-0.37434790
0.24166504
-0.32170814
-0.26586610
-0.00549996
-0.25220347
0.39847488
-0.09223958
0.35101103
-0.01639164
0.04625080
-0.12762223
0.00596734
0.07314297
0.19900631
0.02330309
-0.23822265
-0.02914568
-0.29675344
-0.39927909
-0.23932697
-0.79926420
0.07690938
-0.09863542
0.39862028
0.35481489
-0.40406963
0.11296264
-0.16785273
0.42185853
-0.24041053
0.24769985
-0.53713338
-0.48550150
0.45416349
0.27807784
-0.26868961
-0.01011598
0.59251846
-0.36858412
0.10973139
0.04379785
0.35013268
0.08498960
-0.20793104
-0.26093551
-0.00425901
-0.52826433
0.56138581
0.01318737
-0.00719284
0.15342371
-0.17335723
0.10888634
0.10778651
0.22913992
-0.46857942
-0.49129959
0.04108775
0.00679959
-0.70227910
0.16517025
-0.25437042
-0.27935694
-0.16337910
-0.43751175
-0.12349946
-0.11040146
-0.46750838
0.00071761
-0.40469947
0.09224863
-0.28804915
0.20776277
0.00909750
-0.30850374
0.08883231
-0.13652631
-0.27036207
-0.08790454
-0.04389923
-0.49936778
-0.15204935
-0.40434112
0.24039765
-0.05597585
-0.40267715
-0.06214446
0.06470192
-0.07877536
-0.24102246
0.12732468
0.23381064
0.35200655
0.11266976
-0.22613731
0.02918804
0.41910720
0.00983578
-0.26116961
0.02641853
-0.34117337
0.42663621
-0.05946467
0.09804238
0.44801946
0.46901460
0.45303724
0.19351496
0.11782029
-0.30484248
0.10848525
-0.39697351
-0.38617379
-0.24373038
-0.22523919
-0.15165805
0.10241099
-0.12728640
-0.10674825
0.00119519
0.27738957
-0.37862135
0.19539084
-0.46917880
-0.10514704
-0.28542649
-0.21739410
-0.26001560
-0.06932437
0.54363928
-0.38274339
0.23994513
-0.44769434
0.29683976
0.40886939
-0.17590642
-0.18405110
-0.18339252
0.04140246
0.43449202
-0.04846722
0.12909621
-0.45346942
-0.18784412
0.42537718
0.45209226
0.09040331
-0.28406056
-0.04278540
0.01477515
0.81527568
-0.54774538
-0.41516537
0.49445538
0.35441659
-0.02030571
0.10765455
0.41283942
-0.03592520
-0.29979180
-0.13115294
-0.37944561
-0.04059482
0.50377954
-0.22651617
-0.43943457
0.29222840
0.16218889
0.16758065
0.17312383
0.57898861
-0.17007611
0.52258368
0.13615928
0.70142821
-0.33635710
0.14744664
-0.37992697
-0.06543295
0.34961074
-0.21945068
-0.06694502
-0.05237578
0.08852604
0.43473911
-0.32748397
-0.34895379
0.41969930
-0.45954263
0.32876126
0.26345940
-0.18253270
-0.16438896
0.42954726
-0.40125708
0.31916186
-0.02117633
-0.24487596
0.06631338
0.09977355
-0.02342714
0.27371991
0.31027062
0.67380617
0.30481935
-0.64900900
0.80506510
-0.14682384
0.27730614
-0.89933076
0.28935893
-0.05092639
0.52766845
0.83243529
-0.05898613
0.56066722
0.27029428
0.69622499
-0.84582413
0.59293177
0.59145552
-0.94490922
-1.43304683
0.33420876
-0.30973209
0.05818506
-0.89192810
-0.00185452
-0.79452900
-0.21236704
0.35547785
-0.27589909
0.83472324
-1.12276065
-0.84523197
-0.39437874
-0.11805603
0.10982837
0.64346970
-0.82304067
0.07742450
0.03834121
-1.00468955
-1.09815511
0.09050642
-0.06085802
0.87320794
-0.71094568
0.81408825
0.35820224
0.35366234
-0.18455586
0.42523337
-0.23858751
-0.56944777
-0.62728129
-0.05369466
-0.55052642
-1.27913721
-0.83033689
-0.86873992
0.02330747
0.24389496
-0.31799428
-0.59830000
0.20801166
0.39955174
-0.40829310
1.39655708
0.88470279
-0.93019079
1.00520906
0.55386293
0.39507560
0.84430114
-0.37053670
-0.67184069
-0.32129383
-1.00151923
0.41759838
-1.23924162
-0.92124636
-0.41394407
1.24700426
0.45315491
-1.49608028
-0.49539389
-0.50170549
-0.20508777
-0.85237491
-0.83998995
0.07758654
-0.95851579
0.22820476
0.51961651
-0.32795526
-0.11933081
0.01320422
0.54909639
0.56043555
-1.20746343
-0.59969128
-1.50632408
0.23446288
-0.42290730
-0.31751560
0.99416251
-1.30734861
-1.83124295
0.43534267
-1.03239797
0.45951755
-1.10666347
-0.45082949
0.81988587
-0.78015294
-1.02586242
-1.03331838
0.58316991
-0.84018077
-0.32545081
-1.39869525
0.30924625
-0.58225737
0.90750662
0.12949539
-1.49612981
-0.52893266
-0.53396094
-0.06137916
0.85230314
-0.97466436
-0.06050019
-0.20638940
-0.66535135
0.52747458
0.20244150
0.09087373
-0.56185657
-0.99518755
-0.52019136
-1.08291080
-0.66941028
-0.13922231
0.14750997
0.34411903
0.31752860
-0.24913321
0.81116562
-1.19372852
-0.42964203
-0.74623606
