-0.06623380
0.13785669
0.37326560
0.00715660
-0.34034066
0.54727197
0.17315027
-0.37504505
-0.31810826
-0.47633495
0.46103828
-0.35042744
0.50086182
0.65381421
-0.66463080
-0.35614289
0.06830178
0.41289908
-0.29411295
-0.01096420
0.13910713
0.16491277
-0.27622209
-0.20413553
-0.66734190
0.51533248
-0.44056958
0.49385909
0.41960284
0.36542260
-0.02883313
0.26134823
0.32271474
-0.25853041
0.00879778
-0.21937177
-0.31340450
-0.09371204
0.08918182
0.19228837
0.11800635
0.00814484
-0.14355464
-0.46295078
-0.24864595
0.23639097
-0.00972755
0.28804699
0.04145707
-0.08557536
-0.23195948
0.44967010
1.39445160
-0.78790874
-0.86961156
-0.82387165
-0.13454361
-0.34651101
0.21876978
0.32803345
0.50641775
-0.08808975
0.34518940
-0.20464495
-0.03205808
-0.34451067
0.19921289
0.17226291
0.54633398
-0.08856379
0.04847355
-0.32975724
-0.05728696
0.03277437
-0.14908240
-0.16181645
0.16986826
-0.09407903
-0.40411388
-0.24856456
-0.02205883
0.21587044
0.19078920
-0.20250610
-0.43996852
0.07292616
0.48415180
-0.29658592
-0.23931038
0.21454952
0.07372010
0.10818471
0.19847307
-0.24754223
-0.28895758
0.31471308
0.09282706
0.33578275
0.18965910
0.42427184
-0.42222560
0.06951685
-0.24812752
0.06659409
-0.56898043
0.21660079
0.44389667
-0.06586365
0.23891329
0.38925591
0.38957578
0.29710561
-0.08980013
0.50911894
-0.16212081
-0.17658511
-0.20222507
0.42416488
0.38941115
-0.68552688
-0.24024095
-0.13429516
-0.32547262
-0.45181258
0.11949510
-0.43411605
-0.13923263
-0.36380507
-0.15357120
-0.43523282
-0.44698518
0.63903861
-0.38904899
-0.27880003
0.02710791
0.53601294
0.13682010
0.01157053
0.15375068
-0.22030615
-0.34498595
-0.21470068
0.31691270
0.57047456
-0.48811632
0.41317950
0.23807670
-0.32778965
0.45801869
0.72783745
0.11707319
-0.17740981
0.60316293
-0.03931502
0.39407903
0.36667071
0.05694291
-0.21949381
-0.23885185
-0.12680351
0.46664114
-0.40873310
-0.22362856
-0.17578953
0.47361330
-0.35719012
-0.11957861
-0.51050465
-0.22909217
0.21923717
0.16148375
-0.28534972
0.02240844
-0.08321273
0.03506925
-0.50840351
0.08940313
-0.42685859
-0.42517543
-0.50593128
0.38757214
0.32587726
0.21916394
-0.12982774
0.07182457
-0.33555676
0.52582664
-0.01910714
-0.19268206
-0.32301910
-0.35086638
-0.26700339
0.47670330
-0.46222027
-0.26632700
0.13454171
0.43224951
0.21593759
-0.36112764
0.05087821
-0.46957550
0.44211699
-0.20632191
-0.16615641
-0.33923354
0.23924149
-0.32036873
0.04122238
-0.18111530
1.02251800
-0.52363815
0.51120673
-0.72418355
0.49699160
0.31957235
0.29192272
0.21636557
-0.17333368
0.23087141
0.35440867
-0.27834500
-0.02580596
0.35648378
0.32919328
-0.45414084
-0.34876591
-0.28284631
-0.37962800
-0.04717569
-0.19872823
-0.08109952
0.24383532
0.35286927
-0.34186822
-0.02397284
0.07932539
0.48828857
-0.01016846
-0.41803852
0.29003546
-0.36339368
-0.20876934
-0.24759260
0.05501962
0.45575616
-0.01086898
0.27914798
-0.35376312
-0.24457172
-0.29778764
-0.44534682
-0.22429119
-0.39753750
0.26512225
-0.23830561
0.12786733
-0.06520620
0.25747163
-0.47964143
0.20836270
-0.56002183
0.41899770
0.39662762
0.40407724
0.33866569
0.28846429
-0.26894679
-0.19077126
-0.43626223
-0.45598488
0.31696770
-0.32652319
0.42123767
-0.42134960
-0.30961513
-0.14821261
-0.18692536
-0.04504374
-0.07260015
-0.12057099
-0.09183265
-0.18790684
-0.21586823
0.04767764
-0.48919834
-0.35177315
0.65303399
-0.23070635
0.22344524
0.54119227
0.13971835
-0.27084817
0.35141202
0.14818139
0.01645114
0.26090818
0.41708327
0.52954988
-0.09966665
1.42720991
-0.71208768
-0.62643883
-0.91356163
0.26263722
-0.16740356
0.13321237
0.15161956
-0.27213672
-0.26542823
0.28115964
-0.02383885
0.08184314
-0.35544560
-0.27992518
-0.18730052
-0.46298934
-0.24906571
0.38610298
-0.15356885
-0.59326057
0.25108721
-0.20662987
-0.36946960
-0.46642123
0.39565530
-0.34940563
1.39732594
0.45318270
1.04124501
-0.83067369
0.70054485
-0.12455041
-0.11698096
-0.01820348
0.35353920
0.35513047
0.36417320
-0.06955998
0.33031606
0.27068645
0.29060471
-0.45458557
0.52303014
0.45527627
0.11909970
0.15399979
-0.03427470
-0.09542302
-0.43925927
-0.35062506
0.54999558
0.93219912
-0.70439366
1.01352034
0.79423430
0.45271715
-0.50421398
-0.42557909
-0.44849107
-0.16937774
0.21464000
-0.13758466
-0.58058120
-0.39249081
0.17742715
0.06159265
0.45720005
-0.50980706
0.43114828
-0.14865490
0.12511394
-0.36499357
0.41258119
-0.13890648
-0.31569963
0.10708676
0.22741432
-0.11484552
-0.47903727
0.64535400
0.90951667
0.08883448
-0.18975894
0.17546962
-0.17019553
-0.02547640
-0.08843369
0.10183445
-0.02301012
-0.11272127
-0.03253220
0.43440486
-0.70332932
-0.01624997
0.33301121
0.24466960
-0.41717179
-0.26712623
0.47841550
-0.00797005
-0.34849009
-0.39085041
-0.37121316
0.06041831
-0.14470365
-0.05108203
0.17621041
0.47054874
0.30988925
-0.26516610
0.02692372
-0.38134783
0.46118243
-0.02596377
-0.39812122
0.49884538
-0.31028362
-0.50752885
0.16202247
-0.21835611
0.08401911
0.43344852
-0.19356430
0.30549786
0.30675789
0.35891008
0.30275075
-0.21435643
0.20462748
-0.26734646
0.12333757
-0.39485298
-0.36372101
0.26997014
0.04183720
0.19247435
0.18739208
0.21262342
-0.07475877
0.49366861
-0.24971938
0.45634195
-0.36583093
0.13306957
0.19889376
-0.44189139
0.45759109
-0.43816051
-0.48070574
-0.24550600
0.23072142
0.02967195
0.25200529
-0.05401665
-0.36434348
0.29742332
-0.05106453
0.06264395
-0.74284733
-0.31906526
-0.17174786
0.26978996
-0.57349481
0.01090574
-0.33102200
0.34588362
0.19382327
0.03592678
0.09054909
-0.15777879
-0.46186943
0.25328828
0.30190495
-0.06131568
0.23945186
-0.09997237
-0.19444962
0.43495095
0.38206043
-0.13123485
0.25463279
0.02145748
-0.37459286
0.37597710
0.41825263
0.29696461
-0.06894916
-0.08410029
-0.29348507
-0.12369322
-0.45683498
0.23276090
0.06495702
0.01705461
0.33158746
0.28470066
-0.45713077
-0.26869151
-0.21908577
0.06689674
0.37341147
0.23779432
-0.25405328
-0.39298043
-0.45298054
0.40996218
0.22134797
0.15782548
0.21819908
-0.03436944
0.12968899
0.11738953
-0.05279103
-0.18535376
-0.44162862
-0.05160724
-0.23650764
0.33704164
-0.33862493
-0.35779404
-0.23207532
0.26364941
0.40820260
-0.11669312
0.36300089
0.38320163
0.14807743
-0.15106802
-0.23505401
0.12278641
0.33871906
0.40747651
0.36515268
-0.17178457
0.83766386
-0.07178840
-0.47951674
0.30541237
0.30119881
0.26308522
0.38696362
-0.20198498
-0.11197659
0.18142163
0.24764380
-0.26605411
0.65373859
-0.06891799
-0.42597879
-0.12827575
0.13112482
-0.15117376
-0.72784460
-0.51110454
-0.49216376
-0.33118101
0.42504811
-0.27835398
-0.49825956
0.26097437
0.19254133
-0.35730765
-0.33577713
0.39374790
-0.27816570
0.03030642
-0.10221136
-0.17514264
0.23077797
-0.05910898
0.09541037
0.16745566
-0.07018912
0.77843594
-0.25679329
0.70376031
-0.24499031
0.64163245
-0.48028772
0.24200476
-0.03629900
0.16248063
0.11291298
-0.01112096
-0.03040979
-0.33320921
-0.44780798
-0.16393229
0.01302876
-0.28493793
0.40832239
0.33994433
0.31779925
0.21395518
-0.07292853
-0.07872778
0.49430464
0.06247199
0.05298493
0.03765611
-0.01982163
-0.23537983
-0.34639336
-0.52540722
0.08867435
0.21613733
-0.31043940
0.29426774
-0.54411198
0.32961720
-0.44099130
0.07789170
0.24635848
-0.47065248
-0.31115475
0.37619726
0.59828550
-0.27463376
0.03992080
-0.44828205
0.25759067
-0.05956738
0.08964195
0.53946703
-0.41838520
-0.46775805
0.80327674
0.90486574
-0.37742096
-0.70671066
0.84371227
0.64730665
0.04632229
0.47461331
-0.33055701
0.13264143
0.35165351
-0.23399874
-0.11051216
-0.37600741
0.10201220
0.06184309
0.24018788
0.33275355
-0.15456292
-0.25620174
-0.17003719
0.05810563
0.37777841
0.04842808
0.17252509
-0.57154397
-0.03454061
-0.12817023
-0.08738305
-0.22968642
0.40392356
0.35054682
-0.20845388
0.28246295
-0.05129547
0.07211500
0.30658853
-0.11255538
-0.11826810
0.20905927
0.35334043
0.20809242
0.16025560
0.03408542
0.19040513
-0.46615218
0.21485727
0.25440064
0.31653535
-0.08348475
0.32672344
0.15169363
0.28329952
-0.31502271
0.46110078
-0.39405739
0.17110822
-0.04649038
-0.14571975
0.46664664
0.34288902
0.50264085
0.48696859
-1.32301622
0.76190954
0.74517450
0.62054428
-0.33040242
0.11693030
-0.24091107
0.25017410
0.04897099
-0.39975905
-0.23700720
0.16409348
0.24348004
0.25262822
0.40863719
0.63581327
-0.19631973
0.43764423
-0.47948319
-0.38819802
-0.02102672
0.00810742
-0.12839109
0.14746554
-0.35362567
0.17523966
-0.21104499
-0.14261795
0.04658496
-0.44259276
-0.10140072
-0.23652941
-0.19252412
0.07389635
-0.18224583
-0.16009424
-0.26866986
0.41475838
0.32642483
0.34671767
-0.53211160
0.50603205
0.33128935
-0.23818910
-0.60821613
-0.07803692
-0.11040778
0.31004749
0.13260866
-0.07220629
-0.56202758
-0.09750400
0.34805075
0.46544800
-0.04883740
-0.27978597
0.39588513
0.47359916
-0.12432461
0.10566078
0.47969238
-0.12061742
0.08426675
0.04480910
-0.34369994
-0.39225390
-0.50101723
0.89150763
0.40420178
0.01617240
0.20548818
0.92343676
0.54398309
0.26090272
-0.27784987
0.37436618
0.44941840
-0.03833291
-0.21228702
-0.17581911
0.80810304
-0.23637537
0.11206844
0.08595773
0.59695907
0.41531683
0.57300030
0.38391715
0.12780503
-0.12664637
-0.01537931
-0.11469270
0.36843533
0.16643458
-0.04413074
0.34193583
0.38237459
-0.35481521
0.39336014
-0.32338403
-0.32410302
-0.23071629
-0.07412528
0.34676009
-0.18147918
-0.05476414
-0.38259833
-0.47859729
-0.45969618
0.25734018
-0.09310166
-0.34791118
0.09571501
0.08421983
0.24483399
0.41339530
0.13573112
-0.27285953
-0.30875753
-0.15743844
0.05639493
0.19875472
0.16431376
-0.43782363
-0.23093907
0.48612092
0.20163086
-0.22543417
-0.16574207
-0.10605300
-0.03099194
-0.61076247
0.55173810
0.91579128
0.39382307
-0.16188859
0.59212322
0.22273963
-0.25045694
0.11761497
-0.34674205
-0.16368687
0.00534489
0.39807436
0.17256938
0.04440904
0.28288862
-0.20440480
-0.11994849
0.17623510
-0.20420263
-0.15794629
-0.39528330
0.39534513
-0.28887266
-0.15772113
0.21633905
-0.35761918
0.18063849
-0.24554707
0.31476595
-0.36561549
0.35506892
0.35761867
0.01881435
0.15091210
0.17058612
0.24223479
-0.00143419
0.48572929
-0.26283863
0.28113958
-0.10477317
-0.26747824
0.43839517
0.45110411
0.19705089
0.51280022
0.42229148
0.09717372
-0.30795493
-0.36783360
0.18333608
-0.14594410
0.17284283
-0.02653158
-0.39356105
0.09928997
-0.48609639
0.42273247
-0.26686055
-0.40179347
-0.35532748
-0.39066885
-0.49902167
0.49935958
0.00320398
-0.05208825
0.51422461
0.26470925
-0.36493912
-0.17043599
-0.35497702
0.11666889
-0.54929264
0.25858685
-0.06320368
-0.73927781
0.56363045
0.06340445
-0.75953844
-1.13920834
-0.30194781
0.54141266
-0.59238453
-0.55011490
-0.19024947
-0.59674253
-0.55177168
-0.46718889
-0.34504205
-1.16180346
0.69117705
0.18841607
0.55969423
-0.42213856
-0.36680231
0.43247254
0.32022684
-0.07808820
0.00812211
0.10832652
0.05279298
0.03351146
-0.22913832
-0.08009690
0.03007612
-0.48962315
-0.08125297
0.05950626
0.38474911
0.41618733
-0.20725312
0.10988029
0.36088596
0.02797201
0.07842867
0.11476444
-0.44441962
-0.00525216
-0.18227424
0.19586484
-0.43659176
-0.43325946
0.25499740
-0.17708225
0.11755080
-0.28503345
0.24923801
-0.19106755
-0.04312789
0.14396676
0.37364175
-0.23310096
-0.40167995
0.29137070
-0.27053239
-0.38095102
-0.08674927
-0.23788853
-0.01313058
0.50321878
0.39728564
-0.03654092
0.26374110
-0.59946565
-0.18737539
-0.08809560
-0.10478454
0.02155736
0.32678409
0.29174189
-0.05178619
0.12833289
0.10785572
0.06396321
0.58048617
-0.24145451
-0.15800373
0.49639402
0.23482188
-0.36471073
0.32390937
0.04697578
-0.52503068
0.11803755
-0.18652232
0.39443735
-0.47671825
-0.76711937
0.60993067
0.51449120
0.38919652
-0.00562319
0.10494661
-0.21844228
0.12580292
0.10520153
-0.28543958
0.34535283
0.42717880
-0.25919593
-0.24974814
-0.24306304
-0.14137313
-0.45444595
0.05484924
0.22908738
-0.13101197
0.24626700
-0.18561399
-0.27591161
-0.05305618
-0.36108066
0.03114921
-0.30343346
0.35026804
-0.68239421
-0.14177698
0.32804723
0.70711186
-0.25498504
0.01731561
0.00498652
-0.30550286
-0.12586406
-0.10358044
0.24389940
0.06487847
-0.18703118
0.01533778
-0.23455181
0.27449084
-0.18185400
0.30409225
-0.02695104
0.36042826
0.44105232
-0.43387806
-0.49235808
-0.08987702
0.23062275
0.02144480
-0.16090385
0.29596559
0.10262803
-0.10379048
-0.20470388
-0.07276506
-0.45124949
-0.17505677
0.38426429
-0.20020848
-0.15744798
0.42920896
-0.32521792
-0.18724032
0.47724097
0.07858406
-0.18152112
0.12029894
0.32781769
0.03221175
-0.15928877
-0.42184341
0.33543688
-0.43889051
-0.25442617
0.21545140
0.01890786
-0.30296115
0.22357206
0.02171704
0.30218525
-0.33958796
-0.32347904
-0.38652772
-0.50074597
-0.01841620
-0.21312990
-0.08441668
-0.77744901
0.07471058
-0.21494046
0.41171361
-0.36362787
-0.08175073
0.36417195
0.43390386
0.34906934
-0.35350976
-0.36596310
0.02178055
-0.30223355
-0.10696922
-0.08723326
-0.41001891
0.06607377
0.37509085
0.24625264
-0.59427644
0.28963345
0.34897567
0.30014853
0.29024820
-0.08172945
-0.29628215
-0.45444399
0.59379658
0.27048455
0.16217744
0.09620031
0.68208378
0.26024081
0.15670309
0.40035763
0.15608767
-0.20171624
0.08554368
-0.15996273
-0.39072831
0.56546581
0.49475774
-0.33611521
-0.56489920
0.22128917
0.08829692
-0.12802398
-0.27877091
-0.19068662
-0.26863522
0.27285065
-0.66267605
0.18835783
-0.34385945
-0.40028126
0.01125231
-0.12306918
0.12502082
-0.04956593
-0.05877193
-0.30256445
0.19904452
0.29760755
0.49689304
-0.49911977
0.36151923
-0.40192003
0.24189265
0.16180954
-0.24968644
0.05042631
-0.46231282
-0.35131955
-0.39260412
-0.45854429
-0.38181803
0.06359109
0.38569327
0.46316482
-0.81631902
-1.09834219
-0.34764604
0.11673213
-0.78392710
-0.57125010
-0.39550812
-0.54031725
0.14706310
-0.44351173
-0.03966946
-0.48104253
-0.15863837
-0.54947646
0.05566468
0.47819964
0.07744694
-0.57779235
0.34688691
-0.21627280
-0.09676063
0.42686104
0.24169299
-0.07740251
0.07745582
-0.36724972
-0.50462907
-0.49934869
0.14158701
-0.13023647
-0.28290204
0.42264923
0.38488890
-0.47071535
-0.02787513
-0.21496197
0.23775298
0.20322393
-0.29555518
-0.18105660
0.03033282
-0.25627033
0.48058482
-0.39442062
-0.19511396
-0.18239572
0.26803426
-0.12976106
0.16300708
0.40976531
0.57111843
0.02753966
0.26327726
0.07669095
-0.48933780
-0.53439923
-0.18915364
-0.26663746
-0.08158542
-0.37182219
0.23904200
0.27696124
0.24757133
0.45082237
0.55060983
-0.10709004
0.11543041
-0.42480244
-0.20740155
-0.41890182
-0.08764272
-0.13417702
0.35183073
0.24195410
0.34567631
-0.11843286
-0.20247959
0.33153449
0.31684347
-0.62082146
-0.15581793
0.60773353
0.04431793
-0.35424593
0.30515295
-0.07089322
0.05910663
-0.17889705
0.28070671
-0.27230421
0.06763942
0.11411368
0.35364839
-0.09563843
-0.17162353
0.01020132
0.21240285
-0.03174774
-0.27823634
-0.18492588
-0.44256689
-0.16347634
0.46851906
-0.29757132
0.17816966
0.55263495
-0.21121541
-0.05518769
-0.12535187
0.16260212
-0.43483864
-0.46240564
0.13558800
0.16726119
-0.32758614
0.07105341
-1.04062765
-0.29985616
-0.74440755
0.66053829
0.11403792
-0.11185076
0.26173339
-0.07558127
0.47056038
0.10692339
-0.26782078
-0.31400625
-0.33872727
0.36872904
-0.32973937
-0.14908793
-0.17904382
-0.01682192
0.19208777
0.41553990
-0.08583516
-0.22126306
-0.08539194
0.11186067
0.08964147
-0.37637270
0.49259817
-0.23269348
-0.09865407
0.14369348
0.19520947
-0.30954879
0.47582239
0.09802867
-0.08551563
-0.09624990
0.41740051
-0.09432123
-0.45386623
-0.06684479
0.34942950
-0.43207338
-0.37297566
-0.31587545
0.19562639
0.05239896
-0.03880837
0.42893112
0.30799128
-0.24088052
-0.16478085
-0.08242853
-0.51452791
-0.08618125
-0.47623783
0.27472295
0.45786752
0.45083813
0.21504482
0.13503206
-0.35208205
-0.44732249
0.45484056
0.00308818
0.26218462
-0.44072178
-0.39484670
0.39963300
-0.35103568
0.23232611
-0.47166487
-0.08316392
-0.44886285
0.04909075
0.36712885
0.37599714
0.05229606
-0.62596005
0.23619964
-0.46410973
-0.37906975
-0.49093148
-0.35637887
0.24653973
-0.31573233
-0.26601952
-0.18908105
0.38975398
0.12402218
-0.04740529
-0.25762556
0.08075501
-0.39455480
-0.12521986
0.53250932
-0.56775303
0.30097857
0.25836121
-0.20083851
-0.44766518
0.26600848
-0.08196165
0.28265936
-0.65199064
0.53937862
0.34670407
0.56819846
-0.28047499
-0.20686324
0.25538336
0.16680482
0.31560613
0.49752550
0.07396810
-0.21388211
-0.05891568
-0.35789280
0.03348173
-0.06294343
-0.50234469
-0.06020503
0.04545221
0.06164784
-0.44213898
0.04198068
-0.36504574
-0.03624875
-0.11713270
0.22110915
0.18199880
0.08316616
0.40503037
0.30049544
-0.12408111
-0.59269396
-0.21607516
0.08636288
-0.33151866
-0.29356476
0.23765595
-0.21883269
0.21452088
-0.56112062
1.25819904
-0.21845680
1.03810112
-0.86442689
0.90818914
0.22838664
0.45663370
-0.12723718
-0.24141459
0.29649804
0.34450825
0.40059377
0.04856829
-0.55178538
0.03369359
0.31548682
0.18879710
0.14834087
0.19507940
-0.50795817
0.14090349
-0.33056587
-0.34026677
0.17704284
-0.12510064
-0.54415386
0.43477931
-0.06502729
-0.47935693
0.08670465
-0.05779232
0.23539270
-0.13226876
-0.37217264
-0.47868107
-0.34770498
0.02000022
0.27331609
0.38855318
0.72884339
0.16452553
0.62556470
0.14953195
0.40683551
-0.49932824
0.49412696
0.03002980
0.38201951
-0.41434114
0.40345691
0.19748308
0.59527848
-0.57308266
-0.48212534
-0.16828974
0.45821708
0.14005529
0.24855783
-0.44365637
-0.10299004
-0.38536996
0.40252811
-0.55068722
0.26569827
0.48972872
-0.39267409
0.48078484
0.28096238
0.32274158
-0.03622647
-0.11017208
-0.51118253
0.04300957
-0.51845911
0.04265223
0.38125855
-0.01531544
-0.45326647
0.16080907
-0.28254968
0.35271542
0.28298670
0.38872845
0.29303838
0.35003015
-0.54023453
0.38853407
-0.17396012
0.32014570
0.15049122
1.22058791
-0.17103877
0.39913838
1.09145778
-0.08639645
-0.74696906
0.60153499
-0.13304431
-0.53629697
-0.18788852
-0.23477123
0.31545485
-0.85657235
-0.57187125
-0.22652273
-0.45595103
-0.07061537
-0.21794655
0.47320446
-0.35342246
0.16924980
0.48314127
0.41166665
0.47376781
-0.46855602
-0.25146480
-0.45849231
-0.05018589
0.48921274
-0.27563915
0.11054782
0.21004107
-0.06078256
0.17015722
0.43665934
-0.42322184
0.43373436
-0.24634081
0.01330403
-0.16032677
-0.91936082
-0.15094581
-0.59445956
-0.00375790
-0.32127663
0.32405610
0.29427810
0.04249533
-0.45527438
0.27946951
-0.09239130
0.33321858
-0.40381351
-0.34714395
-0.37168037
-0.21682151
0.45163731
-0.47499022
0.28210375
0.02542908
-0.25975859
-0.08488488
0.18977643
0.42389740
0.35950638
0.22806073
0.18054661
-0.05861316
0.16945084
-0.46970028
0.33466143
0.30435523
0.05420362
0.03615629
-0.33023679
0.39148875
-0.13891751
0.25658420
-0.29694630
0.22418236
-0.45550609
0.36723948
0.49561262
-0.35797571
0.27648298
0.01671349
0.05366567
-0.26325593
0.07719950
-0.32749548
0.09168531
-0.01415298
-0.50373712
-0.48123706
0.10528155
-0.30367033
-0.48562968
0.36104057
-0.53004984
0.49389217
-0.14505740
-0.17951835
0.33616644
0.03215592
-0.33518082
-0.68013684
0.22335532
-0.42140502
-0.22229941
-0.56281719
-0.24830350
-0.27424028
-0.18403153
-0.12768594
0.26010856
0.08694375
-0.33283951
-0.26928233
0.25186287
-0.26045897
-0.37586276
0.53949775
-0.53910008
0.26543288
-0.11684431
-0.25512469
0.49271534
-0.52368227
-0.07946197
-0.32908019
0.13588131
0.37064837
-0.65838652
0.04757579
0.06374558
-0.39695040
-0.47690443
0.49852066
-0.45405427
-0.34303016
0.18079292
-0.19614406
-0.18989737
0.35518318
0.11643077
-0.16247925
-0.10198874
0.14359058
-0.23809147
-0.15122431
-0.19413087
-0.41508385
0.37959275
-0.41671825
0.34133532
-0.27168955
0.07244387
-0.62043999
-0.73524005
0.41215214
-0.73730469
0.35095086
-0.06771321
-0.00610262
-0.12401869
0.15669841
-0.44787372
0.29365645
-0.10298187
0.06204201
-0.57765905
-0.11636251
0.08141447
0.05785612
-0.22983768
-0.14338333
-0.01544195
-0.17648382
-0.52391308
-0.26131109
0.33716484
0.26441233
0.53025546
0.46022127
-0.36744700
-0.45610021
-0.42835627
-0.49059096
-0.66646702
0.32248816
-0.52373652
-0.49179385
0.09134867
-0.38483051
-0.35800623
-0.05411007
0.50969015
0.05217504
0.31845222
-0.38932069
-0.06737418
-0.24712650
0.41756112
-0.48942581
-0.04755915
-0.03868319
-0.04282336
-0.13407752
-0.15906251
0.38879930
-0.43346280
0.01453779
0.24925767
-0.03029885
-0.47690035
-0.49861580
-0.42425635
0.19046250
-0.19383965
0.06202269
0.11230639
0.30820967
-0.60278533
0.07210411
0.21187775
0.29998400
-0.20575216
0.31112923
-0.52233499
-0.39332441
-0.25033764
-0.29736220
-0.35893613
-0.20097003
0.30035184
0.35111800
0.22551650
-0.23045521
0.06013178
-0.40665477
-0.38375924
0.17138119
-0.29091478
-0.33059604
-0.00247537
-0.28561770
0.41709738
-0.29704456
0.21076417
0.05736008
-0.06142528
-0.07920743
0.01104964
0.11218809
0.20338670
0.09974754
-0.26181178
-0.02462394
-0.27852738
-0.36734656
-0.26994415
-0.49496284
0.09314582
0.00295770
0.52547459
0.40449752
-0.44254020
0.15153681
-0.15075819
0.48776139
-0.18946829
0.25842769
-0.49088066
-0.84632370
0.60547644
0.30740039
-0.09783333
-0.32215145
0.64571106
-0.14785749
0.36178050
-0.17898791
0.45229166
0.05068232
0.01474356
-0.54950553
0.02799554
-0.41059922
0.56066805
0.14725715
0.07676161
0.09378134
-0.20358588
0.17138482
0.07976988
0.24169910
-0.47501129
-0.52884523
-0.01102356
0.13546391
-0.08375416
0.04123728
0.03680447
-0.26355387
-0.15918491
-0.48202143
0.09990361
-0.18640115
-0.35979094
-0.00162921
-0.24170926
-0.00613284
-0.49265356
0.42183594
-0.21110300
-0.40295455
-0.00138058
-0.25895943
-0.38587375
-0.15514939
-0.27819215
-0.58208923
-0.24377208
-0.55150275
0.02642439
-0.06736388
-0.40404757
-0.09033272
0.03211224
-0.08060131
-0.26037014
0.09143486
0.21002959
0.33373958
0.10275010
-0.23208298
0.01896657
0.41099257
0.00630109
-0.34523961
-0.12106180
-0.44421012
0.40902375
-0.08217567
0.08599225
0.50314897
0.46283887
0.44676975
0.19831242
0.21172508
-0.32053300
0.30502514
-0.45188776
-0.39861820
-0.49787500
-0.06332620
-0.05604804
-0.05822610
-0.24924622
0.00390318
-0.14212726
0.38851270
-0.50428923
0.47408942
-0.47294405
-0.38225592
-0.26271389
-0.30724081
-0.18543730
-0.10954030
0.48609368
-0.42696082
0.30925325
-0.48256018
0.30929715
0.42846633
-0.09961088
-0.25239606
0.03836016
-0.05360667
0.45782910
-0.02847086
0.15157286
-0.45449039
-0.15518282
0.39284133
0.47163438
0.06808144
-0.24988394
-0.10922175
0.03200505
0.69451888
-1.15266781
-1.56137152
0.34841146
0.79452389
-0.04750807
-0.09154345
0.34644331
-0.07400364
-0.24321868
-0.12981998
-0.20151236
0.14176819
0.03849379
0.03139768
-0.45519829
0.29877880
0.01412171
0.33060734
0.08430284
0.42338704
-0.21606432
0.48319774
0.08312772
0.44350207
-0.45867126
0.62329698
-0.73959978
-0.20055750
0.26822245
0.12514924
0.01495099
0.04555563
0.12804771
0.56823461
-0.22916007
-0.15462685
0.51042549
-0.48313276
0.17071692
0.31101055
-0.27525246
-0.17231360
0.36220099
-0.30430673
0.31188606
-0.08834319
-0.25447061
0.06366597
0.08793435
-0.13145544
0.75872307
-0.27938788
0.40690822
0.49257829
-0.40754978
-0.28315689
0.20171321
0.27363370
-0.39283561
0.16287250
-0.33761013
0.36503688
-0.12493008
-0.02060987
0.24093703
-0.12368174
-0.09153324
-0.32756716
0.39899529
0.40719333
-0.27328412
-0.25952482
0.08260831
-0.32612856
-0.16978589
-0.39178760
-0.20881964
-0.27978175
-0.17770957
0.23245578
0.07002429
0.30241873
-0.41201817
-0.41304143
-0.44053254
-0.24688676
-0.37474198
0.46056456
-0.26369552
-0.09619812
0.00716239
-0.12049405
-0.23865372
-0.22993239
-0.20882775
0.04460068
-0.32216291
0.02398830
0.28459066
-0.15447692
0.09422533
-0.07039176
-0.23333460
-0.47901689
0.07171076
0.15096809
-0.32151134
-0.42688779
-0.37719009
-0.53139009
0.13705390
-0.06210188
-0.15621548
-0.40711070
0.05284522
-0.03020046
-0.35944527
0.54299690
0.24120525
-0.27581208
-0.09692804
0.34088455
0.02834364
0.37942881
-0.34734394
-0.30696708
-0.55768244
-0.11363806
1.53735200
-0.96726794
-0.63234819
-0.69859633
0.64664404
0.16334733
-0.33012541
-0.06708259
-0.26332078
0.29691081
-0.15060922
-0.40885958
0.42605524
-0.30811119
0.59953332
0.09427404
-0.32646128
-0.21002886
0.11001285
0.28219668
0.05549522
-0.41883158
-0.36131012
-0.41154327
0.02681509
-0.00876462
-0.21696852
0.56957961
0.00372218
-0.31128366
0.69410517
-0.86177153
0.04283936
-0.46520199
0.04968094
0.26565973
-0.51728945
-0.29014861
-0.30026180
0.51807470
-0.28217062
-0.28287611
-0.57345468
0.19428212
-0.31904707
0.23264552
-0.18350195
-0.43017569
-0.27929446
-0.13657063
-0.20465142
0.12967579
-0.59051044
0.26493896
-0.31081228
-0.56516810
-0.10611307
0.34039940
0.20603941
-0.41196784
-0.46974682
-0.04724892
-0.43604491
-0.53566953
-0.01261782
0.19523999
0.25216904
0.21190988
0.24212930
0.37287518
-0.49266935
0.31864034
-0.15232683
-0.54522075
-0.24054535
-0.57063890
-0.28822612
-0.34496826
0.12121590
-0.88270339
-0.32581409
-0.66885253
-0.10589239
-0.18593847
-0.17193836
0.05537807
0.46965635
0.09267290
0.44548203
0.56587710
-0.04246787
-0.34460778
-0.42701171
0.40994109
0.30543714
0.20905312
0.29458558
-0.07738808
0.08222653
-0.30808219
-0.40979377
-0.10795586
-0.33328825
-0.48533269
0.14698739
-0.54910760
0.09048636
-0.31056898
0.16275984
0.42722111
0.07613931
-0.34327962
0.35069072
0.37509898
-0.32138292
0.24541561
-0.16764150
-0.56053194
-0.39830350
0.31971108
0.32570240
0.13770601
0.24595820
0.61065301
-0.20084003
-0.43087534
-0.17333891
-0.14135062
0.02223989
0.46503309
-0.51048920
-0.36017320
-0.48826836
0.43020958
-0.27664263
-0.04291072
0.27981749
-0.25613813
-0.47977888
-0.12400877
-0.27396167
-0.19114349
0.15086097
-0.45500795
0.62498316
0.09471192
-0.21014571
-0.15367621
-0.01758649
-0.10127716
0.51154305
-0.31511242
0.27613515
-0.35181426
0.61295654
0.23950268
0.00732063
-0.14537860
-0.31169836
0.21866252
0.30724095
-0.32298497
-0.35000187
0.36639912
0.09495185
0.42210680
0.19963099
-0.01990639
-0.31188328
0.07071345
-0.36282923
0.21157064
-0.34828297
-0.12273891
0.29016444
-0.32355604
0.27468746
0.00897689
-0.37252797
-0.02347485
0.17606706
-0.14933372
0.10180383
0.24894767
0.31259137
-0.56286024
-0.04700575
-0.06780848
-0.51277066
0.33916903
0.50154568
0.38681949
0.23673610
-0.34462008
0.43373336
-0.18823607
0.12386561
0.20519332
-0.39080348
-0.35971260
0.48526750
0.48620892
0.30351512
-0.33222690
-0.07162350
0.51776671
-0.49408961
0.33349632
-0.30078862
0.28058791
0.15437961
-0.18850126
-0.29771812
0.09635387
-0.30765410
-0.47797081
-0.50990544
-0.50091512
0.36591161
-0.40780270
0.47608817
0.26100987
-0.39354163
-0.50200016
0.26409006
-0.32987029
0.26250454
0.10481413
-0.27576303
0.51619271
0.45708655
-0.25997675
0.23147570
0.25068727
-0.09765353
-0.06495628
-0.03090185
-0.13432221
-0.48820690
-0.38573410
-0.06180815
-0.16209870
0.44736226
0.23551031
-0.04470797
0.41387474
0.04601409
-0.14319594
0.98254273
-0.09862905
0.85583939
0.01171549
0.35896792
-0.16369805
0.15333024
0.11613696
0.20392139
-0.10269839
-0.14664890
0.39198974
0.38858693
0.53880315
0.00407384
0.03279613
-0.50077877
0.23197589
0.23295014
-0.46058893
0.26211011
-0.40266295
0.27437968
0.20251509
0.23645610
0.11321094
-0.46019930
0.17156779
-0.02234630
0.36196726
-0.02142631
-0.52605075
0.28497267
-0.44947912
-0.45334244
-0.34761519
0.36748703
0.47263537
0.08418150
0.27114178
-0.25150268
-0.50928336
0.11195215
0.32939746
0.43974691
-0.14560126
0.22144446
-0.43083600
0.35447545
-0.33171727
0.43901348
-0.21405067
-0.53233459
0.29254426
0.36142460
-0.08449328
0.01354323
0.42141158
0.33422662
0.44580187
-0.14368157
-0.04666690
-0.40877080
-0.03224586
0.01136996
-0.33329438
0.12853914
-0.33191278
-0.09547648
0.11562471
-0.05516194
-0.19806434
-0.37737641
-0.08852106
0.16512427
-0.34670094
-0.18595789
0.14542512
-0.68565438
-0.06436757
0.26946882
-0.22472941
0.03547017
-0.45170508
-0.67131010
0.22468511
0.23393771
0.34673398
0.32146552
-0.13723863
-0.36650239
0.13962594
-0.15991853
-0.34332327
-0.35979998
-0.20989863
-0.00727318
-0.40405048
0.43432920
0.38290469
0.42495709
0.41431898
0.36264113
0.43604448
-0.01712851
0.26022965
0.30588992
-0.22783656
-0.06659297
-0.17640732
-0.31046145
-0.05363551
0.01508304
0.44288157
0.08959659
0.18027231
0.25672878
0.26467722
-0.52117327
0.05397013
0.02706076
-0.12713429
-0.21534748
-0.51962765
0.02536952
-0.00144070
-0.31188786
-0.09033853
0.41834218
0.36387024
0.27801437
-0.05697759
-0.02166890
0.43986715
-0.29107488
0.37683000
0.22152779
-0.08374228
0.20856177
-0.22084723
0.21002264
-0.48217342
-0.15866107
0.27737104
0.23104790
0.08040757
-0.03778048
-0.26450405
-0.22118454
-0.10033579
-0.09826407
-0.24821675
0.06775874
-0.36405083
0.34011597
-0.03505975
0.81606316
0.18047264
0.66973814
-0.46688986
0.54472073
-0.03226774
0.39070867
-0.55680193
-0.03609656
-0.14481807
-0.14675566
-0.05058032
-0.27465275
0.62144406
-0.55300095
-0.37113343
0.26328162
0.35653316
-0.39201045
-0.29637156
-0.24159980
0.22106440
0.26558599
0.07728972
0.58057000
-0.70192702
0.24912073
-0.02651428
-0.88236034
-0.15969681
0.64458966
-0.20171882
0.11434259
0.61253008
-0.27937162
0.33660060
-0.11593049
0.51313953
0.24692758
0.48749292
-0.33777007
-0.12530670
-0.48837250
0.24475320
-0.49910645
-0.40363551
0.04263910
0.23923258
-0.11043113
-0.04512150
-0.03416328
0.04121285
-0.20340693
-0.57678441
0.27529712
-0.28103731
-0.19600821
-0.32912574
-0.20921293
0.14709541
0.11341297
0.42572252
0.11435514
-0.12826226
-0.39722982
-0.51795772
0.40051712
-0.06213896
-0.37066776
-0.16367533
-0.12338660
0.36967932
-0.46127065
0.04123250
-0.34380094
-0.10801891
-0.07290345
0.44845321
0.11902231
-0.14211943
0.14716627
0.00162163
0.25030659
-0.05241307
0.48076098
-0.31911031
-0.33009402
0.42337867
0.13456629
0.18345681
-0.11519736
0.79674695
0.05546671
0.51710140
-0.65912141
0.56086092
-0.40603183
-0.31680864
0.30157844
-0.44296482
0.05926168
-0.43112009
0.11573038
0.08264808
0.39248605
-0.39185857
-0.16637742
0.47454481
0.48752723
0.12686064
-0.10306961
0.08510538
-0.21528069
-0.24224975
0.32755741
0.02033842
0.63846657
-0.17152688
0.44426234
0.37118916
0.40998069
0.29614308
0.38096621
-0.37530654
0.10866546
0.57691556
0.38507496
0.47714818
0.28339504
0.46071863
0.50024244
-0.05258177
-0.24153984
0.37558134
-0.23276963
-0.33380541
-0.16216923
-0.36957889
0.33688255
0.33996019
0.29795560
0.31949467
0.58603884
-0.55408991
0.81158289
0.62823610
0.23275398
-0.37744777
-0.30253539
-0.34289214
-0.12562659
-0.53705792
-0.46628214
0.15690801
-0.05857907
-0.39362437
0.17631803
-0.12155156
0.52586863
-0.31753683
-0.15320727
0.41393306
0.18729809
-0.21614523
0.05752690
0.10047064
0.27880796
-0.28028913
-0.26032122
0.53856139
0.91631609
-0.76976962
0.25412050
1.85297248
-0.72474015
-0.22588457
0.21251125
0.39023368
-1.01532104
-0.77597518
-1.47921916
0.26586289
-0.54364654
0.21597566
-0.73302108
1.40757971
-0.00114779
0.09442386
-0.10506776
-0.45141302
0.31152004
-1.24308215
1.75812547
0.66111976
2.32024714
0.60258556
2.05138209
-0.49857519
0.89652625
-0.64341138
0.30419117
-0.20881008
0.47212874
-0.08103754
0.49476023
0.11129084
0.27873581
-0.32975214
-0.12138928
0.29985157
-0.87381927
-1.30253068
0.27181557
1.06809140
-0.67389608
-1.09816638
-0.87681660
1.66928509
0.06704789
-0.39287445
-0.06715964
-0.82241115
-1.87158024
-0.96672757
0.09179981
0.92700969
-0.43431959
1.27173579
0.65332342
-0.14847611
-0.10713366
-0.07554413
1.22994237
0.09881997
-0.19014961
-0.75121982
-0.61213925
-1.31433867
-1.97568539
-1.69943632
-0.28939472
0.02814821
0.04797126
-0.72194831
-1.26013846
-1.15095857
0.16284338
-1.10961887
0.30739621
-0.09332532
-1.13685546
-0.44487652
-0.66150897
0.51876203
0.78875542
0.88205118
0.83023497
0.39707134
-2.01019658
0.50366344
0.21809265
0.18082526
-0.83629539
0.27172041
0.74577242
0.02873114
-1.01814546
-1.35815219
-0.51740226
-0.80831493
-0.04837054
-0.53773077
0.48088146
0.58178698
-0.45283877
-1.15981160
0.33376099
-0.61728966
2.51137671
0.52119369
0.39499449
0.74646997
1.10069581
0.35347824
-0.72787556
-2.54313447
0.44665020
0.25297884
-1.21941877
-0.63075958
-0.09526218
0.02630412
-0.01299226
-0.67833991
-0.77479658
-0.62882258
-0.08953896
0.93906367
0.36416889
-0.86295673
0.34287114
-0.22936533
0.79941336
0.17760585
-0.02290720
0.02788221
-1.41184313
0.40409883
-0.74307879
0.96856468
-0.15426491
-0.72095915
1.00873543
-0.38447331
-0.35790378
-2.41337204
-0.29429507
-1.10400086
0.14063835
-1.40410704
-0.55640076
-0.49616404
-0.45241017
0.40145263
0.59824430
2.14882702
-0.41124059
-1.28260693
0.66055472
0.67420641
-1.29036725
-1.41281673
0.65200879
-0.42623175
0.45567247
-0.70683036
-1.18328627
-0.10912509
0.13694048
0.60240775
0.50259126
0.76125350
0.32976937
-0.64878424
1.01095666
0.12043658
0.06697627
0.03512211
0.38318483
0.45164729
0.31162674
0.53183952
-0.28217379
-0.52737291
-0.43278714
0.07067439
1.25689512
-0.87277882
1.43048488
-0.05578422
0.30154889
-0.01837641
0.02198623
0.87742087
-0.57457642
-1.02687636
-0.54958984
1.25220794
-0.85334663
