-0.04275888
-0.01551275
0.48843381
0.10026694
-0.30663636
0.38514093
0.23352328
-0.38161108
-0.33618335
-0.47328530
0.41071230
-0.31214787
0.40733189
0.44934805
-0.56379549
-0.29262121
0.25854077
0.30564080
-0.36570417
0.02605767
0.20591821
0.23639149
-0.22088113
-0.36230801
-0.52380814
0.62665103
-0.13856828
0.12779292
0.56065701
0.14714202
0.03602392
0.24137153
0.36952259
-0.43213509
0.04523642
-0.30690919
-0.29117566
-0.21052133
0.23796277
0.29423689
-0.02087993
0.23712873
-0.05869468
-0.43403471
-0.38662383
0.35070461
-0.02710273
0.29043330
0.01797674
-0.15112415
-0.20018192
0.41452549
0.33405404
-0.37391509
-0.25077713
-0.19906782
-0.43504219
-0.43632751
0.23876158
0.32346013
0.40969143
-0.08388223
0.14111391
-0.11568939
-0.28783360
-0.16964627
-0.16933213
0.28442707
0.33964560
-0.05795976
-0.03736340
-0.33172388
-0.25003135
0.07182935
-0.23391440
-0.19773797
0.04141742
0.05436571
-0.42831120
-0.38375334
0.10097740
0.20255612
0.22199347
-0.21873237
-0.40642598
0.06494789
0.46996094
-0.31661207
-0.20602109
0.19502602
0.03652614
0.23136434
0.52346016
-0.38259239
-0.13129759
0.24875908
0.12579641
0.32502747
0.23653337
0.42860293
-0.38339547
0.03355215
-0.22502430
0.10908883
-0.48087465
0.17533732
0.47419236
-0.05209952
0.23087952
0.38241739
0.36956170
0.29339447
-0.11488710
0.47978616
-0.15583972
-0.17505077
-0.24224312
0.38107237
0.44360609
-0.44671803
0.02869496
-0.08399876
-0.22340220
-0.09908185
0.26909401
-0.31878431
0.06684661
-0.25348155
-0.12082623
-0.38285836
-0.31313981
0.57397594
-0.24796853
-0.15077502
0.07851561
0.32993188
0.06343748
-0.06830930
0.13657475
-0.32200836
-0.44608261
-0.37659780
0.29252148
0.27184948
-0.48294425
0.26549581
0.06344096
-0.26900971
0.34043407
0.44088782
0.03201376
-0.29679123
0.40884441
-0.10181548
0.18845056
0.26965854
0.15888241
-0.10430060
-0.22768068
0.02083717
0.43554401
-0.50215286
-0.18977301
-0.18773865
0.52590261
-0.34036076
-0.26540584
-0.47146419
-0.12124960
0.22221107
0.18108399
-0.12290787
0.16434649
-0.08997032
0.08494774
-0.38575069
0.12008763
-0.39893915
-0.35763446
-0.45931820
0.38747316
0.33767822
0.44971054
-0.04539535
0.10663580
-0.17954948
0.46821079
-0.04444855
-0.17970470
-0.36347342
-0.32578844
-0.25032830
0.39278620
-0.44509344
-0.17094037
0.18346084
0.31581564
0.15532309
-0.40500978
-0.03589299
-0.30734757
0.46014488
-0.20386848
-0.14002929
-0.29370485
0.33868116
-0.35330414
0.13902213
-0.25157162
0.65079717
-0.49476184
0.18439204
-0.43588284
0.25020137
0.36969572
0.24771759
0.36472633
-0.16420579
0.23300958
0.44369409
-0.13771534
0.00539248
0.45731564
0.39700326
-0.30335373
-0.36790815
-0.21141035
-0.33241030
0.01093939
-0.25131070
-0.05136935
0.31951801
0.38349746
-0.44986566
-0.01140656
0.27918976
0.50762778
0.13264744
-0.45140543
0.35533967
-0.34971412
-0.18581737
-0.35811041
0.07325402
0.54202851
0.00057834
0.11672812
-0.35434864
-0.32636982
-0.21817583
-0.46668588
-0.21318656
-0.41483569
0.28191157
-0.26655144
0.10601587
-0.08902755
0.26379054
-0.49297816
0.17182902
-0.31446207
0.30201805
0.27323128
0.29951436
0.33547732
0.31898133
-0.31012114
-0.24709848
-0.47203605
-0.49329578
0.36800650
-0.40375696
0.42916730
-0.39293802
-0.24617455
-0.14627434
-0.07256386
-0.07573040
-0.11416336
-0.06200361
-0.04310357
-0.19905516
-0.17323300
-0.00390263
-0.45454334
-0.40015595
0.09866779
-0.22686818
0.42746797
0.47024710
0.29349151
-0.31631955
0.30208291
0.13082109
0.05760848
0.21507299
0.45355549
0.45421915
-0.08126205
0.53603941
-0.41748919
-0.23214533
-0.45050005
-0.06095791
-0.21394656
0.06936673
0.08106974
-0.38179425
-0.27518470
0.07400948
0.03245547
-0.14249466
-0.32725103
-0.26366083
-0.08198959
-0.16488099
-0.36501307
0.29825139
-0.07618564
-0.51981201
0.14820938
-0.17542026
-0.41861228
-0.40337025
0.22017796
-0.14019712
0.29407040
0.64939393
0.28790736
-0.29119963
0.28435184
0.12916977
-0.18512920
0.11365214
0.42851515
0.52798930
0.42177727
-0.07078308
0.46831780
0.25832076
0.22009293
-0.32719351
0.40940486
0.41358306
0.13976210
0.16960755
-0.11647477
-0.08460314
-0.48283358
-0.31278801
0.42031597
0.35205932
-0.26780681
0.53406028
0.26997092
0.41654287
-0.08201760
-0.21831579
-0.33409275
-0.10595962
0.37758481
0.04459398
-0.35513569
-0.14293534
0.42626277
0.18511533
0.33326927
-0.38398571
0.28137770
-0.07465447
0.10314933
-0.39343080
0.37669196
-0.12492663
-0.36414588
0.04968437
0.25894375
-0.30967051
-0.20738525
0.39697358
0.50954164
0.10421595
-0.00045417
0.06732242
-0.24575570
-0.02131619
-0.08212471
0.12272479
0.03307464
0.00104054
-0.27721930
0.19391760
-0.29551506
0.16602669
0.44607739
0.10610308
-0.25917077
-0.21046271
0.46993561
-0.03884537
-0.28510231
-0.45107303
-0.47898481
0.15201090
-0.03047597
-0.04029697
0.35034520
0.40125342
0.32115049
-0.22932143
0.06233100
-0.50014028
0.47002080
0.01368147
-0.37303545
0.29359599
-0.25400040
-0.62412223
0.25882587
-0.24315012
0.10983754
0.43960411
-0.15420926
0.27428446
0.29250212
0.35513931
0.33399423
-0.22157610
0.16742487
-0.22380630
-0.13455942
-0.32429970
-0.35494754
0.33329822
-0.16038689
0.27282178
0.21740174
0.20402805
-0.11170954
0.43572035
-0.23342548
0.37976699
-0.34683528
0.17783667
0.17676536
-0.42969983
0.45451311
-0.44114311
-0.48554587
-0.23191061
0.22209314
0.02355649
0.24173808
-0.05989477
-0.37824484
0.17041444
0.07601932
0.22541739
-0.51798637
-0.33833012
-0.19321275
0.38070707
-0.47302458
0.00874384
-0.27098570
0.32102435
0.29840704
-0.04133219
0.15883191
-0.14366587
-0.40388769
0.36521868
0.27767833
-0.08009843
0.27901875
-0.09303938
-0.23058064
0.44727075
0.38247287
-0.12254053
0.17369098
-0.03248823
-0.38090461
0.36542612
0.30608298
0.31023107
-0.01017216
-0.04540454
-0.30455783
-0.10287180
-0.42664763
0.27177799
0.11555837
0.05501708
0.12059171
0.63081573
-0.54310240
-0.10298374
-0.25063293
0.18766162
0.48957847
0.40453542
-0.19159939
-0.29423504
-0.41142312
0.45796173
0.27897958
0.16419823
0.24646848
0.08032325
0.23947325
0.11387598
-0.01431832
-0.12093519
-0.43423969
-0.05729799
-0.20509939
0.38718653
-0.34221880
-0.37261123
-0.20176154
0.38698242
0.48059532
0.00890375
0.39617308
0.47858197
0.22933962
0.01240280
-0.24901542
0.17995336
0.47227922
0.49689105
0.26007646
-0.16015398
0.52989341
0.09116643
-0.50113650
0.39867245
0.19786077
0.27308549
0.26258424
-0.21144840
-0.15831623
0.22907189
0.09348527
-0.33923241
0.40438396
-0.16370447
-0.15904342
-0.03423006
0.18188344
-0.32400443
-0.46499450
-0.57100655
-0.36685748
-0.21866874
0.35418514
-0.33473842
-0.28031318
0.35624152
0.41656629
-0.51770860
-0.27171846
0.30062829
-0.21251393
0.00989035
-0.09105902
-0.20057752
0.24736177
-0.09034811
0.12437466
0.15511933
-0.17687259
0.24865224
-0.12225647
0.35144736
0.09073644
0.38703722
-0.43677444
0.13452314
0.04620196
0.13439131
0.15993220
0.03231021
0.01164589
-0.41673969
-0.07780533
-0.24368630
0.10021863
-0.29250262
0.50485479
0.34846842
0.36929611
0.17050421
-0.04549097
-0.00814205
0.44132247
0.02271156
-0.09878798
0.00409197
-0.05650831
-0.43054493
-0.33819611
-0.41362993
0.07788929
0.17180873
-0.31085146
0.25351666
-0.44700971
0.20935849
-0.36735705
0.14245243
-0.02710222
-0.23613411
-0.10249540
0.36023657
0.47632361
-0.16297048
0.08462955
-0.47092967
0.24313846
-0.04591763
0.01751954
0.44645365
-0.11557075
-0.22114280
0.33142445
0.31450655
-0.50105675
-0.40818188
0.46766163
0.42138020
-0.05719770
0.44877524
-0.38730025
0.14159705
0.44118936
-0.08005289
0.16111498
-0.47612475
0.29533209
-0.02386950
0.27230059
0.32182447
-0.12108408
-0.28332121
-0.14069144
0.01875235
0.39248254
0.03942145
0.34008932
-0.43963971
-0.10722547
-0.07358178
-0.12372109
-0.30310546
0.38871841
0.34233400
-0.15790817
0.27220924
-0.16671990
0.00937503
0.43468394
-0.04888366
-0.23705164
0.28038677
0.30519783
0.23189817
0.07305910
0.06048089
0.14030204
-0.46459039
0.17248870
0.19674600
0.28915670
-0.09251335
0.24824763
0.10864938
0.19944069
-0.37836044
0.39508649
-0.37543418
0.16341575
-0.09336200
-0.18028582
0.44569256
0.34137897
0.39223296
0.48870305
-0.34176676
0.48296934
0.33450833
0.31186057
-0.11916849
0.09108745
-0.24099673
0.30693499
0.09573645
-0.46697969
-0.09252058
0.05522339
0.43487390
0.42325360
0.44658895
0.49694050
-0.14605101
0.26127598
-0.24956066
-0.38265238
-0.01125375
-0.01908479
-0.06644081
0.25091094
-0.40240734
0.24592058
-0.25702198
-0.23783694
0.17721839
-0.44348026
-0.04683775
-0.28625029
-0.12499798
0.07990738
-0.19485241
-0.16408770
-0.25534349
0.44227697
0.25793677
0.12669476
-0.52813437
0.48784969
0.05120996
-0.21554394
-0.39410004
0.03290676
-0.11541566
0.33091137
0.21670441
0.05160011
-0.41046027
-0.04420890
0.39187495
0.46070160
0.09744610
-0.16015626
0.41342050
0.46314257
-0.05690327
0.12086571
0.49813744
-0.11458089
0.11040453
0.01744629
-0.32016974
-0.30204167
-0.12691746
0.46884037
0.12315724
-0.12548145
0.35639520
0.49310655
0.42116828
0.11650284
-0.44797622
0.30039852
0.43510912
-0.07824557
0.00970026
0.25625426
0.51081185
-0.24335400
0.04662818
0.20255766
0.41031429
0.48243116
0.48953666
0.33002423
0.13459155
-0.08344573
-0.06879059
-0.08039944
0.73726493
0.00946274
0.14420562
0.27456454
0.44074799
-0.35493003
0.50236258
-0.28382622
-0.27045705
-0.25938583
-0.07251073
0.42888416
-0.13310867
-0.01558670
-0.34531323
-0.37200984
-0.49236137
0.29684795
-0.06527399
-0.31535434
0.07554739
0.11410181
0.28661594
0.41450550
0.09597444
-0.18892666
-0.32652453
-0.14004381
0.08747352
0.19050200
0.11131549
-0.40999668
-0.24912588
0.53343015
0.20189969
-0.28562734
-0.16775344
-0.01149686
0.18290341
-0.30202054
0.09895252
0.44068351
0.30807502
0.01831379
0.42225070
0.04678789
-0.27089718
0.12537976
-0.44822652
-0.10566311
0.23132023
0.40937222
-0.10709054
0.32439433
0.33842710
-0.13043164
-0.27171281
0.30807906
-0.20252774
-0.10260347
-0.40410607
0.34341761
-0.24947628
-0.14247196
0.24040882
-0.50385280
0.25885865
-0.33043946
0.35492347
-0.37762839
0.40150216
0.32052879
0.00256976
0.13540153
0.20387639
0.23683465
-0.04377327
0.46406446
-0.30385680
0.13253890
-0.29473475
-0.26182688
0.38952470
0.34991684
0.14574064
0.48060826
0.32521398
0.04418317
-0.43266069
-0.33343155
0.16351609
-0.17251326
0.26558388
-0.07167194
-0.37127570
0.04293581
-0.44601442
0.35780574
-0.24181078
-0.44455412
-0.42612750
-0.45921026
-0.43756186
0.20521645
0.21662511
-0.04177613
0.36533353
0.32031639
-0.11378467
-0.07754495
-0.40410758
0.22320829
-0.43658193
0.42964977
-0.10353813
-0.54700077
0.41669076
-0.23100773
-0.33069157
-0.48590089
-0.32635030
0.32764309
-0.11930731
-0.34847532
-0.03478631
-0.30778880
-0.53893166
-0.37571270
-0.25122509
-0.43389304
0.29144696
0.05163652
0.28649757
-0.23476478
-0.44055648
0.42008971
0.21149505
-0.05846096
-0.07151845
0.21892915
-0.10888440
0.19245196
-0.22053179
-0.10447010
0.00678457
-0.50699509
-0.12993511
0.05695619
0.37521299
0.36046265
-0.18186019
0.11773322
0.31818121
-0.01955049
0.15305558
0.04201328
-0.54555928
0.08543749
-0.20248912
0.21299015
-0.45443465
-0.37700665
0.25486536
-0.19346301
0.12233639
-0.26668045
0.27241967
-0.25087482
-0.00303804
0.02058359
0.47643889
-0.20595558
-0.38939116
0.23933580
-0.21427924
-0.39585552
-0.10109606
-0.24932789
-0.00555648
0.50029136
0.36117403
0.01698409
-0.28552582
-0.32176427
-0.16637881
-0.03116883
-0.26920260
0.12117380
0.26553507
0.33570505
-0.07412759
0.10312700
0.00789535
0.06537576
0.46638458
-0.36285726
-0.19690040
0.18751901
0.33593829
-0.25685189
0.36457104
-0.02891916
-0.39211552
0.15729953
-0.13468368
0.34914448
-0.26853676
-0.36774333
0.47716388
0.35099800
0.23283154
0.07925270
0.18187486
-0.21699289
0.12415386
0.02426652
-0.33894790
0.50484468
0.31013304
-0.30593463
-0.20187769
-0.19683020
-0.14245694
-0.36889694
0.02367403
0.23715617
-0.10917694
0.26065627
-0.19342108
-0.25077493
-0.05368055
-0.34601606
0.02235655
-0.29424354
0.58611756
-0.56478975
0.38999556
0.30308941
0.49853733
-0.26650642
0.17934261
0.00007457
-0.37015284
-0.23844156
-0.24090683
0.19606645
0.04883675
-0.09792010
-0.10968006
-0.25560442
0.25999827
-0.23278591
0.33150479
0.01135959
0.39294813
0.45133836
-0.51173564
-0.44121240
-0.03181426
0.29071879
0.19418501
-0.19717892
0.43758466
0.04812804
-0.05758316
-0.17143298
-0.02741694
-0.44312481
-0.12960849
0.37950803
-0.18522851
-0.13529159
0.26865413
-0.40787176
-0.23006331
0.22000951
0.16208823
-0.02184746
0.18271256
0.31360503
0.12118942
-0.10644850
-0.29989902
0.29302834
-0.32184004
-0.27935152
0.08040200
-0.02030646
-0.40075042
0.20107990
0.07975379
0.27329018
-0.35717719
-0.32302659
-0.40016743
-0.45715809
-0.05059576
-0.19375097
0.16831051
-0.40117005
-0.07133918
0.07661215
0.21321424
-0.30286942
-0.09703628
0.41556232
0.43199516
0.37472022
-0.46208156
-0.41267374
0.11593763
-0.24414286
-0.25815104
-0.07192312
-0.31853108
0.02975147
0.24384360
0.27429043
-0.45476891
0.26810201
0.30587626
0.24038629
0.38354033
-0.15596464
-0.03150986
-0.26898411
0.28483160
0.14669965
0.03403974
0.19477140
0.48059716
0.20521666
0.07212489
0.35631083
0.11626284
-0.17790030
0.07571329
-0.22294217
-0.59293892
0.54538491
-0.00805069
-0.23112962
-0.50441184
0.13061836
-0.13237071
-0.14774323
-0.33328118
-0.15966287
-0.25628177
0.29914144
-0.35779222
0.18477819
-0.43975383
-0.17019162
-0.05855149
-0.21476704
0.21458064
0.10654766
-0.19342335
-0.27957605
0.23273505
0.34030336
0.17399175
-0.45181508
0.63466199
-0.49755907
0.41818217
0.07540898
-0.17318617
0.10472742
-0.37450458
-0.30027570
-0.31188410
-0.47667307
-0.32087090
0.15377544
0.45384089
0.52397555
-0.43161716
-0.35078343
-0.28965337
0.02701152
-0.27970000
-0.24052018
-0.24744332
-0.32523515
0.25128830
-0.37554255
-0.02549083
-0.32609678
-0.47451210
-0.42932051
0.10551484
0.49614412
-0.08578364
-0.46076726
0.33266685
-0.20491610
-0.07285601
0.36736660
0.27303382
-0.13185262
-0.01520671
-0.68192501
-0.25913626
-0.53742059
0.21600287
-0.22127377
-0.17767713
0.37881762
0.37345144
-0.47294947
0.01130050
-0.19112269
0.15410001
0.35569878
-0.25925501
-0.17777330
0.02782799
-0.22915214
0.43957265
-0.37977888
-0.23432018
-0.21454512
0.23984786
-0.13842431
0.14639457
0.35366225
0.35496471
-0.41024833
0.63794857
-0.13239495
-0.30155022
-0.55356901
-0.08487559
-0.36318496
0.00490907
-0.38558420
0.34864920
0.24745883
0.30397072
0.45482762
0.42511664
-0.15530318
-0.02095405
-0.37569229
-0.27283261
-0.41221964
-0.11974486
-0.12864075
0.32782874
0.23608087
0.34716728
-0.11242402
-0.01501477
0.31192766
0.34077856
-0.40857981
-0.20328126
0.45971254
0.04944745
-0.29877708
0.19044453
-0.11449855
0.01997446
-0.14870035
0.08520576
-0.22401833
0.15157442
0.15445550
0.43534899
-0.07183172
-0.17851581
0.04177634
0.25002532
-0.07164405
-0.28313739
-0.16576736
-0.43431415
-0.27264902
0.40359015
-0.33625409
0.39601947
0.48305038
-0.13723368
0.00306316
-0.08864898
0.08437256
-0.31747319
-0.44423293
0.12966698
0.14082675
-0.14088928
0.07511790
-0.48418489
-0.17863148
-0.38384340
0.46976142
0.35498994
-0.16431930
0.24180183
-0.12015187
0.49594239
0.09003107
-0.34490976
-0.34469484
-0.39662861
0.20568614
-0.17850084
-0.07617268
-0.14587397
-0.01662485
0.22160090
0.43977873
-0.13840848
-0.23817513
-0.00458355
0.05062007
-0.06076535
-0.28106938
0.29252278
-0.19786572
-0.09355626
0.23985572
-0.02999950
-0.43891495
0.34704527
0.06003298
-0.22033895
-0.17016992
0.23079936
-0.14291792
-0.44793880
-0.01987531
0.32778446
-0.40761025
-0.38746593
-0.30320355
0.20274448
0.06433243
-0.03231592
0.44091476
0.30311794
-0.23913446
-0.15440059
-0.04051193
-0.26316346
-0.18748317
-0.36508599
0.19782863
0.46168932
0.42262528
0.21883416
0.14638030
-0.35578186
-0.53521476
0.39437504
0.06294498
0.39597908
-0.45224077
-0.19277832
0.41313341
-0.20125231
0.04655114
-0.43285927
-0.13385682
-0.47550950
-0.06698355
0.30622260
0.36016844
-0.02218683
-0.31646996
-0.05119053
-0.34895146
-0.31970896
-0.45141567
-0.46221610
0.38120287
-0.28469254
-0.21699317
-0.16162679
0.37078945
0.18484340
-0.07618507
-0.22528313
-0.10464171
-0.35534706
-0.10843342
0.44105503
-0.51164163
0.25948722
0.19725034
-0.15724372
-0.45272071
0.22746591
-0.10990099
0.40649149
-0.22808282
0.41787478
0.37589484
0.47627752
-0.11967404
-0.16961023
0.36132401
0.16884068
0.41086600
0.48896947
0.19322505
-0.27503972
0.12307184
-0.22852566
0.12532503
0.10979460
-0.27040117
-0.04774474
-0.05675354
0.12118940
-0.42964400
0.07989747
-0.35761280
-0.14705125
-0.06871313
0.27073962
0.09000375
0.35680136
0.45586110
0.35750569
-0.13511584
-0.39490768
-0.19483004
0.08586890
-0.35772323
-0.24676359
0.37289598
-0.23333588
0.20903359
-0.24289878
0.50134544
-0.40205838
0.51044410
-0.42672485
0.37605465
0.23417262
0.41272066
0.02706283
-0.28086797
0.23852687
0.41246152
0.55458656
-0.05376865
-0.33294135
-0.07701125
0.26074788
0.13070890
0.27351497
0.26300349
-0.39187577
0.15844372
-0.26174460
-0.31496827
0.32319084
-0.09942551
-0.63385019
0.59391602
0.00512241
-0.34605039
0.11897378
0.02349064
0.33628342
-0.02101296
-0.40382926
-0.41980070
-0.21607124
0.07017075
0.13828903
0.41655401
0.14141673
0.39600249
0.42120119
0.45168605
0.17190123
-0.32530797
0.49517479
0.16188612
0.40645706
-0.36468237
0.47106524
0.26271112
0.14378363
-0.18681571
-0.32677912
0.18528474
0.36182597
0.19757890
0.41086869
-0.24351878
-0.11276867
-0.25942279
0.37760116
-0.35045009
0.14828463
0.61253713
-0.16237218
0.42148896
0.26380651
0.24231904
-0.00067954
-0.07434823
-0.58016519
0.07622898
-0.50218474
-0.05050695
0.43743705
0.16583390
-0.54519205
-0.01028452
-0.25497237
0.28225435
0.38411787
0.46748285
0.40156141
0.44895958
-0.52492117
0.43374829
0.02490166
0.29518253
0.07369084
0.36580079
0.42357385
0.44883192
0.48526097
0.19828139
-0.20134223
0.44676096
-0.28821955
-0.39237967
-0.16803754
0.00409625
0.29763135
-0.56740761
-0.42487101
-0.53524671
-0.40749388
-0.05759485
-0.23816402
0.33385608
-0.30685876
0.11655452
0.48552081
0.40706644
0.41759505
-0.47154056
-0.26884501
-0.46897276
0.05410537
0.40054661
-0.32339540
0.09796119
0.19609439
-0.10748210
0.15140244
0.41052185
-0.47275338
0.39598866
-0.24097024
0.01957938
-0.05485830
-0.31786415
-0.12833987
-0.13481423
-0.29790622
-0.13405005
0.29637288
0.35862947
0.02403866
-0.42755673
0.18814244
-0.14247040
0.40612552
-0.40957802
-0.17976506
-0.37022963
-0.08549341
0.35862402
-0.39646609
0.24384724
0.02279352
-0.27770280
-0.09137531
0.16005319
0.38459417
0.37946772
0.20825015
0.25807394
-0.00917052
0.26278348
-0.48825037
0.37503890
0.35360109
0.08138940
0.04331554
-0.29146907
0.41782498
-0.11863567
0.26869686
-0.47989612
0.23649732
-0.39397345
0.46160773
0.47817143
-0.28692586
0.34871682
0.09877982
-0.00087747
-0.22432398
0.17097481
-0.29611581
-0.04556349
0.02847194
-0.41904488
-0.48371717
0.20201049
-0.30721223
-0.55432389
0.39244169
-0.44977621
0.62620180
-0.08726058
-0.29769848
0.40983087
0.19085786
-0.28018184
-0.40153935
0.15497784
-0.18088534
-0.43046941
-0.47855621
-0.32961283
-0.25467039
-0.33238310
-0.18305465
0.22819377
0.01580146
-0.46478027
-0.36993108
0.35564970
-0.29903989
-0.41735589
0.50186935
-0.28402107
0.21496618
-0.03596600
-0.25771569
0.52881267
-0.37008586
-0.08243921
-0.35707461
-0.28552222
-0.12485376
-0.29943625
-0.06007817
0.27279550
-0.56994953
-0.33305456
0.40279015
-0.36407750
-0.38087709
0.18420345
-0.28967094
-0.16372538
0.39809293
0.36062198
-0.26967125
0.02471291
0.07743031
-0.18434151
-0.13897214
-0.13607815
-0.41234741
0.41550208
-0.43505567
0.35629591
-0.24813547
0.19913795
-0.58671776
-0.30034708
0.44134360
-0.48047357
0.07433818
0.00168902
-0.08431955
-0.13928337
-0.03492525
-0.51726466
0.30220916
-0.13366871
0.03254211
-0.41165740
-0.17051519
0.17151572
0.01338009
-0.22631911
-0.09927525
0.06409688
-0.11213747
-0.45396775
-0.33505785
0.45632529
0.34270238
0.40568579
0.45498528
-0.21999096
-0.40092147
-0.34893104
-0.46422090
-0.42522201
0.38588740
-0.44548573
-0.38491358
0.15799407
-0.39390580
-0.32007409
-0.22095134
0.19948579
0.25627880
0.21312423
-0.27320712
-0.18270789
-0.13711521
0.43979687
-0.45921279
-0.05811415
-0.01020519
0.01639758
-0.16874668
-0.23008081
0.60399039
-0.52911445
0.12929745
0.21002560
-0.03611318
-0.46370916
-0.42474496
-0.40610254
0.20856261
-0.23253784
0.04045524
0.14620244
-0.02295744
-0.42432602
0.02455242
0.13907616
0.20871628
-0.13528689
0.34625470
-0.47007017
-0.49734535
-0.24046141
-0.30283287
-0.28102918
-0.32493730
0.38714228
0.36947651
0.25107716
-0.12578705
0.00452892
-0.39163097
-0.33621635
0.20477703
-0.29723501
-0.30340652
0.00269499
-0.25324942
0.40754701
-0.27226129
0.26563167
0.04088697
-0.00035254
-0.10484861
0.04709344
0.11718316
0.21253240
0.07230813
-0.24809767
0.00535965
-0.29086565
-0.40791287
-0.22578022
-0.56366775
0.08310672
-0.01295774
0.49541587
0.43152297
-0.42403542
0.17636283
-0.17877546
0.49705850
-0.16797154
0.29431686
-0.55149392
-0.18350125
0.54004098
0.15430982
-0.18766789
-0.18921787
0.49840402
-0.27062173
0.13508924
-0.13925414
0.37207777
0.01641129
-0.22926504
-0.44687766
-0.00143003
-0.58408972
0.65820858
-0.00921884
0.11315187
0.12312763
-0.16419862
0.09127873
0.07735680
0.24478194
-0.41969005
-0.48026578
-0.01009239
0.05107905
-0.21431947
0.08632090
-0.10022907
-0.19797945
-0.15980867
-0.43972582
0.01180344
-0.08167645
-0.35628084
0.00505352
-0.30562276
0.19235993
-0.09444326
0.39073839
-0.17137809
-0.32166173
-0.08575492
-0.21880411
-0.23577216
-0.12562204
-0.23162418
-0.50282640
-0.25254242
-0.46185596
0.09254895
-0.02176214
-0.33636517
-0.11781857
0.05887512
-0.10687938
-0.27197858
0.11832532
0.22545723
0.35434639
0.11106007
-0.27211447
0.02155750
0.46197783
0.04065844
-0.24976154
-0.09269843
-0.33966385
0.33164182
-0.08267715
0.07617818
0.43153770
0.47510143
0.44423889
0.11804790
0.09164825
-0.26123086
-0.13318624
-0.56245385
-0.25090846
-0.35228311
-0.15153311
-0.19721812
0.04548162
-0.21849791
-0.10386845
-0.09991846
0.31679180
-0.39214624
0.19410531
-0.48698515
-0.34117358
-0.22769082
-0.29093609
-0.21391914
-0.08705932
0.49177630
-0.44084307
0.28810298
-0.49698672
0.30559214
0.40026665
-0.11996195
-0.17932926
-0.13325777
0.04579704
0.44350545
-0.02228603
0.12576541
-0.41427550
-0.20416297
0.41028618
0.46062908
0.07251515
-0.28857154
-0.06758984
-0.08034570
0.25923575
-0.35613696
-0.56486524
0.41632310
0.40546818
0.04940204
-0.01555046
0.44851558
-0.11523463
-0.28618161
-0.20337540
-0.46103790
0.20680738
0.00580171
-0.05439500
-0.46321177
0.19049196
0.01154674
0.30855864
0.01101547
0.40813868
-0.22434377
0.40822224
0.01263758
0.49247855
-0.28127003
0.23672524
-0.33904508
-0.01969173
0.39774109
-0.21835502
-0.03236938
-0.09077599
0.10713355
0.43122472
-0.35886589
-0.35030415
0.45101481
-0.52569115
0.34129625
0.24039978
-0.16885700
-0.23140363
0.47040198
-0.28352124
0.39130810
-0.17501010
-0.22219144
0.15668312
0.09842525
-0.27732252
0.44579825
0.03666779
0.39514438
0.36293680
-0.34884335
0.00874504
0.06950558
0.28532563
-0.26477361
0.21137653
-0.25565768
0.36416884
0.08684327
0.00278635
0.20330576
0.16245042
0.11206805
-0.32917964
0.45102401
0.48580024
-0.23914884
-0.28347591
0.10065996
-0.23857861
-0.22609349
-0.47585775
-0.25831130
-0.27471100
-0.15000099
0.23239235
0.08453045
0.33384691
-0.38044049
-0.38347855
-0.44420189
-0.24875873
-0.33154774
0.43469878
-0.26848029
-0.12213898
-0.06656158
-0.01235083
-0.24773125
-0.20832094
-0.18067865
0.08770161
-0.35278808
0.09309611
0.30976002
-0.13599032
0.07974326
0.06089613
-0.15034284
-0.16232355
0.00483442
0.28683893
-0.40695956
-0.44687297
-0.40140863
-0.50383005
0.12334260
-0.04800297
-0.29134564
-0.35375714
0.08143846
-0.07062966
-0.15651445
0.41885644
0.10852062
-0.29498611
0.05025273
0.32998246
0.00322310
0.39279655
-0.31194824
-0.27358438
-0.48688105
-0.04731996
0.43649642
-0.58300490
-0.44368778
-0.30207878
0.42411537
0.15097048
-0.49451991
-0.17762554
-0.27799058
0.35012060
-0.44104695
-0.31054067
0.24979330
-0.31627381
0.42500789
0.18839500
-0.33052464
-0.17885461
0.05118338
0.25961492
-0.03888327
-0.46179964
-0.42073106
-0.38348480
-0.08373177
-0.07248930
-0.39597514
0.41901473
-0.23069874
-0.52262377
0.51762380
-0.38226488
-0.08708784
-0.38193395
0.06386727
0.34200597
-0.27060678
-0.29421587
-0.26639160
0.10970406
-0.23278346
-0.15309826
-0.46335212
0.16802707
-0.40408385
0.30117439
-0.14088419
-0.46252257
-0.23993886
-0.20659427
-0.14389844
-0.00475403
-0.37994136
-0.00300617
-0.08630319
-0.40133125
-0.05722815
0.20172633
0.38308267
-0.34266251
-0.44834270
-0.02867792
-0.46997937
-0.47031494
-0.08717854
-0.01981729
0.29666924
0.32834409
0.20687128
0.36816963
-0.26732377
0.42623095
-0.04539517
-0.43021480
-0.13869916
-0.40873561
-0.28972341
-0.18197251
0.19168529
-0.38839639
-0.24038397
-0.39264583
-0.30302818
-0.07779588
-0.16414926
0.01910242
0.48358972
0.08755755
0.33164039
0.41264414
0.05627480
-0.47774745
-0.27402465
0.30013856
0.12754618
0.22315315
0.38635619
-0.08051705
0.03171535
-0.26928665
-0.38743157
-0.09551529
-0.26938467
-0.41173314
0.22329144
-0.73297209
0.29343062
-0.33315158
0.20582253
0.43676197
0.11998313
-0.43220385
0.30451038
0.34950036
-0.26980951
0.19875035
-0.24862383
-0.47374908
-0.09264754
0.17063014
0.29582201
0.09536425
0.29533421
0.46770482
-0.24026849
-0.46084743
-0.22579763
-0.21938120
0.03981859
0.48629530
-0.39454497
-0.40528578
-0.37403842
0.39719410
-0.18829049
-0.04673597
0.27443858
-0.27539152
-0.38989515
-0.15327210
-0.27366098
-0.23271544
0.30285124
-0.34559222
0.33438460
0.10601105
-0.27672916
-0.01739549
-0.10352534
-0.17207806
0.37668223
-0.38339019
0.19622550
-0.24562504
0.40730815
0.12207045
0.04555738
-0.30030157
-0.15665577
0.23465538
0.34320299
-0.40797695
-0.29029632
0.33045295
0.11774322
0.40204404
0.15500753
-0.03293782
-0.30119130
0.01859149
-0.50024380
0.26815031
-0.38020937
-0.12421600
0.29176650
-0.24877254
0.29019699
0.01541631
-0.35476889
-0.01126179
0.22376963
-0.19177732
0.30076378
0.31462256
0.29700699
-0.38323836
-0.15902524
-0.11396746
-0.49225437
0.34621698
0.41208727
0.38459657
0.19441153
-0.30878369
0.30896061
-0.08879208
-0.01474454
0.26364417
-0.31991187
-0.37703527
0.39223174
0.50308878
0.29393983
-0.38144850
-0.09104789
0.48344749
-0.48671494
0.24238731
-0.15729321
0.15596652
0.37445185
-0.01382140
-0.28259433
0.03052622
-0.19045574
-0.41605989
-0.49262440
-0.45482888
0.36856964
-0.29104230
0.38415714
0.40992490
-0.23109809
-0.43624389
0.32864086
-0.27509864
0.19186642
0.16108604
-0.29195372
0.46675042
0.44632992
-0.25745232
0.21469776
0.14883358
-0.10901217
-0.11452851
0.01996025
-0.20970683
-0.46619275
-0.36069913
-0.02950179
-0.20471005
0.49412824
0.23222132
-0.01675083
0.35725824
0.16448535
-0.34804793
0.49011965
-0.00473100
0.45703912
0.34236653
0.18126088
-0.08854591
0.12600171
0.25665160
0.23396170
-0.04414828
-0.06877608
0.47995156
0.31191900
0.59318569
-0.12635869
-0.05831195
-0.48741312
0.24847641
0.29570318
-0.42812621
0.31535409
-0.35283904
0.28034348
0.24388637
0.29941734
0.20903835
-0.33193383
0.15551876
0.06225495
0.32749801
-0.02572320
-0.50009547
0.27884266
-0.42332593
-0.43085545
-0.39711236
0.40487757
0.55775096
0.16985549
0.41268067
-0.25641188
-0.37914904
0.07451880
0.35368039
0.45408908
-0.13328071
0.21350414
-0.41083344
0.35128306
-0.32852652
0.45028709
-0.15243324
-0.40036903
0.12150221
0.29127510
-0.13197269
0.09889459
0.37791208
0.32864554
0.45352240
-0.11265125
-0.05036366
-0.37001585
0.01858984
0.03570141
-0.13339943
0.18677207
-0.15753402
-0.12784715
0.08280794
0.00161566
-0.13031868
-0.33277711
-0.04608636
0.05323445
-0.25815325
-0.15033453
0.04789878
-0.49762028
-0.01135546
0.39677075
-0.29229922
0.12291246
-0.29297370
-0.46635597
0.24778063
0.32354928
0.36014714
0.47826510
-0.15467765
-0.02469894
0.10169032
-0.21667901
-0.16845665
-0.45958160
-0.33299125
-0.04914325
-0.42828773
0.32414089
0.33611233
0.33913028
0.41470131
0.20070294
0.39543930
0.17354323
0.30304612
0.39387678
-0.25767392
0.02901723
-0.18842434
-0.31061005
-0.12383192
0.01888117
0.51221370
0.08473808
0.10053213
0.29556550
0.14426660
-0.28691632
0.22472818
0.04104639
-0.15605609
-0.07509383
-0.48339599
0.03298409
0.04231381
-0.25844364
-0.10960425
0.38242171
0.33264445
0.28155341
-0.07161911
-0.02939339
0.42910237
-0.21161424
0.40451251
0.21671667
-0.15839254
0.20375150
-0.12392320
0.14895463
-0.57997587
-0.17449539
0.40485738
0.31666416
0.24817443
-0.06648285
-0.19508747
-0.17986389
-0.07107002
-0.17180420
-0.22477725
0.14449540
-0.33908836
0.22103701
0.13018625
0.43772478
0.10451039
0.52720212
-0.27507322
0.28128324
0.02562188
0.39789270
-0.48235623
-0.02586294
-0.14133058
-0.06951871
0.03502899
-0.49137055
0.26265782
-0.30724030
-0.38495725
0.39215516
0.17796259
-0.34438936
-0.29597855
-0.26164328
0.14889760
0.29137692
-0.04053305
0.41687752
-0.34257211
0.28635894
0.00745410
-0.42167957
-0.31985683
0.53199224
-0.12514237
0.34025262
0.38981973
-0.30952746
0.36192267
-0.05471205
0.10977817
0.10619793
0.57837434
-0.43608963
-0.12939259
-0.50591218
0.26920163
-0.47620243
-0.36611645
0.06670223
0.26214187
-0.11411990
-0.03504171
-0.00537173
0.17882023
-0.18078030
-0.44907663
0.34556171
-0.23533827
-0.26967418
-0.29255474
-0.23896926
0.13826125
0.07446446
0.38584246
0.13420107
-0.16631021
-0.28130720
-0.63155975
0.51315769
0.02432350
-0.41670682
-0.17126994
-0.11445218
0.32791083
-0.52391103
0.02139496
-0.33322193
-0.13022421
-0.14249942
0.33468378
-0.04430618
-0.08563755
0.06229024
0.02117023
0.24087348
-0.00555725
0.48183782
-0.37721328
-0.33490003
0.49404039
0.11968289
0.05357697
-0.27123694
0.64849069
-0.16312160
0.22918280
-0.53561512
0.46921133
-0.41800312
-0.32790850
0.36074609
-0.42510540
0.06250854
-0.37840764
0.19639592
0.12813439
0.37397300
-0.28541405
-0.04306218
0.48597643
0.42500112
0.17347533
-0.08360926
0.09278950
-0.22603233
-0.25107224
0.27322585
0.01944188
0.40541988
-0.07849818
0.48353947
0.37580132
0.44991840
0.13144116
0.26601365
-0.48377692
0.05170277
0.44045278
0.25290514
0.36642528
0.25848959
0.46259714
0.39539819
0.16876399
-0.11771173
0.37552546
-0.25561297
-0.25671165
-0.18207281
-0.43032283
0.31705142
0.39921382
0.24860815
0.24714864
0.15039798
-0.51366885
0.60549516
0.16987402
0.29010208
-0.20547675
-0.22554830
-0.34855856
-0.11720860
-0.50549919
-0.35469204
0.26333200
0.04624661
-0.18439658
0.15558030
-0.27095217
0.45854635
-0.37338942
-0.09759587
0.36940669
0.11900921
-0.22276569
0.03220960
0.08841928
0.16474342
-0.21880909
0.12745148
0.00169231
0.30854050
-0.35227463
0.34937492
0.36141398
-0.34161318
-0.18752927
0.15901266
-0.04666946
-0.32955379
-0.06198296
-0.31433724
0.37473638
-0.28593191
-0.08987371
-0.41031219
0.49183667
0.08094458
-0.15342263
-0.00097776
-0.19629362
0.32846874
-0.54975833
0.00876437
0.32484831
0.11183786
0.52119781
0.31021945
-0.26142736
-0.00281508
-0.06783608
0.14564854
-0.07933228
0.26584370
0.21935232
0.34697594
-0.01572752
-0.22098670
0.03394014
-0.22725807
0.12710766
-0.17798730
-0.44238489
0.46276873
0.20571570
-0.33276484
-0.39012339
-0.21401309
0.32516385
0.11577301
-0.27009551
0.15203093
-0.32432130
-0.25200093
-0.50207493
0.25576342
0.14411436
-0.16740980
0.36321352
0.37434035
-0.02073861
-0.28108198
-0.08764718
0.45686704
0.34894090
-0.01115386
-0.24809723
0.22532392
-0.42409314
-0.43767562
-0.24934985
-0.19935809
0.13983151
-0.08576774
-0.38659536
-0.25326395
-0.15681072
0.08900891
-0.67844751
0.55927782
0.10699616
-0.25447720
-0.06665705
-0.33702482
0.43642224
0.08515806
0.40493069
0.50923294
0.28309611
-0.39266340
0.33249673
-0.00551158
0.08412787
-0.33100093
0.35956313
0.19527275
0.38990615
-0.36591578
-0.31384699
0.09898242
-0.22528391
-0.06728481
0.05976008
0.32751022
0.19401405
-0.19363954
-0.13969151
0.21657390
-0.26423483
0.48194219
0.46738868
0.02211742
0.23784325
0.42554320
-0.18152296
-0.10073386
-0.42671672
-0.25741324
0.43183078
-0.52588344
-0.10941064
-0.20724094
0.33650639
0.12978844
-0.18411086
-0.04185459
-0.37043073
0.26729406
0.40965266
0.35378301
0.30180860
0.47673571
0.30235083
0.39182368
0.18277923
0.06604387
0.18442567
-0.43185291
-0.03238735
-0.42410899
0.36155089
-0.12020739
-0.41401830
0.36089950
0.20433310
-0.19557818
-0.38198441
-0.06801232
-0.33120693
0.18554371
-0.28770371
-0.45381083
0.00393857
-0.36099858
0.23944748
0.09236694
0.30133075
-0.11948158
-0.46657470
0.34215103
0.42887736
-0.36233802
-0.43537744
0.46868983
-0.22882543
0.31871406
-0.38681684
-0.41646014
0.21910865
0.27787887
0.29407977
-0.06090150
0.37003357
0.08649894
-0.40631079
0.29535018
0.33688993
-0.01700969
-0.01339259
-0.10273146
0.43149606
0.20893329
0.10714162
-0.26398735
-0.18629889
-0.11774746
0.11026193
0.07121130
-0.12593209
0.20324995
0.33056290
0.34474629
-0.18897118
0.00010625
0.34414335
-0.07557142
-0.04118235
-0.39310289
0.22842618
-0.18927493
-0.21374313
-0.49026027
-0.18108111
0.23398363
0.15932713
0.31369072
0.01587872
-0.29943519
0.03474780
-0.44896441
-0.10040651
0.24014241
0.51798766
0.29137851
-0.32058598
-0.37407409
-0.32896025
0.05576584
0.05132912
-0.43870721
0.18256523
0.25220453
0.26335945
0.21405806
-0.35073354
0.15984097
0.13124358
-0.46106442
0.35924263
-0.49759942
0.05984067
-0.27124457
0.35080070
-0.11302521
0.45561327
0.12831158
-0.48430991
0.02477409
-0.13421659
-0.02139781
0.30149770
0.33365177
-0.30123467
-0.20875516
-0.26086014
0.10919950
0.33912573
-0.21520286
-0.08961929
0.44332980
-0.42347933
0.20998727
-0.37274225
-0.34810829
-0.01800047
0.37161331
0.49079350
0.30282717
0.30559234
0.26131688
-0.00577453
-0.05956955
0.44740949
0.42111333
-0.22759852
0.49120323
0.02399421
-0.41205931
0.06535522
0.47996179
0.44690124
0.13636393
0.15276598
-0.11172639
-0.40339362
-0.15481890
-0.09384131
0.04024758
-0.15367332
-0.15418734
-0.30088858
0.48414820
-0.24361919
-0.15131294
0.30099362
0.39391921
-0.39989917
0.22352864
0.36138719
-0.37606562
0.08071224
-0.05918261
-0.48158367
-0.27512523
0.08541737
0.09166863
0.25942258
0.36185265
-0.06977770
-0.40802791
0.45713302
-0.02729498
0.48340878
-0.16668466
-0.46815493
-0.40778553
-0.29943311
-0.32268895
-0.19497181
0.40366524
-0.16447059
-0.34955221
-0.41884961
0.36490607
0.29490047
0.17099307
0.45634130
-0.37995189
0.22022132
0.13522864
-0.22167916
-0.37284184
0.45564395
0.16646273
0.00844220
-0.61019862
0.16973846
-0.46612135
-0.19962519
-0.07891788
0.34408501
-0.29766126
0.27109608
-0.40318341
-0.21364988
-0.34208386
-0.23936510
-0.09157417
-0.19619709
0.16157939
0.26389350
0.22966017
0.48485199
0.39337423
-0.33654874
0.08632871
-0.01629935
-0.42158981
0.23353734
0.46383243
0.37286368
-0.14544040
0.14221975
0.02698913
-0.02450660
-0.08782782
-0.01841965
0.37320397
0.19691406
0.17230396
-0.43165475
-0.29440158
0.36423102
0.00126958
0.33512387
0.62386321
0.37919238
0.46240831
-0.06444036
0.31040448
0.46729507
-0.42726556
0.15093370
0.14369833
0.10340602
0.07802965
-0.36208046
-0.15123106
0.24038783
0.06027258
-0.06114656
0.20555518
-0.06546980
-0.45554490
-0.26732111
0.22963965
0.13490677
0.13695477
0.43355031
-0.37377300
0.09368328
-0.14673283
-0.34897228
-0.02027381
-0.29943346
-0.35392970
-0.35396195
0.43585360
-0.01291384
-0.02280871
0.20668156
-0.38298651
0.17753524
0.46180872
0.31292596
0.49686665
0.29735784
0.48182942
-0.28321716
0.58486994
0.21653341
0.33394811
-0.19713490
0.27307574
-0.04636010
-0.24487582
0.04442366
-0.18725814
0.22776107
0.17685654
0.44688591
-0.23755526
0.07213891
0.17687819
-0.42554142
-0.27015870
0.17277812
-0.50910963
-0.29696603
0.39281013
0.13701547
-0.39278052
-0.27274660
0.40907015
-0.03615311
-0.01282302
-0.08051606
-0.14298825
0.15737423
-0.35828719
-0.55195765
0.00473101
-0.42262098
-0.38644057
0.15251600
-0.04484169
-0.50955356
0.12006768
-0.25534598
-0.09850143
0.34955669
0.01442499
-0.31555094
0.30880515
0.60140882
-0.40856909
0.23316899
-0.08987192
-0.06059612
0.19421173
-0.47950569
-0.18197708
-0.12522551
0.25590648
-0.21304099
0.11283591
-0.10233914
-0.19028310
-0.50835713
-0.37142974
0.37906339
0.41184644
0.37643616
-0.21949672
-0.18252477
-0.19533283
0.47391112
0.28222774
-0.25953504
-0.34020406
0.14309327
-0.21526896
0.22845445
-0.23548588
0.31814495
0.18908604
-0.09490631
0.40151586
-0.04019871
-0.35217278
0.12633210
0.44840323
-0.12586191
-0.20914022
0.23449240
-0.27442228
-0.28674335
0.32453934
0.47208492
0.24672839
-0.24310393
-0.15026597
0.08439465
-0.34630708
0.16122795
-0.25940954
-0.01132263
-0.54126726
0.15722382
-0.39862954
0.31702773
-0.12523117
-0.10488242
0.36503089
-0.31375902
0.44996635
0.43623051
0.05572087
0.00589213
-0.31372687
0.11832334
-0.20177407
-0.11113063
-0.46917915
-0.31340366
-0.19270142
0.39143074
0.11753815
-0.07069961
0.42017985
0.38060831
-0.34588636
-0.10183490
-0.07315308
-0.39612620
0.09622701
-0.00126024
0.52604462
0.38816673
0.45833336
0.12400278
-0.06657037
0.38424697
-0.48323552
0.22511134
0.32121224
0.03082679
0.39658004
-0.10782013
-0.14241950
-0.29544479
0.28376877
0.00360400
0.08857830
-0.30313501
-0.39166596
-0.25991546
0.19892557
-0.46853684
-0.47173974
0.40363736
0.26414496
-0.10571612
-0.11720446
-0.39543413
-0.06659248
0.15079895
0.26507247
-0.16393167
0.43319840
0.22302185
-0.03809340
0.26934318
0.17956599
0.33659240
0.39770456
0.40243458
-0.15881554
0.14043061
0.13014226
-0.22286776
-0.31636502
0.11862828
-0.33046532
0.00516825
0.12384491
0.26549275
-0.40980387
0.21728340
0.16125855
0.12813620
-0.28006990
-0.16499307
0.46612091
0.04074501
-0.35921507
-0.36227038
-0.40565158
0.03869601
0.19288614
0.05055169
-0.18973382
0.50788540
0.13780971
0.41761729
-0.16357282
0.34439826
0.47064885
0.51629682
0.19455114
0.42871337
0.27772191
0.33148321
0.33142887
-0.29035079
-0.01659765
-0.41009916
-0.41860423
-0.34956604
-0.22440867
-0.03777900
0.30786881
0.51380360
-0.32748622
0.30122316
-0.19521180
-0.31770925
-0.24186080
0.21041027
0.21398797
-0.27936366
0.42157327
0.48089555
0.10581087
-0.46268787
-0.25054830
0.14009834
-0.16841464
0.14345385
-0.52773943
0.46765198
0.09927950
0.40346352
-0.38164035
-0.34103749
-0.28236604
0.30062073
0.03344031
-0.07501418
-0.05359203
-0.13695292
0.36082443
0.02928345
-0.27535709
0.23536026
-0.28051575
-0.35933629
0.36745554
0.44228853
-0.52854350
0.43470092
0.23771024
0.20146869
-0.38459124
-0.37756534
0.23077155
0.11793123
0.14840203
-0.26131687
0.31940013
-0.11715764
0.32736830
-0.29013290
0.27194853
-0.51823466
0.06027511
-0.22841220
-0.32740062
-0.31756209
0.09607997
-0.18141753
0.42035043
0.26923685
-0.22894839
-0.36747004
0.36917961
-0.37789889
0.06939898
0.11745969
-0.15588086
-0.25200217
0.07086567
-0.41636650
0.35706829
-0.33909413
0.30974054
0.44407848
-0.40484895
0.39348302
-0.42287221
0.39071439
-0.00109224
-0.18257836
-0.09524532
0.26390788
0.03842967
0.29967457
-0.20022844
0.29825001
-0.42882928
0.47729579
0.55227261
0.46213625
-0.62436991
-0.00246215
-0.56985284
-0.29467583
0.39918638
-0.39206415
0.10838516
0.23667158
0.13937419
-0.13710003
-0.01749696
-0.21609655
0.26142239
-0.43400449
-0.49927577
0.44114288
-0.05696320
0.24390147
0.40357340
-0.03510327
0.05416734
-0.08063578
0.20063438
-0.33654583
0.12901457
-0.49393034
-0.12362476
-0.13906721
0.22077179
0.08852951
-0.44104448
-0.40351498
0.23200771
0.48988007
-0.02076368
0.22588750
-0.29729433
-0.23196326
-0.17467319
0.39208809
0.02677481
-0.51770480
-0.34645250
0.40302397
-0.48507158
0.40962767
0.45449043
-0.32418026
0.37254657
-0.38951762
0.38504488
-0.16161142
0.42760013
0.13548972
-0.25084089
-0.13033225
-0.34811638
0.24368981
0.07405196
0.10410721
0.17798868
0.30477455
0.25208587
0.44357465
-0.04223002
0.05701690
-0.30058478
-0.71308925
0.19423831
-0.01947090
-0.19910780
0.31779900
-0.15238318
-0.38930898
0.00357482
-0.41467990
0.49486760
-0.49006363
0.17056120
-0.34101706
0.29217386
0.13696541
0.23558808
-0.12880985
0.31916344
-0.39316173
0.32376954
-0.36294817
0.16319080
0.18753585
-0.41880382
0.26240034
-0.54933020
0.47938214
0.16892548
0.01456393
0.40465100
-0.39964301
-0.33297864
-0.18733644
0.15057469
0.37407565
0.10827959
0.50245663
0.13465379
-0.21232236
-0.21464819
-0.19206525
0.43517517
0.06824665
0.27526171
-0.40859613
0.17478550
-0.19568407
0.05892144
-0.35900402
0.18368851
0.01650192
0.25298772
-0.13383547
-0.32345370
-0.36976068
0.37934018
-0.33977503
-0.33359452
-0.15830027
0.37312570
-0.44246772
-0.31517120
-0.14622291
0.33370603
0.11904449
-0.38105450
0.27256887
-0.28918540
-0.29752805
-0.42551774
0.31310534
0.26911412
0.17533480
-0.27595869
-0.48593741
0.05209066
-0.08993557
-0.11489337
0.19338399
-0.40997276
-0.17346069
-0.07590901
-0.32850288
0.44465709
0.32892923
0.38779369
-0.22773067
0.19348494
-0.35431741
-0.29830170
0.20834365
-0.16504787
-0.01578133
0.47801054
0.39516760
0.12787658
-0.11573025
0.15170569
0.18302041
0.09828690
0.35409821
0.09272396
0.06733328
0.51319635
0.15587199
0.39860731
-0.20805407
0.25751065
-0.14864609
0.39168695
-0.20089531
0.47126238
0.21820991
-0.51248302
-0.53085707
0.55184883
0.06159687
0.09374505
-0.24373850
0.11345325
-0.38623924
-0.10815027
-0.30311613
0.01809652
-0.32074864
-0.28055644
-0.47338001
0.47169125
0.20556578
-0.06630981
0.19990437
-0.31569989
0.25593581
0.19284024
0.21837334
-0.27250212
0.31568246
0.45050277
0.04510217
-0.05496421
0.28129198
-0.12514892
-0.12678456
-0.34888385
-0.22701548
0.03318175
0.28643622
-0.29180655
-0.17639907
0.16270364
0.10264932
0.31476607
-0.17680024
0.06998719
0.41902935
0.33185594
-0.27829435
-0.20100028
0.30401025
0.36541191
-0.49752583
0.46397848
-0.30691905
-0.14657894
0.10796927
-0.35841923
0.27709072
-0.37369763
-0.06735195
0.05082581
-0.38508399
-0.06565018
0.15636400
0.00166352
0.35440269
0.41086129
0.08591515
0.19381131
-0.07967696
0.07046228
-0.21040348
-0.02351873
-0.36336979
0.21761121
0.10300239
0.19863912
-0.17395954
0.14780729
0.40182230
0.50411457
-0.40599794
0.38546440
0.08229787
-0.00816105
-0.08580262
-0.53934722
-0.19007321
-0.12935256
-0.30817166
-0.11500787
0.48976514
-0.42243445
0.39009956
0.32281057
0.43382780
-0.47737703
-0.23164872
-0.26460736
0.48311816
-0.63204517
0.44941290
0.07458516
-0.01673636
0.45909531
0.44194945
0.32560453
-0.41949071
0.05191515
-0.05140511
0.52655332
-0.14843878
0.01418901
0.10228385
-0.09152579
0.27878867
-0.42215638
-0.27238276
-0.35389944
-0.25910989
0.46732457
-0.31802041
0.24445292
0.47454603
0.27271813
0.00489698
-0.27557430
0.17759666
0.10306159
0.12702539
-0.19704795
-0.21923569
-0.17109252
0.15510375
0.01910081
0.29763380
0.07822617
-0.46876028
0.11155306
-0.09682824
0.36321560
-0.17117881
0.07234354
-0.33669072
-0.00805579
0.09434757
-0.20291752
0.59183763
0.36799091
0.00761096
0.17062497
-0.19457794
-0.31291561
0.12168347
-0.06154541
0.35440886
-0.35490572
0.15601472
0.19853022
0.41514729
0.41870014
0.21555130
-0.52102053
-0.04975079
-0.36376327
-0.02822259
-0.20736289
-0.20783137
-0.33066328
0.42938119
-0.26642630
-0.44033546
-0.15779165
-0.13989419
-0.00214439
-0.16424776
0.37478069
0.12257538
-0.25685259
0.19678716
0.31992748
-0.36074976
0.47198933
-0.45526404
-0.49357931
0.25271274
-0.29861025
-0.05685116
0.12150474
0.22861271
-0.08659148
0.36785897
-0.31149448
-0.32854545
0.32313315
0.41993939
0.08927369
-0.07781229
-0.26332286
-0.31413118
0.26182321
0.33586514
-0.14498040
0.11945809
-0.08144645
-0.24668063
-0.43107938
0.04951074
-0.30744807
-0.09051143
-0.07177425
-0.20716126
0.37896874
-0.30481906
-0.28912113
0.01055243
0.27813016
0.23713824
0.16549785
-0.41910108
0.39209058
-0.30658851
0.01080109
0.01963653
-0.45702973
-0.09047411
0.34706863
0.39355391
-0.16690785
0.19061282
0.36061175
0.17118213
-0.41186292
-0.36594543
-0.24662023
0.43892876
-0.21134411
0.47028333
0.05717580
0.32712086
-0.51322134
0.20400981
0.56544452
-0.35544008
0.10103078
0.25408771
-0.33806334
0.25524072
0.41227619
0.42907605
-0.31379535
-0.10041480
-0.24684735
0.08773875
-0.00595426
-0.53502039
0.23298259
-0.06154100
0.28914167
-0.26878359
0.07652191
-0.01078572
0.37641435
0.26358366
-0.34698188
-0.37388121
-0.28044067
-0.10109045
0.43495234
0.09699829
-0.04046871
0.44646478
0.48422596
-0.30204292
0.50660675
-0.27416721
0.36754821
-0.50032986
-0.17114442
0.55616585
0.18674812
-0.20533021
0.02576646
-0.36243644
0.47944937
0.40188670
-0.22848364
0.22447931
-0.31327822
-0.06642377
0.38339109
-0.44082992
-0.18259429
-0.42504350
0.49771430
0.12067267
-0.29330015
0.51710004
0.17849369
0.09131934
0.33232113
0.47030912
0.00795496
-0.30790395
-0.08206310
-0.32634208
-0.42129287
0.00028091
-0.25625407
-0.00438317
0.13490683
0.36237535
0.03092874
0.01187464
-0.48889358
-0.39879320
-0.22634291
-0.23944295
-0.50455977
0.33360928
-0.09042818
-0.46705079
-0.08279205
-0.07737692
0.10767454
0.15166085
0.45655143
0.23721032
-0.17219647
0.00787949
-0.33636411
-0.17341622
-0.00746118
0.18800775
0.06691997
-0.46939446
-0.06329630
0.42945763
-0.27475896
-0.44993436
-0.35815524
0.42197712
-0.43060409
0.08411352
0.25575302
0.00349452
-0.28972636
0.17689222
-0.30045030
-0.24746691
-0.16869474
-0.17144848
-0.21970627
0.15105136
-0.35257884
-0.19028326
-0.02091333
-0.28798565
0.53785427
-0.46411030
-0.01951424
-0.48236668
-0.06452894
0.00494882
-0.42579513
0.28697282
0.12354997
0.44274483
-0.02783623
-0.45213987
0.29917108
-0.33418039
-0.36615672
-0.26734073
0.23082004
0.47006413
-0.00554863
0.43102110
0.02632892
0.47413353
0.26801618
-0.23735370
0.10141416
0.34622378
0.18785772
0.37005343
-0.41761452
0.57232026
0.20722627
0.12498234
-0.20389397
-0.36659596
0.00348870
-0.33716019
0.04295443
0.23266553
-0.04583581
0.18115240
0.32891102
0.21289568
0.02182949
-0.10672868
0.42694522
0.09045838
-0.13643430
0.27552599
-0.49182421
-0.03910602
0.43881533
-0.49796647
0.03669688
0.10781579
1.08934509
0.52849219
0.36135386
0.05559446
0.46628596
-0.25758280
0.40515945
-0.19559174
-0.08738659
0.32267968
-0.16073727
0.71619637
-0.15621674
0.39214039
-0.03419869
0.74587814
-0.67188411
-0.86858912
-0.25798874
-0.28704852
-0.16813553
-0.38626799
0.05127770
-0.25849607
-0.73328047
-0.05942678
-0.11296061
0.45558557
0.13827963
-0.43243531
-0.72458803
-0.58440604
0.17865907
-0.12034633
-0.05656889
-0.31904201
-0.25661625
0.94710975
-0.39462254
-0.77065733
-0.63693436
0.50498760
0.27217434
-0.11958316
-0.62072179
-0.25635361
-0.32159256
0.16068831
0.07806318
0.73337712
0.07121757
0.01526277
-0.00139837
-0.15880077
-0.26290048
-0.58260127
-0.01233929
-0.25245112
-0.42479988
0.78472383
-0.36122687
0.47685610
0.59397896
0.29348630
-0.64169049
0.17997424
0.24282502
-0.46044697
0.27887470
-0.19763769
0.24174396
-0.38986529
0.12511363
0.24372955
0.22145661
-0.96381106
-0.07509991
0.95518309
0.49858229
0.00910295
-0.15819743
-0.13574406
0.68021811
0.04191422
-0.17904418
-0.86592853
-0.73579369
0.61061076
0.26978489
0.09335424
-0.46017230
-0.17326787
-0.52401524
0.06576672
-0.20237302
-0.40992262
0.37867973
-0.20464287
-0.71553651
-0.03379520
0.02804285
0.42650568
-0.03621874
0.02026377
0.44782721
0.00484758
0.59591888
-0.59061121
1.08118499
0.01094543
-0.74842180
0.22804110
-0.13250062
0.84014834
-0.98204885
-0.72874381
0.13183813
0.23000623
0.46934168
0.19743251
-0.04827084
-0.68942977
0.92839751
-0.62787479
-0.65620437
0.06854252
0.24087855
0.26373487
0.52534824
0.06909469
-0.35797251
0.61622470
-0.58503758
0.02113598
-0.41757405
-0.56728091
0.02423349
-0.73091207
0.41168521
0.37200473
0.43175886
0.30848282
-0.52450134
-0.20911493
-0.04524094
-0.47381669
0.32342915
0.22548697
-0.91468523
0.13909963
-0.64411578
-0.23745027
0.29451895
0.45475479
0.00170791
0.75934264
-0.30118474
-0.58926409
-0.14419753
-0.04101571
-0.15055900
0.60831890
0.05558274
-1.01442453
0.35818542
0.25349450
-0.68386158
0.04522636
-0.31136530
-0.08499428
-0.10860983
-0.02482159
-0.48397273
0.31598148
0.19787212
0.37948214
0.47824926
0.05454649
0.07305470
0.29977288
-0.07104390
-0.12581345
-0.65728556
-0.34543057
-0.70280509
-0.57595260
0.32648681
-0.52604339
-0.84825808
0.61082126
-0.07775075
-0.74580664
-0.83160376
0.58745859
0.06839616
0.23401223
-0.41664415
-0.59629252
0.07440839
0.48169880
0.71831650
-0.66157394
-0.05837255
0.54414470
-0.14198579
-1.04059220
0.19045035
-0.33681022
-0.33356765
-0.57306055
-0.53903987
-0.39692292
0.40262858
-0.71539134
0.24140044
-0.60065708
-0.14640519
-0.45417936
-0.48398950
-0.10570526
-0.35766889
0.68864105
-0.45513838
-0.06411566
-0.91174424
0.13635828
0.15242728
-0.66802051
-0.09234513
0.11046995
0.56373034
-0.85422944
-0.83458303
0.67324608
0.56177612
-0.07411003
0.07607306
-0.63653693
-0.63987688
-0.74806052
-0.73259727
0.58703277
-0.17591465
-0.47256268
0.01515074
-0.83185439
0.13567797
-0.44840086
-0.56150514
0.47127618
-0.45531175
0.16343980
-0.52166977
-1.11057946
0.13250830
-0.40673728
0.12585422
0.38534480
0.17530698
-0.93923198
-0.20380639
-0.36925790
-0.49976366
0.41281604
-0.17395486
-0.43578255
-0.36973320
0.81096864
-0.21091418
-0.08555502
0.57516056
0.24696453
-0.54343534
0.05715628
-0.32419744
0.70891742
0.20338978
-0.41681875
-0.82958712
-0.64018976
-0.12950962
-0.19334482
0.57896704
-0.51144428
-0.14713095
-0.72855352
0.62670846
-0.55622698
0.40644662
0.07296335
-0.66522355
-0.50783163
-0.80746233
-0.21818524
-0.03382778
0.46821370
0.16834020
0.42407672
-0.86833285
