0.07034275
0.03566159
0.67069401
0.02118762
-0.42688395
0.49908227
0.24784637
-0.49909697
-0.38138536
-0.48035151
0.38987253
-0.32480097
0.28143876
0.48676461
-0.66682212
-0.28605861
0.37508360
0.45021111
-0.27151054
0.13209590
0.36235481
0.28056603
-0.11080833
-0.13157032
-0.46673507
0.43092747
-0.21356054
0.45903039
0.39066503
0.26177061
-0.23499242
0.41465158
0.27201821
-0.29554822
-0.06026189
-0.22100112
-0.34108360
-0.17990388
0.22744720
0.27935780
0.08131192
0.36628281
-0.19927087
-0.53938180
-0.25911432
0.35102206
-0.09612080
0.23530500
0.02879911
-0.14390547
-0.20149507
0.27629179
0.48644356
-0.44755259
-0.19815564
-0.11945446
-0.18843969
-0.43503321
0.33009520
0.37131095
0.55807477
0.00384383
0.26466580
-0.06257065
-0.30753298
-0.14375905
0.22516933
0.13226179
0.52243688
-0.60959385
0.19259975
-0.48907633
-0.09678087
-0.18147159
-0.17596370
-0.38119018
0.04886306
0.05398325
-0.40206794
-0.20375943
-0.00104460
0.27883655
0.13536562
-0.17247603
-0.44771508
0.10843537
0.46659472
-0.29276913
-0.26189432
0.20697942
0.08850270
0.05850906
0.60942793
-0.42100589
-0.14808068
0.33629708
0.16104029
0.27232432
0.26379771
0.41331316
-0.38977510
0.16902813
-0.23686417
-0.00432799
-0.51799587
0.12214567
0.55347740
-0.12991941
0.22400945
0.37288016
0.36957940
0.24923601
-0.12560012
0.46239494
-0.18362471
-0.18350599
-0.24676350
0.25292642
0.43790521
-0.29969330
0.11010196
-0.21450861
-0.09770173
-0.09488651
0.32355071
-0.30662336
0.14236050
-0.28564743
-0.07795528
-0.32850457
-0.49966198
0.51585865
-0.08091105
-0.29052189
-0.06421346
0.38560463
0.01852905
-0.10096874
0.01369393
-0.38431245
-0.50673895
-0.39056747
0.26714735
0.00729713
-0.69196712
0.44115934
0.03683083
-0.49388720
0.42564073
0.40979105
0.02979791
-0.35149260
0.38256736
-0.25116451
0.18683696
0.36853728
-0.03069695
-0.24667630
-0.10467716
-0.22340499
0.93840846
-0.50006724
-0.03217583
-0.19179707
0.64127861
-0.37807549
0.13493246
-0.49489005
-0.34522390
0.05025290
0.17992384
0.02851149
0.14560581
-0.34909058
0.20819556
-0.43725850
0.15232158
-0.45239084
-0.30303357
-0.60591658
0.40840166
0.40930456
0.15481591
0.06012828
0.16824909
-0.34078804
0.39225568
0.06423811
-0.17923755
-0.40777368
-0.40299332
-0.25566585
0.46717272
-0.44968456
-0.38372049
0.13027918
0.24245146
0.21523639
-0.41822547
-0.13131329
-0.26163709
0.44333731
-0.22484892
-0.14902186
-0.27108399
0.29406968
-0.35277120
0.12569695
-0.52684986
0.61945274
-0.49942021
0.15111363
-0.16079228
0.18375808
0.35787277
0.23494442
0.42006973
-0.18341854
0.41832910
0.42465442
-0.22780478
-0.12258084
0.19589052
0.53122948
-0.62562245
-0.43329781
-0.29191091
-0.35040757
-0.21072973
-0.26930747
-0.13002177
0.21861279
0.31201830
-0.54355142
-0.17042737
0.36873392
0.45714841
0.12220612
-0.75925105
0.37052510
-0.44263966
-0.15880224
-0.39153846
0.12562875
0.28364883
0.01903914
0.32461670
-0.36945454
-0.19895285
-0.21450817
-0.46891502
-0.12968350
-0.38360745
0.28809013
-0.23377921
0.16144028
-0.08173199
0.31613332
-0.47976641
0.18892417
-0.48986864
0.37520684
0.27865075
0.22236411
0.16417827
0.35515185
-0.38848526
-0.23429827
-0.53677204
-0.51231642
0.27436298
-0.40830250
0.50057032
-0.41012593
-0.01685463
-0.02244750
-0.13873754
-0.07581172
-0.02416374
-0.07124893
-0.12200575
-0.22527344
-0.21671517
0.03003098
-0.47541774
-0.49753000
0.18625111
0.01436058
0.28164873
0.77763878
0.27744207
-0.23704322
0.32375829
0.37249618
0.15866817
0.33988922
0.43201088
0.54793649
0.19822159
0.55212789
-0.23717183
-0.19721551
-0.43442856
-0.06810129
-0.13552613
0.06569279
0.10966066
-0.38633170
-0.24806603
0.09473463
0.06045656
-0.17439491
-0.33460106
-0.04184330
-0.05278231
-0.21188072
-0.43529702
0.34786371
-0.12665304
-0.57043005
0.15199825
-0.18045432
-0.48066556
-0.40901613
0.20302065
-0.07225650
0.39909120
0.60139246
0.36097838
-0.30977297
0.30352339
0.07550190
-0.15491380
0.21249618
0.46341495
0.46653806
0.43624756
0.06672101
0.61670354
0.29893506
0.89921542
-0.76948075
0.35281137
0.63770144
0.18959717
-0.05941911
-0.14360363
-0.12008102
-0.48463042
-0.30225430
0.25999428
0.80415940
-0.37586106
1.11956176
0.44508071
0.96700496
0.06196857
-0.02324979
-0.21552227
0.30297155
0.71246312
0.36442309
-0.16952050
-0.13134588
0.32799154
0.28338170
0.45418679
-0.53565864
0.30775607
0.04417825
0.08750995
-0.42454549
0.37589465
-0.09074286
-0.28584571
0.07574992
0.11810919
-0.31985967
-0.35479254
0.54979036
0.46875215
0.11652687
0.02575963
0.09868917
-0.24866226
-0.01044131
-0.07197229
0.13964763
0.04361422
-0.00833982
-0.35738145
0.16510818
-0.36588455
0.16877114
0.26565185
0.11006420
-0.33014415
-0.21731483
0.43347269
-0.05301791
-0.41009584
-0.47410081
-0.39811017
0.15207575
-0.13021952
0.06889934
0.32792592
0.41607398
0.29969621
-0.23740230
0.09892765
-0.40188179
0.52043531
-0.08951131
-0.34500329
0.49639224
-0.34202602
-0.52458645
0.28835007
-0.21247837
0.02244397
0.49356795
-0.15215108
0.30839535
0.31927944
0.39408369
0.27487538
-0.20787881
0.23293047
-0.11158857
-0.28363806
-0.27163685
-0.38312528
0.90187830
-0.21900275
0.42499879
0.19923012
0.41487335
-0.12955754
0.78344443
-0.20671699
0.31676812
-0.22141923
-0.09844035
0.25744168
-0.66656045
0.61423174
-0.52256117
-0.39309770
-0.44173218
0.23882344
-0.10626042
0.35613643
-0.14449750
-0.53973186
-0.06913772
0.26638260
0.37492463
-0.85765473
-0.38059511
-0.19910344
0.33759710
-0.78104928
-0.08241706
-0.36514972
0.29094702
0.23288831
-0.36161037
0.25007572
-0.12090388
-0.31488990
0.49779624
0.32158196
-0.02231574
0.29225474
0.08534350
-0.13998329
0.54313711
0.37813343
-0.04307850
0.41023502
-0.03985689
-0.26629964
0.32996226
0.31023467
0.37239910
0.00511580
-0.05387630
-0.26860443
-0.06338693
-0.39493046
0.30616812
0.13279368
0.05674621
0.29925363
0.48492171
-0.36004154
-0.06550220
-0.33113408
0.21984760
0.44914287
0.34645258
-0.23103510
-0.27646575
-0.45349688
0.44970018
0.26398850
0.12758589
0.20948160
0.10753400
0.24644081
-0.03260976
0.02865998
-0.15797012
-0.41577297
-0.07756377
-0.17668790
0.30756941
-0.34066889
-0.30887689
-0.01133594
0.33306709
0.59609975
-0.16065057
0.28620820
0.38393294
0.14051354
-0.24628450
-0.31514663
0.05166224
0.28114619
0.41093189
0.21993111
-0.05252766
0.68391780
0.03710776
-0.36564623
0.41942439
0.19959643
0.23816154
0.28517987
-0.15112183
-0.11904984
0.22972081
0.11875936
-0.27573243
0.21882327
0.08666051
-0.15189558
0.17008272
-0.05099315
-0.02453541
-0.47664626
-0.34703784
-0.44986066
-0.11260602
0.41966581
-0.27506875
-0.29066539
0.18684679
0.60593224
-1.10105029
-0.51646383
0.62990929
-0.50327282
-0.17084867
-0.05449543
-0.24916339
0.20994086
0.06427326
0.05333830
-0.04198656
-0.32093098
0.43074905
-0.23101704
0.39627095
0.12411793
0.43355728
-0.46764898
0.19457010
0.07901905
0.16226454
0.20832919
0.03947255
0.01556779
-0.17621602
-0.24260258
-0.37220801
0.50019633
-0.34475974
0.46835843
0.31431395
0.59367029
0.29408216
0.07256043
-0.09749238
0.47659491
0.36889005
-0.17756706
0.44437974
-0.05138516
-0.21319367
-0.76189384
-0.19317207
-0.04585677
0.22878934
-0.44627386
0.26260790
-0.65913366
0.22574384
-0.23626444
0.10804909
-0.15247448
-0.20631056
-0.01951196
0.31405237
0.49520159
-0.20434511
0.21088568
-0.42887771
0.31266432
-0.10508647
0.05474448
0.62052682
-0.13968472
-0.25138970
0.48197065
0.22257625
-0.40193405
-0.38943656
0.50020647
0.43392796
-0.01251862
0.47630569
-0.35138748
0.16427096
0.43044703
-0.18634242
-0.04588702
-0.31402081
0.24791524
-0.08193091
0.28066917
0.32553004
-0.10302237
-0.30475981
-0.13397737
-0.00736129
0.39579968
0.06683923
0.16277207
-0.73603543
0.21261137
-0.12406992
-0.32524168
-0.21457691
0.43234970
0.32433747
-0.28003727
0.28251195
-0.20649045
0.03964812
0.34616100
-0.09890889
-0.25749539
0.35907438
0.26971147
0.25221366
0.12839180
0.08240496
0.18254443
-0.44969779
0.21356208
0.25458788
0.31745778
-0.12583630
0.17736918
-0.06787682
0.27068766
-0.45601918
0.49508273
-0.37083803
0.19964977
-0.09006774
-0.10184816
0.49380017
0.41671368
0.41680859
0.46680417
-0.44900616
0.47078351
0.41504241
0.14237048
-0.42164816
0.13887505
-0.34620189
0.25108792
-0.08609529
-0.52020595
-0.26591224
0.02230437
0.45409431
0.39071650
0.42186382
0.45547718
-0.07154797
0.13071458
-0.20611589
-0.40450648
0.02887264
-0.00428758
-0.01441515
0.17793632
-0.38869559
0.31469323
-0.22093151
0.11501741
0.17305742
-0.53044994
-0.14994739
-0.18499057
-0.14844654
-0.02699505
-0.22701953
-0.19265256
-0.29264316
0.43248630
0.17321252
0.26368926
-0.19544357
0.36218452
0.12004697
-0.15378544
-0.31240500
0.02845066
-0.03074814
0.42822965
0.32298117
0.08033069
-0.36485239
-0.01107646
0.22130322
0.58120082
0.13461491
-0.15668056
0.47025262
0.55090861
-0.09852219
0.17792700
0.52870215
-0.10467259
0.21445253
0.02861906
-0.34925877
-0.22355115
-0.14493400
0.39290249
-0.03163684
0.06642915
0.22935471
0.49762051
0.38622105
0.17131019
-0.44383058
0.33504884
0.43976241
-0.12454756
0.51992643
-0.13642303
0.65823170
-0.42482180
0.45961232
0.09845349
0.47899042
0.39786537
0.68705568
0.44519152
0.29662514
-0.03218107
-0.10017397
-0.11954622
0.53185931
0.20434024
0.12188994
0.28352345
0.45726260
-0.34983424
0.43876743
-0.32164409
-0.27891784
-0.21357915
-0.07025749
0.36791917
-0.16745253
0.24208984
-0.35692214
-0.29575116
-0.81654512
0.41274693
-0.16768393
-0.27748137
-0.03573198
0.12219326
0.10096063
0.42878931
0.22723687
-0.25352527
-0.21992487
-0.13870530
0.14655714
0.12453528
0.21682196
-0.43556953
-0.17910927
0.47493545
0.23649705
-0.24383451
-0.14911042
-0.07971417
0.33445980
-0.51292745
0.19373620
0.44043186
0.68668007
0.06844316
0.57481515
0.21232558
-0.06327062
0.32090202
-0.12565513
-0.01287510
0.11680444
0.35021657
0.00297179
0.56061254
0.20576132
-0.24918794
-0.07991350
0.33891649
-0.28899075
-0.15575805
-0.39475631
0.37939863
-0.23403485
-0.30897605
0.29356068
-0.31552129
0.11140223
-0.16739214
0.61208416
-0.28631836
0.46274377
0.46119100
0.20548473
0.27726867
0.39130018
0.30403480
-0.00281259
0.33961070
-0.21617906
0.16548990
-0.23059357
-0.33864520
0.50055537
0.32696393
0.19636135
0.44486946
0.36768629
0.07819293
-0.40264779
-0.38565630
-0.13230594
-0.09152405
0.35742843
-0.24085218
-0.45206675
0.15188617
-0.45180010
0.31472360
-0.30894132
-0.44379532
-0.37305175
-0.45759557
-0.61321013
0.18707617
0.05124897
-0.00196804
0.40792837
0.19425588
-0.09175777
-0.10341808
-0.35983053
0.23600255
-0.38793972
0.34404586
-0.09966625
-0.42871374
0.31461090
0.07823858
-0.34003360
-0.28209327
-0.51817961
0.56128195
-0.18022518
-0.19333377
-0.07896110
-0.22847365
-0.54771736
-0.33303040
-0.20625575
-0.46574881
0.03510175
-0.06209129
0.44290053
-0.29405915
-0.49647773
0.35991960
0.32729864
-0.07371804
-0.05675424
0.16630040
-0.12762833
0.34005603
-0.25735013
0.07800745
-0.02547066
-0.38157619
-0.19445285
0.16457466
0.34498039
0.46433187
-0.22227642
0.17010845
0.34774817
0.01407843
0.16361772
0.11489109
-0.31918303
0.02450719
-0.15523893
0.27766671
-0.38127282
-0.37379510
0.32235291
-0.11340691
0.17556246
-0.22410294
0.30217287
-0.20662389
-0.03333664
0.05766056
0.55552087
-0.27721303
-0.47667028
0.29771703
-0.23775555
-0.46691037
-0.12581588
-0.24791175
-0.04046627
0.49085969
0.28035472
-0.06725683
-0.10283087
-0.58895917
0.22682777
-0.10924472
-0.15592050
0.05149819
0.61403501
0.36164492
0.08364958
0.12444192
0.07264123
0.29368235
0.47465796
-0.15091356
-0.22287486
0.38080514
0.32703621
-0.07500200
0.33853587
0.24335309
-0.35023389
0.29735020
-0.05653419
0.42514763
-0.15947579
-0.40732372
0.20201295
0.52674738
0.13447028
0.13024421
0.10728130
-0.21529460
0.09301662
0.16566002
-0.32318764
0.41558562
0.31686631
-0.09978171
-0.22603082
-0.15622118
-0.11752675
-0.37100027
-0.00372160
0.27270262
-0.11898591
0.27496132
-0.19491756
-0.23441394
-0.06026260
-0.33614180
0.02888909
-0.47101430
0.10578124
-0.38409916
0.29178104
0.10032592
0.37946229
-0.33453376
0.09398701
-0.18194944
-0.52842167
-0.37705557
-0.31335820
0.20790726
0.04585359
-0.16650547
-0.02294456
-0.31191099
0.80445363
-0.22731442
0.48706695
0.01918652
0.59039881
0.48535349
-0.16008680
-0.39803767
-0.16446828
0.23124486
0.07585325
-0.02496411
0.38975031
-0.00971048
-0.00142111
-0.17185680
-0.01767104
-0.45805459
-0.10103589
0.36427172
-0.16922167
-0.12237524
0.29317532
-0.18277096
-0.24114910
0.37331477
0.11728542
0.09651043
0.12524479
0.47555763
0.14667860
-0.00960102
-0.32666174
0.34476532
-0.15415433
-0.41799147
0.16198808
0.06763275
-0.53574859
0.03373035
0.11540118
0.23194570
-0.57994387
-0.42543303
-0.49842243
-0.53304912
-0.12731136
-0.40472905
-0.02386481
-0.69558061
0.22588800
0.06314199
0.11952046
-0.24329219
-0.05482689
0.43001428
0.38218197
0.41536919
-0.46468434
-0.37613585
0.03673159
-0.09041251
-0.21636463
-0.14899298
-0.35489209
0.44087410
0.15955869
0.35509114
-0.44443716
0.42633237
0.30751963
0.46610614
0.41381400
-0.23445524
0.08178002
-0.30251160
0.27070049
0.10118574
0.22633708
0.15336682
0.51359212
0.23278531
0.17716495
0.43034120
0.20163883
-0.14704966
0.06722183
-0.42567921
-0.28903671
0.41589021
-0.07486688
-0.08544286
-0.48394776
0.15468920
-0.06398857
-0.06881615
-0.32032719
-0.09251646
-0.23253349
0.31768743
-0.30439370
-0.00976820
-0.06823773
-0.49259453
0.03858521
-0.32922566
0.28314994
-0.20368577
-0.12185839
-0.42723590
0.16994281
0.28949618
0.18745813
-0.55216193
0.36146455
-0.28305687
0.27413739
0.01971539
-0.17781568
0.10154762
-0.44140929
-0.38410550
-0.37073173
-0.50208545
-0.32853435
0.09971055
0.36429270
0.23181163
-0.16305995
-0.35010904
-0.45440484
0.09798939
-0.28799083
-0.26473013
-0.28931618
-0.31270207
0.18610005
-0.37426488
-0.00692583
-0.27359873
-0.54558966
-0.29556249
0.03499338
0.67476565
-0.03213950
-0.40914721
0.34322113
-0.14842876
-0.06256621
0.53836530
0.28195069
-0.18155860
0.06517679
-0.43351581
-0.41084668
-0.43918129
0.24704713
-0.15102004
-0.19879844
0.46890436
0.44686843
-0.41950840
0.04337990
-0.17421045
0.20792987
0.25195553
-0.21035449
-0.13971733
0.07278227
-0.28751962
0.50418479
-0.44738915
-0.13832228
-0.21655965
0.29075689
-0.17658714
0.17181753
0.44153209
0.43028011
-0.14075416
0.48851559
-0.07258307
-0.43490070
-0.46348261
-0.16248851
-0.30450047
-0.00279594
-0.34295661
0.27199654
0.25959706
0.35762376
0.37974183
0.54201128
-0.16791988
-0.08686504
-0.26007933
-0.26469366
-0.43238905
-0.10850975
-0.11005946
0.32254991
0.29915709
0.34736811
-0.13895077
0.23739887
0.20624397
0.67846677
-0.75052856
-0.26023158
0.49124076
0.05273917
-0.59671005
0.15754777
-0.17561144
-0.04150180
-0.19008082
-0.13859645
-0.27214889
0.02402696
0.36127237
0.20719871
-0.06229557
-0.23031386
0.06639623
0.08422747
-0.06662630
-0.33931321
-0.22419878
-0.47151516
-0.31887251
0.21680274
-0.68482223
0.73942470
0.35795381
-0.34721510
0.14463778
-0.02420712
0.07435349
-0.38120881
-0.43932986
0.06268241
0.16127966
-0.13843317
0.02102233
-0.44760117
-0.19163317
-0.34003001
0.41636722
0.39620930
-0.18594707
0.27849459
-0.11807471
0.52181917
0.08523866
-0.33440602
-0.32093304
-0.27625380
0.36428613
-0.19067045
-0.03524273
-0.30898646
-0.00812777
0.13935095
0.40195191
-0.15515131
-0.24274839
-0.17422389
0.04459738
0.06804691
-0.49358668
0.09394202
-0.25928556
-0.11257238
0.25603364
-0.11522075
-0.47886556
0.43641007
0.03749083
-0.23593135
-0.18694284
0.22491894
-0.06785833
-0.45429545
-0.01265692
0.36735246
-0.42671945
-0.37554422
-0.29000051
0.20368492
0.06536060
-0.03396299
0.44481817
0.30938276
-0.23366510
-0.15970868
-0.10362175
-0.26153882
-0.11147054
-0.40088659
0.37655662
0.48635436
0.46161876
0.23912660
0.18260943
-0.33783921
-0.39292447
0.42775360
-0.02320536
0.38501652
-0.45876010
-0.07091131
0.33561651
-0.22503827
0.09597178
-0.45577988
-0.11683781
-0.48371596
-0.04371797
0.30063735
0.37207148
-0.01202640
-0.38504957
0.11437258
-0.15185242
-0.45831066
-0.58868823
-0.36089316
0.36645556
-0.45530462
-0.33507173
-0.24200034
0.36941202
0.14789857
-0.26877102
-0.54727241
0.12947522
-0.87563094
0.05951938
0.44317429
-0.63219256
0.08379581
0.43863916
-0.25226751
-0.42196239
0.20295450
-0.11787129
0.44434758
-0.33415929
0.18754310
0.60245291
0.50709571
-0.09583487
-0.09603015
0.40247910
0.26825796
0.47905429
0.53010817
0.21870203
-0.24737444
0.24437537
-0.46314740
0.20795395
0.16200136
-0.57953464
-0.21227297
-0.04311934
0.09397023
-0.71366505
-0.11022081
-0.51679487
-0.15207805
-0.18627676
-0.10867178
0.04324860
0.31442809
0.41582277
0.34961049
-0.38319438
-0.38887920
-0.26162831
0.12516756
-0.37330976
-0.19583666
0.18152586
-0.23483440
0.37699070
-0.24414533
0.37602329
-0.17732184
0.42844051
-0.30978708
0.35043911
0.20877897
0.32138325
0.01100852
-0.31410307
0.29891442
0.38760883
0.49328179
-0.00350354
-0.31274681
-0.04891010
0.12187662
0.41865447
0.22649660
0.31973062
-0.39413657
0.29216510
-0.22209540
-0.17915180
0.34189133
-0.17566985
-0.59598378
0.25666839
0.13238237
-0.50237562
0.00385365
-0.10466785
0.31390460
-0.28107095
-0.40735733
-0.51598726
-0.38030182
-0.00683362
0.14173253
0.26597821
0.29206197
0.47107115
0.37833317
0.48433025
0.24661107
-0.34012970
0.50132874
0.16915498
0.40476150
-0.31707783
0.47866262
0.23752452
0.10705814
-0.45969774
-0.27169139
0.05365449
0.92508750
0.07165702
0.53381775
-0.21945788
0.16636070
-0.21459681
0.66038379
-0.32528078
0.11264300
0.46481143
-0.26831430
0.55014904
0.26556894
0.40632766
0.13697477
0.01495703
-0.40770651
0.18679087
-0.34148967
0.18931336
0.52657968
0.03360297
-0.22374865
-0.13307559
-0.17610106
0.48183609
0.35388102
0.36872565
0.35650569
0.47516572
-0.44930654
0.44568443
-0.13585646
0.29350745
0.39133366
0.40353622
0.42783010
0.38391842
0.54046839
-0.00556133
-0.19181261
0.43054595
-0.21469191
-0.35558066
-0.08991240
-0.15319960
0.31756424
-0.40422496
-0.45472973
-0.44566995
-0.96046065
0.38835374
-0.40761544
0.34077438
-0.33964014
0.39160651
0.50955494
0.53807135
0.43741819
-0.42691475
-0.08171295
-0.31794111
-0.15679311
0.20447419
-0.47280498
0.38052220
-0.00758292
-0.06496977
0.06987410
0.45574013
-0.52753700
0.51812517
-0.27498854
-0.10120219
0.05697256
-0.65010108
0.17096748
-0.05506153
-0.70277725
-0.00670211
0.37764882
0.31571032
-0.10956473
-0.39912925
0.02638367
-0.11845388
0.41969246
-0.43538111
-0.16410985
-0.34880167
-0.07754449
0.34651160
-0.36597216
0.24273037
0.03809105
-0.29044064
-0.07825283
0.17667384
0.39269883
0.36306327
0.09569300
0.27318133
0.03357648
0.30415059
-0.77662685
0.43424490
0.27997497
0.13183871
-0.04887525
-0.22004007
0.23281430
-0.08233237
0.34125324
-0.67857742
0.65828387
-0.68850282
0.61732270
0.69033416
-0.34455226
0.28319834
0.15124309
0.13515149
-0.16920898
0.26968202
-0.27054271
0.04305866
-0.11328678
-0.41083829
-0.41993464
0.19445245
-0.38355470
-0.43947771
0.42060987
-0.42502678
0.48890219
-0.08351526
-0.21462019
0.40699748
0.00937329
-0.19722480
-0.33059921
0.13688545
-0.11433620
-0.52033577
-0.43820618
-0.30056851
-0.18223925
-0.29678913
-0.10932008
0.14812996
0.06552868
-0.34654517
-0.25435363
0.22122664
-0.03945138
-0.50612074
0.43321276
-0.28813815
0.25285645
-0.23880437
-0.24848281
0.45018178
-0.47166366
-0.11490101
-0.35168345
-0.95181971
0.01553285
-1.45197990
0.26100634
0.54490539
-1.14100319
-0.49789236
0.87092212
-0.32899577
-0.30734638
0.15453149
-0.25756225
0.02040359
0.36794695
0.32051646
-0.21916672
-0.04094305
0.18850960
-0.19748193
-0.13720765
-0.13028282
-0.39211888
0.43121348
-0.36844897
0.37162283
-0.28678676
0.10672041
-0.61686657
-0.19466267
0.34095015
-0.47604295
0.13155614
-0.00255671
-0.02849297
-0.13106053
0.00441080
-0.48860399
0.32236619
-0.11932361
0.01090320
-0.37720806
-0.07913122
0.09785118
0.13360977
-0.16345284
-0.05456500
0.10145825
-0.09848773
-0.42405071
-0.20754961
0.47159403
0.22082426
0.41130960
0.80503721
-0.46672544
-0.44286926
-0.19845012
-0.49523936
-0.48770118
0.45022421
-0.45029364
-0.39827472
0.24339561
-0.38768460
-0.35163353
-0.23351487
0.18201389
0.36373197
0.12759018
-0.25584701
-0.17247390
-0.12793433
0.43896933
-0.42722973
-0.03976206
-0.03668347
0.02924067
-0.12501007
-0.23793899
0.68048713
-0.54077673
0.14467694
0.38529688
-0.02269693
-0.46216715
-0.40526223
-0.38903352
0.22144854
-0.08761986
0.05378973
0.07650599
-0.09317849
0.00619356
0.10622135
-0.07768365
0.13145132
-0.04555327
0.31080220
-0.65816233
-0.52598501
-0.30110099
-0.36107593
-0.28777301
-0.47880970
0.35921698
0.51529678
0.26758139
-0.11638832
0.05187273
-0.32706018
-0.34793014
0.25305090
-0.26271903
-0.26120875
0.04358325
-0.22467722
0.40597041
-0.32653124
0.14200793
0.14853202
-0.06025054
-0.14324514
0.03650494
0.11917041
0.17808762
0.08156502
-0.24785301
-0.03905079
-0.29096282
-0.37018179
-0.24439424
-0.41855729
-0.01650874
-0.02057306
0.66685827
0.42521182
-0.39959401
0.22058795
-0.08043979
0.52276366
-0.08531824
0.30089589
-0.53023959
-0.59688961
0.68163464
0.46677363
-0.42280913
-0.45974363
0.61154432
-0.33411913
0.06267990
-0.34509464
0.28891697
-0.11639417
-0.24047195
-0.42229625
-0.04380378
-0.28020144
0.56768217
0.01031650
0.09276186
0.20636887
-0.17702854
0.17701391
0.12375213
0.29981905
-0.44783562
-0.44394771
0.06082799
0.09556538
-0.44767816
0.17780429
-0.05906462
-0.45387177
-0.05220385
-0.40867365
0.07018471
-0.18032610
-0.29710518
-0.07919490
-0.29518261
0.19352601
-0.30349263
0.16482849
0.13634606
-0.60499211
-0.17187710
-0.17084916
-0.22326548
-0.35951860
-0.33842153
-0.59310479
-0.23715077
-0.52675307
-0.19264522
-0.07809814
-0.29170264
-0.03956091
0.07479326
-0.13451734
-0.19255148
0.11272920
0.26566291
0.33044329
0.13965685
-0.24889405
0.04234584
0.42354538
0.03357868
-0.28574725
-0.01611200
-0.25831282
0.52765142
-0.00743197
0.14905833
0.50307829
0.55118236
0.50646340
0.31565730
0.16158229
-0.30757911
-0.09304434
-0.32074968
-0.27319455
-0.36874104
0.04853078
-0.15980779
0.05809212
-0.14019920
0.05187089
-0.06225957
0.40364169
-0.35777506
0.25420863
-0.50348535
-0.24150546
-0.22985269
-0.32161527
-0.12122290
-0.09566170
0.49144120
-0.43146085
0.31972746
-0.50852986
0.35408855
0.40063154
-0.12163665
-0.15550967
-0.18397721
-0.04660989
0.77135423
-0.08720617
0.19963253
-0.41999793
0.06807367
0.47478953
0.57422257
0.08581970
-0.22511440
0.16976396
-0.19020871
0.30340077
-0.40183980
-0.48013764
0.17621383
0.45828089
-0.03151153
-0.02058837
0.38064877
-0.13294324
-0.41717730
-0.21217132
-0.37674904
0.06292697
-0.10483413
0.03777516
-0.55476136
0.32011840
0.03705693
0.35959297
0.02891940
0.45569165
-0.18801945
0.53782375
0.05872387
0.42165036
-0.67750639
0.05132102
-1.00225483
0.06467348
0.43753824
-0.53213471
-0.18715471
0.15735545
0.04227332
0.45598552
-0.40533248
-0.39185318
0.53907361
-0.49756419
0.11908017
0.39909643
-0.26867284
-0.21898676
0.36690585
-0.29469650
0.28511602
-0.11029871
-0.24667714
0.04291892
0.08295621
-0.14989981
0.19819408
0.28871546
0.30390434
0.44949473
-0.72319911
0.11599480
-0.06221506
0.37460073
-0.40335529
0.30429294
-0.46240310
0.39823298
0.12711937
-0.10607879
0.38173510
0.13074053
0.13958167
-1.06610340
0.49569677
0.23522631
-0.22923286
-0.54477157
0.09738600
-0.72625049
-0.24215773
-0.34742975
-0.20369829
-0.03249163
-0.21740549
0.40394314
-0.06136981
0.41812859
-0.44404853
-0.28270584
-0.46303139
-0.21004295
-0.41195751
0.45308334
-0.15933052
-0.12578940
0.37352022
-0.10484311
-0.03742830
-0.63887011
0.06054191
-0.04563135
-0.24151858
-0.10152532
0.34713484
-0.28421031
0.09902488
0.09006253
-0.30133464
-0.03012388
0.11046587
0.16003281
-0.43628937
-0.33454270
-0.39185665
-0.52505929
0.06243131
-0.05290211
-0.23017612
-0.35874564
-0.06783593
-0.04134308
0.08987111
0.45717774
0.06620512
-0.35541943
0.12372843
0.30585321
-0.05202329
0.35412450
-0.31081352
-0.29380485
-0.48540273
-0.12630632
0.24214300
-0.48709247
-0.31332182
-0.37956085
0.62858473
0.21941917
-0.39369539
-0.11376956
-0.24001007
0.37852390
-0.24540309
-0.27361303
0.07600675
-0.58962315
0.78561674
0.23422513
-0.49001920
-0.49960786
0.12211834
0.05670195
-0.07761426
-0.65632843
-0.53204160
-0.61834952
-0.11328390
0.00366363
-0.42856368
0.42663151
-0.33247579
-0.38514765
0.32024540
-0.38204619
-0.17638836
-0.39324243
0.02657416
0.32805588
-0.42433439
-0.30305795
-0.15967496
0.09030056
0.13283438
-0.12441543
-0.70278760
0.06128143
-0.31560961
0.23630694
-0.34761668
-0.59531727
-0.31546009
-0.24616563
-0.18589379
-0.24983939
-0.66740033
0.18211126
0.05289906
-0.69140352
-0.35475817
0.19641077
0.21526182
-0.75321665
-0.72082902
-0.26569194
-0.63314640
-0.66259053
-0.53232582
-0.07580357
0.17081534
0.35667997
0.21712814
0.27781759
-0.23427149
0.40554823
-0.02913903
-0.42148275
-0.10319792
-0.46560057
-0.28100356
-0.12968721
0.10290911
-0.57337897
-0.00973610
-0.40646515
-0.50750568
0.02605615
-0.14428200
0.01415236
0.36722467
0.10770406
0.29389817
0.42995407
-0.02033183
-0.47774257
-0.31443392
0.20545283
-0.02662670
0.42491611
0.28674917
-0.10118931
-0.02042940
-0.25443689
-0.44153193
-0.00189855
-0.32585600
-0.52643205
0.12140981
-0.41520577
0.13062143
-0.26562611
0.11081303
0.50753761
0.07367878
-0.31785086
0.33709513
0.40162753
-0.33548800
0.21930461
-0.16218598
-0.50165316
-0.09336729
0.19352740
0.21582090
0.11805276
0.31693650
0.48638828
-0.23320647
-0.46614192
-0.21422816
-0.17182112
0.04710654
0.42139130
-0.39579868
-0.86517626
-0.68871002
0.66853608
-0.68036680
-0.11628360
0.40289783
-0.33077823
-0.56416287
-0.08962011
-0.52167978
-0.25818809
0.34245791
-0.34951123
0.50579105
0.17680863
-0.27706286
-0.35898427
-0.05056675
-0.31301937
0.30785453
-0.49877190
0.12620228
-0.53615355
0.37697880
0.32326189
0.08259193
-0.08327630
-0.16835161
0.32500978
0.27675880
-0.29301742
-0.32500786
0.46356523
0.08553352
0.46140097
0.16515145
0.00686921
-0.24225018
0.02205471
-0.17896085
0.20674772
-0.38370399
-0.01323734
0.33007820
-0.26135650
0.32740297
0.06995366
-0.32210831
0.04124191
0.25117070
-0.19378577
0.26674849
0.60227106
0.39161793
-0.46381486
-0.00772603
-0.04965044
-0.50995458
0.38314189
0.49783895
0.40264476
0.28094916
-0.28859856
0.28367627
-0.15680376
0.01364482
0.30536866
-0.33499475
-0.43647018
0.43579483
0.48559880
0.29396696
-0.39889603
-0.07736197
0.46799206
-0.47904315
0.23595967
-0.41738266
0.13464870
0.46690799
-0.35064425
-0.37294262
-0.06703704
-0.26435648
-0.71552128
-0.60416433
-0.59971757
0.28206585
-0.40273549
0.10465838
0.25473502
-0.18532546
-0.28971887
0.42319591
-0.23163783
0.24508060
0.14821006
-0.16786779
0.53570694
0.52705003
-0.28904438
0.28868674
0.33031790
-0.11813454
-0.03514950
-0.14645003
0.03933588
-0.55752592
-0.26824783
-0.09909403
0.00863393
0.47857355
0.33131798
-0.02106164
0.39097901
0.26684609
-0.79191696
0.56364515
-0.23528019
0.54769876
0.63608581
0.08932825
-0.09800214
0.20039895
0.35917017
0.24973097
0.14401337
-0.05523958
0.41814474
0.27256867
0.60642732
0.02301809
-0.12201025
-0.36550689
0.30041855
0.28892575
-0.44150608
0.33069322
-0.36188349
0.37886109
0.24058770
0.24695695
0.12608006
-0.33558779
0.24844204
0.00446316
0.34723974
0.05160707
-0.48602307
0.33327456
-0.42780367
-0.39216667
-0.34595169
0.42367379
0.49711721
0.11778729
0.63421363
-0.31397353
-0.33835855
0.10273539
0.44082906
0.41422869
-0.06741448
0.22573112
-0.38178257
0.43166308
-0.31884120
0.41617808
-0.24640610
-0.62835001
0.36676939
0.32435941
-0.25652079
0.17444486
0.42594504
0.31304268
0.45083195
-0.09352407
-0.09824275
-0.34779138
0.04457840
-0.21959653
0.02419383
0.25927323
-0.41562542
-0.28461377
0.16211094
-0.05296707
-0.32641668
-0.51224088
-0.14076329
0.06640449
-0.32365999
-0.49600273
0.05735101
-0.46727104
0.06111999
0.36334665
-0.23852929
0.14872828
-0.28427819
-0.43996330
0.28571057
0.36148687
0.39025637
0.49841254
-0.15093206
-0.08278027
0.04018226
-0.08503309
-0.26040878
-0.49522362
-0.30998600
-0.04292935
-0.47029337
0.32088565
0.33579606
0.31587025
0.41623131
0.18973076
0.31018100
0.18493751
0.22779018
0.44463242
-0.45366839
0.04153407
-0.25248318
-0.22483226
-0.11740656
0.09806255
0.35059460
0.11140685
0.26229720
0.17801123
0.18001539
-0.15238911
0.24138581
-0.14303333
-0.06171812
-0.11239070
-0.46087928
0.01341558
0.07933858
-0.38208840
-0.10329772
0.49605128
0.29445713
0.50221276
-0.15710125
-0.01555559
0.46477688
-0.21417634
0.34066147
0.25929120
-0.07764513
0.23585629
-0.14826540
0.17142205
-0.46617857
-0.18616318
0.24158542
0.37474825
0.12882310
-0.09168291
-0.23785852
-0.18485220
-0.09031160
-0.10614769
-0.20743858
0.04774934
-0.34363070
0.34852609
0.04933431
0.25166343
0.29023772
0.43456027
-0.45249486
0.30919345
0.00379340
0.37362388
-0.54823036
0.01616725
-0.26166471
-0.05222464
0.05308094
-0.51909633
0.34353956
-0.30357296
-0.36888209
0.27602842
0.15177597
-0.41633966
-0.31956227
-0.30009238
0.10673983
0.16375685
-0.05466411
0.53723456
-0.21390959
0.11246765
0.20974091
-0.66018486
-0.35650334
0.39130383
-0.14234930
0.04104872
0.38656148
-0.41929189
0.19679238
-0.10105713
0.11424761
0.16555552
0.65895780
-0.38753237
-0.18884624
-0.40673074
0.28914208
-0.49317362
-0.38326733
0.06309927
0.24714175
-0.04866653
-0.04050151
-0.04017066
0.12226854
-0.24792352
-0.31987443
0.31604532
-0.24882329
-0.21434394
-0.29156262
-0.17556034
0.15016944
0.11964044
0.40077666
0.15891109
-0.12139953
0.08549872
-0.58049745
0.79721466
0.11529932
-0.63583778
-0.01490145
0.01019291
0.38732407
-0.47026832
0.12905153
-0.52536152
-0.03702031
0.08780211
0.36292644
0.19059112
-0.06975175
0.17012379
-0.03118688
0.30517334
-0.02038170
0.52414984
-0.30915844
-0.27805005
0.42158405
0.17190657
0.20791752
-0.24934121
0.59833108
0.00191189
0.18919243
-0.48830754
0.50248650
-0.40089106
-0.34638733
0.35980314
-0.41270734
0.10301975
-0.35871782
0.17481779
0.00119344
0.50230070
-0.32511436
-0.00807946
0.53093940
0.47676667
0.14180738
-0.03497020
0.10167172
-0.20546269
-0.17004789
0.28356015
-0.01795741
0.50784131
-0.39829310
0.68310187
0.38545277
0.66424990
0.19660444
0.37329340
-0.35834641
0.22919085
0.62707294
0.46944473
0.46123914
0.22559784
0.44104992
0.46413925
0.13491098
-0.05789544
0.31456471
-0.21408590
-0.26821330
-0.11668068
-0.36243692
0.37918936
0.34613462
0.27655643
0.36627150
0.24905867
0.04951741
0.65220792
0.19097301
0.23151164
-0.03984919
-0.26350173
-0.37939260
-0.13036277
-0.48344295
-0.38010192
0.29804604
-0.03727415
-0.38029638
-0.24915721
-0.27339398
0.63196966
-0.41479238
-0.15816111
0.38756620
0.26146102
-0.21680342
0.06445771
0.08216408
0.17179623
-0.08159781
-0.21875111
0.53264424
0.66426299
-0.66881140
0.16395360
0.61440929
-1.27570335
-0.24927782
0.58524100
-0.24494491
-0.27586229
-0.80147022
-1.13609130
1.25368488
-0.97343603
0.38771752
0.02419821
0.81062452
0.65948053
-0.98952952
0.20415420
-0.68490847
0.45546903
-1.10013228
-0.12346301
0.33035693
0.01575132
0.94793189
1.59585892
0.28814865
-0.34174215
-0.24831425
-0.56002052
-0.40133220
1.47171753
1.05256709
1.11548773
-0.87573443
0.09060420
-0.41353104
-0.23121203
0.15581248
0.25948923
-0.43050354
1.54705555
0.35699720
-1.11764141
-1.11886391
-0.75525397
-0.26427040
-0.32693206
-0.94874724
-0.03704732
0.31756534
-0.95850246
-0.24715326
0.27805353
0.22757667
0.50228316
0.14971890
1.01607009
-0.05492973
-0.90004940
-0.19551768
0.77033071
0.47185192
0.86340552
0.06014593
0.49703528
-0.24695477
-0.60691576
-0.77678547
-0.31973909
0.09756455
0.27318536
-1.15275472
-0.72074599
-0.28965167
-0.09270236
-1.00722474
1.11757048
-0.21850684
-0.67993326
0.79520546
-0.63664695
1.00360425
0.36000564
0.08085677
0.52588386
-0.59041502
-0.55127136
0.66959956
0.26376118
-0.50983629
-0.28926447
0.18815782
0.98549949
0.25552800
-1.07644037
0.03561902
-0.33239627
-0.67771821
-0.14830651
0.15881799
-0.17796639
0.60099663
-1.27571694
-0.74695502
0.90779993
-0.74962611
0.08002568
0.56184336
0.37039407
0.08798015
1.26701496
0.34288472
-0.90093369
-0.59534515
-1.21642593
0.77548269
-1.19949531
-0.06997294
-0.86059769
1.33085347
-0.26982038
-0.46879854
0.20132779
-2.36511602
0.12964264
-0.30278731
0.08094515
0.84191330
-0.21039889
0.57744271
0.74960782
0.02010946
-0.00980907
0.49870446
-1.31525713
-0.36632916
-0.87846998
0.76362388
-0.21956088
0.63410886
0.38515528
0.30689550
-0.93966928
-0.36480964
0.30476396
-1.52752963
-0.02469129
-1.35498971
-1.85145595
-0.44591675
-0.97347500
0.26581025
0.20212632
0.28765943
-1.53659300
-0.39620331
0.72863524
1.42938632
-0.17078740
-0.65248317
0.57930732
-0.30024750
-0.10616652
-1.80620960
-1.12068460
-0.57344702
0.09879041
0.42695245
-0.04616372
0.89930136
-0.62906329
-0.60724369
1.15388648
0.12912796
-0.32673914
0.33375715
-0.70721794
0.80027449
0.07602280
0.02107599
-0.66649268
-0.63470995
0.20104955
-0.24605734
-0.83955199
-0.57260147
0.34094359
0.11304569
-0.24037285
-1.46096008
-0.15666614
-0.10108401
0.30826963
0.81018294
-0.14119167
0.36953096
-0.79815988
