1.11444906
-0.42023166
2.71147016
1.11125943
-0.71610319
0.10457598
-0.05425311
-1.49610637
-1.57430812
-1.20686997
-0.00465112
-0.37217044
-0.32637476
0.48262341
-0.36370841
-1.23887026
0.74941259
0.08631863
-0.47111459
-0.35059058
0.84840733
0.65203594
0.24502953
-0.12269228
-0.49335865
0.68674368
-0.12498108
-0.01195684
0.87718101
0.12769525
0.03276613
0.21927293
0.53865399
-0.68237611
-0.31868710
-0.54054744
-0.32782117
-0.22291279
0.06539057
0.28108128
-0.23234866
0.25080521
-0.13402193
-0.48880486
-0.36592104
0.38710471
-0.01990502
0.22689094
-0.01951030
-0.10564113
-0.17855950
0.34862206
0.56328637
-0.56187714
-0.46602964
-0.23688290
-0.50872893
-0.46225925
0.24812399
0.48171023
0.60477560
0.03604102
0.21774479
-0.04411697
-0.22969673
-0.42029069
0.42328391
0.42576907
0.66998719
0.08050887
-0.05467067
-0.44801425
-0.40051099
-0.21598399
-0.36692534
-0.28773391
-0.12346222
-0.06400011
-0.41633234
-0.33769880
-0.05299491
0.20062092
0.19080363
-0.21240255
-0.40755382
0.10256762
0.48525614
-0.30229583
-0.21681114
0.21646572
0.06557426
0.29857285
0.44384339
-0.44807041
-0.12114513
0.20194205
0.15377810
0.33749679
0.28422181
0.44467353
-0.34787519
0.09619395
-0.19728862
0.07560171
-0.45910466
0.00924941
0.13098472
0.12752904
0.28395274
0.42563801
0.38788188
0.60456378
0.26437992
0.77169975
-0.01187114
-0.11381577
-0.08672938
0.42408768
0.55586914
-0.48295434
0.09398593
-0.12410663
-0.19422530
-0.11945923
0.28957651
-0.32482546
0.07667735
-0.26181049
-0.11191068
-0.37604832
-0.18477622
0.70824897
-0.37202028
-0.03830215
-0.02280105
0.45468397
0.07911097
0.03508945
0.11438794
-0.27045261
-0.37142002
-0.30484754
0.25288238
0.45688011
-0.58823104
-0.05858065
-0.06733148
-0.32933752
0.32697301
0.45056533
0.18413967
-0.13741172
0.52436074
-0.06482961
0.24157389
0.35752977
0.11922070
-0.43020262
-0.05155561
-0.25617069
0.38679579
-0.57837900
-0.23354913
-0.28990075
0.43115144
-0.38421053
-0.28695668
-0.63226668
-0.28389551
0.31302384
0.32966790
-0.21057707
0.24433481
-0.15366264
0.12168115
-0.41707583
0.14819680
-0.40946900
-0.34441515
-0.48284650
0.39254099
0.34983527
0.66912829
0.01172997
0.64042162
-0.03427857
0.38826701
-0.06810141
-0.05755631
-0.78000237
-1.03571027
-0.72144086
0.28538201
-0.43601792
-0.52151179
0.19360269
-0.03488048
0.13964703
-0.48752032
-0.00282181
-0.35192661
0.50030930
-0.17658770
-0.04309914
-0.24709611
0.35760717
-0.34650117
0.18862037
-0.11388822
0.21356009
-0.30350519
0.12970338
-0.46282375
0.14347494
0.34061158
0.14288917
0.37059465
-0.18608662
0.24023233
0.40237029
-0.19680081
-0.07098219
0.65421438
0.68547703
-0.25196604
-0.28992490
-0.20762992
-0.38667109
-0.16818235
-0.31214967
-0.14110810
0.14628924
0.27580888
-0.38958841
0.63880256
-0.17341331
1.67301070
0.63232641
-0.66671989
0.10134789
-0.30165525
-0.75164923
-0.93651751
-0.39634387
0.27339888
-0.00394830
-0.09116974
-0.34384880
-0.26190097
-0.27237166
-0.43904050
-0.22863279
-0.39933028
0.27955818
-0.23439785
0.12310235
-0.07292400
0.25198502
-0.48430986
0.20236457
-0.42955498
0.10137469
1.32676920
0.67409705
0.59403808
0.00685570
-0.22512268
-1.04076888
-1.27837979
-1.11329982
0.02404658
-0.66281530
0.17776259
-0.28065828
-0.21025468
0.02382658
0.04165434
-0.12101958
-0.11530114
0.03077911
-0.17736999
-0.48611294
-0.38702772
-0.03844572
-0.41927175
-0.51829453
0.09636041
-0.32133027
0.35492330
0.38823382
0.26893067
-0.35848593
0.29937019
0.09246750
0.03355778
0.18429519
0.41623588
0.44438342
-0.07050269
0.53827812
-0.64857342
-0.02431060
-0.49842227
-0.05765384
-0.31374908
0.04885981
-0.07848447
-0.52469301
-0.39283593
-0.02131825
-0.06249983
-0.20342840
-0.12772287
-0.40530213
-0.05246993
-0.15350841
-0.53046693
0.18632413
-0.21087617
-0.70043144
-0.04314505
-0.29806185
-0.62879168
-0.50134319
0.20622524
0.15833218
0.60865880
0.40184263
0.47346508
-0.42404157
0.30958809
0.02001931
-0.14295690
0.16333185
0.46345622
0.42939963
0.43528154
0.05334682
0.57891089
0.41894040
0.39374266
-0.23411221
0.30406470
0.46989412
0.04262537
0.05009818
-0.17406497
-0.13152677
-0.59734188
-0.39070514
0.41912826
0.66258992
-0.51732706
0.82337276
0.41279747
0.17803341
-0.13090919
-0.32874319
-0.52230532
-0.28981791
0.25840646
-0.08702066
-0.42757318
-0.23551975
0.65843273
-0.23137165
0.71687652
-0.40472021
0.20549711
-0.26040659
-0.00012789
-0.61855949
0.21543041
-0.28442701
-0.46198266
-0.06481879
0.14708977
-0.23519354
-0.40791299
0.53132167
0.52822642
0.05995386
0.01385232
0.08182033
-0.28066752
-0.06730531
-0.10751600
0.13388521
0.02771556
-0.04961752
-0.28540534
0.59437415
-0.70667748
0.16467829
0.38147147
0.22782534
-0.26063043
-0.03159155
0.58834487
0.08391948
-0.26090110
-0.38448214
-0.37716132
0.31841041
0.25420676
-0.25801352
0.46185115
0.32206517
0.43032738
-0.22461605
0.17215440
-0.39626040
0.55278015
-0.01961012
-0.28913502
0.44251920
0.02809424
-0.52518110
-0.21151968
-0.37200060
-0.14445621
0.55775011
-0.19549267
0.50741177
0.44705085
0.49054142
0.39353421
-0.11111480
0.22228898
-0.17482695
-0.20669967
-0.36821160
-0.37147436
0.29137607
-0.12343866
0.28878819
0.26445717
0.22363095
-0.07723965
0.48733428
-0.18952616
0.35236474
-0.27630271
-0.04455673
0.29563883
-0.49470006
0.41589954
-0.53302970
-0.50824010
-0.30779116
0.19695290
-0.01831964
0.19486871
-0.11933873
-0.38446922
0.47763137
-0.22936231
0.59312669
-0.43129828
-0.50436897
-0.43945149
0.20987628
-0.80593929
-0.27183595
-0.51032989
0.09729389
0.13729501
-0.14180493
0.27150090
0.18975317
-0.57818077
0.46180339
0.20116653
0.04134632
0.27657076
-0.00508672
-0.19050988
0.50080589
0.39703644
-0.06125928
0.22964322
0.15410537
-0.46724459
0.54807644
0.40662384
0.18243317
-0.01193884
-0.09788140
-0.40250961
-0.19423739
-0.49530539
0.20840673
0.08917843
0.01664708
0.17569609
0.39297104
-0.66121449
-0.23919479
-0.18574489
0.14360129
0.48599101
0.40478820
-0.14089831
-0.26196630
-0.36748405
0.45241349
0.26453903
-0.16035533
0.56392861
0.43119965
0.49980108
0.31230856
-0.10946808
-0.19377003
-0.72599538
-0.32268106
-0.39895385
0.19010544
-0.53942325
-0.39467623
-0.15590850
-0.11987990
0.40524591
-0.03927169
0.44699680
0.32246484
0.20669899
0.00617150
-0.01210218
0.25336437
0.43937300
0.46078281
0.41612377
-0.08003292
0.74737892
-0.31768719
-0.45867810
0.39384253
0.24461531
0.28367643
0.44349947
-0.06116072
-0.04364798
0.31061850
0.22628620
-0.18321141
0.23299657
-0.39257546
-0.14413632
-0.08806338
0.21683300
-0.22595663
-0.34513005
-0.44394475
-0.37406640
-0.16842153
0.52107942
-0.26182652
-0.36011844
0.40990247
0.42375225
-0.62737258
-0.28989741
0.26834145
-0.15968807
0.02484129
-0.02380402
-0.16991373
0.29037495
-0.04577324
0.15509289
0.15380678
0.02529587
0.42075292
-0.16911366
0.46144270
-0.01879947
0.39419173
-0.51437935
0.11332693
-0.00791293
0.11330935
0.09508751
0.00631084
0.00832087
-0.49124997
-0.29888959
-0.85740790
-0.08241204
-0.26530440
0.63546375
0.37300061
0.79001275
0.75271626
0.35439224
0.16956555
0.52693868
0.29017649
0.07111069
-0.25382512
0.03522984
-0.56562627
-0.57961232
-0.66606326
-0.17175117
-0.21119957
-0.68415610
-0.01573734
-0.79716489
-0.03344778
-0.44754680
0.09598719
-0.39650975
-0.30078493
-0.22560102
0.37144851
0.41335226
-0.16843684
0.10962639
-0.30996793
0.31961604
-0.04060220
-0.00108343
0.53935938
-0.07557931
-0.40831147
0.11793033
0.21396847
-0.55803874
-0.40940331
0.53873591
0.52665012
-0.01786868
0.49676034
-0.32363219
0.20273688
0.45095982
-0.29191056
0.20710975
-0.87879777
0.17821685
0.11891593
0.47158082
0.49277250
0.16344109
-0.05343994
0.05286866
0.22647172
0.55284157
0.11772561
0.65290044
-0.72572357
-0.49203812
-0.07769263
-0.30566844
-0.24622460
0.46454117
0.60788489
-0.03696116
0.42232841
0.02792119
0.15110773
0.38444716
-0.08053640
-0.43218111
0.27244144
0.36754292
0.30873503
0.12058041
0.09020721
0.28587551
-0.23812990
0.34353950
0.29892781
0.31363108
-0.03632550
0.23261103
-0.01587539
0.22150970
-0.41402917
0.41013638
-0.41329054
0.15998133
-0.09979438
-0.13786962
0.45581737
0.33930430
0.37553220
0.50175136
-1.68729176
1.22362012
1.18818411
0.42590633
0.20291853
-0.22139632
-0.43953345
-0.41749351
-0.61263081
-0.98256772
-0.42532773
-0.39164300
0.07701874
-0.09467346
0.90338256
1.00925333
-0.06780716
0.46521130
-0.27739626
-0.52869208
-0.41651456
-0.36865746
-0.32688227
-0.02456811
-0.64842823
0.13129733
-0.08514070
-0.30143247
0.28121228
-0.40500667
-0.14196145
-0.39213369
-0.23543597
-0.07202488
-0.31449318
-0.26734248
-0.41226626
0.33502701
0.25236044
1.01939070
-0.53235006
1.37694138
0.51886065
-0.91185979
-0.71848885
-0.58805577
-0.78712537
-0.40590011
-0.22486760
-0.53411280
-0.73427678
-0.35224245
0.25888202
0.60976918
-0.16225142
-0.17423926
0.50935762
0.50437753
0.01749475
0.30714661
0.66878648
0.01997856
0.24663512
0.11777568
-0.23640022
-0.33209472
-0.23620173
0.53128457
0.14278627
-0.08516562
0.30219626
0.48834083
0.40365609
0.16002578
-0.44091954
0.29697203
0.41848087
-0.05465505
-0.03244901
0.00712081
-0.12866872
0.30616718
0.21746124
0.31081374
0.41247741
1.20329100
1.39153396
0.97991750
0.51256836
0.05633117
0.27465156
0.06942812
0.38408855
0.29277573
0.13195103
0.27485478
0.38741845
-0.35809984
0.32410266
-0.40713280
-0.36690364
-0.28231560
-0.13059665
0.33558163
0.19958190
-0.52320522
-0.48304174
-0.71489422
-0.60312921
0.37713204
0.05834899
-0.06851676
0.43863446
0.29077210
0.45439854
0.59659271
0.21522069
-0.25079528
-0.36612393
-0.09994386
0.07120505
0.18064755
0.14930816
-0.41260446
-0.23699216
0.48383748
0.19616494
-0.22747436
-0.17190107
-0.11291032
0.05715229
-0.51079437
0.19124450
0.42756552
0.36870571
0.07951993
0.46727684
0.14400009
-0.19674094
0.21190565
-0.31296364
-0.08393434
0.16112255
0.51011007
0.21252030
0.13926940
0.48649095
-0.20149871
-0.18278360
0.23913555
-0.13956885
-0.17639605
-0.38037512
0.34816186
-0.25872674
-0.18464581
0.46752461
-0.39567567
-0.23191828
-0.31882028
0.12633335
-0.28536838
0.36223699
0.53244260
0.10526315
0.27091050
0.22615459
0.33673724
0.01008609
1.63416389
-0.53749553
-2.42961159
-1.20045328
-0.87348835
1.10470767
0.31108275
1.98445151
2.30745657
1.66498289
0.96314563
0.31474649
0.31052025
0.64373597
-0.17105903
1.19132823
0.06040632
-0.77044119
-0.16126610
-0.50785034
-0.39238084
-1.28892387
-1.08596025
-0.80734066
-0.55654407
-0.85125965
0.45088276
-0.00367955
0.75440281
0.47435791
0.36415636
-0.25594885
0.06523922
-0.93955869
-0.33559677
-0.93360961
0.24537095
-0.11959096
-0.73070225
0.64647902
-0.68781114
-0.36422847
-0.64350546
-0.78775621
0.03330852
-0.44338553
-0.88908722
-0.74428976
-0.71246834
-1.00865552
-0.63757018
-0.46307099
-0.35349245
-0.08821606
0.14195850
0.20526253
-0.29814615
-0.47634007
0.47952119
0.16017840
-0.09056199
-0.12328305
0.21901950
-0.09523665
0.18506877
-0.05795171
-0.26960306
-0.11853038
-0.63550382
-0.27413730
0.19834692
0.44913817
0.51740727
-0.10178890
0.21501310
0.45910232
0.09856680
0.11498614
0.15218252
-0.55176291
0.19252521
-0.19509847
0.13064306
-0.50739990
-0.43889417
0.13068770
-0.29022715
0.03255835
-0.40177076
0.18056104
-0.24555871
0.31166861
-0.37204160
0.82782043
-0.03915678
-0.57502373
0.06708015
-0.37737100
-0.65145219
-0.31594550
-0.41580399
-0.17445252
0.39805747
0.26012616
0.03944576
-0.19265884
-0.68302211
-0.20547589
-0.18743785
-0.17811641
-0.00318207
0.43675263
0.49858027
0.08310725
0.16499853
0.01110749
0.09785280
0.48463674
-0.48956954
-0.49667736
0.18358294
0.28096435
-0.20715840
0.33564901
0.15991431
-0.21530309
0.33933152
-0.02051461
0.36614395
-0.24875838
-0.04244478
0.18708247
1.10107038
0.37742314
0.11448938
-0.08338171
-0.19085785
-0.48452636
-0.56373018
-0.87663208
0.17650873
0.19769964
-0.40207484
-0.22804693
-0.31674753
-0.13990831
-0.41922738
0.02721427
0.15847627
-0.14596072
0.20925427
-0.20563033
-0.26999716
-0.10119371
-0.39939459
0.02706717
-0.29321098
0.50362077
-0.61476277
0.32061764
0.33037412
0.56440348
-0.21729709
0.23494766
0.04940720
-0.30196603
-0.12027521
-0.17894177
0.15863325
0.03834250
-0.19137530
-0.17490721
-0.31371820
0.23259499
-0.16518724
0.36041692
0.08995029
0.41146156
0.49504249
-0.40033637
-0.37641258
-0.10843497
0.27549687
-0.46150596
-0.06457330
0.23339051
0.05561359
-0.10699464
-0.02745518
-0.04658043
-0.41582833
-0.15634591
0.44094483
-0.14733534
-0.16756149
0.42848922
-0.35940809
-0.78224414
0.25364825
0.01769469
-0.02208176
0.00791643
0.61878610
0.47352982
0.17370915
-0.22327437
0.33402517
-0.15126305
-0.08582550
0.20728271
0.18387064
-0.25029876
0.12946081
0.05639694
0.35740382
-0.61362419
-0.69103943
-0.65448390
-0.59242175
-0.07964048
-0.32283630
0.30462098
-0.56338189
-0.32565648
0.00850924
0.12132251
-0.23308267
-0.08045288
0.61375306
0.50883213
0.48164565
-0.29227591
-0.29334212
0.01816210
-0.05957525
-0.31003955
-0.26232080
-0.43483390
-0.08841405
0.33299587
0.29761092
-0.31613083
0.36490018
0.40222308
0.32632078
0.46480275
-0.16304786
0.22548302
-0.51466648
-0.15958451
-0.15213714
-0.15010008
0.26963476
0.53441920
0.42021944
0.21889803
0.49019139
0.21783292
-0.05127581
0.12912215
-0.42424977
-0.43447910
0.39620956
-0.02209325
-0.19168438
-0.44278033
0.18435504
-0.01951363
-0.07780851
-0.27362319
-0.13415067
-0.20741986
0.36184625
-0.25541551
-0.20872797
-0.28773939
-0.25821342
-0.04924436
-0.37382351
0.26394243
-0.01379361
-0.14129206
-0.34960378
0.13771777
0.34847399
0.29257077
-2.23476455
1.35105350
0.92123338
1.10804771
0.65725547
-0.56587284
0.14606858
-1.12981288
-1.07891643
-0.85081496
-0.65054824
-0.73274940
-0.26182223
0.56706167
0.57524092
-0.46349617
-0.29266587
-0.32087227
0.06592771
-0.28564582
-0.20973440
-0.25404708
-0.30638045
0.26843191
-0.35443612
-0.03313051
-0.88245948
-0.10925668
-1.71723874
-0.19229732
0.76948042
0.40234889
-0.18273054
1.32379871
0.84603032
0.68058632
0.91179718
0.48057361
0.32512272
0.57595346
-0.69565834
-0.80458156
-0.44626929
-0.04742582
-0.06599136
-0.17948872
0.75594285
0.70497307
-0.20201889
0.13204573
0.01150713
0.30254057
0.32155168
-0.62059360
-0.13651518
-0.09708355
-0.20711897
0.36436051
-0.35275472
-0.24091888
-0.11117554
0.26716049
-0.12257522
0.13919392
0.38758612
1.54161092
-0.56056342
1.42387270
0.29792205
-1.13273363
-0.94502864
-0.90907731
-1.13491910
-0.99626620
-0.95207588
-0.40206609
-0.12571585
-0.05869730
0.54799671
0.44153006
-0.15656764
0.01286817
-0.40797920
-0.25685488
-0.42410434
-0.12077869
-0.14514299
0.32633754
0.23239229
0.34856634
-0.12091684
0.01319317
0.15783868
0.73603415
-0.73129589
-0.18897673
0.58753932
0.20023587
-0.49721614
0.10071539
-0.24209529
-0.02080684
-0.09220678
0.04587441
-0.18714254
-0.21629123
0.61346650
0.45505312
-0.04738012
-0.34991370
0.19974684
-0.07597756
-0.36423324
-0.58047927
-0.29163823
-0.45384359
-0.33542699
1.27391529
-0.77814103
1.49785959
0.74391235
-0.74434941
-0.19813432
-0.63577510
-0.57091165
-1.00292971
-0.82949644
-0.26983567
-0.06918093
-0.56802322
0.37939814
-0.57237487
-0.45220646
-0.47835983
0.33917004
0.42663316
-0.18503740
0.42004155
0.05274085
0.61863938
0.17553530
-0.24438488
-0.30668055
-0.04972257
0.57383160
-0.28952918
0.13147856
-0.28807751
-0.03602812
0.09653521
0.39000032
-0.16199939
-0.26620079
-0.14913343
0.02923589
0.04013630
-0.54857802
4.12007186
-1.85916121
1.04171148
0.04841207
0.98946981
-1.44492407
0.23736479
0.49072462
-0.70799742
-0.00178912
0.36937549
0.54299861
-1.02233989
-0.14438927
1.41000267
-0.10272933
0.09203684
-1.06134468
1.96021852
-0.06666080
2.26041609
0.47038784
-0.01851350
-0.86861666
-0.89777256
0.22618149
-0.88366419
-1.30461040
-1.36334200
-0.55038402
1.02472489
0.43410199
1.03285337
0.40490655
-0.62938877
-1.35840370
0.48614092
-0.90889411
0.85112860
-1.56136786
-0.25394472
1.05052536
-0.13278426
0.51769498
-0.10090004
-1.58757655
-1.26595889
-0.29998923
0.46718756
1.19679252
1.17881463
-0.35277997
-0.01681648
-3.13293967
-1.77744161
-0.88676304
-2.81612626
0.95343843
-0.21271355
-2.01257872
-0.50592020
1.32481671
0.01889210
-0.23507919
-0.53734057
0.83769178
-5.25919981
2.41635442
1.41536021
-2.24650918
0.19424545
0.86718240
-0.71141927
-1.34873438
-0.73247925
-0.15760904
1.37742586
-0.28506108
0.91117835
0.43482943
0.32474017
-0.90546926
0.86426823
0.84196094
0.75515823
0.94943936
-0.12598037
0.29530042
-4.39759392
0.10566154
-2.89553620
1.40956511
0.04468224
-3.60034731
-0.08049652
0.92859449
0.80269216
-3.18019076
0.91567321
0.00444301
