-0.03382682
-0.03062631
0.47638063
0.11365976
-0.31201895
0.36181909
0.21801961
-0.40591217
-0.34238273
-0.45911458
0.42619157
-0.31247000
0.38886213
0.32461689
-0.44106961
-0.29526442
0.34733466
0.28889311
-0.25679023
0.04794997
0.27907613
0.14063578
-0.19129992
-0.23017081
-0.49976918
0.44077876
-0.16758227
0.22783600
0.51954484
0.22040942
0.02659048
0.50412790
0.46864102
-0.11014381
0.09911828
-0.36067620
-0.34578194
-0.18459618
0.35161639
0.31673884
0.06799516
0.16297729
0.01406384
-0.46127622
-0.40587552
0.30700417
-0.04647048
0.25732905
0.06973345
-0.07847736
-0.18766822
0.33709754
0.38249073
-0.24355375
-0.27991748
-0.10536514
-0.43394038
-0.51663969
0.18826609
0.22018971
0.37375773
-0.02706148
0.20932563
-0.10392800
-0.35678494
-0.17963917
-0.00524086
0.11604854
0.38978909
-0.12101384
0.14646284
-0.33422331
-0.04314996
0.04862865
-0.23065425
-0.19573766
0.03916706
0.02788114
-0.37531116
-0.29042621
0.01531864
0.27379819
0.18915238
-0.20279188
-0.43084487
0.10021122
0.49177674
-0.31743093
-0.25443477
0.19353408
0.09264945
0.18832929
0.22261326
-0.24781102
-0.15740475
0.25984966
0.11329363
0.36643364
0.22185482
0.40583475
-0.44487880
0.02286444
-0.24776267
0.08131694
-0.46994113
0.30813035
0.47740752
0.01985873
0.21784082
0.50814072
0.41095848
0.40709930
-0.10314997
0.42435755
-0.23346659
-0.16839584
-0.15080001
0.37716849
0.50528080
-0.47654033
0.07994412
-0.09657099
-0.22037594
-0.11046999
0.28344849
-0.31348351
0.07418611
-0.26026666
-0.11688104
-0.37211085
-0.45421551
0.27223818
-0.10861794
-0.25455934
0.09846601
0.46831243
0.16764779
0.07289988
0.15637506
-0.44039771
-0.53377806
-0.39444767
0.35651456
0.37983106
-0.24457780
0.13842900
0.22002151
-0.35194253
0.50178486
0.43767391
0.22622863
-0.28298797
0.32567212
-0.25289236
0.18129707
0.41449387
0.06224621
0.00875930
-0.23006709
0.00883081
0.48745799
-0.62432269
-0.25545590
-0.32309506
0.43390233
-0.21866897
-0.01690236
-0.44892995
-0.38208835
0.21882841
0.24736472
-0.17815789
0.20268888
-0.10553759
0.09010620
-0.39935893
0.14304881
-0.38664755
-0.34790922
-0.47511769
0.38922806
0.35683091
0.28734456
-0.14825577
0.09356700
-0.28043750
0.47753012
-0.00368316
-0.14360847
-0.29257181
-0.34406320
-0.23968436
0.47648139
-0.44041492
-0.25523715
0.20626162
0.31498119
0.11296648
-0.41861188
-0.06535622
-0.18357275
0.50270811
-0.04016841
-0.09528227
-0.35830032
0.23028211
-0.35880401
0.24767145
-0.30648019
0.51511350
-0.35223871
0.06940594
-0.41565951
0.25297223
0.38815879
0.17243706
0.32037802
-0.18100022
0.28751366
0.44883019
-0.22766370
-0.00632537
0.23792956
0.43997447
-0.43457535
-0.31440527
-0.38542449
-0.31628844
-0.09925072
-0.19566090
-0.04162408
0.30989453
0.37223815
-0.40340045
0.04578238
0.12513253
0.47456055
0.08535248
-0.47409300
0.33906581
-0.33154909
-0.13972600
-0.24706686
0.06674155
0.42164204
-0.00615074
0.29692004
-0.34353537
-0.24153608
-0.28024315
-0.43043427
-0.22932947
-0.39811448
0.27637369
-0.23078876
0.12596217
-0.07046912
0.25258262
-0.48343787
0.20393791
-0.34602565
0.13508335
0.31808222
0.21686148
0.35546168
0.36538753
-0.25492100
-0.16116697
-0.40888412
-0.54366142
0.29537069
-0.40679749
0.53479725
-0.33487565
-0.07076433
-0.17409638
0.01001153
-0.07177056
-0.20329309
-0.12663560
-0.16261047
-0.23205024
-0.09269106
0.09537928
-0.43026030
-0.48076074
0.15406321
-0.25809388
0.56757991
0.63677351
0.33241586
-0.32473866
0.32649979
0.18270645
0.13991740
0.18817651
0.40740021
0.47373188
0.04958794
0.50941432
-0.46396102
-0.28527764
-0.47753543
-0.10624440
-0.20608104
0.06203524
0.09626386
-0.42168498
-0.32319845
0.02763879
0.00004708
-0.16151432
-0.23447648
-0.17064491
-0.12679730
-0.09924874
-0.36179963
0.27327935
-0.10907650
-0.52811201
0.19243741
-0.15593672
-0.45747853
-0.39512434
0.29123953
0.02796404
0.38256459
0.65904887
0.44586300
-0.27751247
0.24208665
0.11728056
-0.20171253
0.22769849
0.50309298
0.54246902
0.48915034
0.05155359
0.48230558
0.23305128
0.21793700
-0.29231552
0.42343339
0.39541237
0.13540503
0.17020711
-0.09339078
-0.09611472
-0.51171312
-0.31553472
0.46630163
0.59277730
-0.12461661
0.56731070
0.49385043
0.44515020
-0.44906407
-0.41108024
-0.74389813
-0.14924250
0.57847076
0.27446731
-0.32310082
-0.34399345
0.35292644
0.01091078
0.42912818
-0.42985380
0.37329505
-0.08187678
0.13852123
-0.33744593
0.42391623
-0.12991184
-0.33691025
0.04729612
0.26550636
-0.28297932
-0.35977805
0.48234589
0.53287941
0.11960590
-0.02919024
0.08642082
-0.26259853
-0.02256019
-0.09130681
0.14258010
0.02849016
-0.01164168
-0.15790498
0.38575174
-0.42338446
0.24958456
0.38336049
0.09871313
-0.31340571
-0.19300226
0.48496762
-0.04006006
-0.35789753
-0.45615432
-0.40879801
0.19820474
-0.08751690
0.00658445
0.37039741
0.44195164
0.25337868
-0.22560575
0.02129137
-0.40442166
0.49696323
-0.03969438
-0.35531376
0.42587388
-0.28588193
-0.47821925
0.15172433
-0.18554944
0.08320576
0.43948655
-0.17580686
0.31523948
0.31442987
0.36843880
0.29910279
-0.22544624
0.21493483
-0.26131024
-0.14485959
-0.27911274
-0.37012876
0.36310067
-0.17604668
0.29059251
0.19030271
0.19074745
-0.11209073
0.47607867
-0.22283841
0.34732007
-0.26822478
0.30380403
0.16561587
-0.34621810
0.43593129
-0.59589503
-0.55100617
-0.40250862
0.18452651
0.14512243
0.39581598
-0.01531800
-0.50370364
0.23374338
0.17769609
0.20009157
-0.46508566
-0.32526154
-0.32008905
0.31949067
-0.61357537
-0.00302584
-0.16647604
0.43348673
0.32770606
-0.12411696
0.16259839
-0.21689274
-0.35741392
0.34716471
0.30079356
-0.13062150
0.29217106
-0.12546098
-0.19859197
0.46376558
0.39620981
-0.10860799
0.19949189
-0.01317550
-0.35338346
0.38107522
0.37686244
0.31787722
-0.02342096
-0.04885226
-0.29784795
-0.08629688
-0.43475627
0.25656170
0.11855545
0.09293458
0.37875567
0.46276676
-0.47606621
-0.10235086
-0.27967794
0.13936772
0.43479358
0.31069223
-0.25199056
-0.33667079
-0.43434283
0.41516204
0.22348040
0.22125508
0.29754189
0.01877358
0.26009311
0.08039827
-0.02031513
-0.13989935
-0.41735198
-0.04347053
-0.20824310
0.34876691
-0.34757527
-0.32594044
-0.14832864
0.23510990
0.55496645
-0.00408976
0.40231439
0.39165890
0.20154299
-0.07452330
-0.21640856
0.08283750
0.31743954
0.44684959
0.38449295
-0.18740232
0.42998334
0.08532267
-0.60666843
0.38866554
0.34083446
0.35302695
0.43340959
-0.14982387
-0.28104910
0.03818941
0.06885819
-0.14561862
0.34116065
0.17541060
-0.28675405
0.11161965
0.15060805
-0.12797631
-0.43099245
-0.35529495
-0.37933935
-0.14169787
0.47643405
-0.26805793
-0.33560158
0.31647046
0.31522507
-0.53776465
-0.43320775
0.29914816
-0.19310185
0.00759411
-0.12243339
-0.22655465
0.27636784
-0.04732880
0.12481978
0.07552803
-0.15468949
0.36956953
-0.21598797
0.36979518
0.05137647
0.42414374
-0.45757116
0.16035080
0.04825132
0.15397143
0.15359579
0.04461664
0.01724112
-0.38716831
-0.07644714
-0.34758900
0.10043548
-0.42454172
0.78420973
0.43248770
0.67480743
0.20307741
-0.30102951
-0.36190500
0.38266176
0.31495407
-0.12265612
-0.13662110
-0.16080932
-0.59267972
-0.39287413
-0.33363167
0.12235692
0.32170052
-0.28840213
0.13315077
-0.63493551
0.15274054
-0.24980522
0.10273947
-0.11040473
-0.25414063
-0.14279454
0.35503724
0.62789478
-0.09761977
0.27749324
-0.41141005
0.12483107
-0.22124317
-0.00889694
0.62208543
-0.13545830
-0.24279506
0.33418601
0.33794705
-0.49000677
-0.43772069
0.45833438
0.38567276
-0.07424511
0.46232661
-0.35930498
0.13915152
0.40297443
-0.12781318
0.02846631
-0.38796323
0.26286636
0.01543555
0.23678763
0.33818668
-0.14269642
-0.28197741
-0.15385268
0.04243798
0.39186238
0.02005457
0.27904014
-0.54222453
0.02463970
0.06166046
-0.12287875
-0.26268789
0.42742006
0.39586919
-0.21428054
0.24866881
-0.09659032
0.01638843
0.33736871
-0.03284328
-0.18271157
0.24264011
0.34710741
0.21348644
0.08475745
0.04980558
0.14769718
-0.48654326
0.21057702
0.26185063
0.30683959
-0.14774343
0.23474244
0.05992119
0.23341729
-0.39799752
0.43435122
-0.30200451
0.22128340
0.01791515
-0.11679966
0.43985000
0.32385085
0.40972227
0.55961405
-0.41877865
0.19858196
0.40061912
0.20581207
-0.10221959
0.13200345
-0.18342516
0.38556748
0.13327729
-0.55072076
-0.18364046
0.02451077
0.51004115
0.49588339
0.47443031
0.37974346
-0.16025232
0.20198353
-0.18813930
-0.39094333
0.10697259
0.01872560
-0.10204041
0.14786536
-0.41752913
0.33473217
-0.22467847
-0.11081286
0.09572528
-0.38210574
-0.06733525
-0.28658845
-0.14857592
0.07751729
-0.17345361
-0.12105428
-0.25429585
0.46011948
0.28690108
0.24966556
-0.12304988
0.23832776
0.17404185
-0.30096084
-0.40678918
-0.05913423
-0.13080317
0.32096640
0.30531383
0.06735862
-0.39007133
-0.04876838
0.34360206
0.23853513
0.14874173
-0.23389304
0.39929292
0.48207139
-0.01901489
0.17102003
0.50713803
-0.18512024
0.04932415
-0.00565415
-0.28704729
-0.35766269
-0.21215492
0.48494355
0.04726965
-0.09603353
0.31354516
0.49598014
0.37782440
0.11543689
-0.45886685
0.29650479
0.41934056
-0.08173490
0.01992606
0.13312350
0.52720609
-0.28983181
0.02703413
0.11890451
0.39434562
0.38894729
0.47260896
0.28660486
0.06882668
-0.12474687
-0.04735122
-0.02181058
0.46223097
0.19158840
0.10831241
0.30577261
0.39671775
-0.34282706
0.40802039
-0.32792110
-0.31275986
-0.22988856
-0.08666453
0.36022209
-0.17163178
-0.11459199
-0.36542607
-0.45869686
-0.49946562
0.42228085
0.01520602
-0.15029837
0.13771986
0.02441037
0.15795589
0.40573422
0.24236341
-0.23696717
-0.29796090
-0.14455509
0.10218883
0.18622890
0.18953423
-0.40737789
-0.18709525
0.49768581
0.20674676
-0.23433098
-0.16260245
-0.09184565
0.08616284
-0.33390238
0.08592935
0.45899389
0.33215364
0.03734436
0.43307135
0.05278604
-0.31695605
0.19124019
-0.29301928
-0.08215716
0.08748116
0.42400521
-0.07421258
0.38522334
0.44877310
-0.11500379
-0.45402268
0.25082052
-0.38165773
-0.13777637
-0.27554576
0.55865219
-0.20046408
-0.31255094
0.23054847
-0.36151597
0.13724633
-0.26236464
0.31032891
-0.36716646
0.37571998
0.36549347
0.02060302
0.15263420
0.16565690
0.23305575
0.00110486
0.48640530
-0.08915302
0.00132379
-0.15707629
-0.37066455
0.65855554
0.37349980
0.42250751
0.45408101
0.20392604
-0.10208934
-0.44382032
-0.24696797
0.08440282
-0.17362839
0.24683244
-0.04817653
-0.35050536
0.06438347
-0.43281459
0.38987802
-0.25278596
-0.40794634
-0.33922030
-0.43595684
-0.49330966
0.29770303
0.30118502
-0.12912765
0.37981992
0.28314142
-0.10177872
-0.09179558
-0.35202099
0.25673960
-0.44807779
0.35363052
-0.11293296
-0.45974811
0.30663440
-0.41142036
-0.44879915
-0.69153110
-0.38074038
0.46758145
-0.03938505
-0.13034007
-0.02387984
-0.42145086
-0.67983435
-0.41605406
-0.17136340
-0.45623110
0.19481112
0.06016249
0.24370789
-0.25365496
-0.34676522
0.46688814
0.34144222
-0.02030518
-0.15211086
0.11597318
-0.12285406
0.29227423
-0.26226219
0.17803655
-0.19069625
-0.50672942
-0.22637946
0.42148701
0.46148458
0.72376596
-0.21345720
-0.01172040
0.16158045
-0.02686149
0.26019763
0.09693093
-0.36943595
-0.04003353
-0.13891385
0.17283117
-0.42873961
-0.40095456
0.28760914
-0.17752869
0.15214062
-0.28505188
0.28500186
-0.20698470
0.01328887
0.00383187
0.45304689
-0.20554879
-0.40157137
0.27106737
-0.20724627
-0.34492577
-0.08155679
-0.27007456
-0.05023651
0.49545448
0.39866322
0.00531814
-0.11016741
-0.48843174
-0.11295936
-0.12035244
0.07727637
0.19660163
0.65640997
0.35524204
-0.21246892
-0.07666304
-0.00347414
0.21426750
0.49487520
-0.09847827
-0.36789156
0.29905047
0.27133504
-0.11650721
0.35805860
0.13571262
-0.41616504
0.15100753
-0.14296237
0.35685836
-0.27443169
-0.34395862
0.19094913
0.53923111
0.15553988
0.20922151
0.14559531
-0.13622773
0.18308942
0.22631260
-0.37194604
0.39822036
0.32737998
-0.04072888
-0.19911696
-0.07618979
-0.28037881
-0.36792170
-0.03995886
0.38118775
-0.10020415
0.40828192
-0.21091851
-0.33527188
-0.18723016
-0.37862397
0.10551346
-0.27104496
-0.03380564
-0.21448196
0.27917563
0.37950103
0.49463029
-0.17012895
0.17102696
0.00741830
-0.52245623
-0.30992964
-0.28348011
0.23313741
-0.03053301
-0.06873897
-0.05325461
-0.25921916
0.29736769
-0.24250675
0.33323364
-0.02861866
0.34330540
0.46364295
-0.41301649
-0.42248679
-0.13952204
0.26953327
0.09280160
-0.12781080
0.40229671
0.07467508
-0.07721055
-0.15447564
-0.04496813
-0.44197527
-0.13849250
0.40056292
-0.18231946
-0.15106988
0.31601758
-0.35181327
-0.31958358
0.24809540
0.08930868
0.09625650
0.17492877
0.44732283
0.13967516
-0.18642679
-0.44441263
0.26847152
-0.20805094
-0.26893753
0.11641410
-0.06114685
-0.40307745
0.17393816
0.13511558
0.27845485
-0.29850300
-0.32022689
-0.43964343
-0.52731958
-0.06293923
-0.14387206
0.15656385
-0.52294418
0.09646876
0.17649043
0.28269697
-0.29979437
-0.09309723
0.44747277
0.41631594
0.37314264
-0.39275673
-0.40884024
0.03039430
-0.23200673
-0.23776001
-0.05100063
-0.33262760
0.00683651
0.24514297
0.26572836
-0.48874528
0.23531481
0.30493162
0.27004138
0.39263715
-0.20150658
-0.02548020
-0.24945189
0.26869380
0.15962158
0.03427667
0.18080024
0.47434245
0.19926565
0.07517826
0.35160500
0.10194640
-0.18349915
0.09319477
-0.40805041
-0.42901577
0.43725032
-0.03405786
-0.20444232
-0.44608777
0.16888027
-0.04251942
-0.09117706
-0.28356079
-0.14021383
-0.21611175
0.35011438
-0.26061035
0.00416195
-0.27858307
-0.19335444
0.01444220
-0.50486115
0.16978771
-0.19490061
-0.15630408
-0.26170613
0.21281848
0.32853018
0.22054157
-0.47599725
0.45979121
-0.35683205
0.33369751
0.10326526
-0.16830610
0.12468140
-0.43776268
-0.33354965
-0.32253625
-0.41221618
-0.30077727
0.06254805
0.55046803
0.50456576
-0.39754528
-0.28533093
-0.30543591
0.01887139
-0.29098511
-0.24721110
-0.25895656
-0.33034162
0.25133973
-0.37457178
-0.03515297
-0.28198290
-0.30275163
-0.43514147
0.20125023
0.48029956
-0.15465648
-0.51083986
0.22247925
-0.27078547
-0.01497100
0.46827079
0.29402722
-0.24382213
0.10890914
-0.31862430
-0.61896385
-0.42281610
0.06660447
-0.13560146
-0.27743209
0.48874266
0.36068180
-0.46331491
-0.11324729
-0.22182267
0.22657396
0.34519085
-0.32335478
-0.15359246
0.02985642
-0.22830525
0.45416928
-0.36159056
-0.20344325
-0.19397868
0.21557174
-0.17172118
0.14567936
0.39578533
0.44813679
-0.35897594
0.56502243
-0.05025026
-0.32687355
-0.55156041
-0.09313442
-0.29631136
0.05811648
-0.39591756
0.27659548
0.24458622
0.40665243
0.43331767
0.38500651
-0.13596991
-0.05938366
-0.36397231
-0.27491646
-0.40155959
-0.12867289
-0.12901590
0.32643866
0.24831956
0.35001271
-0.12377446
-0.02530303
0.12154676
0.42611534
-0.46398989
-0.17197094
0.36925426
0.05345415
-0.37985034
0.22275713
-0.11927162
0.00082321
-0.15571198
0.11751148
-0.18683508
-0.02537350
0.26041781
0.42972236
-0.03309635
-0.41321266
-0.00019113
0.01531492
-0.06471996
-0.22489272
-0.10147941
-0.42994280
-0.31052962
0.26290520
-0.62812587
0.56654137
0.51749841
-0.04430816
-0.03318473
-0.00609569
0.14922540
-0.26713674
-0.45762851
0.20164217
0.15023168
-0.14035266
0.12156090
-0.44136428
-0.31594816
-0.38371523
0.44328101
0.38335362
-0.18898229
0.30269187
-0.11334306
0.48085118
0.02071119
-0.37660331
-0.30067611
-0.21106758
0.48807300
-0.32910397
0.01723517
-0.22664140
-0.03191399
0.14765712
0.41289419
-0.12928238
-0.24543126
-0.11261349
0.04718226
0.03842848
-0.39629760
0.12938118
-0.16849976
-0.18116858
0.24128185
0.13482823
-0.34889127
0.55370897
0.09802090
-0.33318302
-0.28391234
0.21421297
-0.03097143
-0.44745748
-0.07889168
0.35607903
-0.42584133
-0.37938602
-0.30920178
0.21512849
0.06369957
-0.03350219
0.43092456
0.30614176
-0.24189261
-0.15859356
-0.09644335
-0.36906936
-0.07804191
-0.39811352
0.24140896
0.48000959
0.45618059
0.21340196
0.12289663
-0.36197639
-0.47077600
0.40643385
-0.00160129
0.39651027
-0.56240969
-0.11559424
0.45892051
-0.12361613
-0.20578517
-0.47629629
-0.34634109
-0.46840122
0.05375529
0.49015536
0.38942459
-0.13798595
-0.27007894
0.06602732
-0.43277930
-0.28648425
-0.50698487
-0.60523057
0.27731989
-0.47636511
-0.32188239
-0.07785953
0.50527959
0.18662286
-0.26252645
-0.21931821
0.17621600
-0.49139781
-0.05683005
0.38918784
-0.29963869
0.26894963
0.41916393
-0.19269720
-0.52807136
0.17009065
-0.11107189
0.42826710
-0.28821464
0.27156483
0.43784518
0.41163383
-0.09930616
-0.17110908
0.39867576
0.19149760
0.42958669
0.46965574
0.19136157
-0.27609678
0.13369923
-0.28791879
0.12864792
0.05391756
-0.29734874
-0.03222068
-0.10602625
0.09426924
-0.47820471
0.02114391
-0.30722144
-0.01205569
-0.06963131
0.12628393
0.16798283
0.33224631
0.36124279
0.33135778
-0.15393234
-0.42192322
-0.20301631
0.13148072
-0.28141582
-0.24435794
0.27836917
-0.24862018
0.33528142
-0.16168489
0.36508579
-0.22634742
0.45653144
-0.42004076
0.35397391
0.21114132
0.29623484
-0.03711836
-0.31376072
0.27545510
0.40287732
0.46925373
-0.02195485
-0.26830487
-0.10318911
0.29653183
0.14712925
0.14294539
0.20934341
-0.55467550
0.12077106
-0.18296491
-0.21851174
0.33491686
-0.19632786
-0.51289536
0.35344554
0.01606554
-0.41036580
0.08145691
-0.03516040
0.32251362
-0.06941294
-0.36621050
-0.51918484
-0.40597091
0.02201695
0.30180078
0.43222100
0.17642834
0.44209809
0.47744752
0.47684153
0.15861669
-0.32167328
0.46270114
0.17428650
0.45426604
-0.29950620
0.50505709
0.23951387
0.16933229
-0.20990529
-0.30683460
0.19649277
0.39489687
0.01847567
0.36359437
-0.43161679
-0.13564429
-0.19371057
0.46101727
-0.34431631
0.06820892
0.41698389
-0.35656451
0.52855295
0.30067189
0.33551429
0.06396003
0.00820433
-0.44586110
0.12116603
-0.45317806
0.09819560
0.47535744
0.10806987
-0.36921477
-0.08145601
-0.19832370
0.29896587
0.33289047
0.51020447
0.40268046
0.47165577
-0.47423030
0.28524958
-0.23391400
0.25264133
0.30474257
0.49927638
0.47295773
0.29735479
0.50346787
0.14408932
-0.22078753
0.42344862
-0.22828007
-0.33144217
-0.15559722
-0.08592842
0.28257329
-0.44393117
-0.45297503
-0.36671362
-0.55787738
-0.01802731
-0.29869376
0.55371180
-0.27765491
0.33250710
0.46640263
0.34716165
0.35057466
-0.47509412
-0.23155254
-0.46745071
-0.04033457
0.44841770
-0.38315358
0.12616442
0.18094480
-0.09329807
0.13587706
0.40736479
-0.47431227
0.42768978
-0.23822885
-0.01025489
0.02678013
-0.16392590
-0.21985297
0.03712341
-0.46420909
0.01965952
0.25444995
0.47052199
-0.10358765
-0.55742558
0.06565025
-0.18869833
0.38655842
-0.42215930
-0.20473945
-0.34869473
-0.10134862
0.36950534
-0.37786573
0.25621433
0.04147673
-0.27971788
-0.09670598
0.17201721
0.38578339
0.36988862
0.20092227
0.12621901
0.00304863
0.23469322
-0.47034958
0.36168152
0.36099359
0.10255744
0.06936868
-0.31415210
0.37987901
-0.13484392
0.30096230
-0.35077507
0.32572496
-0.35875270
0.46045326
0.51734638
-0.35470163
0.32347108
0.01524829
0.06892363
-0.18897830
0.13862351
-0.27994304
0.06294438
-0.02698978
-0.26856034
-0.49045536
0.29307427
-0.35067267
-0.53537616
0.38680719
-0.51528299
0.47081499
-0.04069075
-0.12394599
0.42101157
-0.06082695
-0.29855967
-0.41174368
0.13221746
-0.17016097
-0.41247531
-0.48618293
-0.30186670
-0.18999690
-0.27097110
-0.18886255
0.19523031
0.02706284
-0.37613228
-0.29157591
0.15954126
-0.18757483
-0.41952341
0.49732259
-0.38348645
0.22599412
-0.13439891
-0.21360645
0.50524914
-0.44715244
-0.08884500
-0.26966365
-0.32552146
-0.00409001
-0.32583154
-0.00431889
0.26868049
-0.37437625
-0.25840344
0.64046593
-0.33462007
-0.42187135
0.16094795
-0.26253716
-0.09120604
0.38423429
0.21975889
-0.19077928
-0.04654082
0.10583489
-0.20462900
-0.11760219
-0.17234073
-0.42286726
0.40830750
-0.40259367
0.35800172
-0.28697051
0.21571077
-0.52898684
-0.38795987
0.47257875
-0.48726852
-0.06810453
-0.08309972
-0.20054308
-0.18661735
0.03683761
-0.40719194
0.30391639
-0.25644966
-0.01414412
-0.37645094
-0.16324343
0.22631448
0.01918776
-0.25430435
-0.11231830
-0.00643758
-0.18701397
-0.40359407
-0.21646472
0.46305909
0.19352038
0.36457763
0.39430613
-0.21267508
-0.46875048
-0.34236550
-0.46360129
-0.40797038
0.38455325
-0.44549910
-0.38598620
0.16927238
-0.39272196
-0.33384119
-0.18983818
0.34953956
0.19547805
0.25972789
-0.32250301
-0.18882624
-0.15882960
0.41897394
-0.47558314
-0.04449826
-0.00693805
0.03143191
-0.16666267
-0.21758530
0.41968591
-0.41873408
0.01178709
0.23625250
-0.02747490
-0.44419658
-0.48024292
-0.43459042
0.19439058
-0.18828328
0.04796855
0.07620759
0.14332674
-0.16634948
-0.02710042
0.29064507
0.24403369
-0.37943101
0.21574292
-0.73671452
-0.49302336
-0.06199867
-0.14603768
-0.22596320
-0.41137931
0.39923792
0.40102482
0.23234522
-0.10349552
-0.00765404
-0.39122288
-0.34682831
0.20451613
-0.30098468
-0.29674448
0.00728341
-0.24859002
0.40057915
-0.26466732
0.20568099
0.07088635
0.00378182
-0.09325383
0.02860017
0.12937980
0.21879342
0.10145600
-0.28156941
-0.04361691
-0.29461441
-0.33489014
-0.26111315
-0.43450939
0.01313961
-0.01003562
0.47931284
0.40607222
-0.43268489
0.17084781
-0.16911042
0.50410652
-0.18388544
0.29648401
-0.51777942
-0.36590277
0.24853927
0.30391253
-0.36525347
-0.15352600
0.65953474
-0.14484567
0.32788237
-0.09022542
0.24470348
-0.07803018
-0.24666852
-0.34591009
0.00086803
-0.33151532
0.48626926
0.09392972
0.07042180
0.15754421
-0.18328834
0.16973550
0.11026313
0.26929810
-0.46076057
-0.46809299
0.06526356
-0.01062099
-0.31436494
-0.02328525
-0.13221017
-0.30267966
-0.07806158
-0.44181526
0.13367452
-0.15762851
-0.47074292
-0.08659786
-0.36590182
0.15117032
-0.13023023
0.39073315
-0.17697013
-0.36609315
-0.11388413
-0.20255889
-0.24690637
-0.16000127
-0.28919981
-0.47695395
-0.18046722
-0.44852591
-0.02423603
-0.01355402
-0.28044491
-0.12341380
0.14354962
-0.11973741
-0.20382357
0.11634186
0.29140603
0.33885174
0.10448143
-0.26543939
0.02806849
0.43955019
0.05764595
-0.19256346
-0.00846775
-0.28262405
0.40393692
0.00148916
0.10684037
0.51958469
0.50052265
0.46369019
0.17518583
0.12877915
-0.26306098
-0.00894879
-0.19168281
-0.41197109
-0.17732296
-0.17956152
-0.23256952
-0.02200000
-0.23313920
-0.06680088
0.00920912
0.35232465
-0.34832247
0.23271741
-0.49623446
-0.30574818
-0.24421391
-0.28047435
-0.21567317
-0.08582958
0.48861064
-0.42916733
0.29612074
-0.49146941
0.30102332
0.40303035
-0.10677011
-0.16177286
-0.03041583
-0.03625364
0.47015852
-0.07051929
0.19483273
-0.41993818
-0.11640039
0.40081870
0.44901322
0.05497168
-0.28669906
-0.06028317
-0.19990802
0.24955437
-0.56732798
-0.89846881
0.40294433
0.79168626
0.16473036
0.38528008
0.53335489
-0.28806802
-0.60366070
-0.26127413
-0.19081923
0.16931536
0.23775714
-0.09813646
-0.40693594
0.22081317
0.28685810
0.38841811
0.29726606
0.45195360
-0.26177633
0.37294149
0.05040552
0.59381924
-0.39758970
0.15409053
-0.42603267
-0.15195886
0.37631731
0.03195586
0.03593130
0.19710350
0.13925872
0.33925378
-0.46893049
-0.36938481
0.52808810
-0.44914605
0.20952116
0.30100924
-0.19375123
-0.21299794
0.43979879
-0.27203427
0.39439954
-0.09523381
-0.31108125
-0.01261823
0.07390623
-0.07695762
0.40499802
-0.08810776
0.37182293
0.24843228
-0.35198867
0.07952472
0.07834398
0.35678660
-0.27310387
0.14239606
-0.32464961
0.32516451
0.10267353
0.13117623
0.17655415
0.05186494
0.20965611
-0.40290804
0.43004425
0.44418398
-0.21524206
-0.23944721
0.09238048
-0.34791062
-0.24425737
-0.35520961
-0.22559108
-0.30078942
-0.14730248
0.22783092
0.08484940
0.30734578
-0.38767578
-0.39745920
-0.42336277
-0.24930137
-0.35161181
0.43523902
-0.23792929
-0.12200720
0.07890603
-0.12866064
-0.21013974
-0.27598663
0.01955958
0.11949176
-0.13477776
0.08527806
0.25907111
-0.19061145
0.08271184
0.09370204
-0.17229678
-0.19608509
0.02934796
0.34122435
-0.38236054
-0.69692545
-0.50452461
-0.76409486
0.05380781
0.10037636
-0.03975893
-0.33175431
-0.17289364
-0.05666664
-0.12265801
0.40881437
0.15050036
-0.29821116
0.04674772
0.32229207
0.00259327
0.38953342
-0.31717437
-0.28398363
-0.48983434
-0.03820400
0.38412358
-0.31659144
-0.62222729
-0.27480124
0.32681536
0.09401700
-0.60776864
-0.31781046
-0.46778771
0.41051438
-0.29956871
-0.32529121
-0.04209961
-0.36864051
0.26650350
0.20134828
-0.42615457
-0.18869579
0.14945896
0.34113693
0.10624462
-0.41042401
-0.54085777
-0.54542447
-0.11013430
0.09017508
-0.30312954
0.27552445
-0.22779866
-0.58353586
0.46845967
-0.33307725
-0.05499006
-0.31764584
0.12625255
0.28649910
-0.42303096
-0.30693055
-0.12819614
0.11351680
-0.15780980
-0.14086606
-0.41449096
0.19216733
-0.41000302
0.30659892
-0.15459032
-0.44958105
-0.20486808
-0.16268456
-0.11752193
-0.00250627
-0.36959005
0.03565899
-0.05846877
-0.33012575
-0.03771155
0.12944032
0.35186013
-0.43485510
-0.47364364
0.01436710
-0.39267245
-0.45592807
-0.14181218
-0.03949031
0.13744458
0.38967088
0.13703296
0.38366228
-0.19410058
0.48887177
0.06571217
-0.35959911
-0.20004203
-0.50222386
-0.29259147
-0.06484131
0.11750574
-0.48614513
-0.15157329
-0.36154188
-0.26274033
-0.02939665
-0.12793027
0.07617004
0.44472859
0.05764833
0.37720640
0.40376324
-0.02279261
-0.48610482
-0.36747037
0.33636494
0.05760543
0.23333287
0.37707113
-0.07447766
-0.00050112
-0.28639265
-0.38156417
-0.06261017
-0.27010872
-0.45341458
0.19665128
-0.46474351
0.07162008
-0.22628203
0.16050187
0.45589532
0.09319989
-0.31515453
0.35573236
0.37580651
-0.34075236
0.19623096
-0.14856698
-0.51161308
-0.19902301
0.15813112
0.27803875
0.10212850
0.28397274
0.48136145
-0.25329409
-0.47906413
-0.19644827
-0.15494513
0.04004861
0.42794767
-0.45641133
-0.50291033
-0.44897778
0.36959377
-0.31839285
0.01621202
0.25830169
-0.22427329
-0.50174049
-0.27172145
-0.35854684
-0.29997402
0.25317468
-0.28758930
0.22321783
0.08792953
-0.36656195
-0.04813836
0.05266053
-0.10658109
0.59727358
-0.27715941
0.01699906
-0.55356934
0.36126927
0.41928666
0.06058109
-0.20521199
-0.19378364
0.27947962
0.34063185
-0.45942044
-0.32304005
0.27925941
0.09160495
0.48259124
0.27789556
-0.00336488
-0.40175854
0.00449650
-0.44879231
0.23974460
-0.37977344
-0.12640172
0.29092637
-0.24936343
0.30017483
0.02859629
-0.34714360
-0.01553330
0.22946034
-0.16606300
0.32781970
0.37692076
0.27045748
-0.34970102
-0.14968915
-0.13183172
-0.50444639
0.33978604
0.42960969
0.40759377
0.20369370
-0.29464997
0.32151095
-0.11106029
0.15340286
0.14637291
-0.26541326
-0.46428031
0.63434943
0.56897159
0.55496253
-0.38958255
-0.23332594
0.30201945
-0.50899021
0.38647460
-0.10771311
0.14783613
0.46316944
0.03360937
-0.25176067
-0.21526778
-0.26452444
-0.68910446
-0.52532082
-0.34365041
0.51940995
-0.26550422
0.25494974
0.36510911
-0.28076504
-0.36134936
0.36455025
-0.26233162
0.17931858
0.18434725
-0.32235616
0.49921770
0.43977690
-0.29067088
0.22903545
0.20678524
-0.11975794
-0.09460150
-0.05399280
-0.20997970
-0.50899544
-0.20438574
0.01376428
-0.01215715
0.50503577
0.17775151
-0.07669383
0.35429711
0.19961430
-0.41322638
0.45044470
0.11961508
0.43242113
0.43431306
0.17949906
-0.03795517
0.09920498
0.29452280
0.29859590
0.05960559
-0.02261745
0.45688359
0.31604421
0.50160522
-0.03190092
-0.09746542
-0.47423826
0.23573596
0.30084720
-0.47597659
0.28447675
-0.36723742
0.31081910
0.24307672
0.24722966
0.18041363
-0.31279673
0.13164270
0.12011937
0.30495012
0.03591374
-0.50381807
0.35063261
-0.44860064
-0.44801473
-0.39484378
0.39360395
0.52302595
0.08861214
0.24289409
-0.22942093
-0.45924344
0.07437159
0.44758172
0.51380445
-0.01708599
0.23213323
-0.49750482
0.25945369
-0.35357021
0.51775980
-0.10045732
-0.40864534
0.17767563
0.41055708
-0.14274138
0.09666394
0.37978507
0.34086965
0.44702852
-0.12504721
-0.04828092
-0.36537037
0.02528681
-0.00448509
-0.09654422
0.16556688
-0.12667250
-0.13013532
-0.00808915
-0.04495287
-0.25771832
-0.41576064
0.05113474
0.23572569
-0.23865028
-0.33928851
0.14906640
-0.38193031
0.00334982
0.55494140
-0.26900315
-0.10942646
-0.39237676
-0.72070192
0.21759062
0.47350219
0.55088149
0.51470650
-0.30146870
-0.04435876
-0.00750972
-0.14340062
-0.22268943
-0.40208215
-0.48885474
-0.05882989
-0.56612820
0.33828462
0.41823186
0.45830901
0.44030599
0.12659046
0.47144740
0.16010264
0.22056374
0.41050431
-0.29401401
0.02350028
-0.19063501
-0.26729296
-0.05686146
0.03156621
0.43405936
0.08164726
0.21099434
0.27849634
0.19752681
-0.33896819
0.24586423
0.03505521
-0.17773215
-0.08418674
-0.47545057
0.06200819
0.03444346
-0.31390223
-0.12305040
0.44444183
0.42444741
0.35741081
-0.10611982
-0.00808879
0.43720428
-0.25725870
0.39002183
0.22957546
-0.07701264
0.19690339
-0.20536606
0.15959298
-0.43736911
-0.13013534
0.25290253
0.33068272
0.17713046
-0.03380181
-0.30641576
-0.17840500
-0.12662886
-0.09060895
-0.21161075
0.10077962
-0.34213097
0.32242245
0.14482261
0.31598121
0.19524750
0.48244498
-0.24185356
0.25506081
0.03667178
0.35390297
-0.49560568
-0.04567173
-0.12395898
-0.07590872
0.00520333
-0.42992887
0.19470178
-0.28644466
-0.42125912
0.37366694
0.21708199
-0.32190307
-0.24644980
-0.21436269
0.08257949
0.15597244
-0.05689047
0.55397143
-0.21574874
0.20442397
0.08106520
-0.41410053
-0.31195722
0.45466193
-0.14401379
0.26446523
0.44889508
-0.38940667
0.18447521
-0.08624005
0.29253947
0.19152176
0.46940017
-0.36514138
-0.20254399
-0.48442469
0.26172411
-0.46627293
-0.40461514
0.04703878
0.24519339
-0.09999364
-0.04326222
-0.03294171
0.14633406
-0.36849162
-0.35454252
0.28836254
-0.14289457
-0.49983638
-0.32197156
-0.43346488
0.15036180
0.19657591
0.57796154
0.16310790
-0.29893947
-0.28133324
-0.41896505
0.38366083
0.13398699
-0.44500393
-0.17416132
-0.12415588
0.40657595
-0.48887385
0.01129722
-0.39447113
-0.12621094
-0.04629782
0.43973936
0.13907299
-0.12605838
0.17908899
0.00020348
0.24283810
-0.01138117
0.49423802
-0.31108809
-0.31362679
0.42660856
0.15492446
0.19260542
-0.25617159
0.53424523
-0.06175031
0.15839680
-0.50817712
0.46783363
-0.39779382
-0.37587177
0.33363123
-0.44359651
0.10047072
-0.37148260
0.14423532
0.10491172
0.24003287
-0.22953065
-0.05251149
0.49147892
0.41245528
0.19261140
-0.07961994
0.09425375
-0.25395960
-0.25980600
0.26692052
0.01967817
0.35408478
-0.13049187
0.61878389
0.47717077
0.55148770
0.23420780
0.35871293
-0.33041256
0.15319478
0.48428328
0.34292808
0.43345344
0.32083672
0.55963243
0.50162812
0.06850779
-0.08963824
0.35458830
-0.27223752
-0.28051225
-0.13000125
-0.37399830
0.31648972
0.32591355
0.24436968
0.34874122
0.28314940
-0.06633497
0.41502097
0.37193887
0.21434432
-0.23449706
-0.33109018
-0.40796964
-0.15208146
-0.41982039
-0.31196816
0.29644597
0.01493405
-0.29629385
-0.03898417
-0.15812180
0.37696088
-0.30865214
-0.07216820
0.42849721
0.18040418
-0.19830573
-0.01809539
0.08443846
0.15908911
-0.20081144
-0.14926186
-0.06212121
-0.24610956
-0.95823383
0.11318817
0.34379169
-0.50612751
-0.34717781
-0.34231960
-0.63507619
-0.32915140
-0.94734509
-0.90862240
0.68709707
-0.17614592
0.07664542
-0.36486201
0.63716773
0.51201628
-0.19095957
-0.04676241
-0.43985859
0.43607954
-0.95034483
-0.34950063
-0.20802242
0.71899619
-0.35009637
1.54154196
-0.51292442
-0.34247228
-0.17839328
-0.03466254
-0.26484099
0.26395618
1.01403650
0.72475296
0.21174590
-0.39941483
0.00355699
-0.12257377
-0.39315204
-0.76841153
-0.23501852
0.62462618
0.20081551
-1.60391553
-0.72805747
-0.90056046
-0.11912384
-0.07481472
-0.64711969
0.10465140
-0.24978322
-0.72160592
-0.48339587
0.13181657
0.36949131
-0.30136594
0.10387309
-0.11825859
-0.14332099
-0.50121306
-0.13754394
0.05309941
0.89208683
-0.21728935
-0.86343600
-0.13922261
-0.33145625
-1.25929093
-0.48328206
-1.10269527
0.00746532
-0.19796523
-1.08469432
-0.35398176
-0.39467189
-0.80946498
-0.92606867
0.28561502
-0.00755169
-0.69357415
-0.39554444
-0.74844561
0.49968043
-0.15191908
0.16009003
0.48911764
0.23928391
-0.33407384
0.43300740
-0.58819649
-0.27026132
-0.55225522
0.26397375
0.07668033
0.36669366
-0.82161703
-0.54950396
0.14260400
-0.78650638
-0.02439045
-0.11221607
0.86531226
0.89332959
-0.62934029
-0.07782390
0.23328997
-0.24033180
0.45960416
0.42641135
-0.49875957
0.32852489
0.51286887
-0.54615661
-0.80187079
-0.37052897
-0.58600731
0.29794496
-0.99573069
-0.12672938
-0.34605327
0.19512093
0.37696084
-0.26879006
0.13147742
-0.48322027
0.23245721
0.39265043
0.10153237
0.32874848
0.37903908
0.37430595
0.93963678
-0.01367027
-0.22522312
0.17297105
-0.69575995
-0.31055984
-0.78562978
0.50649991
-0.38457538
-0.49126472
0.33213266
0.05109647
-0.15235423
-1.63609300
-0.79385472
-0.81532324
-0.52948815
-0.54074296
-0.51818812
-0.05385278
-0.35405733
1.11999510
-0.22783156
0.65223161
-0.82061221
-0.13989179
0.11531616
0.09197872
-0.47067550
-0.51702839
0.35672785
-0.36510537
-0.00195931
-0.81047594
-1.02923357
0.52026463
0.13271217
0.11625192
-1.05039926
0.79358729
-0.09105326
-0.34159537
0.44185916
0.26874825
-0.52247302
-0.64317917
-0.50215192
0.53954580
1.13715077
0.78815906
-0.20611973
-0.33880013
-0.12098159
0.06894958
-0.03300959
-0.30578449
-0.45818035
0.31448878
0.97547916
-0.52447805
-0.07929305
0.34281308
-0.21680033
-0.64830194
-0.33178947
0.32146564
-0.26673275
