-0.05171190
-0.01173943
0.50038741
0.07748232
-0.35324214
0.37418800
0.23778085
-0.38505006
-0.33291919
-0.47926249
0.41037948
-0.31818462
0.40049454
0.33113329
-0.38017603
-0.32173510
0.32848910
0.26108477
-0.22173323
0.05680409
0.31824553
0.14460125
-0.18945732
-0.23288503
-0.49531697
0.44159422
-0.09245397
0.29677330
0.41847261
0.25259200
0.03195409
0.33585133
0.35351636
-0.32197378
0.03263263
-0.24627281
-0.22741404
-0.18410757
0.19878035
0.34610844
0.19593013
0.07680430
0.03244235
-0.48849459
-0.30485105
0.31151482
0.05350732
0.26128898
0.05661339
-0.12317890
-0.18855350
0.37523350
0.34599226
-0.34813442
-0.29663871
-0.17968304
-0.43761911
-0.41853060
0.22962487
0.33867091
0.39992741
-0.07577148
0.14148149
-0.11418961
-0.29807963
-0.15209675
0.05471048
0.07892725
0.46987842
-0.07288235
0.09046259
-0.37231540
-0.12512041
0.01656390
-0.17390833
-0.12445736
0.06195789
-0.03140901
-0.40659345
-0.26738377
0.01130679
0.22728727
0.17789285
-0.20867649
-0.42238190
0.08042262
0.48160078
-0.30856610
-0.23519235
0.19568923
0.06848389
0.19637552
0.35704526
-0.26665327
-0.16964724
0.22600947
0.10795863
0.35495412
0.20012643
0.40076175
-0.40747652
0.06071256
-0.23884475
0.05086924
-0.49841443
0.14713902
0.52378054
-0.09226069
0.19784153
0.35011621
0.37547594
0.25665964
-0.11609474
0.45524597
-0.17191536
-0.18964246
-0.23861846
0.33887216
0.49719641
-0.47598241
0.04246756
-0.08732126
-0.21276412
-0.10066854
0.28627350
-0.30961330
0.07625654
-0.25402504
-0.11457693
-0.37394372
-0.37280192
0.40846520
-0.16234356
-0.16585639
0.13540276
0.33753886
0.10280216
-0.06473189
0.12980156
-0.31790949
-0.40061788
-0.36474128
0.25254503
0.30975002
-0.39800876
0.22859794
0.06463099
-0.32204471
0.33673099
0.42554444
0.03236864
-0.29242174
0.40366161
-0.12581292
0.18140511
0.28761937
0.01166156
-0.02979456
-0.26442350
-0.03551604
0.47835086
-0.44673302
-0.18478475
-0.11335042
0.46497052
-0.32707943
-0.15707153
-0.47396571
-0.25882008
0.20959730
0.26584638
-0.18718779
0.19363022
-0.10778602
0.09776772
-0.39823735
0.14428604
-0.38978695
-0.34541561
-0.47222364
0.39085556
0.35340234
0.30004470
-0.07438890
0.08268734
-0.24227457
0.46124004
-0.01335585
-0.15839011
-0.31513217
-0.35805043
-0.23908346
0.47581148
-0.44466444
-0.25929402
0.24008158
0.36907408
0.09650099
-0.36385273
-0.03133845
-0.29477668
0.44226475
-0.18913735
-0.13216989
-0.27933552
0.31974597
-0.34798016
0.16417955
-0.25575109
0.38514590
-0.31446140
0.12162933
-0.35882878
0.18937093
0.38268365
0.16678667
0.34355590
-0.19471671
0.25840815
0.42379588
-0.18914649
0.00951054
0.34612690
0.39402783
-0.39406794
-0.36520548
-0.30340738
-0.33275823
-0.03127656
-0.19546380
-0.07515395
0.24592659
0.36011819
-0.35561147
-0.01797479
0.04521258
0.57044289
0.04912394
-0.45429555
0.26267415
-0.30609288
-0.21786051
-0.24192909
0.07335162
0.46439308
-0.00376832
0.27452002
-0.34554542
-0.21556261
-0.27623478
-0.43089828
-0.24326785
-0.39571980
0.27661954
-0.23061502
0.12639620
-0.07178039
0.25268294
-0.48290147
0.20358145
-0.30676324
0.23134891
0.24508147
0.29757061
0.41171184
0.31367700
-0.30196022
-0.23467444
-0.44002329
-0.47324670
0.36266734
-0.39051455
0.47902714
-0.39528054
-0.25139362
-0.14712288
-0.07402070
-0.07218657
-0.11200262
-0.05947149
-0.04033019
-0.20455270
-0.17524565
0.00174442
-0.45332131
-0.40261553
0.09335033
-0.18599312
0.40852042
0.44058449
0.24964352
-0.35358500
0.28125240
0.08754192
0.05169816
0.18761113
0.40587909
0.43100791
-0.06117626
0.50639899
-0.47619730
-0.25027515
-0.45955590
-0.04179170
-0.20444083
0.07300290
0.08246391
-0.40627248
-0.27530969
0.08663839
0.02981753
-0.17515872
-0.23993995
-0.14217976
-0.11436554
-0.13755713
-0.40230905
0.29057962
-0.09117390
-0.50256181
0.20278584
-0.16233399
-0.46098517
-0.39485446
0.29423748
0.06083037
0.45300974
0.49079794
0.40363295
-0.35501862
0.27548502
0.06089365
-0.16553275
0.17505208
0.45083081
0.43296901
0.42592720
0.06194124
0.47768139
0.27077439
0.21285731
-0.33568130
0.41251787
0.40178555
0.14238371
0.17673496
-0.08893630
-0.07867785
-0.49543600
-0.31005073
0.45179114
0.39027340
-0.19001947
0.50069533
0.28235127
0.36881172
-0.07726540
-0.23139283
-0.33342456
-0.10696764
0.37508165
0.02691935
-0.35942420
-0.13666454
0.33051680
0.06868456
0.37521871
-0.45612996
0.34056574
-0.07896648
0.12415963
-0.36921203
0.39238929
-0.11346921
-0.30921309
0.05444241
0.22038554
-0.29538174
-0.38935260
0.45995559
0.47435784
0.12236836
-0.01307562
0.09148032
-0.25369042
-0.02638491
-0.08551183
0.14551514
0.02929433
-0.02384411
-0.19030646
0.38424214
-0.43462084
0.21225819
0.40814300
0.10529328
-0.30713446
-0.19530204
0.48801095
-0.02907588
-0.34752865
-0.45546349
-0.41309020
0.19856244
-0.09511549
-0.05787769
0.37544968
0.47563577
0.29213877
-0.22420777
0.06407234
-0.40904802
0.49938972
-0.05427129
-0.35628948
0.43620352
-0.28530958
-0.48992171
0.15182617
-0.20194051
0.08054377
0.44374949
-0.17571835
0.30991722
0.30817500
0.36923242
0.30257212
-0.22222254
0.20597906
-0.20308194
-0.07899405
-0.33075730
-0.32922380
0.35782847
-0.13287631
0.27354594
0.23361031
0.19305220
-0.10155865
0.46048894
-0.22061655
0.36414324
-0.33680942
0.16988652
0.14860967
-0.41225081
0.47814430
-0.42938099
-0.48712066
-0.22008986
0.22076819
0.03231380
0.24429134
-0.05436375
-0.37422731
0.19072252
0.13820114
0.23084101
-0.52122512
-0.39534539
-0.20346019
0.37636802
-0.48031318
0.01801066
-0.27888096
0.30184558
0.29311986
-0.02800456
0.19218036
-0.12591433
-0.45362760
0.40834140
0.32603926
-0.06669352
0.27573736
-0.07504193
-0.21242234
0.46680475
0.37112635
-0.10721110
0.22138180
-0.03996122
-0.29526128
0.33973160
0.31695330
0.28762149
-0.00401654
-0.05120315
-0.29666852
-0.09924189
-0.42805582
0.26285060
0.11764872
0.06905956
0.35289660
0.46371515
-0.47265669
-0.11708842
-0.27018879
0.14065019
0.44253072
0.31279629
-0.24735252
-0.33484590
-0.43028288
0.41548560
0.22568507
0.20424736
0.27693015
0.01846451
0.25186478
0.11093405
-0.02329272
-0.13327225
-0.42533226
-0.04328201
-0.19842313
0.36123863
-0.34411737
-0.32952241
-0.12072120
0.26886830
0.43024431
-0.00290696
0.42854732
0.37111697
0.15116085
-0.10272799
-0.24727631
0.12772443
0.34519214
0.44682905
0.33459935
-0.10614093
0.50783105
0.14647097
-0.48214888
0.36877662
0.13294238
0.26838695
0.20899796
-0.17496474
-0.18170868
0.17673970
0.08805419
-0.25744521
0.26402564
-0.03325963
-0.26482348
0.03688471
0.23775891
-0.18123200
-0.41598232
-0.41015444
-0.38191177
-0.13659413
0.49865190
-0.27560344
-0.35682435
0.37501075
0.33742785
-0.47586840
-0.26669710
0.28401122
-0.20979732
0.01975086
-0.09627086
-0.21329044
0.24339642
-0.07691318
0.12357136
0.12806980
-0.14937587
0.35549842
-0.20589896
0.38559961
0.05874185
0.40807060
-0.45261277
0.16242200
0.05282125
0.14847403
0.14493002
0.03599543
0.02896766
-0.33316492
-0.20637855
-0.22959822
0.08284321
-0.25303727
0.44312770
0.34283398
0.31289596
0.20235253
-0.06080711
-0.07502278
0.43274546
0.10701202
-0.07954912
0.01529148
-0.00913930
-0.46975419
-0.40107373
-0.45687510
0.07842938
0.13664737
-0.28452981
0.22948235
-0.48660697
0.19618972
-0.32709977
0.17533582
0.12585128
-0.26418864
-0.07251848
0.31821315
0.48078719
-0.17144831
0.09162720
-0.44658517
0.24718858
-0.07149426
0.02480537
0.49744527
-0.12780919
-0.25409569
0.30904508
0.33318372
-0.46230910
-0.38177877
0.47414007
0.45345919
-0.05499133
0.46999342
-0.36317554
0.15372847
0.42547882
-0.13379384
0.06680431
-0.39444673
0.24675285
0.00054824
0.25250642
0.34615149
-0.12928953
-0.27876423
-0.15145100
0.04336715
0.39249004
0.02232162
0.22109856
-0.48738490
0.00526554
-0.03861815
-0.11784014
-0.23799937
0.43044064
0.36728077
-0.22332910
0.27102455
-0.06042577
0.02901157
0.29665169
-0.02266815
-0.13177608
0.21094160
0.37979194
0.23331705
0.14547699
0.06326024
0.21232842
-0.47403392
0.21101359
0.24697298
0.31651488
-0.11395324
0.26479267
0.13171507
0.16348183
-0.36393168
0.39633583
-0.36659185
0.15571888
-0.08138085
-0.17836723
0.45383928
0.33826137
0.39446856
0.49235596
-0.33552635
0.49261432
0.32315274
0.31704144
-0.12216479
0.09136740
-0.24370964
0.31240638
0.09726410
-0.46452592
-0.09619073
0.05468249
0.43871435
0.46676339
0.44160528
0.46224507
-0.15091171
0.28668383
-0.26620020
-0.38651658
0.00242946
0.02146588
-0.05183914
0.22639847
-0.39894614
0.29803727
-0.20173616
-0.14056122
0.03806162
-0.37235620
-0.04858018
-0.25400648
-0.15352313
0.12324917
-0.17810806
-0.13039646
-0.28429994
0.45373941
0.30229335
0.18547891
-0.32391143
0.27084418
0.11151753
-0.24658967
-0.34902518
-0.00599405
-0.04761266
0.35006475
0.25435573
0.01140748
-0.40105013
0.01093446
0.38714241
0.44544870
0.09066008
-0.16214723
0.41342712
0.46629751
-0.05300799
0.12484287
0.49345388
-0.11385764
0.11312125
0.01705395
-0.32486375
-0.30865723
-0.12930356
0.45379482
0.11690173
-0.10585337
0.34761298
0.48816044
0.41314509
0.11346840
-0.45099913
0.29145269
0.43041893
-0.06949253
0.02694868
0.19580217
0.55175965
-0.31327270
-0.04082209
0.12314143
0.39652817
0.39039090
0.47550647
0.27457857
0.06203691
-0.12881351
-0.04894374
-0.04181228
0.49747725
0.18800170
0.09475996
0.30617633
0.40712968
-0.33551760
0.41146181
-0.32703201
-0.30733693
-0.22355366
-0.08460895
0.35883963
-0.11830055
-0.04879634
-0.33735537
-0.38875999
-0.48649525
0.27025053
-0.05922505
-0.33711633
0.09791047
0.10709307
0.25933469
0.41546385
0.14339367
-0.25264513
-0.28499379
-0.12581372
0.09387541
0.17443718
0.16746329
-0.40779692
-0.21603582
0.49048305
0.20939604
-0.22202255
-0.16378758
-0.10622339
0.08448571
-0.32294899
0.10744665
0.45735724
0.32582016
0.11459879
0.46593288
0.15006959
-0.28086536
0.17688887
-0.31638429
-0.06868575
0.13983333
0.44140888
0.16075394
0.16155231
0.44395280
-0.16113377
-0.17275177
0.27153812
-0.10857186
-0.13626845
-0.35976468
0.38886730
-0.22765831
-0.18710670
0.19974922
-0.34525926
0.13578373
-0.28678046
0.30137357
-0.36096249
0.37933478
0.36211291
0.01794924
0.14996500
0.17002108
0.23489039
-0.00600098
0.42731145
-0.25578106
0.12865463
-0.24920488
-0.26528477
0.43325453
0.35285402
0.17881402
0.45784649
0.33660268
0.08699331
-0.41537866
-0.37965721
0.06058789
-0.14408910
0.27822236
-0.10108629
-0.39101487
0.08862197
-0.40437577
0.42341043
-0.23307988
-0.41850786
-0.34363104
-0.43541672
-0.47999724
0.20866375
0.12754783
0.00754915
0.29476273
0.31419272
-0.17712972
-0.05995675
-0.43572040
0.27147356
-0.45241607
0.39205498
-0.11443367
-0.47999919
0.37207591
-0.23560249
-0.32316930
-0.49297898
-0.33525505
0.35767605
-0.09013379
-0.29627919
-0.01702860
-0.28262408
-0.49630912
-0.35896595
-0.26458305
-0.41960866
0.31990628
0.03427321
0.30674936
-0.22433322
-0.44047343
0.41827075
0.22210916
-0.04719072
-0.06466323
0.21593345
-0.10254228
0.21844212
-0.21167594
0.04905014
-0.00994637
-0.45280896
-0.14702475
0.11269985
0.37905234
0.39754639
-0.20928560
0.13008656
0.36871770
0.00377417
0.11525827
0.08772178
-0.38257449
-0.03802721
-0.15526274
0.16378090
-0.42600425
-0.39718624
0.29546349
-0.17471251
0.14384511
-0.29470628
0.28007974
-0.20309062
0.00098492
0.00938336
0.48345266
-0.22810388
-0.42027575
0.22198231
-0.21766929
-0.40468097
-0.08838374
-0.25340340
-0.02182547
0.49223627
0.36743858
0.05420400
-0.06231438
-0.43673489
-0.06522709
-0.05727262
-0.19472929
0.09187542
0.32457092
0.29641354
-0.04877066
0.13253622
0.02344638
0.02376139
0.47303966
-0.15174986
-0.36891721
0.27801435
0.31629784
-0.16347436
0.34171134
0.06880616
-0.42657613
0.20076695
-0.08464521
0.36810698
-0.31849291
-0.31558655
0.26683372
0.49673584
0.11774400
0.12395232
0.05018952
-0.19993366
0.05983539
0.17482011
-0.35283138
0.42434874
0.30322741
-0.12308481
-0.20769179
-0.17528244
-0.13504998
-0.37868311
-0.00098620
0.23313990
-0.10479437
0.26029639
-0.18882442
-0.25537485
-0.05472651
-0.34665419
0.02760308
-0.21613909
0.37906847
-0.35718622
0.33318708
0.33062763
0.45970969
-0.25044378
0.08359989
-0.03987178
-0.41337126
-0.20419959
-0.25586118
0.12956489
-0.01482635
-0.12929854
-0.05826315
-0.28261835
0.30160778
-0.21546662
0.33737012
0.01837039
0.36130580
0.44660732
-0.45172749
-0.43607800
-0.11002175
0.27268358
0.10258930
-0.14764369
0.40890989
0.08801485
-0.06672895
-0.15335662
-0.03340014
-0.44250110
-0.13313521
0.39932680
-0.18172070
-0.14689168
0.34120991
-0.33338302
-0.33000418
0.27303533
0.17821933
0.00300439
0.15604220
0.33656789
0.12599668
-0.08470256
-0.32208149
0.30045388
-0.28962773
-0.26101084
0.13540335
-0.01282389
-0.38627511
0.17123418
0.08066692
0.27441331
-0.35389579
-0.30897547
-0.39974001
-0.46768161
-0.04608476
-0.17341961
0.05462096
-0.49719072
0.09029147
0.06193273
0.27262528
-0.25979905
-0.05868131
0.44173280
0.40197163
0.37511217
-0.36333596
-0.39287507
-0.00287548
-0.22401019
-0.35063243
-0.02414954
-0.34176249
0.04997961
0.24012690
0.28847653
-0.46858649
0.25917519
0.30008079
0.25763774
0.38533880
-0.17175273
-0.03526289
-0.24412630
0.27660574
0.13142746
0.01249367
0.18264775
0.47598811
0.19733386
0.07555563
0.34793268
0.10218499
-0.18531953
0.08716707
-0.34936757
-0.45195197
0.43928365
0.01456165
-0.21983328
-0.46164354
0.15599138
-0.04618442
-0.10048386
-0.29220408
-0.15409663
-0.22110066
0.35128855
-0.26934128
0.04238278
-0.32630704
-0.25397722
-0.06999888
-0.35939072
0.20489945
-0.02914272
-0.14236940
-0.34422858
0.09659480
0.30337396
0.30199965
-0.46608471
0.46400220
-0.34221030
0.37561515
0.12009447
-0.17103852
0.14421599
-0.40763523
-0.31094325
-0.32484494
-0.42114379
-0.30476734
0.09667667
0.48674876
0.47799175
-0.39405170
-0.35347642
-0.28416901
0.02459867
-0.27393182
-0.24817507
-0.25252716
-0.32816290
0.26118781
-0.37439278
-0.03776684
-0.31142161
-0.34152918
-0.46871095
0.15841807
0.46854733
-0.03715030
-0.47336102
0.36058009
-0.23426997
-0.06305876
0.39184033
0.28238371
-0.16516509
0.08250483
-0.42235374
-0.49019648
-0.42860250
0.13157339
-0.16656803
-0.22817562
0.45542839
0.38667712
-0.43164451
-0.03891988
-0.18410378
0.21123014
0.36236378
-0.23956226
-0.20141124
0.03602888
-0.24505890
0.43956547
-0.38498448
-0.23126044
-0.20800823
0.24189749
-0.14950588
0.14631301
0.36800658
0.49233348
-0.10120337
0.42897939
-0.04125231
-0.40489196
-0.50158193
-0.14627313
-0.31463416
0.00544475
-0.36320717
0.29114933
0.24958236
0.35102100
0.45109352
0.39719222
-0.13662827
-0.03417014
-0.36904842
-0.27732430
-0.40615036
-0.12542450
-0.12887097
0.32464344
0.24159196
0.34652692
-0.11810536
-0.01319865
0.18891780
0.40241655
-0.45367142
-0.18879985
0.40507849
0.05842808
-0.34126865
0.22511231
-0.12968648
-0.02010102
-0.15749424
0.13543366
-0.16473779
0.10762900
0.10103348
0.45997849
-0.02574689
-0.19419246
0.03393448
0.25274432
-0.04448398
-0.27023608
-0.20595415
-0.43060706
-0.20961442
0.26101837
-0.41303976
0.42854396
0.40293084
-0.12182885
0.03880287
-0.04711713
0.13781789
-0.31452323
-0.42570295
0.21754687
0.15214585
-0.21033667
0.12452679
-0.41077304
-0.23309723
-0.34957222
0.45000164
0.37080039
-0.17723040
0.26036013
-0.12188520
0.50456865
0.07931802
-0.34150750
-0.32836118
-0.20636012
0.42918984
-0.31525315
0.02046415
-0.19114009
-0.04220443
0.15856639
0.41761882
-0.11835264
-0.24260385
-0.11290614
0.04456892
0.05155224
-0.33552580
0.20035330
-0.20742583
-0.09299875
0.31264943
-0.01558376
-0.42078475
0.37373537
0.06112756
-0.20244619
-0.13622564
0.24494064
-0.14988307
-0.42640336
0.04748129
0.35183240
-0.40572748
-0.43677525
-0.30160240
0.20171477
0.05687831
-0.04093942
0.42920371
0.30370653
-0.24287715
-0.16314468
-0.12212954
-0.38279452
-0.05923142
-0.41630158
0.23978722
0.47430465
0.46176029
0.20701223
0.12735135
-0.36497807
-0.46566695
0.40775177
-0.00395915
0.41274381
-0.34019334
-0.25966155
0.44844948
-0.21286393
0.07489901
-0.44468658
-0.09061085
-0.47137909
-0.04794475
0.32215106
0.37196430
-0.01894918
-0.33632288
0.06002902
-0.35071605
-0.30961199
-0.52439635
-0.44120910
0.38597586
-0.27716652
-0.24773070
-0.17164356
0.39704461
0.18342716
-0.11097228
-0.21653596
0.19746703
-0.49104546
-0.01143153
0.46636338
-0.42018073
0.23455693
0.27687799
-0.21130865
-0.41884367
0.29959190
-0.08711722
0.34444728
-0.23873246
0.39016605
0.36171467
0.48142124
-0.09427389
-0.16258317
0.36288512
0.17948530
0.40481910
0.49691381
0.20235460
-0.27290288
0.11709706
-0.29277840
0.16141411
0.02659042
-0.32205302
-0.07249219
-0.03170720
0.11362050
-0.39617249
0.02353592
-0.35745038
-0.07853456
-0.08625253
0.16824325
0.10805217
0.24665227
0.45985610
0.29939208
-0.12765667
-0.47130525
-0.17520889
0.08164006
-0.27004192
-0.24280741
0.31286551
-0.24142400
0.32589214
-0.16248404
0.27021182
-0.20505252
0.44553434
-0.38730505
0.30858037
0.21659011
0.29523350
-0.01679901
-0.32828118
0.25015911
0.37618687
0.49409927
-0.03046719
-0.30536073
-0.12072550
0.28025607
0.12818126
0.28853273
0.25423907
-0.37769122
0.15555854
-0.25226864
-0.31774318
0.32578525
-0.09949537
-0.48138554
0.42798904
0.01947418
-0.39270769
0.06539190
-0.10131400
0.29220529
-0.14335188
-0.37373316
-0.46977720
-0.34733265
0.02963326
0.25234875
0.41419624
0.06849463
0.32876335
0.41585096
0.48314577
0.17525017
-0.33626623
0.49328270
0.13912114
0.41221492
-0.36774630
0.46366477
0.24128916
0.13218727
-0.24433560
-0.29804798
0.14772508
0.35808182
0.16830474
0.41986877
-0.25942070
-0.09148674
-0.26873371
0.36187481
-0.35518390
0.17284824
0.42483868
-0.27746300
0.40176902
0.25561808
0.31812487
0.10272278
-0.01741423
-0.44049236
0.08048783
-0.42968499
0.10601653
0.47719429
0.06216429
-0.35916134
-0.03782572
-0.17867766
0.28214759
0.34842199
0.34898983
0.36153862
0.31139978
-0.48918827
0.37304604
-0.11797549
0.25978875
0.20523565
0.42886718
0.34693792
0.41817297
0.47237419
0.21256253
-0.24811752
0.47027053
-0.26072388
-0.30670291
-0.14369493
-0.03879799
0.30479738
-0.44299147
-0.36200355
-0.24019986
-0.55911429
0.11500002
-0.25742162
0.44746513
-0.35508923
0.18278493
0.41641523
0.43872290
0.44773751
-0.44584881
-0.32180864
-0.44859455
-0.01317897
0.45439213
-0.35992951
0.11839408
0.18648114
-0.09203890
0.14852975
0.41286520
-0.47908327
0.41925649
-0.23978428
0.00255801
-0.10578321
-0.35633769
-0.04398710
-0.13257383
-0.31268067
-0.10874852
0.32051035
0.34620557
-0.03147875
-0.44450479
0.24516852
-0.13997106
0.31530793
-0.40799882
-0.15252489
-0.37035930
-0.07935383
0.36742839
-0.38032422
0.24726781
0.03013286
-0.29010758
-0.08784531
0.18074253
0.38900844
0.35945298
0.20592222
0.28904812
-0.03508924
0.27081070
-0.49425644
0.38291611
0.35332631
0.09587273
0.04975848
-0.28453954
0.41586405
-0.11494415
0.27623340
-0.30735472
0.38453591
-0.41193022
0.49148546
0.44226539
-0.33474097
0.32300866
0.06015850
0.05833648
-0.23664971
0.07611165
-0.30097649
0.08720628
-0.07508486
-0.34334638
-0.46998699
0.22121761
-0.38666049
-0.46130873
0.42455978
-0.42841783
0.49152834
-0.10287703
-0.19604965
0.39985144
-0.00401196
-0.28771283
-0.21102395
0.12902683
-0.15166389
-0.44807467
-0.45170090
-0.31128036
-0.19588089
-0.27134714
-0.15434669
0.22946627
0.04824740
-0.38886217
-0.28290019
0.18145773
-0.21602215
-0.40981677
0.50150360
-0.36025570
0.22138156
-0.11730743
-0.21920268
0.50145288
-0.46231114
-0.09250306
-0.26064512
-0.29000475
0.08253981
-0.39693109
0.02145496
0.26556975
-0.49146009
-0.34075168
0.47991813
-0.39260388
-0.34753618
0.23984030
-0.26634760
-0.19834054
0.41537511
0.22476821
-0.20855762
-0.00054158
0.12438440
-0.19270178
-0.11896688
-0.14988643
-0.42078452
0.41189655
-0.41095638
0.35945568
-0.27149134
0.20567318
-0.40378523
-0.41198073
0.47773073
-0.45885363
0.13528142
-0.00892744
0.00991631
-0.12925317
0.00974728
-0.46789886
0.32720319
-0.14460762
-0.01706350
-0.39210363
-0.20040934
0.18432086
-0.01411848
-0.16475373
-0.09152758
0.10233293
-0.17261432
-0.44371580
-0.27749551
0.45386266
0.23791369
0.42142745
0.45071271
-0.22035422
-0.39283385
-0.34960033
-0.45648748
-0.42285835
0.39244457
-0.44527517
-0.38014571
0.16375721
-0.38973146
-0.32289908
-0.19160647
0.26644715
0.21255833
0.23740765
-0.29659205
-0.18347300
-0.14601966
0.45508127
-0.44554959
-0.05328550
-0.03133478
0.01772569
-0.13167906
-0.17371660
0.42339550
-0.41142925
0.09946605
0.24940455
-0.04482678
-0.44080024
-0.46687132
-0.43092709
0.19294135
-0.19775906
0.04436461
0.09788172
0.07874821
-0.19368609
-0.10482871
0.22865210
0.22135556
-0.09079720
0.31501150
-0.40633682
-0.44143701
-0.19905821
-0.33758325
-0.25042598
-0.23460548
0.39397326
0.40922531
0.22707721
-0.10703001
-0.00683657
-0.37938353
-0.33979654
0.21953419
-0.29644513
-0.29628481
0.00371099
-0.24956160
0.40803964
-0.25125060
0.28550457
0.03705048
0.00457569
-0.09700665
0.02598264
0.11654273
0.20558330
0.09330538
-0.25143291
-0.01714372
-0.28770404
-0.35819869
-0.24433673
-0.44179135
-0.00048122
0.00001869
0.48606435
0.42048052
-0.42963453
0.19568997
-0.15821892
0.50140702
-0.19822774
0.29314467
-0.49945140
-0.25344672
0.39501017
0.25533841
-0.22275006
-0.12391758
0.48960580
-0.23167278
0.12805146
-0.14222757
0.36773604
0.05811979
-0.22074405
-0.46849317
-0.01846026
-0.34097465
0.47183703
0.04724130
0.06699842
0.16940637
-0.18029823
0.16564916
0.10288482
0.27882145
-0.44727464
-0.46294285
0.04614184
-0.02829638
-0.18730955
0.05660415
-0.11066413
-0.23369179
-0.11200811
-0.42949318
0.05163347
-0.13456697
-0.34981034
0.06546618
-0.30783832
0.09671376
-0.08577323
0.42412051
-0.14335661
-0.24296310
-0.07195660
-0.14474465
-0.21499523
-0.06602666
-0.23579545
-0.46837619
-0.18937070
-0.42499496
0.05396368
-0.01918199
-0.28433752
-0.14378102
0.11702659
-0.09086090
-0.21508251
0.11477941
0.26610123
0.32948304
0.13349638
-0.23162090
0.03721562
0.40778393
0.01496580
-0.23826789
0.01103742
-0.33155720
0.38812499
-0.03971774
0.10308955
0.45682469
0.46967419
0.45373189
0.19338873
0.12532527
-0.30602990
-0.03690750
-0.36359250
-0.44316214
-0.26293520
-0.17573630
-0.15625596
0.01089997
-0.13015807
-0.05293100
-0.04741455
0.27234598
-0.37342477
0.28329081
-0.49352233
-0.31328130
-0.24457797
-0.28065242
-0.21486458
-0.08655260
0.48858727
-0.42840950
0.29611012
-0.49217484
0.29938026
0.40200931
-0.10600182
-0.18962420
-0.03456160
0.02197612
0.45249825
-0.07263453
0.14339970
-0.41501020
-0.17890840
0.40493202
0.46348495
0.09053629
-0.28562663
-0.07958954
0.00368020
0.34347408
-0.45013132
-0.49357797
0.41826327
0.39515530
0.01572950
-0.01571318
0.45540431
-0.11004729
-0.33913023
-0.19993847
-0.40037483
0.15874705
0.12710262
-0.03734195
-0.43843483
0.22891691
0.06387739
0.33024293
0.06610119
0.41304997
-0.19933435
0.48616310
0.04692102
0.46317560
-0.35119550
0.21349550
-0.40533626
-0.00880687
0.45005141
-0.16646180
-0.02276741
-0.02476265
0.09638597
0.46604763
-0.29926590
-0.33453529
0.40674994
-0.38160059
0.32312203
0.23612301
-0.14443524
-0.18479870
0.39928116
-0.31724823
0.33905104
-0.11067444
-0.22930049
0.06165654
0.09585457
-0.13544814
0.43325495
0.06427714
0.39570086
0.34448932
-0.35260224
0.01079235
0.06358394
0.27759011
-0.29055848
0.20059363
-0.23981194
0.35780134
0.05475451
0.07745154
0.32092008
-0.00153951
0.17671207
-0.43103843
0.44714978
0.44832878
-0.23729036
-0.27611084
0.10555986
-0.31788956
-0.23412419
-0.39852862
-0.23079679
-0.25691983
-0.14514625
0.22178933
0.04794570
0.30830391
-0.38553233
-0.40183585
-0.42994603
-0.26078492
-0.36057151
0.42760136
-0.23888347
-0.14557341
0.03328027
-0.03343437
-0.25268372
-0.29661436
-0.15449846
0.08478597
-0.33800772
0.05706262
0.30219561
-0.10516395
0.07219956
-0.00003008
-0.26008317
-0.22791934
-0.01312835
0.25642941
-0.37644251
-0.39688850
-0.37208895
-0.44408439
0.10403146
-0.02197163
-0.21753261
-0.34386564
0.01147499
-0.06113100
-0.13935786
0.40305073
0.11505685
-0.30332102
0.05498071
0.32695450
0.00882182
0.39290378
-0.30928059
-0.27570919
-0.48627578
-0.04736364
0.28955473
-0.43194259
-0.47625028
-0.30070931
0.39126003
0.24342004
-0.47506794
-0.12367160
-0.37864932
0.35205303
-0.35575520
-0.30384049
0.09607060
-0.25507477
0.43642567
0.13583076
-0.32435489
-0.18760972
0.02403513
0.23540614
-0.05743877
-0.45119322
-0.42543371
-0.43197132
-0.09233790
-0.02371902
-0.24427348
0.35216744
-0.25363420
-0.44979804
0.46082753
-0.42171710
-0.11740192
-0.44010108
0.07160896
0.32350884
-0.37770672
-0.30536251
-0.18972269
0.12606878
-0.25175298
-0.17403213
-0.45459805
0.18257015
-0.39616554
0.29978372
-0.12910665
-0.45933858
-0.23195122
-0.20658137
-0.13948405
0.00350073
-0.39524106
-0.05045853
-0.11632419
-0.40742558
-0.03577804
0.20781272
0.38098745
-0.33832213
-0.46984388
-0.02849286
-0.45591422
-0.47309130
-0.10929335
-0.01212566
0.19420600
0.34438978
0.17466723
0.39540040
-0.29352919
0.43529832
-0.06243325
-0.39854433
-0.13744841
-0.43084384
-0.28975215
-0.14375877
0.11410622
-0.41553590
-0.15354519
-0.36318929
-0.25219956
-0.01790788
-0.14432094
0.03166332
0.41951465
0.08789969
0.41984733
0.42802390
-0.06491872
-0.46582702
-0.38704646
0.35119742
0.09212583
0.21872668
0.36847772
-0.07152329
0.00926464
-0.28539439
-0.40393107
-0.08654726
-0.28073000
-0.43709734
0.16779807
-0.41714651
0.07682129
-0.25586164
0.13232903
0.46413934
0.08947918
-0.33548835
0.34161730
0.37991234
-0.32278866
0.20606968
-0.17405950
-0.50363410
-0.15998006
0.17621430
0.28325820
0.06461604
0.31843501
0.49444545
-0.21238698
-0.46840372
-0.21211117
-0.17082551
0.04401740
0.44840696
-0.48510476
-0.43059795
-0.35883556
0.36161837
-0.23884831
-0.02454290
0.29159766
-0.28786982
-0.45579080
-0.17106777
-0.23161712
-0.24828192
0.21646882
-0.24835558
0.23017487
0.17047333
-0.33086300
-0.01194520
-0.21420721
-0.18475745
0.28920056
-0.31198549
0.16108935
-0.35526079
0.38414990
0.25297482
0.04266226
-0.13588252
-0.22223267
0.27982444
0.28915776
-0.35785479
-0.29565067
0.38245438
0.09657253
0.41697901
0.19140432
-0.02247805
-0.33496330
0.01830408
-0.43706274
0.23049723
-0.37000392
-0.13562286
0.29132938
-0.25309635
0.30524122
0.02705279
-0.35012583
-0.02329986
0.22539538
-0.16263042
0.10004918
0.46419539
0.02502699
-0.38847998
-0.21820370
-0.15757684
-0.61526091
0.28698750
0.27852428
0.34297771
0.03667308
-0.39358586
0.26259684
-0.19638332
-0.09426800
0.12088443
-0.25038936
-0.47446496
0.40141836
0.49779490
0.27932985
-0.51955892
-0.13953903
0.36728458
-0.60310144
0.29163142
-0.23122357
0.03358845
0.23121540
-0.00158254
-0.35383478
-0.14174746
-0.55888869
-0.47878422
-0.56937463
-0.47707669
0.53244030
-0.66150299
0.32208284
0.23113656
-0.34291666
-0.53411872
0.27343158
-0.45071941
-0.00191149
0.04677780
-0.43609532
0.55961252
0.17062817
-0.27415990
0.01279533
0.09166814
-0.32100341
-0.14800796
-0.09824867
-0.26646173
-0.50547795
-0.33494961
-0.18957663
-0.17725155
0.48936153
0.12632947
-0.02817108
0.23800782
-0.06052797
-0.47288898
0.36184212
-0.04259376
0.48522853
0.18235602
0.17119776
-0.13271952
0.07614845
0.12220161
0.36333485
-0.23893322
-0.41895772
0.41423942
0.24993337
0.30558218
-0.10827775
-0.28521811
-0.70428919
0.22980335
0.19075834
-0.52919384
0.21109782
-0.42464628
0.23552596
0.12552120
0.11410959
-0.06972691
-0.48392035
-0.04762588
0.18331576
0.17720693
0.13775236
-0.56715206
0.25496130
-0.58173853
-0.51200159
-0.55389241
0.47395984
0.40563967
-0.10553851
0.45012393
-0.50334874
-0.45557068
0.14727804
0.29973589
0.35035852
-0.24371632
0.23252023
-0.64716400
0.16837345
-0.41668994
0.09380710
-0.28512598
-0.68312324
0.16628439
0.24484513
-0.21249606
-0.02430945
0.17080983
0.26286852
0.44690181
-0.22237279
-0.25724185
-0.54933789
-0.20275637
-0.14699376
-0.26831654
0.03524897
-0.30095865
-0.28191300
0.00807970
-0.05936051
-0.21551527
-0.47607211
-0.11270119
0.10931517
-0.33425044
-0.35417951
-0.03985441
-0.54626420
-0.07675453
0.21431663
-0.49713772
0.03785167
-0.56936473
-0.50075456
0.10786301
0.20637828
0.18737485
0.49451264
-0.12411429
0.05809700
-0.09642388
-0.21703173
-0.25273976
-0.54074060
-0.33053299
-0.09491815
-0.49670162
0.27918706
0.23357221
0.27867521
0.33133949
0.16803979
0.10222172
0.02701991
