-0.06459071
-0.15519993
0.52695681
0.04570251
-0.29772680
0.36631332
0.25872047
-0.37864517
-0.32055121
-0.47750309
0.42155044
-0.32440423
0.40211932
0.33687624
-0.51941251
-0.25218074
0.22606460
0.31179391
-0.26616030
0.03640303
0.29844090
0.12787632
-0.15146794
-0.24402579
-0.50482185
0.45114742
-0.22902134
0.38460846
0.19975618
0.51613816
-0.21948612
0.41594522
0.46525447
-0.29725129
0.13622933
-0.49558039
-0.22231761
-0.24610761
0.07034787
0.31688857
-0.08286644
0.25931704
-0.14925813
-0.42279546
-0.38513432
0.30027256
-0.01179877
0.25265685
0.16546961
-0.13308280
-0.18792032
0.42115453
0.42335805
-0.35990133
-0.16209330
-0.36283572
-0.34775350
-0.49005685
0.14414983
0.32983123
0.34205822
0.04063737
0.12216864
-0.10523702
-0.24291688
-0.32896276
0.13342264
-0.06954087
0.75503819
-0.34007409
0.16549325
-0.19858249
-0.08511135
0.13161761
-0.50628917
-0.07490227
-0.00116786
-0.16180254
-0.38997966
-0.33815246
0.01331264
0.27077138
0.17516481
-0.18893502
-0.39105266
0.09041561
0.51313081
-0.32590456
-0.22156581
0.19145806
0.06533297
0.20072728
0.18948849
-0.24457500
-0.20029748
0.25351077
0.10873508
0.38441765
0.21235845
0.43084445
-0.44518658
0.07093227
-0.25194100
0.03097801
-0.51647173
0.10912404
0.55364446
-0.07247759
0.27593301
0.42099120
0.39681974
0.27217074
-0.08584572
0.61682854
-0.15128973
-0.12865079
-0.17460721
0.34890433
0.41586350
-0.48400119
0.04950058
-0.09922232
-0.23729281
-0.09096910
0.27248860
-0.30683455
0.05514342
-0.25927033
-0.12153488
-0.38416013
-0.47742012
0.31446368
-0.15973813
-0.14550989
0.04807044
0.34251820
0.16176231
-0.05780298
0.17585313
-0.48855106
-0.39184491
-0.40614571
0.18345641
0.42999744
-0.87894587
0.33713079
0.15790397
-0.36518195
0.37352321
0.65720528
-0.00769616
-0.19147997
0.33586827
-0.05354406
0.12942509
0.31950325
0.00342621
-0.16058805
-0.14113898
-0.27145614
0.56773287
-0.54326412
-0.28579617
-0.17126123
0.37892873
-0.25612532
-0.19765007
-0.48409513
-0.24056319
0.20771502
0.26863085
-0.21529470
0.20562106
-0.11785972
0.08079675
-0.41401997
0.14020376
-0.39945138
-0.35439726
-0.48508955
0.38810768
0.34382592
0.30527196
-0.19614750
0.10169676
-0.32726229
0.52000705
-0.07905435
-0.21665538
-0.35847439
-0.40650578
-0.20282267
0.44996594
-0.45610348
-0.25640996
0.16219710
0.30566525
0.00952227
-0.27264012
-0.13905697
-0.29299077
0.48764088
-0.18533995
-0.08996848
-0.44578493
0.32710289
-0.39130292
0.09138678
-0.20437221
0.83122788
-0.48629891
0.14846168
-0.43943213
0.22753370
0.21392589
0.20101083
0.25863243
-0.17283069
0.19995365
0.43982238
-0.22372058
0.04196020
0.79713763
0.24644952
-0.34749876
-0.36743961
-0.27942192
-0.48197362
0.03390083
-0.28278232
-0.00470730
0.19258063
0.38301371
-0.36594818
0.02425461
0.13262802
0.43002008
0.22164506
-0.53848148
0.32465497
-0.27086669
-0.18276522
-0.20715821
0.00931054
0.47866013
-0.01667607
0.24081037
-0.34627997
-0.24211084
-0.25675180
-0.45999937
-0.22322420
-0.39156718
0.27457662
-0.22414813
0.12946033
-0.06266095
0.25568055
-0.48707214
0.20481639
-0.46118509
0.19417457
0.16513940
0.40254434
0.26294198
0.29572850
-0.20832418
-0.23728704
-0.38891520
-0.74792044
0.36655613
-0.45862896
0.36301854
-0.43159670
-0.24578004
-0.09801562
-0.18098552
-0.04561444
-0.19416274
-0.14705260
-0.08152870
-0.27232765
-0.14696373
-0.04072185
-0.47594030
-0.40675638
0.05826901
-0.58196108
0.48408207
0.58925068
0.22002575
-0.39397134
0.46578945
0.02028294
0.12419745
0.02821718
0.45054205
0.36683868
-0.09016059
0.54019814
-0.41833746
-0.17313212
-0.55939215
0.02606672
-0.26969252
0.00838578
0.08666871
-0.45949578
-0.22934071
0.07358674
0.02933331
-0.14196736
-0.26887639
-0.21720694
-0.07039535
-0.20052902
-0.33784975
0.25325812
-0.12902999
-0.52837510
0.17675658
-0.12035965
-0.47362082
-0.40426179
0.30530757
0.09825293
0.61204383
0.43086932
0.42737047
-0.38003458
0.25291267
-0.00769090
-0.16325188
0.12950694
0.45029890
0.40623487
0.42206840
0.05151010
0.52595851
-0.17703726
0.37610926
-0.74438727
0.68109147
0.21267771
0.04290313
0.01782249
-0.19229541
0.15201663
-0.56956345
-0.30447505
0.52796437
0.76305452
-0.29234736
0.70496597
0.09028158
0.58961967
-0.14947129
-0.34116371
-0.53372036
-0.22455011
0.79925342
-0.04204339
-0.31324818
0.00496711
0.33980041
0.03051920
0.36850472
-0.49069492
0.36768371
-0.11968576
0.08554375
-0.41262955
0.35793936
-0.05588953
-0.33469584
0.05661284
0.23787019
-0.20824315
-0.50713462
0.55853867
0.47887919
0.14838043
-0.02529344
0.16567118
-0.28056041
0.00554773
-0.09574028
0.16640483
0.01342682
-0.00372102
-0.32660654
0.10456875
-0.39205390
0.23814863
0.38934260
0.10168443
-0.20242332
-0.20228131
0.56447370
-0.21055156
-0.30953595
-0.48635941
-0.47536645
0.15842478
-0.35580430
0.13440479
0.23490048
0.47461817
0.21891070
-0.19136114
-0.01839171
-0.40386628
0.58632727
-0.06541359
-0.35656090
0.47551976
-0.25414073
-0.67856515
0.18467792
-0.22637196
0.05475999
0.42246488
-0.12833640
0.29213890
0.33923511
0.34593472
0.31577173
-0.25366852
0.20656725
-0.18294092
-0.10453281
-0.21526393
-0.53286254
0.46623450
-0.16912627
0.17968087
0.21518523
0.14255964
0.04533463
0.42438247
-0.17962395
0.41411728
-0.13034291
0.09026192
0.22322312
-0.74219430
0.52306213
-0.53493901
-0.68997390
-0.33482304
0.04966371
0.17445098
0.14500475
-0.06111441
-0.33109104
0.25594550
0.06911020
0.30379638
-0.72507799
-0.26299450
-0.30167005
0.21923981
-0.52445079
-0.07524231
-0.10785472
0.24370181
0.29329055
0.02504695
0.16582059
-0.09807210
-0.46480398
0.52879855
0.21549548
-0.02836652
0.36409974
-0.04660549
-0.14485408
0.35557481
0.39504039
-0.13141931
0.18187372
0.02107234
-0.58860720
0.47500351
0.34372037
0.33789852
-0.02196129
0.07864056
-0.33090358
-0.04228977
-0.44662514
0.30224531
0.09163658
0.09516640
0.34894926
0.49765415
-0.51646413
-0.11202657
-0.30022050
0.13332004
0.41182673
0.31284100
-0.26838746
-0.34677788
-0.45041461
0.41032263
0.20954691
0.14478224
0.14271376
-0.04258516
0.31152708
-0.00938410
-0.03272131
-0.07492325
-0.42099734
0.00540961
-0.42267118
0.37142506
-0.41767691
-0.42510829
-0.21933234
0.07850978
0.61666357
-0.11963977
0.46313420
0.39020866
0.18876613
-0.16173812
-0.18722094
0.33688201
0.34240067
0.51758173
0.42039614
-0.08233127
0.42414624
0.12103893
-0.45251219
0.36936891
0.14712528
0.28542771
0.21353858
-0.16171784
-0.19014904
0.18073348
0.08573811
-0.26602136
0.36020492
0.01894354
-0.43862302
0.17450248
-0.02833756
-0.25018695
-0.42352370
-0.41429274
-0.41082917
-0.48816485
0.45755696
-0.41719161
-0.50883917
0.09025933
0.55059616
-0.58450189
-0.33217469
0.29287537
-0.25757027
-0.13786042
-0.09645021
-0.29205015
0.26454367
-0.13424816
0.13098507
0.07824247
-0.27432897
0.65695329
-0.37139723
0.43546343
-0.00361588
0.41542560
-0.60839471
0.17280700
-0.01674201
0.15549981
0.08725958
0.06809807
-0.01533899
-0.49904664
0.07752181
-0.43822709
0.48921191
-0.51221249
0.59943865
0.51462391
0.45723971
0.35900722
-0.32126697
-0.02921054
0.41556806
0.01064216
-0.05269795
0.08437103
-0.20873490
-0.24962155
-0.46892183
-0.41202005
0.10079314
0.18860215
-0.27777898
0.11053158
-0.47759546
0.17133112
-0.38056235
0.16830385
-0.08885352
-0.25203363
-0.04210717
0.32551214
0.47023140
-0.11274584
0.08087648
-0.41576578
0.21003128
-0.05724169
0.01280914
0.48523663
-0.14051436
-0.19369195
0.39352569
0.26761299
-0.47148495
-0.38547582
0.43976419
0.43448138
-0.07162063
0.64489203
-0.37883894
0.18700307
0.48577538
-0.20242013
-0.00247927
-0.43871140
0.38229457
-0.02781089
0.30115490
0.44809797
-0.07413374
-0.19841662
-0.33412727
0.07792367
0.36266120
-0.05050928
0.39328382
-1.04735804
0.19127550
-0.05878481
-0.06579845
-0.26464847
0.65940751
0.31867711
-0.11426954
0.22839008
0.02241615
-0.02833416
0.35044676
-0.05535866
-0.25594758
0.31152600
0.29287374
0.25360046
0.11878215
0.07207169
0.17905656
-0.46774152
0.28154305
0.24118888
0.32768667
-0.08771977
0.27512010
-0.05975650
0.25200038
-0.41788530
0.44929002
-0.40612093
0.15553459
-0.14771466
-0.17271553
0.65739872
0.31684537
0.44145779
0.57174744
-0.53818194
0.28837063
0.24837846
0.37964018
-0.25070157
0.07671437
-0.14112731
0.32891147
0.16270344
-0.71191296
-0.08748540
0.00283211
0.33050935
0.50133873
0.33091165
0.43412988
-0.09432060
0.21275942
-0.25292544
-0.34155418
-0.00701788
0.05066311
-0.10475724
0.23168496
-0.41218464
0.27772374
-0.10811388
-0.12293175
0.16509546
-0.65442937
-0.00017113
-0.39093362
-0.31897022
0.04556249
-0.31278029
0.02837892
-0.36200322
0.46518053
0.36674294
0.25332759
-0.16936077
0.31676898
0.05857730
-0.27595765
-0.36597478
-0.08651637
-0.07728395
0.29814648
0.38250436
-0.01906731
-0.39519754
0.05552661
0.41800205
0.35658536
0.13399357
-0.15754524
0.40715012
0.48492175
-0.00555565
0.12629159
0.52814256
-0.12263376
0.13308176
0.01943140
-0.31700306
-0.34914326
-0.07974901
0.49813779
0.05760219
-0.07746303
0.36179189
0.45683027
0.41868342
0.11014375
-0.38245102
0.28666843
0.45044972
-0.04756749
-0.00147759
0.09827688
0.63243136
-0.42607290
0.16779875
0.17893324
0.37689241
0.36291277
0.47660412
0.65466575
0.06074733
-0.01255180
0.09301191
-0.12166386
0.66486034
0.09118041
0.12268819
0.25724829
0.35618107
-0.44455758
0.40317683
-0.40079409
-0.33064791
-0.27922320
-0.08602053
0.32230845
-0.19069801
-0.02511900
-0.41943548
-0.23589862
-0.58181078
0.29126062
0.00431847
-0.29584647
0.14547819
-0.05456635
0.28461897
0.37824710
0.08673463
-0.25257463
-0.32258426
-0.13769990
0.11509939
0.17430178
0.16945549
-0.40200203
-0.21574268
0.49331079
0.20795826
-0.22117809
-0.16739866
-0.10870341
0.15050497
-0.30562771
0.19162599
0.34152779
0.39554796
0.11940097
0.41837017
0.13745044
-0.30624684
0.34632507
-0.34029177
-0.03967185
0.19011218
0.36144261
-0.06222716
0.24720506
0.32822766
-0.17023728
-0.21931657
0.29481946
-0.12441358
-0.10741219
-0.43356357
0.38988693
-0.26745816
-0.22399734
0.18909845
-0.40064841
0.15383675
-0.30265190
0.28912626
-0.36600284
0.37860513
0.35775458
0.01819546
0.14647725
0.16654481
0.21829587
-0.01169084
0.35172005
-0.51824695
0.19531194
-0.27236420
-0.32589857
0.41984796
0.42436785
0.15243800
0.50448402
0.28156802
0.09673706
-0.44419336
-0.39712736
0.00722937
-0.33541374
0.36251213
-0.24745066
-0.27507009
0.01317848
-0.45473791
0.38763392
-0.27904329
-0.35753909
-0.35833787
-0.44148532
-0.46398930
0.09136886
0.14105695
-0.27751072
0.58226910
0.15600119
-0.10317974
0.05026857
-0.34020552
0.35909329
-0.87953090
0.43318047
-0.20892220
-0.65917282
0.36997336
-0.05805422
-0.51669606
-0.24560297
-0.46654244
0.31901818
-0.09795562
-0.28316628
-0.05388678
-0.53212245
-0.51316389
-0.45010523
-0.37075636
-0.56849138
0.38417184
-0.12479379
0.61251690
-0.53606844
-0.31392396
0.55686534
0.30719939
0.07779925
-0.35837014
0.24951743
-0.11603449
0.08284402
-0.23547528
0.01530226
-0.05602047
-0.39507530
-0.18829603
0.12090597
0.40365298
0.40223618
-0.19646889
0.07830262
0.37261977
-0.01089751
0.09162716
0.15996567
-0.38384709
0.04056584
-0.33389908
0.27869211
-0.52822320
-0.50786642
0.26238573
-0.29452901
0.26297743
-0.32524315
0.29157771
-0.14413241
-0.01184347
-0.05540900
0.49749019
-0.22559886
-0.40256630
0.21136541
-0.24134118
-0.43716548
-0.10704411
-0.18124002
-0.03424974
0.49922280
0.39299300
-0.05242779
0.02568028
-0.61638624
0.19161798
-0.22253976
-0.15549283
0.23504087
0.44670217
0.39185824
-0.40404309
0.19867103
-0.03959894
-0.09334736
0.41581411
-0.16148442
-0.44004871
0.41342604
0.20176027
-0.15562302
0.43298989
0.13147605
-0.36948242
-0.01237609
-0.05972961
0.31292362
-0.40025593
-0.33694719
0.29089670
0.32466892
0.24616535
0.05358871
0.08235199
-0.17309408
0.10702545
0.19449674
-0.51228788
0.42875481
0.26719944
-0.20854590
-0.22087853
-0.24982860
-0.11888774
-0.41176158
0.03715483
0.20763349
-0.12302525
0.24882672
-0.20428387
-0.23378794
-0.06293546
-0.34938053
0.03155975
-0.50984635
0.04789300
-0.47120682
0.50524152
0.27856238
0.51327919
-0.06388704
0.13033612
0.09286891
-0.84068860
-0.14331658
-0.31093712
-0.04025336
0.15903949
-0.08430957
0.11317934
-0.51437844
0.44384477
-0.23434981
0.19127924
-0.05090297
0.25572403
0.76905996
-0.50903993
-0.38405217
0.01639759
0.24545541
-0.09292325
-0.11046934
0.38123435
0.03187592
-0.09806516
-0.10984087
-0.05045694
-0.41284557
-0.22694098
0.40089954
-0.22562889
-0.18980963
0.20695802
-0.81699029
-0.14843790
0.24374131
0.10503388
-0.00099360
0.33585848
0.27168591
0.25260974
-0.18159386
-0.27038569
0.25369712
-0.29857846
-0.28672999
0.00473236
0.00479767
-0.43209482
0.20917151
0.04811744
0.25471686
-0.37527599
-0.32442365
-0.38424547
-0.47864588
-0.05332410
-0.17354569
0.24736446
-1.01300876
0.26246319
0.04378893
0.35238943
-0.29476938
0.13070514
0.38498390
0.50960731
0.35237886
-0.27969325
-0.42148446
0.05559100
-0.19559565
-0.02976856
0.05518249
-0.36011029
0.13176116
0.31752028
0.21258002
-0.45328080
0.23549315
0.54806039
0.24553539
0.45898794
-0.06553422
-0.02070149
-0.16436893
0.27952760
0.13865057
0.04936740
0.21779167
0.45378735
0.21267930
0.07062125
0.45339892
0.09996008
-0.15802311
0.12092267
-0.38148480
-0.28641100
0.41835920
-0.01716067
-0.23118676
-0.44419284
0.10323875
-0.03103746
-0.12355729
-0.27055839
-0.16943207
-0.22443945
0.34780773
-0.26608028
-0.14409081
-0.21873441
-0.49121425
0.05792986
-0.47333502
0.08845617
-0.07753754
-0.21970291
-0.24624356
0.04733104
0.31074280
0.32909479
-0.41316360
0.57140030
-0.41113997
0.37511852
0.15571141
-0.19153615
0.09570176
-0.39806402
-0.34315831
-0.31092699
-0.43623655
-0.30149885
0.09305406
0.51759961
0.21912345
-0.34372685
-0.35926886
-0.30291305
-0.03336138
-0.22354201
-0.30156047
-0.23613172
-0.38251106
0.25590777
-0.40637465
-0.05718518
-0.28327784
-0.47206288
-0.34768411
-0.03224367
0.56694936
-0.11633549
-0.50960112
0.32541323
-0.28662320
-0.00198469
0.36884826
0.28412278
-0.14331295
0.04338274
-0.43625761
-0.44871947
-0.47840067
0.13805139
-0.18535802
-0.23901042
0.45180273
0.38290027
-0.42680647
-0.04235839
-0.19329969
0.21289941
0.31179821
-0.47635911
-0.10676136
-0.00617692
-0.22928213
0.40310771
-0.34404684
-0.27418304
-0.19202367
0.28250333
-0.14601768
0.14042072
0.38915419
0.38180678
-0.29252441
0.45344881
-0.01699574
-0.41599216
-0.51013384
-0.08557720
-0.32750373
0.04155270
-0.40761142
0.30740727
0.23519224
0.33758805
0.24577197
0.60967227
-0.22619286
-0.04709969
-0.41257966
-0.27648697
-0.52482536
-0.09751174
-0.17874973
0.33113693
0.19698425
0.35591352
-0.15842482
0.01615561
0.10677947
0.52428181
-0.65332047
-0.10302583
0.35245632
-0.06833794
-0.43437639
0.15177502
0.10089070
-0.07874114
-0.13907017
0.20998366
-0.23539281
-0.14179802
0.29703752
0.25262612
-0.00980902
-0.27577343
0.04423455
0.19294267
-0.03696030
-0.26521829
-0.21489029
-0.45375940
-0.20570116
0.48299326
-0.88637573
0.65477767
0.50472966
-0.05549524
0.07006382
0.25494039
0.10595181
-0.17771068
-0.45826058
0.31634048
0.11745890
-0.12902658
0.00780485
-0.64773787
-0.16400992
-0.38696043
0.43462650
0.33406266
-0.11835766
0.22828119
-0.08307073
0.47070961
0.09163039
-0.36069042
-0.33433820
-0.18078899
0.59979988
-0.39362488
0.02514823
-0.21695250
-0.05178017
0.09422744
0.42521337
-0.15473811
-0.24378473
-0.13837841
0.04796483
0.03554404
-0.47172242
0.15130473
-0.25222537
-0.03406983
0.17408592
-0.01495056
-0.35806617
0.38908937
0.10961296
-0.41508592
-0.12264665
0.20059020
-0.23402431
-0.44700075
-0.00749380
0.33031962
-0.41711303
-0.38911716
-0.31039266
0.18375472
0.05821527
-0.05127452
0.44854293
0.29970446
-0.24006442
-0.16181351
-0.10061422
-0.45680849
-0.04351618
-0.43500088
0.21950511
0.47816531
0.47165479
0.20436361
0.13459953
-0.36984459
-0.46636843
0.38567807
-0.00901189
0.37056539
-0.64833265
-0.11097416
0.29957503
-0.14512025
0.00094571
-0.43152219
-0.14842876
-0.47300326
0.00111089
0.31673410
0.35877888
0.00295002
-0.36685222
-0.10691890
-0.30583512
-0.40016586
-0.43691778
-0.49344474
0.35207450
-0.29578569
-0.26964191
-0.13820085
0.38437890
0.17562397
-0.10458401
-0.27444967
0.19939907
-0.63979617
0.08485766
0.33162244
-0.40097938
0.32262653
0.33774449
-0.15359847
-0.72272915
0.32112354
-0.14369903
0.21572472
-0.27521973
0.36740694
0.26305224
0.62992525
-0.31373844
-0.11147249
0.45166772
0.17765610
0.48941867
0.37762041
0.20804073
-0.30162293
0.05111228
-0.29709919
0.02821191
0.09763820
-0.49413473
-0.00335242
-0.10671209
0.01601187
-0.45500240
-0.03447586
-0.27882174
-0.12072939
-0.08996189
0.18532340
0.04448629
0.13551496
0.31780199
0.42506127
-0.24896855
-0.46361478
-0.11451481
0.10634786
-0.22172469
-0.43271732
0.32587897
-0.29114578
0.23621144
-0.11200357
0.62873148
-0.35360069
0.49603132
-0.43604729
0.34468302
0.07722269
0.32507888
-0.09156724
-0.30435282
0.20166942
0.39395818
0.46980137
-0.03587942
-0.28354653
-0.02886634
0.14359116
0.18523483
0.26400734
0.19626303
-0.39565175
0.12519764
-0.17660537
-0.33838267
0.32544376
-0.07919968
-0.49079869
0.42871939
-0.01335533
-0.36179197
0.05543132
-0.08212178
0.30158550
-0.12440423
-0.36312983
-0.51504687
-0.34460706
0.01683645
0.22851092
0.39974238
0.24294677
0.32802000
0.39229683
0.40914658
0.11015380
-0.43435644
0.46274952
0.07957472
0.40478373
-0.41549335
0.44329842
0.22729523
0.18670561
-0.30245167
-0.22507628
0.00367368
0.44832390
0.13953974
0.35119947
-0.27424239
-0.12500908
-0.18135845
0.33581555
-0.35548068
0.18947280
0.32418721
-0.59020509
0.57200845
0.25558262
0.26918558
0.07535199
0.10564698
-0.48781389
0.13755460
-0.48516866
0.13628942
0.43601642
0.07012240
-0.32504516
-0.00496078
-0.32105844
0.47054878
0.26405995
0.42648233
0.42814531
0.35638896
-0.43735899
0.27068008
-0.10498446
0.25166729
0.15376964
0.14467533
0.10090793
0.23991768
0.63243700
0.06491334
-0.24061368
0.59053582
-0.21700282
-0.21087974
-0.46698314
0.00110280
0.23219824
-0.59195845
-0.54152868
-0.07360746
-0.64899749
0.28356706
-0.43683475
0.53367807
-0.27515404
0.28234433
0.51964878
0.21513776
0.51439125
-0.47757974
-0.40008660
-0.44687370
0.06707663
0.44907736
-0.47132987
0.19991902
0.19223716
-0.19130216
0.13554632
0.36489578
-0.36696857
0.38912554
-0.20181336
0.02884813
0.36754440
-0.85482210
0.10031981
-0.13639109
-0.29897201
-0.05366982
0.58444208
0.35635877
0.09337786
-0.46762582
0.33855708
-0.19474101
0.39013032
-0.44383785
-0.27496527
-0.33497410
-0.07926155
0.36089524
-0.39524148
0.28843969
0.01284375
-0.26714707
-0.11585266
0.19150138
0.37660386
0.35348233
0.05184766
0.12915957
-0.07874310
0.46933483
-0.60470044
0.43108641
0.50985302
0.15190526
0.20284306
-0.47354649
0.47020455
-0.14733797
0.19619787
-0.34546818
0.13231431
-0.37008439
0.45161563
0.47564280
-0.34414479
0.37857959
0.04878591
0.09469860
-0.31225948
0.08935947
-0.31883148
0.04773345
-0.00523566
-0.62187523
-0.36325435
0.19417186
-0.29966498
-0.40070223
0.54653195
-0.42571822
0.58387177
-0.09119438
-0.13633187
0.39908158
0.01905593
-0.29977589
-0.46268213
0.19408123
-0.17681533
-0.37418884
-0.44639454
-0.23194997
-0.18757303
-0.22080977
-0.15492254
0.26561331
0.04824784
-0.37628895
-0.23495208
-0.00459854
-0.08556916
-0.59870640
0.56741908
-0.44299964
0.13201292
-0.18431500
-0.29546277
0.61273122
-0.51367133
-0.08734238
-0.21197165
-0.35968412
0.12961910
-0.62541652
0.15508480
0.02690344
-0.47565351
-0.32418067
0.59261479
-0.36558576
-0.74879092
0.26400436
-0.34627076
-0.35502478
0.27716134
0.40827903
-0.25047361
-0.01668309
0.11577855
-0.21223106
-0.20498818
-0.15018830
-0.45919048
0.42984173
-0.44365156
0.37379566
-0.28830664
0.18586904
-0.64162111
-0.29398751
0.35051067
-0.44188572
0.08389832
0.00650190
-0.02670700
-0.11710788
-0.00450022
-0.47402345
0.29770930
-0.15490802
-0.02113230
-0.43972809
-0.12393236
0.03182186
0.04295883
-0.23946148
-0.15741407
0.07468781
-0.22510709
-0.39100175
-0.30538537
0.44702407
0.25081553
0.18496973
0.73198885
-0.29759099
-0.39653566
-0.38414848
-0.40398668
-0.52649169
0.46110667
-0.47661100
-0.35235270
0.15227150
-0.35565355
-0.33211348
-0.16763097
0.79311988
0.07286109
0.21222253
-0.32047443
-0.16099463
-0.35056531
0.50837323
-0.55374753
-0.01243634
-0.09938286
0.05111263
-0.16021385
-0.55353056
0.75411270
-0.52018811
0.03625689
0.30769228
-0.06756371
-0.64849984
-0.44105403
-0.50484773
0.22751095
-0.25008460
0.11287571
0.04360618
0.09084708
-0.25479706
0.01187489
0.02673806
0.28798153
-0.17742401
0.20644340
-0.46228668
-0.51279989
-0.11611918
-0.38385704
-0.26722860
-0.21927067
0.33494678
0.58564565
0.20727810
-0.09550901
0.00451908
-0.38930021
-0.40191868
0.23330817
-0.33689083
-0.27468496
-0.01991712
-0.24377354
0.40615356
-0.29960844
0.24772648
-0.00283063
0.02626401
-0.15550624
0.04147929
0.14815076
0.23672499
0.12629076
-0.41104437
-0.00707998
-0.32561318
-0.42711527
-0.14679241
-0.36284122
0.13729885
-0.13632888
0.63386707
0.43078418
-0.45748400
0.17022540
-0.21587896
0.72519530
-0.20711742
0.34994951
-0.39816495
-0.37480747
0.27131387
0.25756477
-0.15761058
-0.21047193
0.49295299
-0.15141931
0.12071617
-0.08792517
0.25073654
0.07547472
-0.24898574
-0.51058348
0.01970585
-0.18408460
0.44995859
0.04896557
0.05715112
0.17957491
-0.23930027
0.15310971
0.06062471
0.36827646
-0.46967065
-0.45296692
0.07043274
0.00765836
0.01427011
-0.18356917
0.11965775
-0.40148484
-0.06563240
-0.42133646
0.11351103
-0.13569940
-0.56949224
0.06491540
-0.36504106
-0.00196241
-0.18944915
0.91012718
-0.24106721
-0.30558595
-0.08185050
-0.11663068
-0.39807650
0.00300705
-0.32104296
-0.41567005
-0.24415206
-0.38699449
0.03248112
-0.06546732
-0.41510692
-0.07175933
0.06724017
-0.10823095
-0.24039370
0.14324971
0.24306896
0.35028373
0.10602798
-0.22739543
0.01859885
0.40033991
-0.05861442
-0.50726747
0.07328124
-0.34274508
0.35640258
-0.07621171
0.16598585
0.41891340
0.50580865
0.41120480
0.20670018
0.09517254
-0.31626479
-0.03737464
-0.28821349
-0.31558236
-0.41647789
-0.10829427
-0.24198980
-0.09922359
-0.16963126
-0.12708174
0.05725519
0.23360367
-0.37191266
0.32725014
-0.43873841
-0.35679592
-0.21060726
-0.28559661
-0.19865997
-0.06431786
0.53290227
-0.41770004
0.32385702
-0.48179193
0.32199097
0.39816771
-0.09258137
-0.25959932
0.05437269
-0.13534801
0.79891279
-0.21556628
0.29307887
-0.26339260
-0.13071960
0.52221826
0.32436168
0.15379214
-0.30274200
-0.13588070
-0.09051870
0.20757259
-0.45423008
-0.40220512
0.33819512
0.39017224
0.13314265
0.00799954
0.52720106
-0.33897015
-0.29869570
-0.24509015
-0.47232665
0.12788885
0.00230326
-0.00853991
-0.45545890
0.23488368
0.04664269
0.34420913
0.04968782
0.42147949
-0.18435927
0.48541336
0.04501140
0.46797468
-0.47664322
0.15170705
-0.46252693
0.13565707
0.30384228
-0.15018450
0.08539430
-0.01918926
0.16996309
0.26601436
-0.27223672
-0.36340235
0.33291293
-0.40822641
0.21120490
0.30562636
-0.21470786
-0.21816190
0.36988200
-0.29934204
0.31821946
-0.09630350
-0.26373654
0.05638881
0.07595512
-0.15065789
0.39651586
0.01206451
0.31804263
0.49348507
-0.44665126
0.06086557
0.16708677
0.31869649
-0.21038568
0.10378789
-0.19912899
0.33683138
0.01774657
-0.13567885
0.23399861
-0.05658417
0.50175415
-0.61149133
0.50213375
0.62801404
-0.19174806
-0.12661294
-0.19286667
-0.26316740
-0.31711420
-0.50843165
-0.24318402
-0.13501981
-0.28840562
0.40550022
-0.01751853
0.37354666
-0.35054468
-0.33345107
-0.39351249
-0.42582886
-0.34194321
0.39613825
-0.30973138
-0.15540877
0.17755499
-0.23169795
0.05276644
-0.40472990
-0.06183987
0.15334501
-0.25620519
0.11043819
0.14194238
-0.06998098
0.04546114
-0.05774603
-0.32009955
-0.28372656
0.06051503
0.14854582
-0.38839135
-0.49113492
-0.43974051
-0.51264408
0.03928482
0.00160923
-0.25580950
-0.38095610
0.01054072
-0.05177791
-0.21471374
0.47688163
0.05468967
-0.28427335
0.05530419
0.34562667
0.01215131
0.41046026
-0.30778654
-0.26832377
-0.49714072
-0.04080340
0.55366694
-0.52943942
-0.16363888
-0.67650078
0.73148312
0.12984388
-0.63225407
-0.20003750
-0.52191742
0.64234207
-0.37480024
-0.29171110
0.25771294
-0.35786273
0.40112634
0.08038810
-0.23548437
-0.28373553
0.03565920
0.28131873
-0.03868428
-0.40922682
-0.59063824
-0.42387614
-0.13438814
-0.08917480
-0.27870928
0.33845600
-0.28835275
-0.34759072
0.37222406
-0.41770237
-0.06531932
-0.44385362
0.09771712
0.24985040
-0.36950795
-0.32019171
-0.21399982
0.21872000
-0.13256398
-0.05245956
-0.67371439
0.29953223
-0.49479124
0.11991036
-0.15122290
-0.58986218
-0.10618275
-0.26247870
-0.13041782
0.05758372
-0.37007085
-0.02131574
0.00878116
-0.61023804
0.01555543
0.09245646
0.20281381
-0.42835623
-0.58155385
0.08444804
-0.53492243
-0.49108331
-0.07995578
-0.12778417
0.22123466
0.20705169
0.34798003
0.26985919
-0.26701604
0.51351832
-0.02464928
-0.34554970
-0.36592513
-0.40718235
-0.33585449
-0.23943785
0.24212144
-0.86649721
-0.05967453
-0.36912370
-0.30718826
-0.01316438
0.04989096
0.02138042
0.53954471
0.05112450
0.47915364
0.36871574
-0.03815857
-0.46322667
-0.22859904
0.31220027
0.01377955
0.24522693
0.35715869
-0.18489073
0.00138861
-0.35328035
-0.34497296
-0.12925676
-0.28337878
-0.44575256
0.18664035
-0.75099205
0.13782439
-0.24917243
0.10792518
0.45042443
0.19519379
-0.36623737
0.40114712
0.34897271
-0.29832913
0.16337663
-0.16851704
-0.51072246
-0.14933691
0.18209832
0.25528992
0.10566362
0.33206786
0.46618962
-0.20367194
-0.47410224
-0.15911908
-0.17429577
0.05518974
0.45945709
-0.35820962
0.01863910
-0.53376774
0.76463738
-0.45726528
0.18613020
0.34418064
-0.13138907
-0.38411410
-0.44579748
-0.19035589
-0.27754850
0.10863769
-0.28762332
0.16401090
0.10117474
-0.20640538
-0.07122576
-0.19307274
-0.13080097
0.29587271
-0.28564854
0.10277289
-0.34299796
0.37789316
0.23129459
0.02267749
-0.34359759
-0.14858194
0.21455872
0.33311931
-0.38896141
-0.27920492
0.35738890
0.09942973
0.45490535
0.19190701
-0.02549003
-0.32063637
0.07758087
-0.28663896
0.23176296
-0.49921282
-0.07200155
0.23802628
-0.38223782
0.29198332
-0.06678429
-0.25522095
-0.06872408
0.22701895
-0.13719201
0.30062419
-0.04581934
0.47217503
-0.73197678
-0.08544843
-0.28589757
-0.58251850
0.23499609
0.36215003
0.65499321
0.13813178
-0.30086982
0.43601772
-0.12717693
-0.11498663
0.27410691
-0.32298868
-0.39780989
0.37896806
0.53773793
0.29539571
-0.36120505
-0.13449326
0.49390233
-0.50122216
0.23326190
-0.13916246
-0.03298376
0.47111590
-0.25235347
-0.25015405
-0.08140324
-0.33252981
-0.51876722
-0.55958759
-0.34393585
0.28981851
-0.31001620
0.41569977
0.31996774
-0.17835754
-0.39099651
0.50276845
-0.32134702
0.23535644
0.25670381
-0.27877651
0.55545754
0.37567505
-0.25261748
0.21050276
0.18543767
-0.13396071
0.20879291
-0.19536377
0.14286495
-0.68136158
-0.22512458
0.04630585
-0.08926391
0.53469007
0.07570804
0.04892330
0.33291992
0.06774620
-0.46047170
0.82856533
-0.11819070
0.54897666
0.31062452
0.14561215
-0.25656132
0.12144540
0.15013908
0.24142144
-0.08078744
-0.03746548
0.43857779
0.37646598
0.62249260
-0.09082820
-0.09555097
-0.48734850
0.22386677
0.23583915
-0.45651259
0.25057127
-0.36293500
0.26563661
0.22335313
0.24762628
0.17208076
-0.45377288
0.17175800
-0.09321730
0.39105230
-0.06797029
-0.55018525
0.28056739
-0.51111212
-0.34560997
-0.37459038
0.40973739
0.50227335
0.13858238
0.26121480
-0.22599827
-0.40004243
0.06596631
0.35999508
0.49565611
-0.11865908
0.25295020
-0.46343295
0.37055467
-0.34154579
0.42047214
0.17868052
-0.71612224
0.27539483
0.30863064
-0.13684351
0.14573688
0.53633673
0.30431793
0.51923192
-0.13202034
0.02379844
-0.39434115
0.04820373
-0.00068843
-0.17539853
0.25532125
-0.38378465
-0.06856408
0.02362931
-0.14642808
-0.16981183
-0.50081141
0.10028635
0.05633443
-0.26803333
-0.20686583
0.06435299
-0.46808137
-0.00197122
0.37125029
-0.28907798
0.12129945
-0.31401253
-0.46127495
0.23840356
0.36102905
0.35450998
0.47402988
-0.14324928
-0.05554770
-0.08376871
-0.11980531
-0.23930217
-0.43364633
-0.38665130
-0.03591738
-0.46766170
0.33987810
0.40356732
0.32846725
0.41745115
0.25013794
0.37802508
0.07323985
0.19093549
0.56030398
-0.39375537
0.06032022
-0.07469240
-0.26123765
0.04165185
-0.08374315
0.50447324
0.06090334
0.15641205
0.23362312
-0.00362597
-0.33675857
0.26830195
-0.05182912
-0.20681203
-0.01808051
-0.50412731
0.09862262
-0.10294383
-0.28943646
-0.17704130
0.37356754
0.42653167
0.28612015
-0.08989342
-0.02420766
0.43292107
-0.26113411
0.41997269
0.21762757
-0.05927648
0.19839168
-0.18504632
0.15100584
-0.44750401
-0.14791379
0.20764259
0.29364344
0.18454016
-0.08663218
-0.27073684
-0.14799608
-0.09258907
-0.07248888
-0.27266997
0.07715452
-0.37077023
0.31443836
0.16382128
0.30720868
0.18486087
0.47532803
-0.24874060
0.23859741
0.02887272
0.35003796
-0.50512367
-0.05604946
-0.13402592
-0.08546156
0.00039065
-0.40951017
0.18569326
-0.27477775
-0.29587659
0.32815614
0.13108906
-0.32725685
-0.36450704
-0.22947732
0.12462850
0.21867428
-0.04956207
0.50020177
-0.23418136
-0.00413594
0.26434899
-0.63662929
-0.18265904
0.34446620
-0.19061902
0.17011914
0.43223333
-0.22204751
0.21831149
-0.04727563
0.31266121
-0.12938256
0.84150748
-0.51664287
-0.16862781
-0.60939178
0.31321260
-0.65664404
-0.33007715
-0.01934729
0.25317614
-0.16877227
-0.01666329
-0.08804692
0.15571642
-0.26520847
-0.44988100
0.32887269
-0.25741751
-0.27372154
-0.26216937
-0.19883655
0.16462158
-0.00036180
0.41659229
0.10362985
-0.21011510
-0.28756022
-0.63329272
0.50916603
-0.00060206
-0.36067581
-0.12713228
-0.01248146
0.41008815
-0.40555534
0.05381497
-0.29330918
-0.10293401
-0.03534632
0.45487430
0.07338074
-0.09842852
0.14763481
-0.00252683
0.24185858
0.00879834
0.49121590
-0.29769419
-0.31769831
0.43038534
0.14330609
0.19052212
-0.21400941
1.05099229
-0.26014148
0.21222823
-0.60082266
0.52163494
-0.59911372
-0.29687110
0.24840707
-0.41076514
0.01345246
-0.34481573
0.11307293
0.13146336
0.19781684
-0.22436894
-0.06887311
0.47347846
0.42135595
0.22296351
-0.08968994
0.11403148
-0.25408999
-0.23163502
0.26035746
-0.00199015
0.36183388
-0.18043118
0.58390175
0.40999139
0.52619416
0.20740535
0.37585819
-0.43126339
0.12899183
0.60572371
0.34821960
0.44457106
0.28750903
0.56415908
0.38004397
0.10733967
-0.09291575
0.37721304
-0.28521161
-0.22620853
-0.16089944
-0.34180630
0.31421597
0.36860981
0.25160347
0.34305124
0.26311402
-0.22581076
0.47545867
0.11623838
0.28146609
-0.20115507
-0.36003976
-0.34896455
-0.19730409
-0.38926427
-0.42761264
0.27469031
0.09891721
-0.44079856
0.14537373
-0.29616110
0.79497254
-0.53238321
0.04132424
0.59843180
0.24642127
-0.05463445
-0.26701747
0.21223719
0.16638943
-0.35485070
-0.24613568
-0.24549906
0.08941398
-1.17863148
0.28607456
0.23404989
-1.28864394
-0.28775141
-0.53501009
0.50320087
0.11089249
-0.71644991
-1.35430454
0.55383130
0.19347581
0.42028772
-0.61393096
0.66648448
0.65886714
-0.43581565
-0.08541932
-0.84751584
0.46828364
-0.93542842
0.40925370
0.18121904
0.04933031
1.09672145
1.40129655
0.34398623
-0.67393623
-0.73744672
0.45667954
-0.62262439
0.55085823
1.11311726
0.58507351
-0.53329956
-0.79960951
0.24602694
-0.83102731
0.73634789
-0.29935894
-1.13687659
0.93153916
0.88370773
-1.57179944
-0.47120974
-0.19735774
0.56639526
-0.83850615
-1.45642075
0.26155912
0.84348373
-0.95854921
-0.31022385
0.97680265
0.35396407
-0.49223296
0.08969290
0.84311133
0.57779233
-0.52190764
-0.05839097
0.43802129
-0.38629925
-0.16368198
-0.60063632
0.26315349
-1.47290606
-1.01118012
-1.41732233
-0.20455527
0.85292181
0.24764565
-1.26230136
-0.76361316
-0.70453493
0.05728818
-1.45255337
1.02161071
-0.46488700
-0.77905081
0.15481895
-1.32456995
0.69094616
0.26277466
-0.02645629
0.60983558
0.29587382
-0.38509153
0.42856067
-0.03351113
0.22425280
-0.18467201
0.77681624
0.65861926
-0.01603971
-1.48901323
-0.26128747
0.34315115
-0.78193290
0.02740911
-0.33408085
0.19592502
0.18286823
-1.09351703
-0.89379398
0.43092946
-0.65591598
0.55094715
0.14781749
-0.44181706
0.12381849
0.14615036
-0.69489761
-0.61962516
-0.95607671
-1.06838696
0.36666417
-1.63976775
-0.10564092
-1.31098011
-0.50306082
-0.64553308
-0.17578183
0.81914082
-1.37762836
0.58007181
-0.11523353
0.31513857
0.80963463
0.91561651
1.47938485
0.48587470
0.40764198
-0.77031394
0.81882212
-0.46613218
0.26331564
-0.87014505
1.01592875
-0.16388518
-0.39050467
0.49194325
-0.41603659
-1.01668951
-0.86080672
-0.00584809
-0.50983101
-0.34625380
-0.72000605
-1.41634765
-0.67106652
-0.62409364
0.54252969
-0.38643226
1.55834588
-0.72237663
-0.22874081
0.91503782
0.79151552
-0.71314507
-1.23779116
0.35875553
-0.80802007
0.07711225
-1.24456715
-0.17803772
0.12197812
0.35117092
0.98255314
-0.29794574
0.57064497
-0.54070597
-0.79022162
0.80330067
0.09324555
0.52375829
-0.52012259
-1.25128096
0.65000121
0.05413453
0.28266109
-0.80941064
-0.51341709
-0.22719292
-0.29784182
-0.00618194
-0.03478151
0.26410577
1.27141943
-0.38107581
-0.52931393
-0.28168358
1.06970910
-0.35288992
0.67197178
-0.16434420
0.45315719
-1.54144178
