0.06168009
-0.10273298
0.61753682
0.13043930
-0.33142058
0.32112748
0.22291635
-0.44710791
-0.40601942
-0.43572925
0.40985394
-0.37504141
0.38544733
0.32389068
-0.53962992
-0.21259634
0.26070812
0.40101933
-0.32644452
0.13640701
0.21615041
0.06533145
-0.12900011
-0.22478067
-0.60192948
0.44930645
-0.19744239
0.23082292
0.37539642
0.15234675
-0.09336643
0.39189514
0.34818173
-0.25030059
0.11864672
-0.30321128
-0.23598329
-0.11356289
0.19019607
0.33428292
-0.10210191
0.30569329
-0.05576874
-0.45791472
-0.42708924
0.34630216
-0.05897773
0.20912969
0.05689890
-0.11781817
-0.25673872
0.35542868
0.35613805
-0.30358100
-0.22209908
-0.15551388
-0.41215141
-0.44884169
0.23014276
0.29913494
0.38332270
-0.07707301
0.13659384
-0.13439342
-0.29329945
-0.25610660
0.07536363
0.09768601
0.36813818
-0.17780595
0.16768737
-0.35621127
-0.03824625
0.15033289
-0.22387809
-0.12203952
0.16244363
-0.02580796
-0.37395180
-0.32133577
0.05053743
0.26005039
0.14001933
-0.21672744
-0.46157785
0.08122643
0.51320365
-0.33533103
-0.24921063
0.23732864
0.07183286
0.15051033
0.21352969
-0.22565070
-0.19915299
0.22023074
0.10798443
0.32512325
0.19369042
0.44014347
-0.46486823
0.04000415
-0.19520301
0.04280339
-0.51616587
0.22589048
0.47226668
-0.07325030
0.24867721
0.40265821
0.37236283
0.29672811
-0.08958105
0.44849819
-0.16747002
-0.15592195
-0.23310589
0.40862611
0.48164227
-0.42413021
0.08165237
-0.12060519
-0.21387564
-0.11340795
0.27980332
-0.31341392
0.06040794
-0.26557506
-0.10510918
-0.37758559
-0.55451817
0.36809730
-0.20798024
-0.26955582
0.12784435
0.40354296
0.10183961
-0.02159867
0.25225989
-0.40075821
-0.40301222
-0.28218688
0.26258293
0.41299511
-0.93609110
0.64803512
0.10557204
-0.51800790
0.23155365
0.34461974
-0.00233033
-0.22430847
0.25597798
-0.16540611
0.31881906
0.23602194
0.03901021
-0.20831065
-0.27142694
-0.03544419
0.68366245
-0.58912215
-0.10332856
-0.27868102
0.33164726
-0.23089011
-0.14051312
-0.64245979
-0.24617289
0.20494901
0.20826789
-0.12824183
0.17074677
-0.12797616
0.08991979
-0.39899629
0.14054592
-0.37414323
-0.36075794
-0.47464594
0.40770165
0.35072581
0.30992106
-0.15465609
0.03994549
-0.29558015
0.48597854
-0.01606696
-0.13357228
-0.32166535
-0.39119990
-0.20784983
0.49291255
-0.48265416
-0.26294788
0.16579068
0.38664066
0.04311468
-0.43027217
-0.15062247
-0.19933414
0.43113078
-0.10621366
-0.05054560
-0.35848180
0.31533803
-0.25768263
0.15643740
-0.33644836
0.75454208
-0.69020585
0.09462078
-0.17669978
0.23779630
0.42762509
0.18300886
0.25966097
-0.09817487
0.29303580
0.31025759
-0.15957330
0.00915183
0.29410292
0.44297020
-0.39598362
-0.36648046
-0.32435500
-0.35248691
-0.05650236
-0.19050742
-0.09461558
0.23559934
0.37173387
-0.35854116
-0.01667829
0.22033694
0.47261171
0.06579682
-0.56827977
0.38155633
-0.35989945
-0.10068476
-0.17698036
0.04736960
0.45993206
0.09689599
0.26892231
-0.34531896
-0.24926155
-0.27392909
-0.43518242
-0.23363745
-0.39740304
0.27615967
-0.23058556
0.12746046
-0.07240984
0.25247893
-0.48126390
0.20229357
-0.35095922
0.15754879
0.31563785
0.20958050
0.31742559
0.30099370
-0.29716467
-0.24316672
-0.40695128
-0.51904675
0.35514447
-0.37103400
0.46873324
-0.35882482
-0.17093373
-0.10216128
-0.05559098
0.04823605
-0.14713258
-0.04450397
-0.08693016
-0.22976769
-0.12405244
0.02419522
-0.49679792
-0.37536114
0.05684951
-0.47086019
0.59631355
0.32817684
0.21627895
-0.33440466
0.30046628
0.11936630
0.15781179
0.11970090
0.42201601
0.53445203
-0.06243385
0.47511013
-0.65002328
-0.11684808
-0.48487021
-0.18301057
-0.23674343
0.04969548
0.07853241
-0.36525194
-0.33583026
0.06356210
0.07942650
-0.19844201
-0.23498723
-0.18342552
-0.07810221
-0.13191145
-0.32944143
0.26815890
-0.09261796
-0.53038310
0.18765492
-0.14740192
-0.45699996
-0.41032232
0.30005469
0.04684904
0.50418747
0.51156716
0.41408631
-0.30771281
0.27147591
0.07151181
-0.17416817
0.17237173
0.46136575
0.44433015
0.41693827
0.07261965
0.49773992
0.40517900
0.29396097
-0.30010610
0.51096527
0.38304857
0.16699558
0.14230268
-0.11449465
-0.04408172
-0.47803864
-0.33353433
0.46852650
1.01740842
-0.38900027
1.53290913
0.53613742
0.09012906
-0.31301420
-0.33856118
-0.66643645
-0.36619370
0.35836952
-0.05495380
-0.48542040
-0.24740114
0.37214014
-0.19420060
0.73724583
-0.44304252
0.28648075
-0.12648675
0.11645960
-0.40533524
0.51152191
-0.19281371
-0.31809355
0.16690980
0.22011350
-0.30551934
-0.41544570
0.55144839
0.48241946
0.09260532
-0.03456265
0.07206116
-0.27556724
-0.00474712
-0.12004208
0.13297063
0.05529859
-0.02551266
-0.15514764
0.39955974
-0.40832702
0.21990276
0.35843327
0.11937166
-0.31181959
-0.19352074
0.47766948
-0.04473338
-0.35496602
-0.45374545
-0.42113977
0.20358098
-0.06094651
0.05869216
0.34051699
0.41740063
0.27938024
-0.21930771
0.02738835
-0.42674592
0.50031059
-0.04829521
-0.37517660
0.43030344
-0.25187673
-0.55154914
0.22029812
-0.18954623
0.04939414
0.43098699
-0.20115630
0.31003222
0.33174323
0.35476712
0.29496310
-0.19262820
0.20867177
-0.22932403
-0.16764775
-0.27759497
-0.34058190
0.38185638
-0.19383427
0.28343338
0.16882318
0.14995249
-0.10959003
0.45050125
-0.27183500
0.35309252
-0.30805469
0.12824637
0.12717979
-0.40168649
0.48691986
-0.50895601
-0.48851340
-0.30075243
0.11849019
0.06863481
0.25091926
-0.13732507
-0.38470097
0.22152009
0.11813400
0.23303857
-0.49719340
-0.34397237
-0.21513321
0.35824726
-0.49936137
-0.02733958
-0.23434206
0.31060004
0.26254618
-0.02998642
0.20952390
-0.09905078
-0.38042783
0.40206130
0.21159354
-0.05898843
0.26838391
-0.09032105
-0.20815301
0.42052054
0.35707206
-0.09836379
0.20350933
-0.04574817
-0.42420751
0.45726825
0.30983790
0.26643683
-0.02600836
-0.06826679
-0.31461870
-0.06202214
-0.47221029
0.25330849
0.16263155
0.06534124
0.36438969
0.45973008
-0.47558762
-0.11886302
-0.27830266
0.14562091
0.44579523
0.31273975
-0.25422949
-0.33762744
-0.43163169
0.41153226
0.22301628
0.19374706
0.19108786
0.06864924
0.21429262
0.06439232
-0.02921552
-0.14109458
-0.42748307
-0.01340754
-0.22910073
0.35546873
-0.32037817
-0.33650337
-0.14535953
0.15188179
0.56464305
-0.06850189
0.36686984
0.31124794
0.15369747
-0.16652337
-0.24821555
0.08678054
0.32848279
0.42840819
0.31947341
-0.41955793
0.54510228
-0.07052008
-0.66666001
0.57352625
0.28560716
0.34663678
0.33882757
-0.01311882
-0.23066619
0.21058314
0.19967594
-0.22846039
0.30208029
0.06900734
-0.26480517
0.04558310
0.16088679
-0.11865141
-0.43063748
-0.35845887
-0.30913278
-0.18342045
0.50297050
-0.20499311
-0.35241304
0.05267765
0.70670287
-1.01369655
-0.55489789
0.52394494
-0.01686226
0.17528004
0.05866076
-0.22406283
0.44048449
0.02923067
0.01780801
0.17519932
-0.24091704
0.49354220
-0.39812005
0.31491596
0.15684903
0.45328503
-0.41878503
0.18581691
0.02717111
0.20472841
0.17332721
-0.01535573
0.04918466
-0.46119778
0.17664731
-0.47324311
0.10356755
-0.32938350
0.62209909
0.22995694
0.49810114
0.38729751
-0.25231457
-0.11443002
0.60787312
0.11051452
-0.15829390
0.25905436
-0.30561249
-0.39351500
-0.43988464
-0.24192192
0.05112887
0.35124054
-0.13560118
0.16952422
-0.46979296
0.36892283
-0.30853785
0.04470811
-0.02230262
-0.29336246
-0.18749630
0.31289349
0.55563726
-0.17814534
0.16094942
-0.34794600
0.15516686
-0.08111798
0.11441848
0.48874610
0.00425000
-0.28188611
0.47973884
0.40091062
-0.49616843
-0.51868462
0.51029861
0.33188665
-0.19468730
0.50748763
-0.38082488
0.03394394
0.40013806
-0.17546129
-0.02516420
-0.32962536
0.22476322
-0.01046964
0.25897542
0.32212660
-0.12845864
-0.22318374
-0.21006549
0.02308762
0.43717077
0.01552555
0.33847399
-0.85627297
0.31811782
0.00945307
-0.32683177
-0.30917012
0.35881746
0.35397393
-0.17599084
0.16502283
-0.10315838
0.13464441
0.25758877
-0.00583438
-0.29893488
0.35442685
0.31719150
0.22965585
0.04993396
0.08742885
0.12373377
-0.53569111
0.22387125
0.24203391
0.24278552
-0.13315121
0.22302841
0.17189172
0.13215886
-0.41353071
0.35494853
-0.30017315
0.17501283
-0.02057294
-0.12172646
0.43817762
0.35790625
0.44454601
0.49697096
-0.42859879
0.30556426
0.38421844
0.23397744
-0.24575710
0.11418060
-0.26745371
0.35921362
0.19151797
-0.50958211
-0.10683246
0.14120645
0.42630687
0.50073954
0.42729992
0.40300524
-0.15495152
0.12388472
-0.22848925
-0.43519204
0.04574821
0.02401689
-0.09567078
0.20318042
-0.35353754
0.27463125
-0.21107881
-0.05390685
0.08778800
-0.37799740
-0.05574897
-0.28490965
-0.14710191
0.08407317
-0.21261000
-0.11327440
-0.27982834
0.42055200
0.30847478
0.38119655
-0.21299748
0.43198690
0.22542620
-0.33242892
-0.44101074
-0.02969376
-0.14818998
0.22449726
0.29173040
-0.00368742
-0.48809471
-0.00648149
0.30313193
0.23611197
0.13795658
-0.24626514
0.30957990
0.46837452
-0.09060042
0.12486428
0.54460467
-0.21390813
0.08192395
0.06533916
-0.35394997
-0.34115077
-0.15510229
0.49920103
0.10190561
-0.09349153
0.30805458
0.48200938
0.37559409
0.10904839
-0.45930489
0.28167940
0.41369372
-0.06997785
0.03651269
0.09524904
0.57239963
-0.28741584
0.01118632
0.09202124
0.37405816
0.35791855
0.44003025
0.27740157
0.05097053
-0.14779891
-0.05690342
-0.04232657
0.52731099
0.17640879
0.09053467
0.33127526
0.41354151
-0.32528105
0.41069523
-0.33526579
-0.30038019
-0.21783886
-0.09411155
0.36131148
-0.36370233
0.21916180
-0.69139670
-0.44316779
-0.46670081
0.47725401
-0.10723973
-0.13558664
0.29652557
-0.02050134
0.27123226
0.57854030
0.16461658
-0.23780205
-0.28425804
-0.14203914
0.09936625
0.16041723
0.18373403
-0.41608743
-0.20179463
0.49699382
0.20787795
-0.22432821
-0.15036819
-0.10697314
0.19365785
-0.48139650
0.27329825
0.45541845
0.40108622
-0.06524560
0.52460569
0.00404870
-0.45739353
0.27766098
-0.32911373
-0.24195818
0.12987418
0.62852150
-0.28062936
0.72430009
0.44726094
-0.25077825
-0.40691439
0.29477779
-0.32598784
-0.28092091
-0.37519568
0.36826884
-0.34192927
-0.24728989
0.24346271
-0.46345927
0.25876382
-0.28571409
0.27047785
-0.37667324
0.36680541
0.36347652
0.05405235
0.12222725
0.16231102
0.28115577
-0.00798567
0.47102923
0.09572350
0.02634001
-0.13282026
-0.44032179
0.60316526
0.25723074
0.31391570
0.53578869
0.21112419
0.03940737
-0.28699031
-0.39892159
0.14659233
-0.22555293
0.36796294
-0.04768952
-0.35728218
0.01392766
-0.44423517
0.34423576
-0.30816882
-0.40584364
-0.36325883
-0.48363268
-0.49392945
0.21959748
0.11266752
-0.12618033
0.32000279
0.26996305
-0.09880563
-0.09485226
-0.35619737
0.34085159
-0.46476624
0.38589084
-0.04936926
-0.49056885
0.30722435
-0.69242796
-0.29576302
-0.49867379
-0.64829308
0.32023266
-0.16294496
-0.23778579
0.04911277
-0.35881049
-0.54170216
-0.24717984
-0.32863749
-0.50168592
0.31031246
0.01971065
0.28039900
-0.35152675
-0.34505739
0.39093926
0.31416811
0.07280840
-0.14639302
0.19710973
0.01818872
0.21710565
-0.50829141
0.31869609
-0.57098878
-0.57348690
-0.06373718
0.37555481
0.41018895
0.62905759
-0.05519321
0.09830915
0.39812797
0.12529515
0.13544468
0.12047597
-0.29907694
-0.04501212
-0.11499756
0.18998322
-0.43291845
-0.39687736
0.28096624
-0.20406513
0.16611913
-0.28962187
0.26139824
-0.19762223
-0.03991003
-0.15466156
0.51610872
-0.26344075
-0.38599358
0.20251545
-0.21505436
-0.41718010
-0.05768706
-0.27218655
-0.01906787
0.51150096
0.36331854
-0.37293468
0.12288213
-1.02773371
-0.32892679
-0.10169144
0.08992736
0.11511326
0.65262182
0.56864939
-0.13833928
0.18072450
0.23710752
0.07635666
0.50722539
-0.09067114
-0.33633371
0.32576494
0.23405922
-0.13123657
0.32018616
0.08931841
-0.36605978
0.14373419
-0.10489800
0.42082896
-0.31841395
-0.37566492
0.30746240
0.39401803
0.15741976
0.11391598
0.13011952
-0.23678402
0.14462572
0.25101801
-0.39125641
0.41754315
0.38651457
-0.12377489
-0.19586908
-0.03511836
-0.26804832
-0.30072905
-0.05122355
0.29893283
-0.15074852
0.32068939
-0.17213386
-0.27280169
-0.07385999
-0.29828417
0.02600555
-0.35041348
0.06113280
-0.28671554
0.21772256
0.30713842
0.49551231
-0.26049087
0.12597101
0.11004900
-0.53373699
-0.22676314
-0.14508180
0.12549721
0.06811012
-0.15370744
-0.06512431
-0.18163867
0.37218655
-0.32486081
0.34967684
-0.10696309
0.21338720
0.47846822
-0.46266285
-0.55868580
-0.11300699
0.27533653
0.10718854
-0.11103534
0.40775154
0.05869041
-0.07223694
-0.15761848
-0.04653372
-0.44700014
-0.14773885
0.39355166
-0.18315846
-0.15244812
0.24259607
-0.64586082
-0.18579127
0.12730804
0.00616280
-0.01466544
0.13099216
0.35322100
0.21539114
-0.18825009
-0.33507957
0.39245075
-0.30759813
-0.26963983
0.09952771
-0.01939496
-0.39070292
0.18350477
0.08682658
0.27153849
-0.34519541
-0.30384219
-0.40554250
-0.46710307
-0.03210984
-0.17441452
0.18901262
-0.74781889
0.36801556
0.09290478
0.10029333
-0.30994890
-0.13959798
0.44192246
0.46380170
0.29681486
-0.40351430
-0.28814755
-0.01604826
-0.27630451
-0.24322529
-0.07361879
-0.33020697
0.07237904
0.23949614
0.29617743
-0.47663703
0.23079319
0.31203523
0.26413975
0.35409619
-0.17223374
-0.01620102
-0.25171278
0.27764215
0.14424145
0.02794658
0.16693407
0.47632257
0.18137195
0.04138540
0.35752211
0.09582570
-0.21307729
0.08094115
-0.38206847
-0.33957016
0.41669181
0.04034549
-0.20884501
-0.46368821
0.14512856
-0.04287121
-0.09612507
-0.28045267
-0.15278771
-0.21756175
0.35854898
-0.27063529
-0.09423525
-0.23414551
-0.25923345
0.05346490
-0.43589382
0.21644683
-0.11205154
-0.19590983
-0.30532380
0.10337760
0.24206987
0.30680614
-0.67329967
0.72929385
-0.67153688
0.22996215
0.22793348
-0.06265173
0.25713394
-0.35053356
-0.38319805
-0.25115716
-0.37120922
-0.41152497
0.09538101
0.51929897
0.29865798
-0.22268525
-0.39600070
-0.32255131
0.01281104
-0.28375612
-0.25661927
-0.20532175
-0.38732834
0.25546127
-0.31938542
-0.04070802
-0.31936156
-0.44510570
-0.36464129
0.13936635
0.56671311
-0.12057439
-0.44325722
0.26953711
-0.27743844
-0.05611080
0.39184540
0.21743070
-0.17178095
0.08126180
-0.46558788
-0.47819180
-0.42825847
0.06091378
-0.17093934
-0.26449574
0.47318472
0.42041068
-0.44725358
-0.05092049
-0.14902674
0.20951614
0.31615846
-0.28157131
-0.14615014
-0.00551685
-0.25898090
0.45738067
-0.38428377
-0.22546364
-0.17364308
0.19343401
-0.15473166
0.18084304
0.36106980
0.49041084
-0.62030330
0.87493382
-0.02560086
-0.54714363
-0.60395917
-0.20981588
-0.37724829
0.14758989
-0.50076822
0.25981597
0.37950575
0.31295143
0.43232281
0.47425096
-0.21234100
-0.02625483
-0.34994895
-0.26547934
-0.40412655
-0.12256678
-0.14503422
0.34612277
0.24493841
0.32296891
-0.11587201
-0.01288876
0.10403645
0.45930466
-0.47951690
-0.17531643
0.36433874
0.04600199
-0.38450540
0.18883491
-0.12410796
-0.02434202
-0.18962295
0.12776082
-0.03783176
-0.16638279
0.48682532
0.46574007
-0.05220722
-0.43153476
0.04241072
0.02762450
-0.18022232
-0.23593114
-0.22457475
-0.57082177
-0.22839878
0.42119061
-0.99714004
1.21217653
0.55982724
-0.45003805
-0.13589317
-0.20930837
0.01341217
-0.20124598
-0.69559757
0.11364595
0.35915769
-0.27676934
0.06311671
-0.65993557
-0.14241126
-0.46199247
0.37798786
0.36451899
-0.16795746
0.28338696
-0.06332215
0.47903104
0.07913286
-0.29196580
-0.33764880
-0.24333622
0.58312522
-0.46042073
0.01333122
-0.15540313
-0.01544949
0.18659078
0.42754623
-0.16008199
-0.21003812
-0.10016429
-0.00712314
0.05377673
-0.53916131
0.31864502
-0.39081459
-0.17620808
0.24930639
0.11488491
-0.45578597
0.48443062
0.24722785
-0.31699736
-0.15058055
0.38447765
-0.12759284
-0.44188224
-0.13366614
0.39083330
-0.43153476
-0.39470381
-0.32063420
0.20966820
0.05070637
-0.02437743
0.42148920
0.30554347
-0.23195074
-0.16851336
-0.08292283
-0.41805664
-0.02616200
-0.39613123
0.23314960
0.46977372
0.44764821
0.20942902
0.13751472
-0.37454960
-0.47049885
0.43025456
-0.00397964
0.63569217
-0.67675914
0.05609632
0.53665831
-0.39000329
-0.10399998
-0.50056293
-0.24986057
-0.62023238
-0.06274491
0.28081905
0.28160688
-0.07213983
-0.33484593
-0.00935183
-0.32604756
-0.29494500
-0.45265536
-0.45572613
0.37676121
-0.29566852
-0.25853510
-0.16309715
0.39956223
0.17954414
-0.11049927
-0.55781999
0.34193176
-0.77054824
-0.22803897
0.41430426
-0.21022535
0.26558662
0.46988942
-0.01372646
-0.49133275
0.32153444
0.06205729
0.36353567
-0.27804809
0.32483756
0.42746004
0.44663339
-0.18590035
-0.16182236
0.35763478
0.17785721
0.43298107
0.45103846
0.18970232
-0.24414546
0.10303984
-0.29092799
0.05538351
0.06694953
-0.34496426
-0.01547520
-0.07990339
0.11337204
-0.44283687
-0.01201159
-0.32453596
-0.07057621
-0.12651449
0.17155514
0.13756672
0.27865569
0.40205049
0.30530823
-0.18518376
-0.42917261
-0.20657915
0.12307706
-0.25107628
-0.24318275
0.30553889
-0.20357097
0.32153993
-0.20083644
0.51592171
-0.41487240
0.46586693
-0.27744479
0.34296285
0.21983990
0.30703742
-0.07066761
-0.27558913
0.27148161
0.31856052
0.51123480
0.00853744
-0.35063618
0.00460630
0.28534901
0.21485076
0.15984337
0.27294009
-0.50481291
0.06241811
-0.18026628
-0.31961468
0.20644532
-0.09948172
-0.54005544
0.42513508
-0.01166691
-0.38558380
0.09658373
-0.06282403
0.29134800
-0.12017076
-0.32226185
-0.50834687
-0.34696500
0.07875252
0.25569586
0.41605247
0.24204837
0.38784694
0.42438588
0.51350687
0.18459355
-0.31797830
0.48581837
0.14927162
0.42934600
-0.34586141
0.45998564
0.26904172
0.17809643
-0.42455209
-0.26009592
0.12362652
0.55913224
0.01929175
0.45866276
-0.41817519
-0.21745431
-0.18017127
0.34848908
-0.53207751
0.17460522
0.44769211
-0.22792837
0.45018878
0.25536405
0.25742012
0.09968907
-0.01849793
-0.45420178
0.06789116
-0.43351991
0.10111900
0.46634207
0.05486054
-0.49965939
0.01886025
-0.29992433
0.19989666
0.34728822
0.47983928
0.35891587
0.41613120
-0.39114712
0.30743979
-0.11182628
0.36158357
0.21006672
0.49009007
0.37953401
0.34052290
0.49973990
0.10345646
-0.22148766
0.41685201
-0.22604348
-0.29098087
-0.14572184
-0.05918593
0.33091896
-0.45152589
-0.78491559
-0.14945484
-1.14402870
-0.21404034
-0.26137679
0.61930751
-0.35014333
0.46405180
0.61344099
0.44475913
0.48326517
-0.33853274
-0.24243862
-0.47604845
0.01882140
0.39211759
-0.37092779
0.12451404
0.18591833
-0.10445643
0.14584876
0.38358131
-0.46344432
0.41928011
-0.26423171
-0.00537750
0.14095464
-0.74117675
0.25839291
0.09469264
-0.61874536
-0.22266384
0.17959474
0.28901064
-0.02308140
-0.59756258
0.15903300
-0.03085977
0.25349826
-0.42861887
-0.17779966
-0.36859974
-0.10999782
0.34791714
-0.36574011
0.25620858
0.04670127
-0.27228042
-0.09786022
0.18543810
0.40449903
0.35858758
0.13189933
0.12939651
0.10854582
0.17224461
-0.61053226
0.42847809
0.31541531
0.15003349
0.17663499
-0.37368337
0.38552611
-0.00766801
0.25973054
-0.54073379
0.80892615
-0.83806550
0.25245975
0.65570747
-0.14557085
0.46342836
0.17419046
-0.00751793
-0.11246962
0.15710737
-0.39925712
0.12650595
-0.07093199
-0.37361130
-0.45767676
0.24244839
-0.36467670
-0.46429147
0.41710014
-0.43442869
0.49382028
-0.10193927
-0.19838612
0.40396877
-0.00348068
-0.11270774
-0.58481113
0.37854496
0.06668367
-0.71095966
-0.56338578
-0.45133248
-0.27006161
-0.26273499
-0.29060255
0.12876912
0.11338312
-0.45877431
-0.27418306
0.06785094
-0.17246286
-0.43233249
0.50365650
-0.40544260
0.23600077
-0.15513391
-0.23986428
0.49995034
-0.46033159
-0.11457246
-0.25964816
-0.55092594
0.15377825
-0.68162152
-0.09863183
0.18355578
-0.31119130
-0.33471783
0.67869283
-0.19747813
-0.42417885
0.25813460
-0.11098999
-0.18039486
0.38868943
0.34437717
-0.24809322
-0.00454490
0.10792014
-0.17600718
-0.11344082
-0.15021638
-0.44135692
0.42400141
-0.40956828
0.33420435
-0.27415670
0.40311212
-0.61141411
-0.19289554
0.55628005
-0.62707441
-0.00731624
-0.07648552
-0.14529501
-0.27940077
-0.01000846
-0.51687084
0.23514706
-0.19896293
0.06166648
-0.34389299
-0.07818597
0.26232208
0.03656803
-0.25095451
-0.09585725
0.01168984
-0.23880355
-0.39295992
-0.28081565
0.39121498
0.24523117
0.36850400
0.49180974
-0.31436112
-0.39948246
-0.34023304
-0.45640812
-0.40457273
0.39162353
-0.47218450
-0.35826602
0.16688086
-0.43073442
-0.33100294
-0.18180386
0.44734167
0.12569002
0.31055388
-0.24349992
-0.18325874
-0.15065152
0.42757064
-0.51252008
-0.02935453
-0.03486191
-0.04207348
-0.13467360
-0.45521984
0.69686877
-0.84774196
-0.13084481
0.38620618
0.10401170
-0.32178451
-0.36349512
-0.44840613
0.32302547
-0.12681025
-0.05986613
0.12015609
0.17901133
-0.36220886
0.09217856
0.17117799
0.38787209
-0.27723377
0.40221409
-0.56792910
-0.57948109
-0.02643802
-0.30769775
-0.42859593
-0.19440226
0.36873355
0.36439277
0.28041467
-0.13659919
0.01113753
-0.40501631
-0.33216878
0.19470978
-0.29671997
-0.30489898
0.00650493
-0.25576180
0.40702157
-0.29081543
0.26173694
0.06966588
-0.00018623
-0.13814283
0.05325499
0.08057022
0.22029939
0.15186998
-0.31997456
-0.03942460
-0.22936618
-0.36195424
-0.25086034
-0.40435564
0.00972563
0.01241161
0.52300091
0.38997947
-0.42147565
0.15944038
-0.19209354
0.50545255
-0.19766238
0.25668851
-0.50180410
-0.35526670
0.39329119
0.23169798
-0.25974681
-0.29886126
0.63158825
-0.30978217
0.23110042
0.00356368
0.18869531
0.04579873
-0.06290057
-0.49456954
-0.03939638
-0.43075740
0.55324082
0.01960152
0.04870589
0.14123719
-0.19505474
0.14814757
0.12841025
0.25388096
-0.45476872
-0.44192275
0.04436369
0.06206190
-0.68129813
0.32223135
-0.00863978
-0.53453170
-0.21943926
-0.54376830
0.00985860
-0.07148112
-0.49292227
-0.01101012
-0.20205043
0.03499162
-0.10713485
0.62253367
-0.23244805
-0.19282608
-0.03000323
-0.15317295
-0.19197661
-0.09759546
-0.30368882
-0.43239723
-0.19055228
-0.50224021
0.05062377
-0.04826691
-0.35391397
-0.08795761
0.07424521
-0.13296340
-0.22625564
0.11338386
0.25933321
0.35407069
0.10624681
-0.23462811
0.05200987
0.40413040
0.06476654
-0.25606059
0.06665691
-0.33860944
0.35903959
-0.00461745
0.07700062
0.51022386
0.55070241
0.44845369
0.19584979
0.20605101
-0.28631201
-0.02322779
-0.25995911
-0.36067206
-0.24171373
-0.08570505
-0.19710346
0.04135681
-0.19002739
-0.09449736
-0.03047906
0.28376360
-0.42352461
0.29861663
-0.49002368
-0.31648350
-0.23323576
-0.27315885
-0.22403305
-0.09010082
0.48425140
-0.42969019
0.29889713
-0.49749128
0.29669474
0.40725111
-0.10650029
-0.19906381
-0.01483366
-0.00669251
0.48583192
-0.11279139
0.20780782
-0.42748731
-0.12829486
0.45391097
0.40856624
0.07830382
-0.21507294
-0.09423165
-0.68440658
0.61603024
-1.12349047
-0.90770112
0.66133118
0.71404669
0.13590650
0.28317796
0.77184167
-0.09725354
-0.24519595
0.01504645
-0.25678277
-0.07221998
0.35237258
-0.31161080
-0.53751591
0.35886504
0.27279418
0.35949866
0.25633757
0.63072911
-0.20868185
0.53290548
0.21152301
0.52717769
-0.83014288
0.46236858
-0.87824104
-0.38625590
0.43639901
0.11961495
0.02251874
0.23629947
0.34885423
0.44015686
-0.24993580
-0.17515155
0.45424951
-0.38906374
0.37200740
0.29975541
-0.08934737
-0.33433721
0.44654946
-0.41350043
0.37085789
-0.02288086
-0.33927204
0.02889788
0.19718744
-0.15485765
0.35571410
0.07504015
0.37428929
0.26506360
-0.44163769
0.08076323
0.05879889
0.35741310
-0.20744613
0.17539952
-0.23925111
0.43618292
0.05529707
0.01908890
0.17030676
0.12032358
0.06278692
-0.50098036
0.54225558
0.41950879
-0.12355076
-0.07542820
0.00654615
-0.31984469
-0.07196787
-0.37609681
-0.26445187
-0.34756300
-0.13770126
0.20581963
0.04834765
0.31469729
-0.39594322
-0.39564875
-0.40068662
-0.28375143
-0.36634125
0.45898002
-0.24218065
-0.21452667
0.27533733
-0.27208265
-0.20146279
-0.36382973
0.05899989
0.04075520
-0.14185178
0.19919895
0.21820993
-0.10255004
0.24390545
0.00767056
0.07487259
-0.22729387
0.33899402
0.47547674
-0.52837802
-0.60145794
-0.46015996
-0.65645442
-0.10442260
-0.00698550
-0.27721814
-0.49376213
-0.03886444
-0.02813167
-0.10000754
0.43971983
0.14132329
-0.30112302
0.03400834
0.31613855
-0.01879987
0.36126168
-0.29204299
-0.28087800
-0.51210474
-0.04609952
0.38532859
-0.47442205
-0.37397292
-0.29443441
0.61958838
0.08641805
-0.41059697
-0.32019084
-0.53407250
0.37544098
-0.35211534
-0.46703929
0.10769104
-0.35097220
0.38975988
0.11587786
-0.37387898
-0.23103943
0.10122849
0.23568725
0.00528502
-0.34317578
-0.50279007
-0.42447433
-0.00073494
-0.02242144
-0.48979754
0.56013676
-0.50165590
-0.61610940
0.45893313
-0.22188768
-0.09852549
-0.24413440
0.27319876
0.31405299
-0.34329365
-0.17216951
-0.15063861
0.19350922
-0.11995306
-0.19592233
-0.40753103
0.26777086
-0.43165569
0.30538896
-0.17914323
-0.52875495
-0.16357509
-0.18891103
-0.21005039
0.03139198
-0.31769431
-0.04547843
-0.02201018
-0.38814015
0.04469373
0.13418351
0.36985518
-0.41291970
-0.50346035
0.00897270
-0.44370141
-0.52383497
-0.07335809
-0.00753590
0.17150228
0.35837112
0.12137999
0.32740526
-0.28116949
0.44297920
-0.05146165
-0.39727171
-0.14755484
-0.42729842
-0.28100769
-0.15497503
0.36849383
-0.66383720
0.02142085
-0.15573223
-0.54264349
-0.10102093
-0.32385001
0.01022794
0.48453173
0.00081248
0.33353783
0.54082954
-0.08250292
-0.42610514
-0.21390418
0.25338208
0.11930104
0.29335932
0.36309134
-0.08786272
0.00086901
-0.32357676
-0.32568734
-0.07087388
-0.33401942
-0.41910905
0.30055885
-0.62424241
0.32997313
-0.19980003
0.02615523
0.41744152
0.01720607
-0.35365909
0.39486831
0.31748559
-0.35772914
0.29737612
-0.18149009
-0.45019050
-0.24329299
0.19125481
0.29258017
0.12528020
0.23862887
0.48867095
-0.27520756
-0.52524572
-0.13763108
-0.17424674
-0.03303443
0.45248334
-0.43231714
-0.67574906
-0.33001738
0.40313129
-0.57791249
-0.01449734
0.18175842
-0.26557967
-0.47180083
-0.29610403
-0.29850079
-0.17425759
0.13816840
-0.27085603
0.39838112
-0.00590155
-0.25153454
-0.14845886
-0.05349709
-0.26405490
0.43634392
-0.18463963
0.05808694
-0.36761356
0.55453438
0.25062991
0.05470389
-0.25480234
-0.14768420
0.26484646
0.30177788
-0.38859610
-0.29367660
0.34685503
0.07776805
0.41710616
0.19020069
-0.03648323
-0.34360880
0.04360541
-0.50248737
0.29747940
-0.32450446
-0.14244506
0.25397275
-0.28555411
0.28559542
0.04331397
-0.36877523
-0.03678832
0.24833679
-0.16224222
0.31804891
0.38228374
0.31917431
-0.36434634
-0.12365474
-0.13502573
-0.50020852
0.33632847
0.42924492
0.40704365
0.18704322
-0.31366259
0.34309227
-0.05928908
0.27630831
0.17884070
-0.21713554
-0.53281253
0.54534821
0.38897476
0.41010623
-0.30929462
-0.20046154
0.44565032
-0.36082540
0.22977113
0.11958261
-0.02214427
0.78420307
0.19494938
-0.30219076
-0.20459059
-0.23243950
-0.65705346
-0.67726318
-0.41313289
0.30702073
-0.45227570
0.34897955
0.36554128
-0.20049309
-0.33152746
0.39251022
-0.30286869
0.21600938
0.16938482
-0.31618157
0.51913903
0.39920166
-0.30451432
0.26026564
0.19098725
-0.14333370
0.35772647
-0.11142753
-0.09201471
-0.70762166
-0.09676018
-0.11484665
0.02386409
0.61332938
0.10639681
-0.00888162
0.57090420
0.10376445
-0.52588164
0.82151986
-0.33279489
0.22662119
0.67974315
0.30185386
0.05921024
0.17674498
0.22379216
0.37343863
0.05327241
-0.17757203
0.53307114
0.33024087
0.54421447
-0.03957655
-0.06655537
-0.44770567
0.22515943
0.29359560
-0.47505025
0.27933774
-0.36712763
0.29520525
0.22191472
0.26431738
0.14453506
-0.39142397
0.18828461
0.04903677
0.32933625
-0.01032782
-0.48985164
0.30155193
-0.44278598
-0.41044846
-0.34130511
0.40650545
0.48724209
-0.05351690
0.32928638
-0.32864110
-0.51553415
0.09817713
0.44468272
0.46886471
-0.06215546
0.32580838
-0.48192797
0.35902742
-0.23862275
0.44740617
-0.08207470
-0.65853733
0.39510157
0.32513208
-0.23510928
0.03995519
0.33562091
0.29409722
0.46972114
-0.19851019
-0.06406796
-0.29931170
-0.01485310
0.05427823
-0.15430209
0.24330295
-0.15337415
-0.10008415
0.04774369
-0.00103423
-0.18780251
-0.47848742
0.01447437
0.12615883
-0.34230760
-0.24264517
0.20832614
-0.40349359
0.07312301
0.51644888
-0.36170061
0.06896821
-0.33158399
-0.54022429
0.15130634
0.34768448
0.33690945
0.41556881
-0.17162299
-0.04042139
0.10671092
-0.19723539
-0.16143144
-0.49475376
-0.31960174
-0.06598802
-0.42175355
0.35727001
0.29815166
0.32253883
0.44445017
0.21093451
0.41173251
0.10361733
0.25503291
0.37117420
-0.31781233
0.03367417
-0.17731379
-0.25329051
-0.00714709
0.02567961
0.46088728
0.13222559
0.20040094
0.28450391
0.10666340
-0.27525049
0.22255389
0.00976546
-0.18953467
-0.09360625
-0.50179174
0.07693937
0.01247503
-0.31102775
-0.09636493
0.42460961
0.42987600
0.35357239
-0.05869891
-0.02536704
0.40605773
-0.25210077
0.38186482
0.21687924
-0.07669750
0.18430029
-0.19785572
0.17304659
-0.45370517
-0.14942993
0.11339880
0.42568426
0.10444473
-0.04065083
-0.33406181
-0.15867010
-0.15594551
-0.11251105
-0.22988506
0.07886273
-0.37952826
0.32598059
0.13156997
0.31042465
0.20913806
0.47092563
-0.24133110
0.25590843
0.04146172
0.35450405
-0.49352774
-0.04856883
-0.12394324
-0.07553300
0.00577916
-0.66416713
0.42630753
-0.57241648
-0.49603318
0.41751859
0.33566191
-0.35337365
-0.18698235
-0.05739651
0.10543175
0.24239147
0.07447554
0.53651660
-0.23672935
0.06648549
0.17588431
-0.44586390
-0.25489373
0.37841080
-0.14622824
0.20016778
0.47867480
-0.36972164
0.23378870
-0.06566293
0.26527285
0.11074911
0.54371931
-0.56317341
-0.23143574
-0.43043598
0.27378355
-0.44821732
-0.39593060
0.02396731
0.29598769
-0.08404444
-0.10530311
-0.02603915
0.17279528
-0.33975768
-0.33709309
0.30637141
-0.24338949
-0.31629835
-0.28515425
-0.26964273
0.12099516
0.07551233
0.40706456
0.11584014
-0.18642552
-0.07318503
-0.84634255
0.83896043
0.32006001
-0.73332722
-0.32221543
-0.28636575
0.27301337
-0.46488221
-0.13452700
-0.45454546
-0.01553135
-0.15320896
0.43945600
0.13264248
-0.08316940
0.17347632
-0.02472824
0.24574956
-0.01898729
0.49210344
-0.30336693
-0.32843096
0.41989531
0.16629718
0.18779772
-0.26741487
0.68034300
-0.19649239
0.21027023
-0.43732659
0.46804652
-0.39470720
-0.37947189
0.30267950
-0.40712629
0.10156377
-0.43231449
0.16553399
0.09674922
0.22451700
-0.19033480
-0.08226190
0.44466516
0.40907950
0.16817184
-0.10118775
0.10403155
-0.26991640
-0.25417427
0.29150614
-0.00652082
0.48976385
-0.13276476
0.68008585
0.38386112
0.42718101
0.15879550
0.31085425
-0.47164443
-0.00816564
0.49363436
0.32718073
0.35196261
0.20644785
0.55481720
0.36992604
0.14766268
-0.11596965
0.30262468
-0.29141758
-0.29055167
-0.15817692
-0.36357854
0.29300919
0.34166821
0.27974305
0.32367117
0.71663720
-0.29917928
1.14728804
0.61532785
0.05669687
-0.37240487
-0.39442541
-0.59631982
-0.32654977
-0.54972062
-0.46689529
0.18666979
0.00451444
-0.34870540
0.08649552
-0.16265803
0.36907776
-0.37380679
-0.02212670
0.37033377
0.21161961
-0.08541761
-0.05426271
0.12102593
0.28725190
-0.23853830
-0.26388314
0.48804770
0.61702924
-0.46668401
0.41370977
0.02753578
-0.77783121
-0.44925842
-0.36963002
-0.24579597
-0.08642123
-0.80382204
-1.31414675
0.90475913
-0.26911706
0.49543561
-0.33853002
0.85701514
-0.08980788
-0.62616354
0.00325128
-0.16115268
0.41587958
-0.69988875
-0.45864350
0.06039377
-0.01878714
0.36336653
2.25808997
-0.90249272
-0.39690921
0.03840515
0.14877925
-0.44021134
0.38246616
0.50552864
0.28056439
-0.12308914
-0.45094821
0.08748695
-0.23349208
-0.04864917
-1.04352038
-0.42353286
1.51475099
0.59359298
-1.53108224
-0.79170127
-0.55856923
0.66751045
-0.42971021
-1.03041265
0.39172389
-0.12142597
-0.76697216
-0.40683688
0.18804459
0.69041150
-0.47974144
-0.09000642
0.06282292
0.13108841
-1.30875115
-0.11724096
0.98598269
1.14102646
-0.43804365
-0.67959659
0.32434092
-0.62275236
-1.07563060
-0.71004739
-1.29687297
0.08976960
-0.20990360
-1.66891515
-0.52173832
-0.64774621
-0.30895988
-0.91011866
0.78506424
-0.04907682
-0.60686041
-0.01626568
-0.92972476
0.32797347
0.22702572
-0.22217955
0.40158429
1.09172730
-0.33898238
0.29258759
-0.38289769
-0.18543509
-1.43584646
0.20391525
0.22136264
0.74630616
-2.16748184
-0.44738638
0.44354934
-1.20959800
-0.18583712
-0.26767245
0.90511071
0.06810796
-1.13169968
-0.28743235
0.28151911
-0.31408654
0.56292847
0.43024862
-0.41789144
0.18531127
0.99333406
0.02973363
-0.70653719
-0.44668602
-1.69492518
0.17503155
-1.26152054
-0.02329675
-0.79290521
1.35737721
-0.18779090
-1.21703908
0.31642121
-1.02486984
0.21944334
0.61142224
0.19273756
0.31291653
0.28299620
1.22912219
1.14789730
-0.00758738
-0.46355466
0.17231325
-0.92736774
-0.26510183
-1.18014465
0.47373540
-0.17942817
-0.58652148
0.41464516
-0.13996693
-0.53284452
-2.23769825
-1.12279666
-1.47273398
-0.87287478
-0.75344580
-0.76189722
-0.27692116
-0.84395542
1.03360662
0.14006112
0.98043805
-0.52228812
-0.85422729
0.66256791
0.58933004
0.10627193
-1.26823515
0.36649147
-0.84475443
0.41280842
-0.85036605
-0.96062285
0.08399710
-0.40715283
0.02250093
-0.58126007
1.09820759
-0.37823100
-1.21659258
1.25479842
-0.02030966
-0.08286641
-0.71606607
-0.71670662
0.60037546
0.31746237
-0.24917897
-0.50693870
-0.34961755
-0.01856495
0.17540860
-0.07349012
-1.05113918
-0.12003741
0.58032740
0.08977609
-1.55967804
-0.15750257
0.41451235
-0.18705795
0.52943192
-0.28715647
1.62134356
-0.69314815
