0.05445535
0.13843538
0.55278805
-0.03144776
-0.48956555
0.42987728
0.41040978
-0.49855467
-0.18558521
-0.47529134
0.51044207
-0.30244654
0.45633854
0.36118919
-0.40569373
-0.30131052
0.35725368
0.25547360
-0.20435820
0.00504242
0.38465310
0.09129253
-0.20051060
-0.27046540
-0.50577042
0.42613315
-0.21457371
0.18241825
0.68389045
0.34969611
0.25756530
0.30971546
0.25937320
-0.35302264
0.06407965
-0.33490102
-0.23518984
-0.33140393
0.26405233
0.36692096
0.00530670
0.24434328
-0.38323101
-0.64020983
-0.37906794
0.67449058
-0.16868064
0.48388684
0.08369024
0.05538969
-0.14931598
0.40295565
0.68249501
-0.61996296
-0.47990540
-0.70499479
-0.96779660
-0.52085597
0.73684927
0.29775492
0.44382499
0.09452716
0.25497507
0.13132308
-0.47222153
-0.13413142
0.08007211
0.25245546
0.67341241
0.10730899
0.11956787
-0.67174718
0.02634328
-0.12482963
-0.23918236
-0.22882688
-0.10336739
-0.03105063
-0.33493196
-0.19385764
-0.02349453
0.29887419
0.17625303
-0.16868499
-0.47949728
0.14032603
0.44377626
-0.30413604
-0.25966040
0.18857619
0.07302929
0.17930218
0.25580034
-0.24938326
-0.22500961
0.28840814
0.11945317
0.40885461
0.17342158
0.45168380
-0.37544347
0.10455776
-0.22745075
0.07059808
-0.46048316
0.23566317
0.52766515
0.00720253
0.21050635
0.38091330
0.33520560
0.30262190
-0.11247856
0.44392521
-0.18582170
-0.22043205
-0.22355398
0.38812350
0.52932302
-0.45762171
0.04500337
-0.14720239
-0.21469365
-0.10273969
0.28748447
-0.30978742
0.05812072
-0.26647715
-0.11714420
-0.36886315
-0.39047634
0.28045713
-0.07159021
-0.21077453
0.19984330
0.32070107
0.10756215
-0.07428849
0.14198508
-0.31731723
-0.38235975
-0.39690220
0.25268541
0.36998627
-0.71726330
0.30875942
0.08471205
-0.34089171
0.25648188
0.42981906
0.12403766
-0.30167477
0.36361480
-0.15527457
0.15295485
0.24373324
-0.02248190
-0.12393400
-0.22238411
-0.10033737
0.51015716
-0.45664646
-0.13767923
-0.14475946
0.50498799
-0.32254374
-0.12358464
-0.47944061
-0.25473666
0.25005532
0.29638543
-0.17782645
0.18979647
-0.18236925
0.08855516
-0.39507219
0.15421521
-0.39742935
-0.35885367
-0.48822103
0.39011106
0.34803267
0.40225110
0.12246357
0.09854013
-0.04059064
0.45039719
0.02258014
-0.38178840
-0.20655696
-0.48306651
-0.28585890
0.36351049
-0.55673965
-0.27086836
0.19943925
0.20312329
0.17676458
-0.40095339
0.09643652
-0.31580412
0.44247134
-0.21234910
-0.11125135
-0.26505912
0.34928953
-0.37828857
0.16749005
-0.35905800
0.30122557
-0.34089657
-0.00019580
-0.09001270
0.28855331
0.49124258
0.11048264
0.50849134
-0.06433135
0.40912806
0.47011081
-0.11966691
-0.01228068
0.15824293
0.48456133
-0.53670960
-0.30126170
-0.32824815
-0.20985324
-0.09561215
-0.11120296
-0.04906197
0.32520058
0.37063341
-0.34352162
0.04405920
0.06022142
0.48969940
0.13568101
-0.41405758
0.28366568
-0.39352770
-0.13516778
-0.31611320
0.09685139
0.42119543
-0.01844211
0.24759849
-0.31240155
-0.11787212
-0.39569332
-0.40850411
-0.25990260
-0.35483235
0.31548423
-0.26352421
0.16515231
-0.04081728
0.29127360
-0.46680613
0.21085471
-0.66366547
0.74190717
0.67406569
0.74290528
0.90676575
0.42775356
-0.79486921
-0.30709543
-0.40566847
-0.71069688
0.26123699
-0.72563455
0.74592956
-0.40701441
-0.21547318
-0.12949092
-0.13089562
-0.12094656
-0.09737776
0.02735177
-0.06648865
-0.13541643
-0.17136601
0.04378695
-0.42426451
-0.37478430
0.18008970
-0.12628308
0.54749455
0.72427548
0.28881970
-0.29070862
0.14500817
0.25042001
0.05432352
0.17938172
0.35613094
0.37071384
-0.01991720
0.49951092
-0.46664379
-0.20706080
-0.50954658
-0.05167533
-0.21209514
0.11416080
0.05669493
-0.37718984
-0.27929614
0.10841700
0.02815845
-0.16659180
-0.27831450
-0.27561955
-0.17434070
-0.28702558
-0.46483671
0.27283060
0.09893592
-0.58671553
0.33006348
-0.11435380
-0.38174053
-0.31201430
0.30515136
-0.00307271
0.35709269
0.60200010
0.33941736
-0.20385833
0.32040741
0.17106719
-0.25630049
0.34154346
0.47995169
0.56920256
0.40989681
0.13490331
0.44883842
0.14057194
0.28232185
-0.42083881
0.43234636
0.38470289
0.21777602
0.14667389
-0.03527293
-0.08080285
-0.45784998
-0.30847011
0.46594601
0.36317127
-0.26364601
0.51591854
0.24668720
0.39743032
-0.08395165
-0.20834755
-0.33653769
-0.09243199
0.37732185
0.03830518
-0.35548655
-0.13416393
0.30077791
-0.00481271
0.58213759
-0.46320485
0.29045574
-0.13257730
0.12474520
-0.38540576
0.43073217
-0.18099339
-0.32655092
0.00288419
0.26023309
-0.28932853
-0.35318075
0.47872533
0.47976187
0.07334265
-0.01741731
0.09443671
-0.25105490
-0.02913695
-0.10085796
0.13509077
0.02713863
-0.02445869
-0.32964959
0.24348409
-0.24115082
0.34233423
0.71503609
0.16104432
-0.55164341
-0.10684766
0.39619113
-0.07818276
-0.44024865
-0.56038339
-0.35811575
0.24764265
-0.03980559
0.10598765
0.52652723
0.53078839
0.29777341
-0.47661417
0.19873454
-0.53465650
0.40385255
-0.17253503
-0.48570433
0.42692175
-0.29298186
-0.48164629
0.16743955
-0.19482669
0.02382485
0.42655522
-0.17498839
0.32178944
0.31204128
0.34312787
0.28309812
-0.21573494
0.21017938
-0.18241131
-0.08454556
-0.37864092
-0.42975449
0.42931612
-0.12353531
0.34637621
0.13790362
0.20592867
-0.06592944
0.54063343
-0.26528105
0.32614571
-0.35292864
0.14624535
0.17281236
-0.45433061
0.48160464
-0.42652039
-0.45964174
-0.23581510
0.24097784
0.03628904
0.26272274
-0.05357782
-0.37531154
0.31281227
0.18585295
0.40874418
-1.00559528
-0.74538744
-0.28006945
0.83877795
-0.79826034
0.33851762
-0.20283511
0.53699243
0.34404730
0.02662291
0.19360215
-0.21811233
-0.50177880
0.55639064
0.40742428
-0.08962001
0.08524970
0.03016288
-0.37343412
0.44719449
0.28002566
-0.19288271
0.16005264
0.01055583
-0.26539104
0.37362448
0.35994989
0.21179500
-0.00355312
-0.06697685
-0.28386862
-0.11695125
-0.45687829
0.23158485
0.10595118
0.07539903
0.38143877
0.47780733
-0.47869837
-0.11402860
-0.29129942
0.14323960
0.44030738
0.31438766
-0.25111676
-0.33577749
-0.43372735
0.41496823
0.22392956
0.13262906
0.09981434
0.24031506
0.28778951
0.29745936
-0.04756071
-0.25564832
-0.38342700
-0.09425086
-0.24564964
0.32227893
-0.44697746
-0.31819137
-0.15679735
0.26859771
0.55619365
0.01510905
0.39656888
0.35334936
0.12231443
-0.12025088
-0.22367430
0.08408216
0.33095614
0.39507351
0.36418042
-0.09396513
0.45914841
0.16663115
-0.40797654
0.51967279
0.14995263
0.17725702
0.25707074
-0.21988188
-0.17975037
0.16183156
0.02391570
-0.25768249
0.22684560
-0.05917919
-0.11108626
0.33295518
0.48793491
-0.17893359
-0.78583396
-0.21740685
-0.63853738
-0.17030266
0.31634609
-0.42724571
-0.38766575
0.26952713
0.34000211
-0.61672391
-0.30541723
0.39209259
-0.19356076
0.00934033
-0.12215953
-0.21071839
0.30598361
-0.04953231
0.17539461
0.12764472
-0.18733698
0.40396520
-0.23621200
0.41238603
0.19702416
0.48382619
-0.46908446
0.14383021
0.10210413
0.18301682
0.19476402
0.04533264
0.07133496
-0.38775398
-0.38053456
-0.12954000
0.05957851
-0.13652747
0.41533839
0.33056772
0.31235822
0.21514547
-0.06314206
-0.06317569
0.40493338
0.11159600
-0.05474805
-0.02975426
-0.01426834
-0.40208347
-0.23889742
-0.41764053
0.03270225
0.17092173
-0.28078976
0.26318754
-0.46461122
0.17309092
-0.30928646
0.10813381
-0.12839026
-0.21447578
0.14671473
0.61450349
0.47105113
-0.48033301
0.26101713
-0.58823812
0.19726337
-0.18745587
-0.08920787
0.48558339
-0.07164818
-0.21643719
0.18971404
0.09883964
-0.67754726
-0.41849136
0.73173296
0.30959153
0.01148942
0.49508231
-0.26375713
0.24864081
0.39177034
-0.10098751
0.05134955
-0.42249926
0.20480758
0.03952587
0.28758043
0.36283482
-0.14672513
-0.26495760
-0.11599896
0.07695739
0.39566619
0.02192372
0.34667191
-0.77536778
0.00013848
-0.08202176
-0.32933614
-0.37663216
0.45782303
0.48593069
-0.30831869
0.23621424
-0.15093511
0.04421803
0.18840770
-0.01127539
-0.19170145
0.26980627
0.41675254
0.21675394
0.12374664
0.00802365
0.25163985
-0.50731684
0.17665159
0.20511224
0.27207248
-0.13041807
0.24818162
0.11688208
0.24163716
-0.27075843
0.45665676
-0.36514280
0.07928679
-0.04153635
-0.18893017
0.45808141
0.32412741
0.36049523
0.51333872
-0.34419728
0.26457480
0.35773051
0.34363834
-0.09654600
0.04676299
-0.32521551
0.38822082
0.03434594
-0.47348922
-0.15040939
0.02380457
0.40120747
0.25529213
0.43565837
0.57232363
0.22978527
0.71315841
-0.30318729
-0.76141525
0.09118992
-0.12128872
-0.17566436
0.10404189
-0.64066986
0.36685871
-0.21199175
-0.04492658
0.04795194
-0.52375169
-0.24139080
-0.24620441
0.04913025
0.02340207
-0.06734533
-0.11514367
-0.21793487
0.54841262
0.32123941
0.22766208
-0.16734317
0.21856058
0.04694675
-0.38190875
-0.33715583
0.07441223
-0.10089783
0.39072432
0.25928690
0.03840069
-0.37333536
0.01707166
0.35593152
0.24514002
0.18342421
-0.14701216
0.58471680
0.43959848
-0.14185390
0.15126217
0.45576156
-0.12629964
0.09767627
-0.06303025
-0.33219711
-0.23049250
0.05569171
0.42042001
-0.07246922
-0.39953824
0.35327303
0.71203394
0.27403221
0.23857971
-0.44756924
0.38890266
0.52521960
-0.05545777
0.09063656
0.32218191
0.63840585
-0.55335676
-0.32408348
0.12318746
0.64859536
0.19562564
0.72086057
0.23444178
0.19124523
-0.07856964
0.00600234
-0.09903421
0.23991243
0.33290485
0.06899923
0.46314926
0.36871497
-0.36495687
0.43880832
-0.32318202
-0.33273405
-0.23088374
-0.14134938
0.36972662
-0.14416277
-0.21827838
-0.31617647
-0.47829482
-0.41969023
0.25595630
0.02142968
-0.39589068
0.15700053
0.15863380
0.32670312
0.43103880
0.14383622
-0.16792439
-0.09175640
-0.19609090
0.25552366
0.23343157
0.24252018
-0.57431201
-0.11378837
0.39630029
0.19235274
-0.28371353
-0.20785519
-0.10327430
0.04449727
-0.39368151
0.13713790
0.39300564
0.33974979
0.09768708
0.50144185
0.12550854
-0.25920469
0.17327300
-0.29901860
-0.06861730
0.14355456
0.38742496
-0.06190310
0.30863311
0.22791000
-0.21360412
-0.22736307
0.45329385
-0.21190877
-0.03585322
-0.35374918
0.46355454
-0.20406871
-0.18069797
0.23308831
-0.38445909
0.12776297
-0.28437588
0.23237665
-0.39358549
0.38421183
0.38588102
0.00223774
0.13595639
0.14179963
0.24124522
-0.02183130
0.39388823
-0.44632574
0.22063491
-0.27271530
-0.18636963
0.39831381
0.36197510
0.18878710
0.48308839
0.32793749
0.09819584
-0.43580700
-0.37471859
0.07670061
-0.25163439
0.29341875
-0.18683337
-0.38567215
0.07853982
-0.33401878
0.40601277
-0.19366077
-0.42745882
-0.31801806
-0.43475036
-0.47782145
0.20138263
0.23348137
0.19496094
0.61381384
0.63378285
-0.07282913
-0.43490020
-0.25701968
0.10358015
-0.48828251
0.27381806
-0.27629293
-0.44063350
0.35128155
-0.32663045
-0.23925005
-0.45138383
-0.15201138
0.37677579
-0.12218595
-0.27224933
0.00394925
-0.26148745
-0.46785296
-0.39323991
-0.23799717
-0.34960366
0.33181467
0.02072213
0.37377402
-0.24951198
-0.42862725
0.34581102
0.27192887
-0.09029524
-0.06635898
0.18895652
-0.14012510
0.20669622
-0.23943961
-0.03525577
0.00723430
-0.47584469
-0.03015952
0.11376812
0.39890601
0.37506231
-0.18922813
0.15706329
0.40651202
0.00083617
0.12165180
0.13289809
-0.52078764
-0.08124666
-0.17212670
0.06584504
-0.49600765
-0.39780330
0.36587593
-0.24744406
0.13665533
-0.34820103
0.29725185
-0.26737896
0.00480743
-0.00783222
0.55565397
-0.35269895
-0.40799703
0.23923169
-0.09898227
-0.46674786
0.02624683
-0.22513642
0.05856454
0.54128939
0.40111243
0.00897355
-0.26396861
-0.34990390
0.04226607
0.21113051
-0.19880559
-0.07116447
0.42128603
0.20759517
-0.03817093
0.09758883
-0.05321159
0.00967128
0.36594141
-0.58290892
-0.50472811
0.48732745
0.55652406
-0.23330886
0.06641191
0.30229282
-0.69697706
0.22625737
-0.23508442
0.34302873
-0.44667865
-0.35326766
0.39675135
0.51679896
0.36677295
0.40148629
0.14109494
-0.37889389
0.11718927
0.17904517
-0.37698029
0.40899721
0.17430352
-0.03466691
-0.19639628
-0.25643540
-0.12372128
-0.35384690
0.03305568
0.21887036
-0.14327275
0.29742368
-0.21929308
-0.26745262
-0.07953344
-0.36606519
0.01755761
-0.53358359
0.23870524
-0.10333052
0.72886658
0.96044347
0.62222775
-0.73067736
0.27676666
-0.11516253
-0.50426201
-0.34349142
-0.38130601
0.29377866
-0.01836193
-0.09091056
-0.12054362
-0.35924530
0.39784101
-0.16393734
0.40161551
-0.06800542
0.41225343
0.48942716
-0.37057600
-0.44623282
-0.09402298
0.24883473
-0.07979976
0.00792251
0.36767667
0.18671387
-0.09190680
-0.16492753
-0.01524250
-0.42787369
-0.15553709
0.40779363
-0.23666541
-0.13583671
0.31457700
-0.73879700
-0.26442623
0.26658288
0.16620203
-0.09590481
0.09381597
0.47136854
0.01087292
-0.08615542
-0.41584946
0.30386482
-0.38054471
-0.27108342
0.05445367
-0.00053528
-0.39520921
0.24042367
0.07976064
0.27817448
-0.35379051
-0.30009499
-0.38985396
-0.45442182
-0.05362564
-0.16997367
0.21219583
-0.51941526
0.06813460
0.09228247
0.00062004
-0.32523035
-0.05741941
0.56097090
0.32716417
0.33182248
-0.46168777
-0.35530257
-0.06447431
-0.18551896
-0.10985670
-0.18376165
-0.44008402
0.04007322
0.28463055
0.40405536
-0.57853593
0.29377364
0.36218234
0.34091485
0.40246994
-0.19224016
-0.03703590
-0.26873256
0.26755275
0.11483153
0.02316842
0.17892316
0.48855301
0.19355885
0.08306217
0.34758109
0.10784038
-0.18400803
0.08726127
-0.40294219
-0.38412178
0.41122566
0.01843306
-0.21059407
-0.44633639
0.16782834
-0.04610616
-0.08172792
-0.28712913
-0.14347916
-0.20497992
0.36202570
-0.27891011
-0.05838781
-0.37848387
-0.52609633
-0.32544864
-0.37616075
0.56916087
-0.21501686
0.06089160
-0.28508147
0.23508049
0.45404447
0.31370816
-0.50155580
0.55578074
-0.35315709
0.34419735
0.28956746
-0.10847753
0.13340117
-0.47528781
-0.31196396
-0.28192920
-0.37075502
-0.31102587
0.11444577
0.53926718
0.49249832
-0.40757239
-0.33399762
-0.33993627
0.01823135
-0.27545994
-0.23297359
-0.26109856
-0.33951238
0.24432448
-0.36928847
-0.04262991
-0.33818966
-0.41428776
-0.44271767
0.12337794
0.46401758
-0.05319705
-0.45285002
0.35995542
-0.22731761
-0.06877723
0.39180395
0.29085960
-0.16556123
0.05597409
-0.49589888
-0.44950886
-0.45785168
0.10826318
-0.19197171
-0.21967470
0.47475611
0.38173675
-0.44073841
-0.05204580
-0.17535226
0.20720561
0.33921710
-0.39125791
-0.07528544
-0.00122554
-0.15135480
0.42077906
-0.38917227
-0.22667313
-0.19897466
0.23446499
-0.13915008
0.10197397
0.37348960
0.44249519
-0.30136883
0.52470247
-0.07220177
-0.27301490
-0.54332067
-0.13453202
-0.32530243
0.02453166
-0.37099718
0.30934920
0.21214192
0.35941537
0.45850206
0.42203334
-0.16077316
-0.04010883
-0.34950427
-0.25879463
-0.40731837
-0.12883154
-0.12444113
0.34527246
0.25951849
0.34328393
-0.11916443
0.05324253
0.33985557
0.76912400
-0.84424430
-0.49145900
0.40624680
0.37791963
-0.61491496
0.58223460
-0.18300560
0.15677980
-0.12063055
0.25715250
-0.22188254
-0.06619846
0.25334071
0.26212328
-0.13713528
-0.26276778
0.16217073
0.17763574
0.02309441
-0.31494988
-0.18228324
-0.42443034
-0.20598621
0.41650497
-0.66847242
0.58034422
0.42655731
-0.28277840
-0.05472747
-0.03107390
0.22594639
-0.39840486
-0.48439643
0.14296639
0.07112628
-0.28948466
0.19296366
-0.43413173
-0.35038093
-0.23137044
0.26573839
0.31844845
-0.30086620
0.38074151
-0.24312175
0.47168948
-0.04564499
-0.33116965
-0.40191573
-0.17533941
0.50880924
-0.34666370
0.01165134
-0.20198484
-0.00954865
0.15996513
0.41836770
-0.10974864
-0.22242523
-0.09223879
0.03941013
0.05209367
-0.38755137
0.16968021
-0.14282289
0.11911542
0.58829746
0.03358611
-0.70042573
0.50931599
-0.06582017
-0.23372247
-0.22394860
0.12637663
-0.13223136
-0.44490062
-0.08775065
0.37652174
-0.44258668
-0.38560013
-0.32961698
0.22263840
0.05106480
-0.02856371
0.42156020
0.31088532
-0.25169791
-0.16570522
-0.10120756
-0.39040318
-0.07082451
-0.41290475
0.24102362
0.47710660
0.46154086
0.20975927
0.12675413
-0.36279543
-0.46582368
0.40832735
-0.00440362
0.44447689
-0.39574112
-0.23629789
0.35748327
-0.26533143
0.06985185
-0.39841219
-0.11877411
-0.45800091
-0.04709558
0.33877117
0.37105481
-0.03064653
-0.26916694
-0.14541736
-0.43122789
-0.68865716
-0.76097694
-0.47184039
0.80899410
-0.47404700
-0.08875955
-0.05063562
0.56269607
0.36382325
-0.16274737
-0.25507543
0.17763085
-0.48006076
0.15278885
0.63425593
-0.39983772
-0.00287431
0.39910358
-0.36380496
-0.43297819
0.19537743
-0.16634995
0.33222157
-0.32532497
0.19178959
0.50695462
0.44759423
0.05271501
-0.19699966
0.34991112
0.17386643
0.43279745
0.47856465
0.21573816
-0.32081260
0.13271028
-0.25548987
0.16111128
-0.03296000
-0.50909171
-0.28533221
-0.02219412
0.35836436
-0.50002627
0.16442115
-0.29887465
0.01647756
0.02698904
0.18330984
0.07069421
0.05232018
0.60530562
0.40251386
0.12649901
-0.51298513
-0.34074902
0.13891310
-0.34632239
-0.29820148
0.25586031
-0.38832250
0.32524100
-0.16446969
0.36459438
-0.26989305
0.46633168
-0.15984866
0.46672368
0.21518742
0.28165024
0.09426465
-0.24943882
0.35918792
0.37519657
0.57177052
-0.03316131
-0.25846040
-0.17488308
0.10541808
-0.03779244
0.25966200
0.43935066
-0.49306154
0.26070695
-0.22860360
-0.24629139
0.38482229
-0.09778596
-0.45921556
0.49676424
-0.06134092
-0.43605325
0.03207003
-0.08651292
0.35421467
-0.19431404
-0.34488688
-0.44460786
-0.31350693
0.04891974
0.25992535
0.41405397
0.04740732
0.46399919
0.39609781
0.51660348
0.16302487
-0.35766975
0.51459629
0.13449048
0.38680108
-0.37967207
0.40894160
0.25317056
0.13476212
-0.32575817
-0.33130851
0.02454306
0.48417210
0.15852404
0.50606474
-0.33465338
-0.03155632
-0.21755352
0.45456621
-0.38910286
0.15955349
0.43761359
-0.26144004
0.56291005
0.30330976
0.20201063
0.08743122
-0.03182306
-0.43477973
0.09051889
-0.49046768
0.07409830
0.42678156
0.09090581
-0.41420938
-0.13367718
-0.38220303
0.55304943
0.59387584
0.37765933
0.08171705
0.49337508
-0.66428338
0.35492169
-0.23888996
0.21643799
0.15120003
0.33730320
0.07788285
0.61093065
0.56867930
0.47728433
-0.31045720
0.27236126
-0.21331624
-0.40228658
-0.20357608
-0.11639743
0.13371202
-0.45846373
-0.41594445
-0.43587582
-0.48381207
0.14413834
-0.10421931
0.42105749
-0.46578273
0.26465887
0.33585528
0.42012079
0.40364862
-0.49281818
-0.34973832
-0.47457048
-0.04813559
0.36649585
-0.38091805
0.17229632
0.18088358
-0.07785704
0.14174495
0.40181783
-0.45454617
0.43082048
-0.22196147
-0.02022590
0.04552354
-0.60900467
0.03500911
-0.20582851
-0.45680135
-0.19721775
0.34594653
0.42710964
-0.08926272
-0.47596108
0.18521745
-0.16459236
0.25621712
-0.41885254
-0.20327377
-0.35976007
-0.07401364
0.37401042
-0.39791619
0.22304372
0.04395304
-0.30725463
-0.09088726
0.16159149
0.38841778
0.35335761
0.25467168
0.29218373
-0.06076828
0.27472101
-0.54976451
0.36654492
0.34266884
0.10399712
0.02333833
-0.29098907
0.39561333
-0.11772741
0.25875834
-0.25379194
0.46553325
-0.45061373
0.47448442
0.44029457
-0.29084755
0.32388372
0.05268270
0.05699832
-0.21046873
0.09407397
-0.29759801
0.08889462
-0.09847702
-0.37512550
-0.52199511
0.01948331
-0.50084328
-0.48872054
0.66465496
-0.61718205
0.68910717
-0.08911863
-0.06619531
0.48564968
0.02019603
-0.20922707
-0.51655095
0.17611992
-0.25040251
-0.48118873
-0.56850558
-0.29836119
-0.17517989
-0.38316163
-0.16344305
0.18446399
0.00532359
-0.48652354
-0.29788455
0.15969755
-0.22458052
-0.38745052
0.49775479
-0.39986621
0.15942920
-0.09777296
-0.27708724
0.48423795
-0.50807608
-0.11742637
-0.28961377
-0.25580409
-0.12643447
-0.63271835
0.34939548
0.61768930
-0.45399696
-0.73312229
0.83481742
-0.81559873
-0.25671023
0.02639399
-0.31184171
-0.33113999
0.41351928
0.26332687
-0.24101506
-0.02553191
0.12842511
-0.18618245
-0.11682672
-0.16556359
-0.42574285
0.43151464
-0.39405607
0.35543199
-0.28623427
0.30835136
-0.69975561
-0.37595319
0.15058671
-0.65193706
0.07857365
0.22331737
-0.07124198
-0.06618763
0.05819643
-0.40016293
0.40534668
-0.22161426
-0.01147216
-0.33345842
-0.18234636
0.07944903
-0.16625344
-0.17421140
0.04634154
0.03520043
-0.08567594
-0.44859217
-0.23375419
0.50084596
0.25743037
0.41926453
0.44529229
-0.22646329
-0.42337222
-0.34000494
-0.45462242
-0.41869244
0.38375769
-0.44384928
-0.36744847
0.17680162
-0.39812492
-0.32989136
-0.09342400
0.44595712
0.10186230
0.21924017
-0.36818963
-0.12806911
-0.12452395
0.44965356
-0.44173117
-0.02891077
-0.00434270
0.01524203
-0.14376879
-0.26446261
0.49143434
-0.45750044
0.09344966
0.43364715
0.01991835
-0.48155491
-0.53205208
-0.42232486
0.24789833
-0.14558752
0.05620717
0.12173498
0.06805450
-0.22251657
-0.06230891
0.10272240
0.13287092
-0.10083970
0.43991156
-0.45635680
-0.35329163
-0.19784818
-0.28684353
-0.21774974
-0.21388116
0.42255424
0.38645252
0.21903221
-0.12680203
-0.01701051
-0.37559278
-0.32931407
0.22521114
-0.29544863
-0.29100611
0.01180131
-0.25513848
0.40157442
-0.26169892
0.16632483
0.09758922
-0.07414268
-0.06425029
0.00983891
0.16540004
0.17968562
0.12736528
-0.25027622
0.01257127
-0.29930842
-0.35466127
-0.27690337
-0.48914129
0.03786494
-0.03516119
0.52193288
0.41567458
-0.41457696
0.18051322
-0.14374510
0.50493007
-0.18153274
0.28510652
-0.49433943
-0.28721886
0.25546741
0.38867449
-0.15734472
0.03896227
0.48974473
-0.37750695
0.20817565
-0.23859566
0.34385328
0.00249139
-0.31813538
-0.47981198
0.05012495
-0.29509249
0.54222156
0.06934552
-0.07445347
0.14183991
-0.17149560
0.19228268
0.10008500
0.21740303
-0.47931755
-0.48967363
0.03816392
0.02461629
-0.41498620
0.22315336
-0.07854109
-0.15072013
-0.18238889
-0.54859820
0.12459248
-0.27479669
-0.40810355
-0.00728168
-0.42202698
0.04538741
-0.12054613
0.45042310
-0.14112369
-0.37049690
-0.03296406
-0.14469993
-0.16676072
-0.16223222
-0.22266869
-0.45895871
-0.14117129
-0.44988329
0.05490625
-0.04423067
-0.34920973
-0.08929273
0.07255290
-0.08401758
-0.23608179
0.13412781
0.25042359
0.34381597
0.12287580
-0.22424106
0.02867524
0.40889496
0.02475999
-0.29713219
0.02188547
-0.29688140
0.30694605
-0.08282778
0.09380580
0.50858783
0.46129087
0.43374774
0.14814106
0.14308393
-0.31288969
-0.03848941
-0.29806728
-0.44349462
-0.44945234
-0.38098606
-0.16742377
0.27427315
-0.26869437
0.10925399
-0.01511852
0.37916565
-0.27413389
0.30250311
-0.45072570
-0.09308756
-0.42051285
-0.26129943
-0.33975479
-0.05962394
0.54168472
-0.48558496
0.33145150
-0.46428084
0.33269097
0.43929575
-0.11532855
-0.22741553
0.05114811
0.15150840
0.74617458
0.31903546
0.23905090
-0.73371889
-0.02185496
0.29619674
0.39316547
0.01080499
-0.42431504
-0.02662368
-0.03973617
0.24080590
-0.29784608
-0.38056419
0.63820172
0.40127372
-0.18830556
0.05490357
0.38690479
-0.14301832
-0.39931556
-0.33349200
-0.38665912
0.14042603
0.03601096
-0.03710527
-0.45377772
0.36364610
0.06116496
0.33385099
0.05289107
0.40848327
-0.16262896
0.51840167
0.03970372
0.45014626
-0.51421425
0.27855357
-0.36281736
0.30070284
0.79911018
-0.08409548
-0.45263481
0.13134615
-0.06151289
0.38271698
-0.45579160
-0.43184849
0.45552219
-0.40527661
0.20045665
0.32888235
-0.25353121
-0.19810057
0.36747113
-0.25404817
0.30578836
-0.07423577
-0.24687911
0.08502807
0.08195928
-0.13320123
0.41922955
0.09494044
0.43002842
0.40318693
-0.42061873
-0.00590589
-0.02202025
0.33072027
-0.34924399
0.15733951
-0.31865440
0.37273578
0.07245327
0.13596043
0.31200577
-0.01198530
0.19857012
-0.52663968
0.41468249
0.43269502
-0.20303283
-0.29143376
0.07727464
-0.36268692
-0.21917679
-0.39151370
-0.22965743
-0.35995661
-0.26460739
0.44173430
0.35178833
0.34110512
-0.62634463
-0.23079226
-0.66488456
-0.23848966
-0.45223304
0.38049017
-0.30552035
-0.08736513
0.04414576
-0.06784126
-0.13075811
-0.13226550
-0.10281911
-0.00813494
-0.27518491
0.02373521
0.33827196
-0.10294411
0.03065442
0.00494253
-0.28502676
-0.26804330
-0.03667282
0.13729568
-0.50090995
-0.41917236
-0.22249671
-0.51299761
0.20864478
-0.02484612
-0.17188457
-0.29178708
0.02349125
0.03748510
0.06413898
0.40054997
-0.02106856
-0.49101847
0.09023779
0.49077345
-0.09455412
0.50070129
-0.29392736
-0.19825664
-0.44937871
-0.01988082
0.30149984
-0.46373630
-0.52786079
-0.30585079
0.31849867
0.21804088
-0.49630485
-0.08624234
-0.42434376
0.33389684
-0.39815243
-0.29973677
0.06649297
-0.24705652
0.34432737
0.18037380
-0.36240652
-0.16295298
0.01650923
0.24311509
-0.05984185
-0.44040858
-0.42378370
-0.41852214
-0.10980921
-0.02488765
-0.33955828
0.43263874
-0.20193402
-0.25620282
0.71094051
-0.45023991
-0.44908657
-0.37335879
-0.12469599
0.27026598
-0.52407144
-0.45911026
-0.20639713
0.18738863
-0.09606368
-0.21239507
-0.52750876
0.06496410
-0.34853239
0.43148144
-0.17432783
-0.37503598
-0.19750297
-0.13285239
-0.08448481
0.02364063
-0.32579881
0.01450198
-0.19920847
-0.63804578
-0.39019895
0.18288262
0.67688693
-0.45857258
-0.36320798
0.01608275
-0.36303330
-0.33606040
-0.13288533
0.00260566
0.35643469
0.48520460
0.45645012
0.65089128
-0.27469687
0.10819202
0.03180501
-0.60032114
-0.23270409
-0.55622501
-0.51918863
-0.16798529
0.15195488
-0.62804659
-0.10079017
-0.40866745
-0.37207579
-0.10569452
-0.13568493
0.10120719
0.38483364
0.06340438
0.36939518
0.43104383
-0.09863036
-0.50998522
-0.41390913
0.35411543
0.06635042
0.29342198
0.38201420
-0.05416385
0.00388880
-0.25489851
-0.37998105
-0.05376463
-0.27220700
-0.42165004
0.18689125
-0.52398775
0.10541939
-0.23750383
0.06869728
0.42109620
0.08170537
-0.30399884
0.32361116
0.35124974
-0.35843722
0.20668711
-0.18723791
-0.51035187
-0.17904817
0.13661134
0.23230310
0.05085263
0.31060307
0.53884928
-0.22409356
-0.45042244
-0.19390198
-0.15479971
0.06895084
0.44522230
-0.40098508
-0.68657952
-0.37405827
0.37850491
-0.12266590
-0.05683165
0.15372086
-0.18364042
-0.66315744
-0.17422280
-0.31917497
-0.26758891
0.10069919
-0.13004955
0.30389891
0.22621658
-0.14623788
0.09665635
-0.13632554
-0.39012113
0.43307316
-0.42208447
0.15531613
-0.41771889
0.29235384
0.25265017
0.05326145
-0.27951693
-0.36368971
0.45876207
0.43359602
-0.36213441
-0.51179962
0.58909341
-0.11030690
0.43217293
0.07095901
-0.04018695
-0.42258754
0.02228025
-0.37365144
0.20554371
-0.39806513
-0.16333707
0.30019611
-0.21716744
0.29115236
0.05020062
-0.35245834
-0.00999835
0.24213202
-0.15456162
0.25272236
0.19589216
0.39439548
-0.51646191
-0.13055552
-0.14312474
-0.36743039
0.29341634
0.55072285
0.39996172
0.26263507
-0.29403593
0.37032970
-0.08656829
-0.02137883
0.27254094
-0.44352954
-0.42430325
0.37977936
0.63616486
0.21933506
-0.27955137
-0.07511562
0.56288583
-0.45071275
0.26275939
-0.05753009
0.25353000
0.46126447
-0.23593490
-0.50405934
0.04092067
0.04564828
-0.55612794
-0.31480711
-0.45493600
0.45984375
-0.25614307
0.45488104
0.33424575
-0.43386462
-0.31146350
0.25130577
-0.22301512
0.17598144
0.26899346
-0.35113380
0.56343159
0.48783647
-0.22633353
0.25900541
0.20993928
-0.11988237
-0.10292038
-0.03785379
-0.18629649
-0.39121931
-0.31253788
-0.01543825
-0.20731045
0.49700710
0.28249304
0.05184798
0.36190674
0.12482818
-0.34151890
0.77293711
-0.06838609
0.53585496
0.45790406
0.34063539
-0.12145341
0.07594185
0.33793563
0.26765989
0.03530702
-0.06597041
0.55224160
0.19647358
0.19663608
0.19004882
-0.23170478
-0.25426054
0.22838833
0.41194415
-0.57825372
0.43998351
-0.34082730
0.42276786
0.19435310
0.33452889
0.26151325
-0.24021469
0.06187146
0.17964485
0.30945869
0.04601977
-0.63259871
0.42001451
-0.55221887
-0.46073979
-0.41907684
0.33183615
0.46408527
0.11707026
0.37059516
-0.18192853
-0.45657759
0.06978721
0.38594598
0.55113845
-0.20193563
0.31957037
-0.38584889
0.42819677
-0.31064581
0.50354492
-0.08197361
-0.45564800
0.22125464
0.29736363
-0.23053916
0.10251750
0.40713620
0.37781782
0.44503205
-0.14199503
-0.05610246
-0.36593226
-0.00457594
0.01201986
-0.15233773
0.09405172
-0.34841782
-0.35444520
0.10842347
0.21316665
-0.18212899
-0.30327237
-0.01651497
0.18336041
-0.18966944
-0.25489831
0.07860389
-0.42072381
-0.08150292
0.33110134
-0.42601788
0.13176223
-0.20700634
-0.50973029
0.29691488
0.34971348
0.39318967
0.51558855
-0.15311201
-0.06480223
-0.11860742
-0.25694275
-0.42783502
-0.52187934
-0.36404424
0.23684353
-0.58053176
0.49540806
0.42050027
0.47531208
0.51911666
0.22505324
0.43098922
-0.03550197
0.29406414
0.43182311
-0.17795154
-0.03912906
-0.25819323
-0.23483803
-0.10920786
0.03152625
0.41605784
0.04381053
0.17966147
0.29818322
0.04695130
-0.24373107
0.22512264
0.05724757
-0.20548603
-0.10995170
-0.45972722
0.05344597
0.03637384
-0.31154415
-0.17103710
0.42087004
0.38810415
0.20009624
0.02660138
-0.03823680
0.60305239
-0.26806039
0.34406320
0.24093912
-0.09300712
0.19879682
-0.18531517
0.09680118
-0.44026931
-0.15863371
0.16541175
0.37171121
0.16601040
0.06116108
-0.28660544
-0.19960161
-0.07531591
-0.09711684
-0.23897452
0.07678407
-0.39521745
0.34337219
0.17396327
0.34162863
0.17850868
0.46924151
-0.27638475
0.26319982
0.04207709
0.36355796
-0.49922242
-0.04395311
-0.12518700
-0.07816436
0.00345939
-0.53134317
0.33179199
-0.18629830
-0.11872698
0.61330449
0.17767197
-0.64555602
-0.28886424
-0.29214481
0.05302125
0.12846544
-0.14890405
0.58076045
-0.17198010
0.14454618
0.32847030
-0.82916296
-0.55537700
0.39886901
0.18286085
0.00552629
0.72800253
-0.35176773
0.40043790
0.00266770
0.33261110
0.22027223
0.50646694
-0.37485587
-0.15473012
-0.46640568
0.27398745
-0.48078695
-0.40945254
0.05115246
0.26217666
-0.08830835
-0.04986117
-0.02620592
0.14970800
-0.31859323
-0.40696045
0.21502072
-0.22220941
-0.27656125
-0.21184105
-0.24509516
0.18687527
0.10467471
0.45499354
0.16127763
-0.17588379
-0.15333764
-0.66422005
0.41919513
-0.04875894
-0.54710787
-0.27686259
-0.06338819
0.45198988
-0.57429136
0.02164327
-0.39158202
-0.16175317
-0.19988012
0.45487953
0.14283996
-0.12098829
0.14659076
-0.00256865
0.25680818
0.00295098
0.49666726
-0.30408797
-0.30619494
0.43872357
0.14515213
0.19216185
-0.27687949
0.54239939
0.00535224
0.18123126
-0.30290184
0.54360153
-0.40778041
-0.42482270
0.41020337
-0.40254743
0.18039776
-0.41045690
0.21843202
0.08528713
0.14187527
-0.15941719
-0.09133999
0.59874591
0.40470270
0.17056232
-0.08375851
0.09082424
-0.22764293
-0.22683312
0.23002947
0.00330316
0.39279095
0.08855489
0.63489507
0.62746275
0.45657914
0.26492237
0.19126669
-0.30983954
0.12424061
0.45523764
0.30774929
0.34631754
0.32408908
0.52254843
0.34042235
0.31088711
0.05066881
0.67270929
-0.25205899
-0.53049023
0.00045311
-0.49864054
0.30972310
0.28182962
0.09740294
0.35002223
0.20177035
-0.25078544
0.49313679
0.23264682
0.17673059
-0.16385984
-0.23637170
-0.29468191
-0.11458113
-0.50653105
-0.38950755
0.26599878
0.08505047
-0.21737427
0.09126653
-0.15218180
0.43474348
-0.35860282
-0.09611141
0.36822580
0.14104246
-0.22712109
0.01504584
0.12720248
0.13989029
-0.23575232
-0.29491615
0.61626762
-0.45516834
-0.85867889
1.05467741
1.80541190
-1.23690106
-0.43143337
0.14529389
-0.30532094
-0.46209631
-0.17400490
-0.82018671
0.21428648
-0.41210350
-0.79850068
-0.00294503
0.74136101
0.25895189
-0.38783539
0.32747163
-2.37122444
0.04646589
-0.89891959
-0.08900111
0.52160934
0.55398235
-0.12283161
0.07087053
-0.55194090
-0.21800828
-1.08126588
-1.17006851
-0.16218117
0.64294270
0.18474447
1.86278834
-0.68157300
-0.37861644
-0.29814102
-0.65847628
-0.24803764
-0.38537579
-1.33383182
0.64870102
0.50391083
-0.19616487
-0.06990408
-1.14041244
0.68022166
0.18206666
-1.09420699
-0.45117276
-0.09613142
-0.65747688
-1.53258089
0.48465218
0.14936196
-0.46101240
0.76067079
1.02965517
-0.67842406
0.49344973
-0.58934938
0.00691251
0.28832152
-0.30164644
-0.32593992
-0.24504189
-1.18251722
-0.19245118
-0.39473971
0.16057622
-0.69309602
0.43677303
-0.52648536
-1.25398480
-0.88786630
-0.34261669
-2.02839564
0.52815760
-0.42232575
-0.95140903
-0.10559979
-0.82346746
0.88995296
-0.05927460
-0.04431429
1.08440256
0.47543940
-0.55149707
-0.12956373
-0.28500047
-0.22136409
-0.40619745
0.09174341
1.39869391
-0.14642475
-1.20104254
-0.60392024
-0.10407560
-1.18444297
-0.25566487
-0.11602290
0.05666931
1.52434628
-0.84878430
-0.29621105
0.69198032
-0.99273120
0.54222992
0.57822430
0.23338917
-0.55797277
0.62263375
-0.54204652
-1.08603145
-0.85142803
-0.48400571
0.14079130
-1.02884821
-0.18772279
-0.36169610
0.15123921
1.14524754
-0.88753948
-0.26685000
-1.88437952
0.17953561
0.67961597
0.18424303
-0.02888348
-0.06198944
0.72037342
0.09883733
-0.19858336
-0.08882330
0.13467713
-0.74416311
-0.53054287
-0.99751409
0.30561071
-0.13715549
-0.32064703
0.77165875
0.63136892
-1.18467298
-0.69113342
0.17787643
-1.38593010
-0.19537526
-0.88685439
-0.74623734
-1.15606893
-0.15307176
0.29195621
0.45468909
-0.39741181
-0.19037672
-1.06618862
0.28775801
0.81388368
-1.36315987
-0.76206876
0.27289176
-0.30738801
0.12322036
-0.82990426
-0.83523599
-1.03758713
-0.12401394
0.26019232
0.40619457
0.55694462
0.37886276
0.28444130
0.92451449
0.55839456
-0.92651623
0.49933096
-0.56574602
0.41657017
0.39759753
1.08879421
-0.47190364
-0.37013798
-0.34598610
-0.44979351
-0.27242851
-0.98129889
1.08347542
0.12830859
0.20627141
-1.10164725
-0.12821400
0.46873408
-0.17747313
-0.63871514
-1.07531989
-0.34990922
-0.32762519
